2.330411225557327271e-01,4.383859336376190186e-01,1.170164048671722412e-01,2.360254526138305664e-01,-9.657182544469833374e-02,1.521906256675720215e-01,5.421067029237747192e-02,-1.708151400089263916e-01,8.632471412420272827e-02,9.865395426750183105e-01,-6.245911717414855957e-01,7.247951626777648926e-01,-2.386296093463897705e-01,-5.943249911069869995e-02,-1.944579333066940308e-01,1.339779049158096313e-01,-5.583810210227966309e-01,-2.399542182683944702e-02,2.178859949111938477e+00,-8.729355782270431519e-02,2.471061795949935913e-01,2.443318814039230347e-01,3.887497484683990479e-01,9.640623331069946289e-01,-1.001690179109573364e-01
-4.186573922634124756e-01,8.551152944564819336e-01,-1.378755420446395874e-01,1.268872618675231934e-01,-1.013601794838905334e-01,2.428664714097976685e-01,-5.840247496962547302e-03,-1.729621142148971558e-01,3.165784478187561035e-01,-2.533568255603313446e-02,4.109282977879047394e-03,2.776228785514831543e-01,-1.343095153570175171e-01,-6.511703878641128540e-02,2.282285839319229126e-01,3.557926416397094727e-01,3.180611729621887207e-01,-4.172633215785026550e-02,-4.139203071594238281e+00,4.577667638659477234e-02,-1.089080870151519775e-01,2.647748887538909912e-01,6.019151210784912109e-01,-6.440675854682922363e-01,5.619879066944122314e-02
3.818273246288299561e-01,4.229846596717834473e-01,-3.440119922161102295e-01,-4.177843332290649414e-01,1.757182180881500244e-01,-7.210742682218551636e-02,1.769825369119644165e-01,-1.718776971101760864e-01,4.679856449365615845e-02,2.459658831357955933e-01,1.841527968645095825e-01,8.713324368000030518e-02,1.082873046398162842e-01,2.682178914546966553e-01,3.513284027576446533e-01,1.447541862726211548e-01,-1.938984096050262451e-01,3.317818939685821533e-01,5.192071199417114258e-02,1.781812161207199097e-01,-4.103257060050964355e-01,1.620823442935943604e-01,-1.435548663139343262e-01,1.169703722000122070e+00,2.162783294916152954e-01
6.335063576698303223e-01,1.893837153911590576e-01,-3.503318428993225098e-01,-3.511760532855987549e-01,-3.497207164764404297e-02,1.290190070867538452e-01,1.277073919773101807e-01,-2.107496373355388641e-02,6.489795446395874023e-01,2.714334011077880859e+00,-4.791724085807800293e-01,7.912308573722839355e-01,3.507222831249237061e-01,2.315938100218772888e-02,2.679545581340789795e-01,1.146214380860328674e-01,-1.967270374298095703e-01,-9.152365922927856445e-01,-7.427305579185485840e-01,-8.713848888874053955e-02,-1.209129989147186279e-01,7.554194424301385880e-03,-1.849266886711120605e-01,1.060865759849548340e+00,5.518400669097900391e-01
2.831148207187652588e-01,4.658088982105255127e-01,4.006804525852203369e-01,1.535513848066329956e-01,-8.578264713287353516e-02,-1.243907660245895386e-01,2.550800442695617676e-01,1.329247206449508667e-01,1.019452065229415894e-01,-2.318653762340545654e-01,3.981117606163024902e-01,-2.437942475080490112e-01,7.536779344081878662e-02,-3.156221508979797363e-01,-1.625699102878570557e-01,-5.229187011718750000e-01,-3.704105019569396973e-01,-2.096374183893203735e-01,-2.677011303603649139e-02,5.622560903429985046e-02,3.503879606723785400e-01,-4.766926914453506470e-02,1.482514292001724243e-01,-5.213298201560974121e-01,2.498140782117843628e-01
-1.679004877805709839e-01,4.863357916474342346e-02,-1.366055458784103394e-01,6.722059100866317749e-02,6.739693135023117065e-02,-7.643511146306991577e-02,-1.326916217803955078e-01,-5.310528352856636047e-02,-8.226761966943740845e-02,9.951918572187423706e-02,-1.938290894031524658e-01,1.558964997529983521e-01,-1.385188400745391846e-01,-1.244379281997680664e-01,-1.191671863198280334e-01,-6.182837486267089844e-02,-3.717890754342079163e-02,1.105287075042724609e-01,1.306537687778472900e-01,9.783942997455596924e-02,-6.170172616839408875e-02,-9.884911030530929565e-02,1.134439259767532349e-01,-8.877134323120117188e-02,3.032448329031467438e-02
1.333369016647338867e-01,-1.915840208530426025e-01,8.293581008911132812e-02,-1.022151485085487366e-01,-3.051848523318767548e-02,-8.430027961730957031e-02,-1.594613790512084961e-01,-1.629326306283473969e-02,6.755151599645614624e-02,1.715016365051269531e-01,-1.471599340438842773e-01,8.368644863367080688e-02,1.981047242879867554e-01,-1.729618608951568604e-01,1.854255050420761108e-01,1.162187084555625916e-01,-1.360087841749191284e-01,5.031943321228027344e-02,-7.510381191968917847e-02,-1.407904177904129028e-01,-1.271272152662277222e-01,-1.036404147744178772e-01,-1.068509817123413086e-01,-1.114461198449134827e-01,1.283033639192581177e-01
2.188127338886260986e-01,2.618004381656646729e-01,1.602846682071685791e-01,2.579601407051086426e-01,-9.762101620435714722e-02,-1.966889798641204834e-01,1.743274033069610596e-01,1.578094214200973511e-01,2.385315746068954468e-01,-8.330443501472473145e-02,4.226285591721534729e-02,1.437228322029113770e-01,2.128558605909347534e-01,-1.980028301477432251e-01,-1.544829159975051880e-01,-3.317887783050537109e-01,-1.212115660309791565e-01,1.795075386762619019e-01,-1.477769911289215088e-01,-7.208879292011260986e-02,3.029080033302307129e-01,2.423364520072937012e-01,-2.626757621765136719e-01,2.914933562278747559e-01,1.327323317527770996e-01
1.486625708639621735e-02,-1.713801473379135132e-01,-2.170674875378608704e-02,-1.683811992406845093e-01,7.984752953052520752e-02,-3.327298164367675781e-02,-1.384801417589187622e-01,3.146672248840332031e-02,-1.665172427892684937e-01,-3.625495359301567078e-02,-2.589633502066135406e-02,-1.727719753980636597e-01,8.550544083118438721e-02,2.184887044131755829e-02,-5.312230810523033142e-02,-3.365388140082359314e-02,-3.453645855188369751e-02,-1.248001083731651306e-01,1.251242011785507202e-01,1.967176198959350586e-01,7.928486168384552002e-02,-1.446154154837131500e-02,1.863005459308624268e-01,2.968952618539333344e-02,6.181321293115615845e-02
3.125628829002380371e-01,1.224312543869018555e+00,4.664434790611267090e-01,2.984779477119445801e-01,5.751652643084526062e-02,-3.637008070945739746e-01,8.494393527507781982e-02,-1.206738278269767761e-01,-1.011891514062881470e-01,-1.952482163906097412e-01,2.783918082714080811e-01,4.670259729027748108e-02,6.949149072170257568e-02,-6.765237450599670410e-02,-2.859115004539489746e-01,-3.760574460029602051e-01,1.582973450422286987e-01,7.827642560005187988e-01,4.127214550971984863e-01,-3.679556772112846375e-02,5.257128477096557617e-01,3.961101174354553223e-02,-3.507983386516571045e-01,9.442007541656494141e-02,2.366372942924499512e-01
-7.210990190505981445e-01,-1.758599162101745605e+00,-7.813039422035217285e-02,-6.187146902084350586e-01,1.639373153448104858e-01,4.836299717426300049e-01,-4.860612377524375916e-02,8.610182255506515503e-02,-2.364683598279953003e-01,2.509985268115997314e-01,8.834858983755111694e-02,1.744680702686309814e-01,-3.022401630878448486e-01,3.279187530279159546e-02,5.068605020642280579e-02,3.790223002433776855e-01,5.146783590316772461e-01,2.771918177604675293e-01,2.592680931091308594e+00,1.824443191289901733e-01,-1.073008656501770020e+00,3.460261225700378418e-01,4.573273956775665283e-01,1.290074229240417480e+00,1.198502302169799805e+00
1.356410086154937744e-01,2.531830549240112305e+00,1.000869274139404297e+00,2.717968523502349854e-01,-2.205009572207927704e-02,-1.043397933244705200e-02,1.713386625051498413e-01,1.691349297761917114e-01,9.899030327796936035e-01,7.437599897384643555e-01,7.459699511528015137e-01,5.190875530242919922e-01,7.663583382964134216e-03,-1.882373690605163574e-01,-3.185571432113647461e-01,-1.009034290909767151e-01,-8.577201962471008301e-01,-5.704980492591857910e-01,1.314628720283508301e+00,-1.916771233081817627e-01,3.731802999973297119e-01,3.505995273590087891e-01,-1.326604127883911133e+00,-1.787554502487182617e+00,-2.638994753360748291e-01
-1.961180418729782104e-01,-1.854317039251327515e-01,1.826492547988891602e-01,8.539300411939620972e-02,-3.624341636896133423e-02,-1.582636386156082153e-01,-4.949908331036567688e-02,-1.114641427993774414e-01,4.151273053139448166e-03,-6.473463028669357300e-02,1.491330862045288086e-01,4.155209288001060486e-02,-1.119343563914299011e-01,1.269485056400299072e-01,1.379537628963589668e-03,1.126670613884925842e-01,-1.618909686803817749e-01,3.953561931848526001e-02,-1.667626351118087769e-01,-8.232078701257705688e-02,-1.873791962862014771e-01,3.197989612817764282e-02,-5.461869388818740845e-02,-1.410569697618484497e-01,-7.014956325292587280e-02
-5.103527009487152100e-02,-2.720024108886718750e+00,-9.829010963439941406e+00,-3.247660160064697266e+00,1.752436161041259766e-01,-6.990990787744522095e-02,-6.171107664704322815e-02,-8.534929901361465454e-02,4.177947714924812317e-02,1.541417986154556274e-01,-1.225147396326065063e-01,3.511618077754974365e-01,2.044375240802764893e-02,2.263227552175521851e-01,1.792120486497879028e-01,-2.504670061171054840e-02,2.246040701866149902e-01,4.624061286449432373e-01,6.227733612060546875e+00,5.141937732696533203e-02,2.207852363586425781e+00,-3.005366027355194092e-01,1.270428746938705444e-01,-6.866569072008132935e-02,1.016722559928894043e+00
-5.449195504188537598e-01,2.912283241748809814e-01,-4.255577027797698975e-01,2.552523910999298096e-01,1.045791134238243103e-01,6.997045874595642090e-02,2.408593595027923584e-01,-8.444047532975673676e-03,3.823974728584289551e-02,1.629288792610168457e-01,-5.910787358880043030e-02,3.060170114040374756e-01,-1.069514974951744080e-01,1.054621636867523193e-01,2.272036075592041016e-01,3.227542638778686523e-01,2.065421342849731445e-01,-9.729894250631332397e-02,-1.945268154144287109e+00,6.865523010492324829e-02,-5.097688436508178711e-01,9.844660013914108276e-02,6.826537847518920898e-01,-7.705860137939453125e-01,2.613403797149658203e-01
3.820073306560516357e-01,-1.487156450748443604e-01,-2.124522440135478973e-02,-9.282917529344558716e-02,-3.084657154977321625e-02,-1.570926159620285034e-01,8.214293420314788818e-02,-1.193797588348388672e-01,-3.706744313240051270e-01,8.941037058830261230e-01,1.611323803663253784e-01,-4.658495187759399414e-01,4.258710145950317383e-02,1.802257746458053589e-01,-1.861415654420852661e-01,1.117159128189086914e-01,-1.616584807634353638e-01,2.750793397426605225e-01,-1.206666231155395508e+00,-6.553518772125244141e-02,2.985811531543731689e-01,4.500395804643630981e-02,-1.458427011966705322e-01,4.481666088104248047e-01,5.095694661140441895e-01
6.342153996229171753e-02,1.021456047892570496e-01,-1.876451820135116577e-01,2.747738361358642578e-02,-1.320320814847946167e-01,-1.338567286729812622e-01,-1.033835932612419128e-01,-1.302517205476760864e-01,5.114471912384033203e-02,-8.903973549604415894e-02,-8.955788612365722656e-02,-6.847069412469863892e-02,-1.960669010877609253e-01,-1.507859528064727783e-01,5.763485655188560486e-02,1.009845756925642490e-03,-1.839890778064727783e-01,4.574799537658691406e-02,1.019821912050247192e-01,-7.972694002091884613e-03,1.924464702606201172e-01,1.294386386871337891e-01,-2.402544021606445312e-02,-1.586443483829498291e-01,6.141765043139457703e-02
7.332128286361694336e-01,-1.002325177192687988e+00,-4.791105687618255615e-01,7.577626407146453857e-02,-2.380778826773166656e-02,1.966563239693641663e-02,2.291698604822158813e-01,-1.189823672175407410e-01,-1.007598996162414551e+00,1.552110910415649414e+00,-6.072539687156677246e-01,6.567939519882202148e-01,2.815860807895660400e-01,1.544372439384460449e-01,-1.187208816409111023e-01,-4.202173352241516113e-01,-3.357719257473945618e-02,1.690399497747421265e-01,4.885637462139129639e-01,-1.658555567264556885e-01,-1.305845752358436584e-02,1.712925434112548828e-01,9.890996813774108887e-01,-5.851545929908752441e-01,8.436678051948547363e-01
-2.409565448760986328e-01,9.357377886772155762e-01,-6.387339532375335693e-02,1.361329406499862671e-01,-1.988134235143661499e-01,3.279962241649627686e-01,2.733502388000488281e-01,-2.145049534738063812e-02,-5.913865286856889725e-03,3.283746242523193359e-01,-1.530688703060150146e-01,3.169479072093963623e-01,1.803019344806671143e-01,1.713415086269378662e-01,1.432603597640991211e-01,7.459241896867752075e-02,2.517705857753753662e-01,-2.821603119373321533e-01,-3.056006669998168945e+00,-1.603069603443145752e-01,1.704084575176239014e-01,2.738231122493743896e-01,5.048296451568603516e-01,-5.442093014717102051e-01,-1.655485108494758606e-02
-1.205221004784107208e-02,-8.980808854103088379e-01,-7.888182401657104492e-01,5.561798438429832458e-02,1.797922849655151367e-01,1.788262724876403809e-01,3.163433969020843506e-01,-1.840863227844238281e-01,-3.685895204544067383e-01,2.309735536575317383e+00,-3.668025732040405273e-01,5.773956179618835449e-01,-5.671456083655357361e-02,-2.962523512542247772e-02,-2.954933047294616699e-01,3.775548934936523438e-01,3.052528500556945801e-01,-9.598845243453979492e-02,-2.182008504867553711e+00,-1.584598273038864136e-01,-1.184921264648437500e-01,1.412973105907440186e-01,3.545306622982025146e-01,5.790047645568847656e-01,4.405024945735931396e-01
1.162169799208641052e-01,-2.226345986127853394e-01,-3.590650483965873718e-02,-2.434101551771163940e-01,5.177264288067817688e-02,-3.313115984201431274e-02,6.339728087186813354e-02,-4.880550131201744080e-02,4.060901105403900146e-01,9.683259129524230957e-01,1.117535158991813660e-01,2.698615789413452148e-01,1.379672139883041382e-01,2.783394977450370789e-02,-9.733042865991592407e-02,5.755826085805892944e-02,2.061213403940200806e-01,-2.696948051452636719e-01,-3.293704092502593994e-01,-1.329388469457626343e-01,-1.770481169223785400e-01,2.063419222831726074e-01,1.703648418188095093e-01,7.098812460899353027e-01,2.947719693183898926e-01
-5.271942541003227234e-02,4.004529118537902832e-01,-1.988407783210277557e-02,2.682068943977355957e-01,8.012461476027965546e-03,2.779773473739624023e-01,2.703026235103607178e-01,9.708237834274768829e-03,1.149406880140304565e-01,-1.061625499278306961e-02,-9.727164357900619507e-02,3.943962156772613525e-01,8.911320939660072327e-03,2.889213263988494873e-01,1.522242277860641479e-01,3.291335105895996094e-01,-2.461169101297855377e-02,-2.556579411029815674e-01,-1.157710790634155273e+00,4.037232324481010437e-02,-1.909422427415847778e-01,3.001098930835723877e-01,4.255826175212860107e-01,-7.690863609313964844e-01,-8.504471182823181152e-02
-6.223268508911132812e-01,-4.838272333145141602e-01,5.823278799653053284e-02,2.715437710285186768e-01,-1.869461834430694580e-01,1.566825211048126221e-01,-1.849195659160614014e-01,-6.500325351953506470e-02,3.042650222778320312e-01,9.720714092254638672e-01,1.171722710132598877e-01,3.273496627807617188e-01,-2.159527838230133057e-01,-9.450255334377288818e-02,-1.842254251241683960e-01,2.238989025354385376e-01,4.969873428344726562e-01,-8.688192963600158691e-01,-5.566369891166687012e-01,-3.740985319018363953e-02,-1.217763572931289673e-01,1.910330206155776978e-01,4.866436719894409180e-01,2.000358402729034424e-01,2.601895928382873535e-01
-1.574840992689132690e-01,7.609194517135620117e-02,3.747286647558212280e-02,4.458484053611755371e-02,1.322448253631591797e-02,-1.515186876058578491e-01,-1.099068224430084229e-01,1.794409751892089844e-02,7.109079509973526001e-02,2.832703851163387299e-02,7.274208217859268188e-02,-1.346246898174285889e-01,-1.093143746256828308e-01,-1.427733451128005981e-01,2.235481701791286469e-02,-4.057693760842084885e-03,-1.236409321427345276e-01,-1.390666961669921875e-01,5.647696554660797119e-02,-6.316327955573797226e-03,-1.161378845572471619e-01,1.714580953121185303e-01,8.482422679662704468e-02,1.336200628429651260e-02,9.282388538122177124e-02
4.821386039257049561e-01,9.512699842453002930e-01,-3.897590935230255127e-02,1.217640489339828491e-01,1.752556860446929932e-01,2.210072576999664307e-01,-3.755540773272514343e-02,-1.111406087875366211e-01,3.768640458583831787e-01,6.751631498336791992e-01,2.309546768665313721e-01,6.662150025367736816e-01,-7.533307373523712158e-02,-3.057528138160705566e-01,-8.276007324457168579e-02,-6.706009507179260254e-01,-7.951064109802246094e-01,-6.708925962448120117e-01,-1.603688001632690430e+00,1.833534985780715942e-01,2.335091084241867065e-01,4.863103386014699936e-03,-4.582756161689758301e-01,-2.689168155193328857e-01,-5.076852440834045410e-01
