3.211686760187149048e-02,8.079729676246643066e-01,-3.704366385936737061e-01,-8.814775943756103516e-01,-7.466616481542587280e-02,-1.024609580636024475e-01,6.077966094017028809e-01,-2.834004461765289307e-01,-9.420562982559204102e-01,-2.294743061065673828e-02,-6.179800629615783691e-01,-1.383709162473678589e-01,8.409333229064941406e-02,8.020371794700622559e-01,-7.630705833435058594e-01,-3.119343221187591553e-01,7.827628403902053833e-02,3.320163190364837646e-01,-4.345284402370452881e-01,-1.797721236944198608e-01,1.520130187273025513e-01,5.449249744415283203e-01,1.168548837304115295e-01,-2.317286562174558640e-03,-1.510087698698043823e-01
4.524148255586624146e-02,-1.605096310377120972e-01,-1.197652667760848999e-01,-7.281659543514251709e-02,1.958387643098831177e-01,2.061653137207031250e-02,-7.871969044208526611e-02,5.190777778625488281e-02,1.272159069776535034e-01,7.992918789386749268e-02,4.608555138111114502e-02,-4.511442407965660095e-02,1.648382693529129028e-01,-1.822162717580795288e-01,-1.514551788568496704e-01,1.075589135289192200e-01,1.172058358788490295e-01,-5.886276438832283020e-02,-1.911471486091613770e-01,-1.894258111715316772e-01,1.219132691621780396e-01,2.481317520141601562e-02,-8.312504738569259644e-02,-4.323807358741760254e-02,-1.356876343488693237e-01
-5.235037580132484436e-02,-7.283689826726913452e-02,-1.852887272834777832e-01,-1.357685476541519165e-01,9.818237274885177612e-02,-5.944166332483291626e-02,-1.042247861623764038e-01,8.547459542751312256e-02,-8.635473204776644707e-04,1.308912485837936401e-01,-1.584774106740951538e-01,-3.643606323748826981e-03,2.556419465690851212e-03,3.878377750515937805e-02,6.413207203149795532e-02,-1.479704976081848145e-01,1.809667423367500305e-02,-5.351383611559867859e-02,4.742765054106712341e-02,-7.113645225763320923e-02,1.618544608354568481e-01,-1.180870532989501953e-01,-2.248642407357692719e-02,-2.120257765054702759e-01,-1.973614692687988281e-01
1.540766209363937378e-01,-1.309520453214645386e-01,2.013293206691741943e-01,1.542061716318130493e-01,4.764856696128845215e-01,-1.901664733886718750e-01,2.935695350170135498e-01,-6.667930483818054199e-01,1.270820051431655884e-01,-4.429671913385391235e-02,1.268219500780105591e-01,2.625036537647247314e-01,-3.387122750282287598e-01,1.576815098524093628e-01,4.911629110574722290e-02,2.435517460107803345e-01,-4.944965988397598267e-02,-3.555391728878021240e-01,2.147985994815826416e-01,2.021121419966220856e-02,-6.425052136182785034e-02,-2.252221405506134033e-01,7.468805462121963501e-02,2.032098174095153809e-01,-1.540694292634725571e-02
-3.037621453404426575e-02,4.079228043556213379e-01,-2.783884108066558838e-02,9.977267682552337646e-02,-4.578519761562347412e-01,6.695166975259780884e-02,-3.259688615798950195e-01,-9.248424172401428223e-01,8.559556305408477783e-02,1.413697451353073120e-01,3.416739031672477722e-02,-2.697997093200683594e-01,2.984632253646850586e-01,-3.145690858364105225e-01,-2.180993407964706421e-01,1.502698808908462524e-01,3.355997502803802490e-01,5.534514784812927246e-01,-1.677796691656112671e-01,1.386657506227493286e-01,-1.311098188161849976e-01,5.115206241607666016e-01,4.046034812927246094e-02,2.226306200027465820e-01,7.178392261266708374e-02
1.918938159942626953e-01,-9.631983935832977295e-02,2.905365824699401855e-01,1.668712496757507324e-02,3.026673197746276855e-01,1.746060550212860107e-01,1.775799840688705444e-01,-7.234362363815307617e-01,1.438285112380981445e-01,-1.919130831956863403e-01,3.873541951179504395e-02,2.895024120807647705e-01,-3.153789937496185303e-01,2.649804055690765381e-01,1.077786535024642944e-01,9.385165758430957794e-03,-1.284793913364410400e-01,-3.283270001411437988e-01,1.269843727350234985e-01,1.291878968477249146e-01,2.991490438580513000e-02,-9.027096629142761230e-02,7.441037148237228394e-02,1.265324186533689499e-02,1.644706726074218750e-02
1.108691915869712830e-01,4.824374243617057800e-02,-6.123948842287063599e-02,1.889854818582534790e-01,1.453850269317626953e-01,7.566250860691070557e-02,2.535036504268646240e-01,-9.223093390464782715e-01,2.247372120618820190e-01,-1.619565486907958984e-01,1.792624890804290771e-01,1.627537608146667480e-01,-3.954732716083526611e-01,2.426136285066604614e-01,2.354496866464614868e-01,1.140773817896842957e-01,-7.064090669155120850e-02,-2.718746662139892578e-01,2.910480499267578125e-01,5.452428013086318970e-02,1.203042268753051758e-01,-2.137951254844665527e-01,-4.529924318194389343e-02,1.016412079334259033e-01,-1.812139302492141724e-01
4.756932705640792847e-02,-5.928835645318031311e-02,8.975837379693984985e-03,-2.844526059925556183e-02,3.757858574390411377e-01,1.002971976995468140e-01,-3.532451018691062927e-02,-6.798533201217651367e-01,2.632520198822021484e-01,-3.464474901556968689e-02,1.430405862629413605e-02,3.263092041015625000e-02,-3.804369866847991943e-01,8.344324678182601929e-02,1.916490197181701660e-01,2.339797914028167725e-01,8.248597383499145508e-02,-9.791403263807296753e-02,1.759549826383590698e-01,5.897445604205131531e-02,-9.144027531147003174e-02,-2.184607833623886108e-01,-1.771286576986312866e-01,2.186381071805953979e-01,1.984739154577255249e-01
2.179432213306427002e-01,3.784091770648956299e-02,-1.949411444365978241e-02,1.755064278841018677e-01,2.401013374328613281e-01,7.709249854087829590e-02,-7.807075511664152145e-03,-6.503131985664367676e-01,2.653957009315490723e-01,1.101117879152297974e-01,7.535544037818908691e-02,1.537526398897171021e-01,-1.821687221527099609e-01,1.836367994546890259e-01,2.473867982625961304e-01,2.623931765556335449e-01,-1.606166921555995941e-02,-2.950108051300048828e-01,2.711715102195739746e-01,-5.483336374163627625e-02,8.250701427459716797e-02,-1.493969410657882690e-01,-1.775858700275421143e-01,4.954068735241889954e-02,-1.050361916422843933e-01
2.193847298622131348e-01,-1.239675432443618774e-01,-9.068002551794052124e-02,1.610423177480697632e-01,2.859087884426116943e-01,1.710329949855804443e-01,2.132771909236907959e-01,-7.168750762939453125e-01,-6.275767087936401367e-02,-1.103458926081657410e-01,-4.447602480649948120e-02,2.832178473472595215e-01,-3.243368268013000488e-01,-1.492662075906991959e-02,9.655581414699554443e-02,1.331083476543426514e-01,1.025548726320266724e-01,-3.526081740856170654e-01,2.146342843770980835e-01,1.913424730300903320e-01,9.633483737707138062e-02,-2.265996932983398438e-01,1.543478965759277344e-01,2.060976326465606689e-01,1.459141224622726440e-01
-9.857454895973205566e-02,4.549300074577331543e-01,-1.048121154308319092e-01,-1.288547813892364502e-01,-2.716403603553771973e-01,1.441131830215454102e-01,3.885047137737274170e-02,4.833364784717559814e-01,1.092345044016838074e-01,4.734804853796958923e-02,-2.430503964424133301e-01,-2.829186804592609406e-02,5.604918003082275391e-01,-2.066166698932647705e-01,-1.256167143583297729e-01,1.763677597045898438e-02,2.562101483345031738e-01,4.026544690132141113e-01,-9.355068206787109375e-03,-1.812649518251419067e-01,-5.825548246502876282e-02,4.110310375690460205e-01,6.239090114831924438e-02,2.023280709981918335e-01,-1.191655620932579041e-01
1.665033102035522461e-01,7.098473608493804932e-02,2.938997186720371246e-02,-3.469857573509216309e-02,2.478878796100616455e-01,9.576397389173507690e-02,2.975209653377532959e-01,-6.840572357177734375e-01,1.380615215748548508e-02,-4.282951413188129663e-04,1.782572567462921143e-01,1.368764936923980713e-01,-2.331161350011825562e-01,2.198920398950576782e-01,2.006749063730239868e-01,2.323181778192520142e-01,-1.164550259709358215e-01,-3.459160402417182922e-02,1.873102039098739624e-01,6.947143375873565674e-02,1.794699281454086304e-01,-3.265841603279113770e-01,-1.052520498633384705e-01,1.266847550868988037e-01,-1.199407596141099930e-02
2.200209051370620728e-01,1.553630828857421875e-01,5.577710643410682678e-02,1.196327880024909973e-01,5.325320959091186523e-01,1.707552969455718994e-01,8.002316951751708984e-02,-1.040663719177246094e+00,1.127522662281990051e-01,-8.681786060333251953e-02,-2.621506340801715851e-02,2.986988425254821777e-01,-3.530807793140411377e-01,-5.993178859353065491e-02,1.630739569664001465e-01,2.195741236209869385e-02,8.071650564670562744e-02,-4.273368716239929199e-01,2.652274630963802338e-02,1.139802709221839905e-01,-4.538047313690185547e-02,-9.323929995298385620e-02,-1.445415467023849487e-01,2.536108195781707764e-01,-1.233221292495727539e-01
-1.517568081617355347e-01,1.523081511259078979e-01,5.771031603217124939e-02,8.332569897174835205e-02,-1.491549313068389893e-01,2.057137526571750641e-02,2.102661132812500000e-02,-1.375979036092758179e-01,-1.629699766635894775e-01,-6.525919586420059204e-02,-8.637275546789169312e-02,3.146090731024742126e-02,-4.833829402923583984e-02,1.558120101690292358e-01,-8.359386771917343140e-02,4.505317285656929016e-02,-1.207392960786819458e-01,-1.382928639650344849e-01,-1.549214869737625122e-01,8.810885250568389893e-02,-3.902547433972358704e-02,3.765707090497016907e-02,-4.785203933715820312e-02,2.999613247811794281e-02,1.168853268027305603e-01
3.613616526126861572e-01,1.020771786570549011e-01,-1.823762059211730957e-02,-8.881241083145141602e-03,3.728848695755004883e-01,-3.823223337531089783e-02,1.769004613161087036e-01,6.582053899765014648e-01,8.791393041610717773e-02,-1.195253878831863403e-01,-2.217864990234375000e-01,2.687967419624328613e-01,-7.254149317741394043e-01,2.400552481412887573e-01,1.350558847188949585e-01,-5.333401635289192200e-02,8.083889842964708805e-04,-9.277544021606445312e-01,-1.287197768688201904e-01,-3.069100342690944672e-02,4.363045841455459595e-02,-4.362708032131195068e-01,4.935831949114799500e-02,-1.052778363227844238e-01,-1.703514307737350464e-01
-2.409899421036243439e-02,4.034397602081298828e-01,-6.101386621594429016e-02,8.505381643772125244e-02,-2.070017307996749878e-01,-9.760105609893798828e-02,-2.118147015571594238e-01,8.043476343154907227e-01,-1.129545196890830994e-01,-4.387190565466880798e-02,2.476863265037536621e-01,6.879772245883941650e-02,7.476888298988342285e-01,8.486220985651016235e-02,1.431986242532730103e-01,-1.864737272262573242e-02,1.790109574794769287e-01,2.151477336883544922e-01,-8.715455979108810425e-02,6.845428794622421265e-02,3.334954008460044861e-02,4.557401239871978760e-01,-3.200919553637504578e-02,2.301533520221710205e-01,1.340222209692001343e-01
2.373447269201278687e-01,-7.644808292388916016e-02,1.427043825387954712e-01,-2.781490609049797058e-02,4.440966844558715820e-01,-1.013205349445343018e-01,1.520034670829772949e-01,-1.207538247108459473e+00,9.649647027254104614e-02,1.805971711874008179e-01,1.077621616423130035e-02,2.929195463657379150e-01,-3.758126795291900635e-01,2.070569843053817749e-01,1.928404718637466431e-01,5.066686868667602539e-02,1.207526326179504395e-01,-3.326625823974609375e-01,-2.010074816644191742e-02,1.595609486103057861e-01,-1.965491771697998047e-01,1.294269133359193802e-02,1.201137304306030273e-01,-7.624397519975900650e-03,-1.717556565999984741e-01
2.156384289264678955e-01,-1.195729747414588928e-01,1.764475554227828979e-01,1.672145277261734009e-01,4.389738142490386963e-01,1.422728449106216431e-01,2.792053818702697754e-01,-7.127784490585327148e-01,2.217657268047332764e-01,-2.204477787017822266e-02,-8.666107058525085449e-02,1.568119525909423828e-01,-5.982297658920288086e-02,1.037586629390716553e-01,-6.974797695875167847e-03,2.014544010162353516e-01,-1.710387617349624634e-01,-4.323988556861877441e-01,2.784105576574802399e-02,-2.559163793921470642e-02,1.322934478521347046e-01,1.320494525134563446e-02,4.352989420294761658e-02,1.992659419775009155e-01,-1.911951303482055664e-01
1.438223272562026978e-01,-1.405032426118850708e-01,-1.102229952812194824e-01,1.124618574976921082e-01,-1.578320562839508057e-01,1.751920729875564575e-01,1.441148072481155396e-01,5.170274060219526291e-03,-1.280828937888145447e-02,1.979244798421859741e-01,-3.456591069698333740e-02,-2.012348920106887817e-01,-2.123533636331558228e-01,-8.209346979856491089e-02,3.073151595890522003e-02,-3.795141726732254028e-02,4.275904968380928040e-02,1.014483645558357239e-01,-1.596120186150074005e-02,-8.504686504602432251e-02,-1.954536437988281250e-01,-3.901785006746649742e-03,-1.958831995725631714e-01,1.480576246976852417e-01,1.034086495637893677e-01
-1.610712856054306030e-01,3.832212388515472412e-01,-4.040384665131568909e-02,8.158719539642333984e-02,-3.050666153430938721e-01,-4.302889853715896606e-02,-1.528402864933013916e-01,4.154939055442810059e-01,-1.666468530893325806e-01,1.650822162628173828e-02,1.407797913998365402e-02,-5.518076568841934204e-02,4.931758642196655273e-01,-2.916191890835762024e-02,6.985523551702499390e-02,-1.287990063428878784e-01,2.340451180934906006e-01,3.566714823246002197e-01,-5.700812861323356628e-02,8.298311382532119751e-02,1.446419805288314819e-01,3.264194726943969727e-01,-1.088442578911781311e-01,1.722699701786041260e-01,-9.256601333618164062e-04
5.849552154541015625e-02,-9.247419983148574829e-02,1.369807776063680649e-02,-1.079783216118812561e-01,-1.353195756673812866e-01,-8.778534084558486938e-02,-2.733585797250270844e-02,-1.986568719148635864e-01,-1.612686663866043091e-01,9.499340504407882690e-02,-1.359999924898147583e-01,-5.506753921508789062e-02,-1.707943528890609741e-01,-2.505343034863471985e-02,-5.047922208905220032e-02,1.147756353020668030e-01,-8.027229458093643188e-02,4.822904989123344421e-02,7.657077163457870483e-02,-1.338661909103393555e-01,-7.613179832696914673e-02,-1.144781336188316345e-01,-1.877766847610473633e-01,-1.669273674488067627e-01,-1.190125718712806702e-01
1.587634086608886719e-01,9.805982559919357300e-02,-1.000482812523841858e-01,6.452741473913192749e-02,-1.404107809066772461e-01,-2.616188488900661469e-02,1.726244837045669556e-01,1.345752039924263954e-03,-1.335760504007339478e-01,-2.738285064697265625e-02,6.497205793857574463e-02,1.446816027164459229e-01,-1.040037572383880615e-01,-1.408716738224029541e-01,-1.828981935977935791e-02,5.130782723426818848e-02,-1.404714584350585938e-01,7.455601543188095093e-02,-9.097772836685180664e-02,-1.148065105080604553e-01,-1.656015217304229736e-01,6.300076842308044434e-02,-1.674262732267379761e-01,-1.655370593070983887e-01,-1.532868444919586182e-01
2.747979164123535156e-01,4.811715334653854370e-02,3.112122416496276855e-01,-1.757118850946426392e-02,4.581285715103149414e-01,-6.044125556945800781e-02,5.187829583883285522e-02,-7.265806794166564941e-01,4.135039076209068298e-02,3.538734838366508484e-02,2.183766290545463562e-02,1.227208375930786133e-01,-3.263234198093414307e-01,2.886831164360046387e-01,2.011298537254333496e-01,1.884903907775878906e-01,1.379543542861938477e-01,-1.953851580619812012e-01,2.402974665164947510e-01,-1.683917827904224396e-03,8.661194145679473877e-02,-3.400872647762298584e-01,-1.383333653211593628e-01,2.051884084939956665e-01,1.848325282335281372e-01
6.444142013788223267e-02,-1.301908791065216064e-01,1.474640518426895142e-01,-2.256358414888381958e-01,-4.214470461010932922e-02,1.646013557910919189e-01,9.094239771366119385e-02,1.564097255468368530e-01,7.167378067970275879e-02,1.833441555500030518e-01,-2.032480090856552124e-01,2.017728425562381744e-02,1.519487518817186356e-02,-1.802257150411605835e-01,-1.612291336059570312e-01,1.293670758605003357e-02,1.360445916652679443e-01,-1.760564744472503662e-01,9.228754788637161255e-02,-1.848598718643188477e-01,-1.445639878511428833e-01,-1.596428006887435913e-01,-1.316099613904953003e-01,4.768265876919031143e-03,-4.258644580841064453e-02
-3.615535423159599304e-02,5.722861886024475098e-01,-1.769714057445526123e-01,1.141546145081520081e-01,-3.200497031211853027e-01,9.561800956726074219e-02,-3.881025314331054688e-02,3.655312955379486084e-01,-8.516697585582733154e-02,-1.522145569324493408e-01,1.962479501962661743e-01,-3.309942483901977539e-01,5.827046036720275879e-01,-1.923151165246963501e-01,1.679071635007858276e-01,-7.495533674955368042e-02,2.226343452930450439e-01,4.403272867202758789e-01,-2.948504984378814697e-01,-6.879375129938125610e-02,-1.285572070628404617e-02,2.830973863601684570e-01,-1.308657228946685791e-01,3.260404467582702637e-01,1.207669749855995178e-01
