-6.610762327909469604e-02,-3.595416620373725891e-02,1.984456181526184082e-01,-4.404485225677490234e-02,-6.473702192306518555e-01,1.395841240882873535e-01,-6.843643635511398315e-02,-1.767639666795730591e-01,1.409308146685361862e-02,3.863845020532608032e-02,-4.378152489662170410e-01,-1.642569601535797119e-01,1.738176196813583374e-01,-6.206210702657699585e-02,7.897000759840011597e-02,-4.467483609914779663e-03,2.480117976665496826e-01,8.833546042442321777e-01,-8.541011810302734375e-02,1.975920647382736206e-01,-1.782025396823883057e-01,2.650230526924133301e-01,1.119607090950012207e-01,4.285241663455963135e-01,-1.410482078790664673e-01
-1.880193948745727539e-01,-6.506345421075820923e-02,9.915309399366378784e-02,1.574649848043918610e-02,-1.639884561300277710e-01,-1.029816865921020508e-01,-1.383416205644607544e-01,-1.446856707334518433e-01,-1.265272349119186401e-01,-1.227768659591674805e-01,1.121394187211990356e-01,-9.317226707935333252e-02,4.823691770434379578e-02,1.154412031173706055e-01,4.680418968200683594e-02,-1.935750693082809448e-01,-3.754174709320068359e-02,5.920348316431045532e-02,5.556321144104003906e-02,-1.488192379474639893e-01,1.213767752051353455e-01,1.602098792791366577e-01,1.304726898670196533e-01,-7.340760529041290283e-02,-1.486282199621200562e-01
-4.655102193355560303e-01,-1.464180648326873779e-01,-3.032126836478710175e-02,-9.638190269470214844e-02,-4.296187460422515869e-01,3.286298811435699463e-01,-1.674883812665939331e-01,-1.996917724609375000e-01,3.153322041034698486e-01,1.092369779944419861e-01,-2.744287550449371338e-01,1.673090010881423950e-01,2.075721472501754761e-01,2.605277895927429199e-01,7.008049637079238892e-02,4.671812951564788818e-01,1.102105751633644104e-01,8.858763575553894043e-01,1.625334471464157104e-01,3.332206979393959045e-02,1.377088576555252075e-01,2.500466406345367432e-01,1.701832562685012817e-01,2.189060896635055542e-01,-1.629699766635894775e-01
1.715790927410125732e-01,2.494249790906906128e-01,2.505814135074615479e-01,8.337283506989479065e-03,4.583743214607238770e-01,-7.763709872961044312e-03,1.621463336050510406e-02,1.755361557006835938e-01,2.054213434457778931e-01,-1.727321445941925049e-01,4.912020266056060791e-01,1.295176595449447632e-01,-1.585643924772739410e-02,1.074813306331634521e-02,-1.204885020852088928e-01,-3.273179233074188232e-01,-1.380728334188461304e-01,-7.924955487251281738e-01,-7.228269428014755249e-02,-1.609729528427124023e-01,1.427140980958938599e-01,-1.446509510278701782e-01,3.151872009038925171e-02,-3.450151979923248291e-01,3.206266462802886963e-01
4.522943403571844101e-03,-1.651488617062568665e-02,-1.318403482437133789e-01,-4.592180193867534399e-04,1.425819396972656250e-01,-1.600651144981384277e-01,-1.563176959753036499e-01,1.569548845291137695e-01,-3.245286270976066589e-02,1.268298644572496414e-02,-6.574507057666778564e-02,-1.367142051458358765e-01,5.277163162827491760e-02,1.092732548713684082e-01,2.770900726318359375e-03,3.347932174801826477e-02,-1.438716053962707520e-01,1.822416037321090698e-01,-5.116271972656250000e-02,-4.450216516852378845e-02,-1.937018483877182007e-01,1.702020317316055298e-01,5.071618780493736267e-02,1.683852821588516235e-01,-6.943240016698837280e-02
-2.802159786224365234e-01,-1.642213761806488037e-02,-4.803169369697570801e-01,8.496331982314586639e-03,-3.561340272426605225e-01,1.397562474012374878e-01,7.934224605560302734e-02,1.836891025304794312e-01,2.013742774724960327e-01,-1.192113384604454041e-01,-5.845204591751098633e-01,-1.484077423810958862e-01,3.236957788467407227e-01,2.636660635471343994e-01,-1.878370046615600586e-01,4.466469883918762207e-01,2.378013581037521362e-01,-3.838949799537658691e-01,6.948194652795791626e-02,3.369162082672119141e-01,1.720337420701980591e-01,1.052415147423744202e-01,9.297892451286315918e-02,3.716499507427215576e-01,1.130558177828788757e-02
2.737712860107421875e-02,-1.161696687340736389e-01,1.540840417146682739e-01,-4.127938672900199890e-02,-1.568481028079986572e-01,-1.725777685642242432e-01,-1.700799763202667236e-01,-6.171658262610435486e-02,-3.558995947241783142e-02,-3.496336936950683594e-02,-1.516405344009399414e-01,-9.678521007299423218e-02,-1.102088242769241333e-01,1.184768900275230408e-01,4.750499874353408813e-02,-1.980089396238327026e-01,-1.868367642164230347e-01,-1.827173680067062378e-01,9.516429901123046875e-02,2.148795127868652344e-02,-8.240222814492881298e-04,-1.303083747625350952e-01,1.504744142293930054e-01,-1.865671873092651367e-01,-1.090838946402072906e-02
2.436882555484771729e-01,-1.307408362627029419e-01,-3.786938264966011047e-02,-3.132395818829536438e-02,-1.714632987976074219e+00,-8.729688823223114014e-02,-1.030212640762329102e-01,-1.098636165261268616e-01,9.512088447809219360e-02,-1.820328980684280396e-01,2.051287889480590820e-01,-1.596158742904663086e-01,-8.094956725835800171e-02,-5.274658277630805969e-02,-1.068317890167236328e-01,2.547020316123962402e-01,2.060636878013610840e-01,1.181519925594329834e-01,1.890874207019805908e-01,2.591101527214050293e-01,-1.445377320051193237e-01,8.659314364194869995e-02,-9.839942306280136108e-02,3.594130873680114746e-01,-3.013441264629364014e-01
-5.236921906471252441e-01,-1.701886393129825592e-02,1.318195648491382599e-02,1.262132376432418823e-01,-3.611456751823425293e-01,3.360403180122375488e-01,1.264977501705288887e-03,1.691236943006515503e-01,1.036225259304046631e-01,-1.247121840715408325e-01,-4.129666984081268311e-01,1.705979406833648682e-01,6.056943535804748535e-02,1.187855079770088196e-01,-1.818746328353881836e-01,1.616514027118682861e-01,2.298893332481384277e-01,5.772227048873901367e-01,-1.710764914751052856e-01,-3.011043928563594818e-02,-5.067241191864013672e-02,3.275731801986694336e-01,1.812165975570678711e-02,3.274996876716613770e-01,-1.367415487766265869e-01
1.080839335918426514e-01,1.869728565216064453e-01,2.143160253763198853e-01,-1.493658870458602905e-01,6.461861133575439453e-01,-1.491503715515136719e-01,4.810784012079238892e-02,-1.565404981374740601e-01,-2.429044805467128754e-03,-1.497143805027008057e-01,5.387022346258163452e-02,-1.009857207536697388e-01,3.101319670677185059e-01,4.629846662282943726e-02,-1.196956634521484375e-02,-1.802894286811351776e-02,-1.287024915218353271e-01,-1.710702061653137207e+00,-3.023791359737515450e-03,-1.466826647520065308e-01,7.712099701166152954e-02,9.881862252950668335e-02,1.001315638422966003e-01,-1.757703572511672974e-01,2.712961137294769287e-01
1.012589931488037109e-01,-9.776096791028976440e-02,2.540123462677001953e-02,-5.635273456573486328e-02,-2.612750604748725891e-02,-8.215005695819854736e-02,-6.269192695617675781e-02,-4.973266273736953735e-02,-1.053662821650505066e-01,7.068739086389541626e-02,-3.236453607678413391e-02,1.911750882863998413e-01,-1.805956214666366577e-01,1.974930763244628906e-01,-1.134717017412185669e-01,8.976154774427413940e-02,1.616026610136032104e-01,-1.394920349121093750e-01,-1.128189340233802795e-01,-1.097716316580772400e-01,-8.824031800031661987e-02,1.169803142547607422e-01,-9.598591178655624390e-02,1.087155342102050781e-01,-1.780408173799514771e-01
-1.989514827728271484e-01,-1.804452389478683472e-01,7.770068943500518799e-02,-1.062684282660484314e-01,1.895051449537277222e-01,1.319905966520309448e-01,-1.724483966827392578e-01,-5.295627191662788391e-02,1.350642889738082886e-01,1.708588600158691406e-01,-1.246382743120193481e-01,-1.273124516010284424e-01,-1.978686600923538208e-01,-9.796798229217529297e-02,-1.889415830373764038e-01,-1.623646020889282227e-01,-1.474858075380325317e-01,-9.947233647108078003e-02,-1.686189174652099609e-01,-2.029674127697944641e-02,-7.691133022308349609e-02,6.987402588129043579e-02,-9.323501959443092346e-03,-3.196406411007046700e-03,-9.905166923999786377e-02
-1.939244121313095093e-01,-6.658852100372314453e-02,-1.257845163345336914e-01,-1.237011179327964783e-01,-9.874618053436279297e-02,1.652745306491851807e-01,1.768036000430583954e-02,-3.679990768432617188e-02,-3.069496247917413712e-03,-2.724754810333251953e-02,3.396201180294156075e-03,-1.664209365844726562e-01,-3.658683225512504578e-02,-1.542868465185165405e-01,-9.698486328125000000e-02,-1.883958876132965088e-01,1.834823340177536011e-01,-2.516987361013889313e-02,-1.836468279361724854e-01,-6.960573047399520874e-02,1.806971579790115356e-01,-5.091071128845214844e-03,1.540162600576877594e-02,1.984393894672393799e-01,-3.732519224286079407e-02
6.658592075109481812e-02,-1.541964113712310791e-01,8.287658542394638062e-02,-1.387423723936080933e-01,-4.557561874389648438e-02,-1.332992613315582275e-01,-4.860575124621391296e-02,1.390603631734848022e-01,-1.541687697172164917e-01,3.329794481396675110e-02,-4.119377210736274719e-02,-1.310789585113525391e-02,-4.852626472711563110e-02,-6.460755318403244019e-02,8.802630752325057983e-02,7.952451705932617188e-04,3.465168550610542297e-02,1.112273260951042175e-01,1.361441612243652344e-01,1.531522721052169800e-01,-1.569500416517257690e-01,1.331040859222412109e-01,-4.839458689093589783e-02,-2.937982045114040375e-02,-9.064805507659912109e-02
5.385291576385498047e-02,-2.805590629577636719e-02,8.444988727569580078e-02,-1.597914248704910278e-01,1.669103354215621948e-01,-8.506190776824951172e-02,-1.645030826330184937e-01,-3.263070806860923767e-02,-1.712003201246261597e-01,1.328940242528915405e-01,-1.064677014946937561e-01,-1.737221777439117432e-01,-1.296756565570831299e-01,-5.920677259564399719e-02,-7.442500442266464233e-02,7.415311783552169800e-02,8.327271789312362671e-02,3.377096727490425110e-02,-7.500662654638290405e-02,9.152605384588241577e-02,-1.389930695295333862e-01,1.924076527357101440e-01,-2.302463166415691376e-02,-3.047542646527290344e-02,-1.481308788061141968e-01
4.343453645706176758e-01,2.670967876911163330e-01,9.396392107009887695e-02,-1.955486387014389038e-01,6.982072591781616211e-01,-1.318945437669754028e-01,6.528926081955432892e-03,2.897067181766033173e-02,-1.277071684598922729e-01,-2.946500852704048157e-02,1.832171976566314697e-01,-6.279776245355606079e-02,2.199263721704483032e-01,-3.114707767963409424e-02,3.082549571990966797e-02,-1.971632987260818481e-01,-1.397204250097274780e-01,-7.967420220375061035e-01,3.930640220642089844e-02,-1.776970475912094116e-01,-1.670562028884887695e-01,-1.841188408434391022e-03,1.082020811736583710e-03,-1.786858439445495605e-01,2.852473855018615723e-01
1.227412670850753784e-01,-3.930832445621490479e-02,3.599870800971984863e-01,2.820360660552978516e-02,1.118347525596618652e+00,9.436191990971565247e-03,2.825486660003662109e-02,1.454553604125976562e-01,-1.564735770225524902e-01,-2.086026780307292938e-02,2.994557023048400879e-01,1.129767447710037231e-01,1.657433360815048218e-01,1.820129342377185822e-02,-5.844888836145401001e-02,-4.052680730819702148e-02,9.496704488992691040e-02,-5.897392630577087402e-01,-1.725069731473922729e-01,-3.013718724250793457e-01,1.456232517957687378e-01,-2.410900890827178955e-01,-1.392011623829603195e-02,-2.003749758005142212e-01,4.900604858994483948e-02
-1.071001291275024414e-01,-6.434173882007598877e-02,1.719554960727691650e-01,-1.984275877475738525e-01,1.873123645782470703e-01,1.190176047384738922e-02,1.628780364990234375e-02,1.731410771608352661e-01,-1.947800219058990479e-01,-4.993557929992675781e-02,1.214537620544433594e-01,-1.233727931976318359e-01,1.856021955609321594e-02,1.443505585193634033e-01,4.189949110150337219e-02,-1.322609484195709229e-01,1.444066315889358521e-01,1.823149174451828003e-01,-8.913374505937099457e-03,-1.413807719945907593e-01,6.359665840864181519e-02,1.704958230257034302e-01,4.586858674883842468e-02,-1.507376432418823242e-01,3.006184101104736328e-02
-1.769808381795883179e-01,5.985222384333610535e-02,5.538900196552276611e-02,-1.793359518051147461e-01,5.780739337205886841e-02,-2.166905552148818970e-01,1.902272999286651611e-01,-4.991419240832328796e-02,-9.473185986280441284e-03,-1.000461801886558533e-01,5.324979312717914581e-03,-4.141557216644287109e-02,1.011690944433212280e-01,-3.682791441679000854e-02,1.559983938932418823e-01,1.330373883247375488e-01,1.537858694791793823e-01,-1.350257396697998047e-01,2.563452720642089844e-02,-1.082241982221603394e-01,-1.914613246917724609e-01,-2.038873285055160522e-01,-1.427905559539794922e-01,1.164613291621208191e-01,-8.518717437982559204e-02
-1.132987346500158310e-02,-4.566424712538719177e-02,1.315014511346817017e-01,1.055411323904991150e-01,-1.491050720214843750e-01,-1.252481937408447266e-01,6.745591014623641968e-02,7.078714668750762939e-02,-1.147728189826011658e-01,-1.135838031768798828e-02,8.583407849073410034e-02,7.897379249334335327e-02,5.187246948480606079e-02,-5.054453015327453613e-02,-1.247660145163536072e-01,9.465967118740081787e-02,-1.411321461200714111e-01,-9.151604026556015015e-02,-8.937308937311172485e-02,3.721192246302962303e-03,-1.590771973133087158e-01,-2.004572004079818726e-01,1.260621845722198486e-01,3.436168283224105835e-02,-5.291321780532598495e-03
-1.816033944487571716e-02,1.449249982833862305e-01,4.533142745494842529e-01,1.520016230642795563e-02,5.075761079788208008e-01,7.331360131502151489e-02,1.147800013422966003e-01,-2.728147618472576141e-02,-1.952858418226242065e-01,5.454282835125923157e-02,1.936050653457641602e-01,-1.355973035097122192e-01,1.723033934831619263e-02,3.452552556991577148e-01,1.130455061793327332e-01,-1.571692377328872681e-01,-5.298629999160766602e-01,3.949229717254638672e+00,-1.326807290315628052e-01,1.571960002183914185e-01,-3.535030037164688110e-02,-1.019255816936492920e-01,-1.628476381301879883e-01,-5.004310607910156250e-01,7.513672858476638794e-02
1.932615488767623901e-01,4.323453828692436218e-02,-9.478898346424102783e-02,-7.838966697454452515e-02,-3.143570572137832642e-02,-1.094273850321769714e-01,5.266315862536430359e-02,1.449865102767944336e-01,1.074574049562215805e-02,9.645080566406250000e-02,-2.217862568795681000e-02,2.723174169659614563e-02,-1.390488445758819580e-01,-1.080709472298622131e-01,1.733356714248657227e-01,8.444807678461074829e-02,1.567798107862472534e-01,-1.856001615524291992e-01,1.628696769475936890e-01,-1.763839833438396454e-02,1.460320055484771729e-01,9.589409828186035156e-02,-1.181586012244224548e-01,-1.265952438116073608e-01,-1.636502593755722046e-01
-2.653317525982856750e-02,-4.276533052325248718e-02,-1.198502108454704285e-01,-8.345454186201095581e-02,1.349911987781524658e-01,-1.943960487842559814e-01,1.264300383627414703e-02,-1.730603724718093872e-01,3.597784042358398438e-02,1.276731491088867188e-03,1.683619059622287750e-02,-1.892288923263549805e-01,-1.040790136903524399e-02,1.067410707473754883e-01,1.774527281522750854e-01,-9.675071388483047485e-02,-2.819194830954074860e-02,-8.420157432556152344e-02,-6.858491804450750351e-03,7.367715984582901001e-02,-1.755619347095489502e-01,1.299932040274143219e-02,1.789061129093170166e-01,-4.253654554486274719e-02,-3.825254365801811218e-02
8.985692262649536133e-02,1.842340081930160522e-01,5.502215027809143066e-01,-1.618384420871734619e-01,1.217548131942749023e+00,-3.406735360622406006e-01,-6.862254440784454346e-02,5.737907811999320984e-02,-4.458172246813774109e-02,-1.478395313024520874e-01,1.131337732076644897e-01,1.782167702913284302e-01,2.211768552660942078e-02,-3.573254644870758057e-01,1.503654718399047852e-01,-5.637490376830101013e-02,8.802784606814384460e-03,-3.169082164764404297e+00,7.724237628281116486e-03,-3.175151050090789795e-01,-1.974410861730575562e-01,2.022088272497057915e-03,-7.779514417052268982e-03,-4.001733660697937012e-02,1.300277113914489746e-01
-5.527493730187416077e-02,-5.491395667195320129e-02,1.344679743051528931e-01,1.443983316421508789e-01,-2.158142477273941040e-01,4.070641472935676575e-02,-6.866195052862167358e-02,1.548428088426589966e-01,-3.776841983199119568e-02,1.020313054323196411e-01,-1.316936314105987549e-01,1.943436414003372192e-01,1.550728827714920044e-01,-1.825013011693954468e-01,-1.299393177032470703e-02,-1.357265561819076538e-01,-1.184496283531188965e-01,1.802628189325332642e-01,-1.025761589407920837e-01,-5.958608351647853851e-03,-1.913018338382244110e-02,1.496704965829849243e-01,-1.598852276802062988e-01,-1.431324034929275513e-01,1.665535569190979004e-01
