-2.501533329486846924e-01,-1.950939893722534180e-01,-1.823235750198364258e-01,3.850078880786895752e-01,-3.480366244912147522e-02,-1.608045697212219238e-01,-8.911512047052383423e-02,1.520647406578063965e-01,-9.357433021068572998e-02,3.359123766422271729e-01,-5.822975561022758484e-02,-1.579469740390777588e-01,-1.897924691438674927e-01,-1.854492276906967163e-01,-1.565796583890914917e-01,4.080748856067657471e-01,-1.375955343246459961e-01,-1.069866940379142761e-01,-1.483246535062789917e-01,3.090862557291984558e-02,1.346033811569213867e-01,-2.273099496960639954e-02,-1.362073719501495361e-01,-7.398224472999572754e-01,-1.187998354434967041e-01
2.234357148408889771e-01,1.898478269577026367e-01,2.014595270156860352e-01,-3.515165448188781738e-01,-1.516864597797393799e-01,4.390595555305480957e-01,9.509380161762237549e-02,-9.774757623672485352e-01,3.518420457839965820e-01,6.088610365986824036e-02,8.869633823633193970e-02,-1.163057833909988403e-01,-1.279872655868530273e-01,-9.292814880609512329e-02,-1.257456839084625244e-01,-5.514690279960632324e-01,-1.790614008903503418e+00,-9.170651435852050781e-03,1.923834085464477539e-01,1.427688151597976685e-01,-3.875964879989624023e-01,1.148585602641105652e-01,1.944619864225387573e-01,-9.831747412681579590e-02,-1.434977948665618896e-01
-5.628995895385742188e-01,-6.635604053735733032e-02,-5.091397166252136230e-01,5.099222660064697266e-01,7.406504452228546143e-02,-1.508569270372390747e-01,1.615875959396362305e-01,-1.175843775272369385e-01,-5.976760983467102051e-01,5.833025574684143066e-01,-1.944575272500514984e-02,8.945758640766143799e-02,-1.857461482286453247e-01,-8.474619686603546143e-02,-6.908297538757324219e-03,6.335439085960388184e-01,-6.420269012451171875e-01,-5.793545395135879517e-02,-5.480210483074188232e-02,-1.051358655095100403e-01,-5.168821662664413452e-02,-8.152478188276290894e-02,1.617262810468673706e-01,-1.412797451019287109e+00,-1.692086011171340942e-01
-7.144603878259658813e-02,4.378440603613853455e-02,2.759929895401000977e-01,-1.807277277112007141e-02,-2.575695700943470001e-02,3.759729564189910889e-01,-1.707002371549606323e-01,-2.273207902908325195e-01,2.889747917652130127e-01,-8.130466938018798828e-02,-1.731243431568145752e-01,1.269969996064901352e-02,-1.762059926986694336e-01,8.295893669128417969e-02,-1.457629948854446411e-01,-2.993682026863098145e-01,4.167716205120086670e-01,-1.221122071146965027e-01,5.850241519510746002e-03,-1.402724534273147583e-01,-1.068136245012283325e-01,1.010066792368888855e-01,-2.714190445840358734e-02,9.070672392845153809e-01,-5.707766115665435791e-02
-1.894281245768070221e-02,-1.857181638479232788e-01,2.560101449489593506e-01,-1.100114360451698303e-01,-2.816531620919704437e-02,5.855671763420104980e-01,-1.077390238642692566e-01,-3.607900142669677734e-01,2.947407662868499756e-01,1.801903992891311646e-01,8.045315742492675781e-03,1.969618052244186401e-01,-6.276156753301620483e-02,1.747392266988754272e-01,1.337753534317016602e-01,-5.825187638401985168e-02,6.015345454216003418e-01,-1.796725243330001831e-01,5.041260644793510437e-02,1.333649605512619019e-01,-1.085859656333923340e+00,-2.741703949868679047e-02,5.154061317443847656e-02,7.549741268157958984e-01,1.243262290954589844e-01
-5.787156820297241211e-01,7.776894420385360718e-02,-1.751428395509719849e-01,3.404415249824523926e-01,-1.202563717961311340e-01,-2.735617458820343018e-01,7.381112873554229736e-02,2.041399627923965454e-01,-3.509064614772796631e-01,1.923001259565353394e-01,3.345802053809165955e-02,3.250949457287788391e-02,4.897427558898925781e-02,-2.669169940054416656e-02,-2.365431748330593109e-02,6.100400090217590332e-01,-2.407298982143402100e-01,-1.153994798660278320e-01,-4.479429684579372406e-03,-7.579642534255981445e-02,6.790483593940734863e-01,-5.591919645667076111e-02,-3.875064849853515625e-02,-7.882080078125000000e-01,-3.862781450152397156e-02
-2.319095432758331299e-01,1.056489944458007812e-01,-5.343864560127258301e-01,5.805699825286865234e-01,-6.352552026510238647e-02,-1.571403294801712036e-01,-1.985692828893661499e-01,3.630656003952026367e-01,-3.603959456086158752e-02,5.061224699020385742e-01,1.556923240423202515e-01,1.967208385467529297e-01,-1.699479669332504272e-01,-6.928811222314834595e-02,1.893265992403030396e-01,7.839841246604919434e-01,-4.766785204410552979e-01,1.220683380961418152e-01,4.670104011893272400e-02,1.233274266123771667e-01,-1.936811059713363647e-01,-1.213204860687255859e-02,-1.864099800586700439e-01,-6.434884071350097656e-01,1.050199121236801147e-01
-3.393670320510864258e-01,1.513671427965164185e-01,-3.477045893669128418e-01,1.487749218940734863e-01,-3.472661599516868591e-03,-4.728907048702239990e-01,-1.165267005562782288e-01,5.289864540100097656e-01,-1.355521678924560547e-01,4.928779602050781250e-01,-5.852332338690757751e-02,-1.567333489656448364e-01,-7.262676209211349487e-02,-1.161548644304275513e-01,-1.698638200759887695e-01,4.082099795341491699e-01,4.158233404159545898e-01,-2.805810049176216125e-02,-1.019006818532943726e-01,-1.609177142381668091e-01,3.285038769245147705e-01,1.898777335882186890e-01,1.697256863117218018e-01,8.860595822334289551e-01,1.889264732599258423e-01
5.826682969927787781e-02,1.149563342332839966e-01,1.775435209274291992e-01,-7.555561512708663940e-02,4.422073438763618469e-02,-1.251731216907501221e-01,-1.098021268844604492e-01,5.471384525299072266e-02,-1.274878829717636108e-01,-8.015980571508407593e-02,9.194125980138778687e-02,4.274201579391956329e-03,1.327851861715316772e-01,-6.752397865056991577e-02,7.493519783020019531e-02,2.194759808480739594e-02,1.783407032489776611e-01,-8.769231289625167847e-02,1.934211552143096924e-01,5.433976650238037109e-02,-1.004890725016593933e-01,-1.211709752678871155e-01,-7.644267380237579346e-02,1.558208465576171875e-02,-1.814697980880737305e-01
3.132569417357444763e-02,1.780365258455276489e-01,6.081116199493408203e-02,-1.704875081777572632e-01,-1.095352172851562500e-01,3.896356225013732910e-01,-1.219129562377929688e-02,-3.743006587028503418e-01,1.537276208400726318e-01,5.247955396771430969e-02,1.163907274603843689e-01,-2.743513695895671844e-02,1.700425893068313599e-01,8.840203285217285156e-02,3.288502618670463562e-02,-9.260000288486480713e-02,6.848911046981811523e-01,-1.731364279985427856e-01,3.317877277731895447e-02,1.649776846170425415e-01,-1.063027620315551758e+00,1.907181590795516968e-01,5.086269602179527283e-02,9.325028657913208008e-01,-1.331488341093063354e-01
2.197680920362472534e-01,3.288879618048667908e-02,2.283916026353836060e-01,-2.173501849174499512e-01,2.898949384689331055e-02,1.211339905858039856e-01,9.358332306146621704e-02,-3.559764623641967773e-01,2.164058089256286621e-01,1.607859730720520020e-01,-2.944214455783367157e-02,1.559894829988479614e-01,-1.239188909530639648e-01,-1.442342996597290039e-01,-1.748488247394561768e-01,-4.251319542527198792e-02,2.826348245143890381e-01,-1.872947663068771362e-01,-1.614534109830856323e-02,1.561468541622161865e-01,-1.408797025680541992e+00,-1.778034418821334839e-01,-3.222465515136718750e-03,7.189209461212158203e-01,9.077688306570053101e-02
-1.975083798170089722e-01,-1.168849505484104156e-02,1.524055451154708862e-01,1.721260696649551392e-01,-6.377696990966796875e-05,-1.921027898788452148e-01,-5.518324300646781921e-02,-1.219818592071533203e-01,9.539271891117095947e-02,-5.222771689295768738e-02,-3.598542138934135437e-02,-1.949975341558456421e-01,-8.293960243463516235e-02,9.501051902770996094e-02,3.085548989474773407e-02,-1.085905805230140686e-01,-5.488182231783866882e-02,-7.628152519464492798e-02,-1.149013079702854156e-02,5.664715915918350220e-02,-2.059572637081146240e-01,-6.110756471753120422e-02,-1.845308840274810791e-01,1.581397652626037598e-01,-8.605561405420303345e-02
-2.460488080978393555e-01,-1.504456996917724609e-02,-3.070282042026519775e-01,5.147074460983276367e-01,-2.013267725706100464e-01,-1.413378417491912842e-01,8.880448341369628906e-02,3.162539899349212646e-01,-4.187138378620147705e-01,6.072876453399658203e-01,1.511494219303131104e-01,-1.462621986865997314e-01,1.373168230056762695e-01,-1.995266228914260864e-01,1.001991778612136841e-01,8.386629819869995117e-01,-7.578591257333755493e-02,1.394623816013336182e-01,-1.463301330804824829e-01,2.393704466521739960e-02,-7.072554230690002441e-01,-5.171327665448188782e-02,4.784815385937690735e-02,-8.312516808509826660e-01,-1.984464190900325775e-02
1.832599192857742310e-01,-4.654007032513618469e-02,-1.702708452939987183e-01,-9.788074344396591187e-02,-1.981596201658248901e-01,6.564026325941085815e-02,-1.038858890533447266e-01,-5.726068094372749329e-02,-8.645413070917129517e-02,-3.625390678644180298e-02,1.801830977201461792e-01,-1.746806353330612183e-01,-1.513262987136840820e-01,-1.698539555072784424e-01,1.914604753255844116e-01,-1.442983150482177734e-01,-2.191016636788845062e-02,1.762524396181106567e-01,-9.934280067682266235e-02,-9.759175777435302734e-02,-1.275461912155151367e-01,4.599614068865776062e-02,-1.681339591741561890e-01,1.944984942674636841e-01,-5.597949028015136719e-02
-5.273744463920593262e-01,1.612561941146850586e-01,-4.475035965442657471e-01,5.046324133872985840e-01,1.532687991857528687e-01,5.839139223098754883e-02,-6.715772300958633423e-02,-2.951701581478118896e-01,-2.755952775478363037e-01,5.728513598442077637e-01,1.933393329381942749e-01,8.685977756977081299e-02,3.987758234143257141e-02,6.659889128059148788e-03,1.685734242200851440e-01,8.823256492614746094e-01,-4.981198608875274658e-01,7.723887264728546143e-02,7.045518606901168823e-03,-1.928995400667190552e-01,-3.741910308599472046e-02,5.686829239130020142e-02,1.434052288532257080e-01,-9.400686025619506836e-01,-1.426403373479843140e-01
4.106538370251655579e-02,-1.050303950905799866e-01,2.536146640777587891e-01,-3.945036977529525757e-02,-1.951390951871871948e-01,3.939464986324310303e-01,-5.903175100684165955e-02,-4.403649866580963135e-01,3.718800544738769531e-01,-6.922597065567970276e-03,4.673998430371284485e-02,-1.833448857069015503e-01,8.932750672101974487e-02,7.850801944732666016e-02,-9.079182147979736328e-02,-3.151751160621643066e-01,5.116814970970153809e-01,3.810000419616699219e-02,8.463713340461254120e-03,-3.323383256793022156e-02,-3.137831389904022217e-01,-1.689326763153076172e-01,6.686081737279891968e-02,9.188498258590698242e-01,2.764314040541648865e-02
-9.535663574934005737e-02,-9.676597267389297485e-02,-1.040957719087600708e-01,-1.195172071456909180e-01,1.414201259613037109e-01,1.163030639290809631e-01,1.460307687520980835e-01,-6.100096926093101501e-02,-1.014173552393913269e-01,-5.348324775695800781e-02,6.790866702795028687e-02,-1.126475352793931961e-02,-7.363541424274444580e-02,-1.895634979009628296e-01,1.499437093734741211e-01,8.569991588592529297e-02,-1.949266195297241211e-01,-1.307421922683715820e-01,-7.175006717443466187e-02,-2.988169156014919281e-02,-8.417461067438125610e-02,1.072298809885978699e-01,-3.803224489092826843e-02,-1.907670944929122925e-01,1.340638250112533569e-01
-1.092014431953430176e+00,-1.566270142793655396e-01,-4.775413870811462402e-01,4.188753962516784668e-01,1.531058177351951599e-02,-1.826108098030090332e-01,-2.612349949777126312e-02,2.143254280090332031e-01,-3.180839419364929199e-01,3.234228193759918213e-01,1.088722273707389832e-01,1.431675255298614502e-01,7.209134101867675781e-02,1.678235530853271484e-01,-1.614244729280471802e-01,5.858663916587829590e-01,-2.043531179428100586e+00,2.668797969818115234e-02,6.726799160242080688e-02,-1.866556331515312195e-02,2.509945333003997803e-01,2.972107008099555969e-02,-1.068606413900852203e-02,-1.079176545143127441e+00,-4.729236289858818054e-02
1.115377433598041534e-02,1.603903025388717651e-01,1.781907826662063599e-01,-5.403338000178337097e-02,9.071262180805206299e-02,-8.014678210020065308e-02,1.375450193881988525e-01,1.111913472414016724e-01,-1.677240431308746338e-02,-1.579349786043167114e-01,-3.686306625604629517e-02,-8.464045822620391846e-02,9.041702747344970703e-02,-1.699295789003372192e-01,-4.203779622912406921e-02,1.501394510269165039e-01,6.086484715342521667e-02,2.606673352420330048e-02,-1.286354102194309235e-02,1.788693964481353760e-01,-3.321703290566802025e-03,-1.688313931226730347e-01,-7.945580780506134033e-02,-1.587909758090972900e-01,-1.692601479589939117e-02
-1.224647760391235352e-01,4.597346857190132141e-02,1.145503073930740356e-01,-3.701002523303031921e-02,-5.088510736823081970e-02,-1.373043060302734375e-01,-1.883964091539382935e-01,1.698268204927444458e-01,-1.474917232990264893e-01,1.295647472143173218e-01,1.044758558273315430e-01,3.031094186007976532e-02,1.704382449388504028e-01,1.783006936311721802e-01,-1.689334362745285034e-01,-9.606244415044784546e-02,-1.580297201871871948e-01,3.157858923077583313e-02,-1.046129241585731506e-01,-1.620312780141830444e-01,-1.332857459783554077e-01,1.626436710357666016e-01,1.699501127004623413e-01,3.664863109588623047e-02,-7.481866329908370972e-02
-1.869993060827255249e-01,3.916008397936820984e-02,-1.052223667502403259e-01,-3.610434755682945251e-02,3.534383699297904968e-02,-1.060980111360549927e-01,-1.975667923688888550e-01,4.073758050799369812e-02,1.145442053675651550e-01,-1.177423745393753052e-01,-6.006810814142227173e-02,-1.398742198944091797e-01,-9.633751213550567627e-02,-9.920559078454971313e-02,-3.229642054066061974e-03,1.978339254856109619e-01,-1.747474521398544312e-01,-7.051759213209152222e-02,3.996715694665908813e-02,4.169879108667373657e-02,-2.621963061392307281e-02,-1.107139363884925842e-01,1.815714836120605469e-01,-6.624748557806015015e-02,1.714210584759712219e-02
2.580070495605468750e-02,1.386225670576095581e-01,-1.776121705770492554e-01,6.725358963012695312e-02,1.909390538930892944e-01,-1.366650611162185669e-01,1.857577860355377197e-01,-1.750722378492355347e-01,-1.475466489791870117e-01,-1.329800188541412354e-01,1.110186576843261719e-01,5.158164724707603455e-02,1.299113482236862183e-01,2.433936670422554016e-02,-1.915687620639801025e-01,2.019941806793212891e-02,-6.895794719457626343e-02,1.480231285095214844e-01,-6.212453916668891907e-02,1.806371286511421204e-02,-1.238953843712806702e-01,9.151966869831085205e-02,1.449589710682630539e-02,1.645680516958236694e-01,3.592307493090629578e-02
-2.077489942312240601e-01,-1.870096474885940552e-01,-4.097056388854980469e-01,4.206085205078125000e-01,-5.111717805266380310e-02,-1.447747647762298584e-01,1.680183457210659981e-03,6.191558837890625000e-01,-4.284067749977111816e-01,3.632507622241973877e-01,8.932816982269287109e-02,2.598137967288494110e-02,-1.831151992082595825e-01,-1.958971023559570312e-01,-1.847281903028488159e-01,4.602038264274597168e-01,-7.553482800722122192e-02,5.587091669440269470e-02,-3.980653360486030579e-02,1.556017994880676270e-01,-7.965996861457824707e-02,-4.611618444323539734e-02,1.246721968054771423e-01,-5.326402187347412109e-01,2.061281725764274597e-02
1.363186091184616089e-01,-1.772027090191841125e-02,7.846960425376892090e-02,-2.321629673242568970e-01,-1.869226545095443726e-01,4.290425181388854980e-01,-5.419852957129478455e-02,-1.316384077072143555e+00,3.266444206237792969e-01,1.758949458599090576e-01,-1.352420598268508911e-01,-1.287080347537994385e-01,-1.321303397417068481e-01,1.290572434663772583e-01,1.325736045837402344e-01,-2.730882167816162109e-01,-1.611431479454040527e+00,3.732705116271972656e-02,1.818452477455139160e-01,-2.073412016034126282e-02,-1.000244021415710449e+00,-1.336977928876876831e-01,1.190953254699707031e-01,-8.798569324426352978e-04,-7.039223611354827881e-02
-4.225147962570190430e-01,2.030723169445991516e-02,-1.861175596714019775e-01,4.436759054660797119e-01,7.376087456941604614e-02,-3.443889617919921875e-01,9.164817631244659424e-02,1.242110803723335266e-01,-4.925640523433685303e-01,4.228806495666503906e-01,-1.684268563985824585e-01,-3.295817598700523376e-02,1.408120840787887573e-01,3.140947967767715454e-02,1.953784078359603882e-01,5.519800782203674316e-01,-1.421027332544326782e-01,1.640249341726303101e-01,3.915350511670112610e-02,-6.677153706550598145e-02,2.487559989094734192e-02,1.346073597669601440e-01,1.852283030748367310e-01,-8.358733057975769043e-01,2.670801617205142975e-02
