-8.316632360219955444e-02,5.242091044783592224e-02,-1.503820121288299561e-01,-2.404309958219528198e-01,5.996976792812347412e-02,-4.247466921806335449e-01,2.320612818002700806e-01,-1.898263096809387207e-01,2.046627551317214966e-01,-1.659217029809951782e-01,-2.023075222969055176e-01,1.172832027077674866e-01,3.724253922700881958e-02,2.227721214294433594e-01,-1.524823009967803955e-01,-1.521768271923065186e-01,-1.856608837842941284e-01,-1.811697781085968018e-01,-3.647879660129547119e-01,1.722809821367263794e-01,-3.157478272914886475e-01,2.258859157562255859e+00,-1.709085404872894287e-01,7.176267355680465698e-02,-2.065409868955612183e-01,2.769267261028289795e-01,7.766103744506835938e-02,-1.310898642987012863e-02,3.465238213539123535e-02,1.939280629158020020e-01,1.129592582583427429e-01,1.801070421934127808e-01,-1.831493526697158813e-01,1.438423842191696167e-01,-1.500071436166763306e-01,1.390362251549959183e-02,4.334697872400283813e-02,-2.058645784854888916e-01,-1.572767198085784912e-01,-1.189648509025573730e-01
