-1.571231931447982788e-01,-6.431169062852859497e-02,5.123168602585792542e-02,-1.328485608100891113e-01,1.665162146091461182e-01,-1.288668159395456314e-02,5.374706983566284180e-01,1.310155242681503296e-01,-1.285678148269653320e+00,3.048315346240997314e-01,1.064138486981391907e-01,-4.245630651712417603e-02,-3.513741493225097656e-02,-1.519284695386886597e-01,-5.261952430009841919e-02,6.216384470462799072e-02,-2.653587609529495239e-02,-1.438617855310440063e-01,-4.981020465493202209e-02,-5.376349389553070068e-02,-1.222219169139862061e-01,-6.905777007341384888e-02,4.143622219562530518e-01,1.699584573507308960e-01,-4.819294810295104980e-02,2.072579115629196167e-01,1.737790554761886597e-01,-9.869758039712905884e-02,-3.366929292678833008e-02,2.321412712335586548e-01,2.582933306694030762e-01,-2.530973255634307861e-01,-7.333672046661376953e-02,-1.243435367941856384e-01,1.231196150183677673e-02,-1.365288048982620239e-01,2.970976829528808594e-01,7.189405709505081177e-02,-5.269623398780822754e-01,5.451207756996154785e-01
1.937960647046566010e-02,2.296479046344757080e-02,1.104072332382202148e-01,-1.760889030992984772e-02,2.235922813415527344e-01,-5.905207246541976929e-02,-2.445318922400474548e-02,1.446044296026229858e-01,4.523658659309148788e-03,6.814103573560714722e-02,1.041033193469047546e-01,-1.088235005736351013e-01,-1.034067869186401367e-01,-9.113036096096038818e-02,1.221955846995115280e-02,-8.184695243835449219e-02,8.618913590908050537e-02,4.148956388235092163e-02,-1.552326679229736328e-01,6.787572056055068970e-02,1.479173153638839722e-01,1.123223826289176941e-01,5.348888039588928223e-02,1.331225186586380005e-01,-2.670739777386188507e-02,1.045515313744544983e-01,-3.363204002380371094e-02,5.437745526432991028e-02,-2.686123922467231750e-02,5.036811530590057373e-02,2.344246804714202881e-01,-1.986885219812393188e-01,-2.160428278148174286e-02,1.097881644964218140e-01,-1.572205722332000732e-01,2.568071335554122925e-02,8.449690043926239014e-02,1.367760151624679565e-01,-3.550481200218200684e-01,2.355706542730331421e-01
-7.152822613716125488e-02,-7.343457639217376709e-02,-1.039791628718376160e-01,3.947656229138374329e-02,-7.557520270347595215e-02,-1.573513746261596680e-01,-2.066614292562007904e-02,-2.811388298869132996e-02,1.033570989966392517e-02,3.339007124304771423e-02,-5.026260390877723694e-02,-1.808191835880279541e-02,-1.366758346557617188e-01,-2.520191855728626251e-02,7.215969264507293701e-02,1.279969513416290283e-01,-1.171607524156570435e-01,1.303100734949111938e-01,-1.353377401828765869e-01,8.154786378145217896e-02,1.398140490055084229e-01,1.322921216487884521e-01,3.326523676514625549e-02,-4.178030043840408325e-02,-5.571225658059120178e-02,7.841546833515167236e-02,-1.438185870647430420e-01,-7.951413281261920929e-03,-8.995613455772399902e-02,-7.271870970726013184e-02,-1.538324505090713501e-01,8.930148184299468994e-02,-1.341099143028259277e-01,1.188496723771095276e-01,-4.529114067554473877e-02,1.863052695989608765e-02,1.109406054019927979e-01,-1.993952691555023193e-02,1.049973070621490479e-02,-8.958006277680397034e-03
-6.396938860416412354e-02,-9.702359139919281006e-02,-1.103757694363594055e-02,2.283653244376182556e-02,-3.276597335934638977e-02,-7.550272345542907715e-02,8.024416118860244751e-02,1.608700454235076904e-01,-2.365720272064208984e-01,8.681453764438629150e-02,1.447465866804122925e-01,-8.084419369697570801e-02,3.290999680757522583e-03,-9.759073727764189243e-04,1.245899498462677002e-01,-2.575175277888774872e-02,2.127313017845153809e-01,4.590032994747161865e-02,-5.955205857753753662e-02,1.387740969657897949e-01,-3.011656925082206726e-02,-1.212226003408432007e-01,2.233045548200607300e-01,2.006061971187591553e-01,1.398048549890518188e-01,1.384545415639877319e-01,-5.618727207183837891e-02,-5.417552962899208069e-02,1.313144713640213013e-01,1.065012365579605103e-01,1.632101982831954956e-01,1.800878904759883881e-02,-2.164479345083236694e-02,1.515351831912994385e-01,-1.365182548761367798e-01,-1.157408580183982849e-01,1.945594847202301025e-01,6.947741843760013580e-03,-5.458682179450988770e-01,1.869953721761703491e-01
1.023231223225593567e-01,-1.422551870346069336e-01,-8.271116763353347778e-02,-3.787815943360328674e-02,-5.007916316390037537e-02,5.400338023900985718e-02,4.056724533438682556e-02,1.007975041866302490e-01,-8.104205876588821411e-02,-5.776925757527351379e-02,1.149283573031425476e-01,1.510338634252548218e-01,2.739350683987140656e-02,6.928092241287231445e-02,-1.460271775722503662e-01,-9.350842237472534180e-02,1.472747623920440674e-01,-1.120537891983985901e-01,-5.752344429492950439e-02,5.206933990120887756e-02,-1.377997994422912598e-01,-3.349196538329124451e-02,9.266562014818191528e-02,-1.371343731880187988e-01,5.405544117093086243e-02,-4.006425663828849792e-02,2.670886751729995012e-04,-1.649936586618423462e-01,1.578219234943389893e-01,1.323771029710769653e-01,-5.314873531460762024e-02,6.810640543699264526e-02,-1.648916602134704590e-01,-3.722158446907997131e-02,-1.175977587699890137e-01,5.597718805074691772e-02,-4.373163729906082153e-02,-9.807580709457397461e-02,1.201515644788742065e-01,-9.935653209686279297e-02
1.375964730978012085e-01,1.439598053693771362e-01,9.445916861295700073e-02,-9.393856674432754517e-02,7.024067919701337814e-03,2.493085153400897980e-02,-4.483151808381080627e-02,-1.419615652412176132e-02,1.666158437728881836e-01,-1.267207413911819458e-01,5.935921519994735718e-02,1.350644379854202271e-01,6.722462177276611328e-01,-3.432978875935077667e-03,1.595761775970458984e-01,3.150368109345436096e-02,1.264659762382507324e-01,-1.136820241808891296e-01,2.989596687257289886e-02,4.518295079469680786e-02,-1.998900622129440308e-02,-7.664840668439865112e-02,9.909877926111221313e-02,1.038768738508224487e-01,-1.202907413244247437e-01,5.477456748485565186e-02,6.034738942980766296e-02,1.674011945724487305e-01,1.078752577304840088e-01,1.196359992027282715e-01,7.548049092292785645e-02,1.396150095388293266e-03,8.532840013504028320e-02,9.327865391969680786e-02,-5.176069587469100952e-02,-1.669517308473587036e-01,6.016928330063819885e-02,1.297737956047058105e-01,3.755747973918914795e-01,5.306343361735343933e-02
-1.326091289520263672e-01,-5.658083781599998474e-02,9.670437872409820557e-02,-5.602769088000059128e-03,5.171375349164009094e-02,1.213494781404733658e-02,7.854367494583129883e-01,1.285815089941024780e-01,-6.693063974380493164e-01,4.361166432499885559e-02,1.602307707071304321e-01,-9.295333176851272583e-02,-1.426426768302917480e-01,3.076140023767948151e-02,-7.011750340461730957e-02,-3.553744032979011536e-02,6.478808820247650146e-02,-2.318867482244968414e-02,-5.282365530729293823e-02,6.008050218224525452e-02,-1.443195641040802002e-01,6.385602056980133057e-02,2.931290566921234131e-01,1.532610058784484863e-01,1.505895406007766724e-01,1.429963260889053345e-01,-3.497754037380218506e-02,-4.735138639807701111e-02,-2.277935855090618134e-02,1.247798874974250793e-01,-1.420918256044387817e-01,5.912861973047256470e-02,2.401735074818134308e-02,-5.780190974473953247e-02,-1.269546449184417725e-01,-3.729299455881118774e-02,6.715250611305236816e-01,8.704154938459396362e-02,-3.665443062782287598e-01,3.235133588314056396e-01
1.728041619062423706e-01,-6.806411780416965485e-03,1.563917100429534912e-02,4.484572261571884155e-02,1.142815873026847839e-01,9.715582430362701416e-02,1.821682006120681763e-01,1.616559624671936035e-01,-7.076653838157653809e-02,4.986883699893951416e-02,4.777755215764045715e-02,1.430727392435073853e-01,-3.526582121849060059e-01,-3.005414269864559174e-02,1.992751657962799072e-01,6.449868530035018921e-02,1.270680129528045654e-01,1.288261711597442627e-01,1.570855453610420227e-02,-3.080094465985894203e-03,-1.061105076223611832e-02,1.401137262582778931e-01,2.741074562072753906e-02,-1.310387700796127319e-01,8.012071996927261353e-02,-2.404538914561271667e-02,-7.516820728778839111e-02,1.186412572860717773e-01,-7.298375666141510010e-02,8.056241273880004883e-02,-6.104961037635803223e-03,-2.082606405019760132e-02,1.093564033508300781e-01,9.265063703060150146e-02,1.314059924334287643e-02,-1.180372908711433411e-01,-1.087489817291498184e-02,-7.683110237121582031e-02,-1.777069419622421265e-01,8.017331361770629883e-02
2.004187181591987610e-02,1.490810066461563110e-01,8.719079196453094482e-02,-1.581036150455474854e-01,9.215556085109710693e-02,6.512188166379928589e-02,-8.542691916227340698e-02,9.420204162597656250e-02,-8.460415899753570557e-02,-1.531911641359329224e-01,-1.431745737791061401e-01,1.322883516550064087e-01,8.227751404047012329e-02,1.545603126287460327e-01,1.289033889770507812e-01,6.777248531579971313e-02,1.246559098362922668e-01,-4.148075729608535767e-02,-1.068415343761444092e-01,-6.412208825349807739e-02,2.711516804993152618e-02,-5.743522942066192627e-02,7.059444487094879150e-02,1.150269433856010437e-01,-3.370260074734687805e-02,-4.246630519628524780e-02,-1.366245895624160767e-01,-1.810985850170254707e-03,2.418829500675201416e-02,-1.493114233016967773e-01,-7.058558613061904907e-02,-1.097758412361145020e-01,-5.539036542177200317e-02,1.186012625694274902e-01,-3.224181011319160461e-02,-5.339406058192253113e-02,-1.277025341987609863e-01,-1.017728522419929504e-01,-1.414415836334228516e-01,1.269607692956924438e-01
1.899496614933013916e-01,5.071010440587997437e-02,-1.275273561477661133e-01,-7.718196511268615723e-02,-4.989530891180038452e-02,1.966028101742267609e-02,-4.458550363779067993e-02,-1.542905718088150024e-01,5.627907812595367432e-02,-1.465506106615066528e-02,-1.841270774602890015e-01,-1.104461587965488434e-02,3.084675371646881104e-01,7.709980942308902740e-03,-6.208487227559089661e-02,-9.239348769187927246e-02,4.898161068558692932e-02,1.189352571964263916e-01,1.963028311729431152e-01,1.021194979548454285e-01,9.347336739301681519e-02,8.061977475881576538e-02,2.556185424327850342e-02,2.431323230266571045e-01,-1.379861086606979370e-01,-1.192487925291061401e-01,1.835359185934066772e-01,6.474868953227996826e-02,-5.172723904252052307e-02,-1.133869364857673645e-01,9.809572994709014893e-02,-2.398650534451007843e-02,1.604741960763931274e-01,-1.191316246986389160e-01,1.867437213659286499e-01,-1.058740988373756409e-01,-1.099376156926155090e-01,-2.564054541289806366e-02,3.283277750015258789e-01,6.139172986149787903e-02
-2.394636720418930054e-02,2.674847654998302460e-02,1.010788455605506897e-01,-1.100772395730018616e-01,4.029611870646476746e-02,2.261714339256286621e-01,2.144125103950500488e-01,-4.134255647659301758e-02,-4.265855532139539719e-03,-9.701746702194213867e-02,1.919647157192230225e-01,1.616060137748718262e-01,-6.190162897109985352e-01,6.464543938636779785e-02,3.719927370548248291e-02,-8.732254058122634888e-02,1.862977817654609680e-02,-9.969705343246459961e-02,3.098944015800952911e-02,6.410036981105804443e-02,3.427997231483459473e-02,-8.704037964344024658e-02,2.032219171524047852e-01,-3.233491629362106323e-02,1.284399926662445068e-01,1.822081357240676880e-01,9.318156540393829346e-02,1.124836280941963196e-01,-2.973548881709575653e-02,-4.788065701723098755e-02,-1.905548200011253357e-02,-3.616972640156745911e-02,7.931527495384216309e-02,2.111253514885902405e-02,6.499635428190231323e-02,1.848121136426925659e-01,4.868532344698905945e-02,-7.126511633396148682e-02,-2.322393655776977539e-01,1.708597987890243530e-01
-5.393290519714355469e-02,-1.075251996517181396e-01,-3.087865747511386871e-02,-9.436821937561035156e-02,1.467316448688507080e-01,-7.156030833721160889e-02,-7.420247048139572144e-02,-8.768021315336227417e-02,2.416495978832244873e-02,1.544948518276214600e-01,2.830199198797345161e-03,-3.745826706290245056e-02,-7.924629375338554382e-03,3.873424604535102844e-02,-1.573034077882766724e-01,3.574388846755027771e-02,4.883783310651779175e-02,1.390285417437553406e-02,-1.576758734881877899e-02,-9.002628922462463379e-02,1.090438663959503174e-01,5.138852819800376892e-02,-5.306443572044372559e-02,3.576236218214035034e-02,1.379822343587875366e-01,1.425626128911972046e-01,9.481734596192836761e-03,9.010439366102218628e-02,-1.540303081274032593e-01,-6.788878142833709717e-02,7.085949927568435669e-02,7.945236563682556152e-02,-1.531450003385543823e-01,-2.652633748948574066e-02,1.395005434751510620e-01,1.366838961839675903e-01,2.436179667711257935e-02,4.934597387909889221e-02,-9.096402674913406372e-02,-6.478889286518096924e-02
6.880586594343185425e-02,1.059472784399986267e-01,-4.379540681838989258e-02,-1.356697082519531250e-01,-3.790235519409179688e-02,5.920239910483360291e-02,1.937661767005920410e-01,7.590881548821926117e-03,3.769069211557507515e-03,1.756767630577087402e-01,5.095345154404640198e-02,-6.865528970956802368e-02,-5.674150586128234863e-01,1.960618980228900909e-02,-3.507243469357490540e-02,8.602681010961532593e-02,-7.499557454138994217e-03,-1.710109859704971313e-01,-1.047650817781686783e-02,1.547655016183853149e-01,2.072717435657978058e-02,7.053341716527938843e-02,7.948262244462966919e-02,-1.204442754387855530e-01,1.666255854070186615e-02,1.123778373003005981e-01,1.182930767536163330e-01,-3.810293599963188171e-02,4.813623055815696716e-02,5.808321386575698853e-02,-8.875145018100738525e-02,6.033027917146682739e-02,-4.459467157721519470e-02,-1.265061646699905396e-01,6.657326221466064453e-02,1.047272160649299622e-01,1.483094692230224609e-01,1.308135837316513062e-01,-1.117067113518714905e-01,2.672373950481414795e-01
-3.531974926590919495e-02,-8.998246490955352783e-02,-1.544987112283706665e-01,9.845161437988281250e-02,8.822162449359893799e-02,-3.060273826122283936e-02,1.671884953975677490e-01,-3.410477936267852783e-02,-8.782496303319931030e-02,2.018127143383026123e-01,2.175986170768737793e-01,-1.342110633850097656e-01,-6.143821477890014648e-01,7.609739899635314941e-02,2.106072008609771729e-02,9.499999135732650757e-02,1.878426782786846161e-02,-1.481280475854873657e-01,-6.787263602018356323e-02,-1.058894172310829163e-01,2.602253109216690063e-02,-1.187420785427093506e-01,8.515276014804840088e-02,-1.796079576015472412e-01,-2.537820860743522644e-02,1.528858840465545654e-01,7.301130890846252441e-02,1.431866288185119629e-01,-1.479032933712005615e-01,1.789407134056091309e-01,2.397398650646209717e-02,-1.083570942282676697e-01,1.698060482740402222e-01,8.540514856576919556e-02,1.163211464881896973e-01,1.241758689284324646e-01,6.838779430836439133e-03,9.663604944944381714e-02,-2.339214682579040527e-01,2.530750446021556854e-02
1.023514196276664734e-01,8.263950794935226440e-02,8.451595902442932129e-02,1.654461324214935303e-01,-1.409736573696136475e-01,-3.114802017807960510e-02,-9.324520081281661987e-02,-9.402438253164291382e-02,9.676647186279296875e-02,-1.706601828336715698e-01,-1.910074502229690552e-01,1.255341768264770508e-01,5.891824960708618164e-01,-8.208578824996948242e-02,1.162207946181297302e-01,-2.508162520825862885e-02,-1.467652060091495514e-02,-1.212366521358489990e-01,8.525451272726058960e-02,-1.115756183862686157e-01,-1.295547932386398315e-01,7.230269908905029297e-02,-1.093037053942680359e-02,1.380770653486251831e-01,-1.445165574550628662e-01,1.463638735003769398e-03,7.558985054492950439e-02,1.756325215101242065e-01,-1.275077611207962036e-01,2.848762832581996918e-02,-6.713384389877319336e-02,7.679039984941482544e-02,1.431094110012054443e-01,3.942457493394613266e-03,1.509359627962112427e-01,1.113097369670867920e-01,-1.178853064775466919e-01,-3.006070293486118317e-02,3.936494886875152588e-01,-9.535577893257141113e-02
4.809477552771568298e-02,9.379440546035766602e-02,3.962631523609161377e-02,1.690704822540283203e-01,1.511371731758117676e-01,1.259335726499557495e-01,9.497278183698654175e-02,1.769236847758293152e-02,2.830677926540374756e-01,8.251114934682846069e-02,1.515005528926849365e-02,-3.440397605299949646e-02,2.287788242101669312e-01,-9.712491184473037720e-02,3.161916881799697876e-02,1.386407762765884399e-01,4.516642540693283081e-02,-1.124482750892639160e-01,2.134076133370399475e-02,-4.489975050091743469e-02,1.387497335672378540e-01,-1.386246532201766968e-01,-7.147510349750518799e-02,-5.833688005805015564e-02,2.984198369085788727e-02,-7.342727854847908020e-03,2.008731663227081299e-01,-8.674602210521697998e-02,1.139566525816917419e-01,6.848053634166717529e-02,1.566666066646575928e-01,-8.723670244216918945e-02,9.897973388433456421e-02,-1.507139354944229126e-01,2.258057892322540283e-01,-1.545444503426551819e-02,-9.307202883064746857e-03,1.410035043954849243e-01,2.177603691816329956e-01,1.784027516841888428e-01
-1.553858667612075806e-01,3.304268466308712959e-04,-1.025161519646644592e-01,-1.492192596197128296e-01,7.360041141510009766e-02,-1.052792370319366455e-01,7.493942230939865112e-02,1.404702812433242798e-01,-9.330109506845474243e-02,-6.830653548240661621e-02,6.519857048988342285e-02,-1.708385497331619263e-01,4.610907286405563354e-02,8.437427878379821777e-02,2.435472607612609863e-02,1.209960058331489563e-01,6.503121554851531982e-02,-8.171949535608291626e-02,1.195112615823745728e-01,-3.128848597407341003e-02,-5.018718913197517395e-02,1.560773104429244995e-01,3.218578174710273743e-02,1.943520009517669678e-01,-1.553619056940078735e-01,5.607552453875541687e-02,-9.411964565515518188e-02,1.108284071087837219e-01,-3.917255252599716187e-02,1.927676945924758911e-01,2.724210023880004883e-01,-2.134957462549209595e-01,-9.002619422972202301e-03,3.361108945682644844e-03,1.343474909663200378e-02,-2.806114964187145233e-02,-8.918137103319168091e-02,1.178826242685317993e-01,-2.533415853977203369e-01,1.343110650777816772e-01
-1.299206614494323730e-01,9.824851900339126587e-02,1.312603652477264404e-01,-4.621100146323442459e-03,1.170328408479690552e-01,-1.133890673518180847e-01,1.823194697499275208e-02,1.460823714733123779e-01,8.096248656511306763e-02,1.181313246488571167e-01,1.916331499814987183e-01,-8.993627876043319702e-02,-6.851192712783813477e-01,-5.091945827007293701e-02,5.566637963056564331e-02,-5.511057004332542419e-02,2.298950031399726868e-02,5.324111506342887878e-02,1.213070601224899292e-01,-9.792810678482055664e-02,1.536926478147506714e-01,-8.193891495466232300e-02,2.358275055885314941e-01,-4.667879641056060791e-02,-3.924278169870376587e-02,9.323021024465560913e-02,1.264025717973709106e-01,-4.744422808289527893e-02,-1.021847128868103027e-02,2.219557762145996094e-01,2.296694181859493256e-02,-1.319626718759536743e-01,9.899860620498657227e-02,1.212378889322280884e-01,-1.071685329079627991e-01,4.732968285679817200e-02,-4.857070371508598328e-02,1.227705851197242737e-01,-1.846074312925338745e-01,1.568948775529861450e-01
1.044036895036697388e-01,-7.434048503637313843e-02,-7.779166847467422485e-02,-1.434680372476577759e-01,-2.465740032494068146e-02,1.408061087131500244e-01,-7.314737886190414429e-02,1.285715401172637939e-01,-5.748542398214340210e-02,-6.067647784948348999e-02,-8.379886299371719360e-02,1.231298968195915222e-02,1.565601080656051636e-01,-1.123214215040206909e-01,1.372359693050384521e-01,-1.141583919525146484e-01,1.345126777887344360e-01,-1.164674460887908936e-01,1.502466853708028793e-02,1.143220588564872742e-01,9.279481321573257446e-02,1.506935656070709229e-01,-3.933431208133697510e-02,-7.588424533605575562e-02,-1.402272731065750122e-01,1.752375438809394836e-02,-8.418774604797363281e-02,-1.117683127522468567e-01,1.020802035927772522e-01,-4.696065932512283325e-02,2.994344569742679596e-02,9.124971181154251099e-02,-9.099476784467697144e-02,8.870452642440795898e-02,-2.494768705219030380e-03,-3.233403712511062622e-02,-1.141307055950164795e-01,-1.164353489875793457e-01,1.046803742647171021e-01,-1.510822474956512451e-01
5.310700088739395142e-02,-4.648719355463981628e-02,1.030172780156135559e-01,-4.724172130227088928e-02,-1.743409782648086548e-01,9.412062168121337891e-02,-2.105467915534973145e-01,1.518427580595016479e-01,3.053372502326965332e-01,-1.152325496077537537e-01,-1.265408396720886230e-01,-1.018228530883789062e-01,3.541800677776336670e-01,1.448573172092437744e-01,2.829732000827789307e-02,-1.489124149084091187e-01,1.900590807199478149e-01,-1.558393836021423340e-01,9.364625066518783569e-02,-1.136152669787406921e-01,-6.243132427334785461e-02,-1.293183565139770508e-01,-1.562541276216506958e-01,1.260858625173568726e-01,-2.724680677056312561e-02,-2.073547989130020142e-01,1.068868264555931091e-01,1.335339248180389404e-01,8.976928144693374634e-02,-5.999498814344406128e-02,-1.819864958524703979e-01,1.199894994497299194e-01,-4.315880313515663147e-02,-6.250769644975662231e-02,7.943046838045120239e-02,-1.043043881654739380e-01,-4.923162236809730530e-02,1.185407564043998718e-01,2.416931241750717163e-01,-1.848910599946975708e-01
1.605323106050491333e-01,-9.302634745836257935e-02,3.103125654160976410e-02,1.268666237592697144e-01,-1.213603243231773376e-01,9.826265275478363037e-02,-6.034917384386062622e-02,-7.024338096380233765e-02,1.773206144571304321e-01,-6.812517065554857254e-03,-1.068453639745712280e-01,1.542690210044384003e-02,5.417178869247436523e-01,6.154179945588111877e-02,-4.796034842729568481e-02,8.593816310167312622e-02,3.462244570255279541e-02,-1.201806664466857910e-01,4.072335362434387207e-02,6.190855801105499268e-02,-1.207232847809791565e-01,1.079313680529594421e-01,-2.186352163553237915e-01,3.167588114738464355e-01,-8.505695499479770660e-03,-9.174307435750961304e-02,1.583232581615447998e-01,-1.094035711139440536e-02,-4.507664591073989868e-02,1.255791336297988892e-01,3.032628260552883148e-02,8.533358573913574219e-03,-2.785950200632214546e-03,-2.219212986528873444e-02,1.893411725759506226e-01,-3.693681955337524414e-02,5.668228492140769958e-02,-7.791946083307266235e-02,2.485487908124923706e-01,-2.718836665153503418e-01
-1.359686702489852905e-01,-1.143080089241266251e-02,1.262607723474502563e-01,-2.369857132434844971e-01,4.026291146874427795e-02,5.305233970284461975e-02,2.000378817319869995e-02,6.056934967637062073e-02,8.942869305610656738e-02,2.940971553325653076e-01,1.996166110038757324e-01,-8.101853728294372559e-02,-6.764186024665832520e-01,-7.716764509677886963e-02,-5.172995477914810181e-02,-8.304025977849960327e-02,2.023294121026992798e-01,-1.209439635276794434e-01,-5.259082466363906860e-02,7.872437126934528351e-03,1.018008664250373840e-01,9.801699966192245483e-02,-3.530238941311836243e-02,7.518689334392547607e-02,-1.647343114018440247e-02,1.459173709154129028e-01,9.194855391979217529e-02,1.575634330511093140e-01,-6.299633532762527466e-02,1.147656664252281189e-01,-2.450088560581207275e-01,-1.359555721282958984e-01,6.398564577102661133e-02,1.323912441730499268e-01,-1.957885771989822388e-01,-1.121014580130577087e-01,1.649934500455856323e-01,6.142961210571229458e-04,2.942626774311065674e-01,3.611679747700691223e-02
1.386236697435379028e-01,1.835271120071411133e-01,4.419539496302604675e-02,-4.279559478163719177e-02,-7.087222486734390259e-02,-1.973736844956874847e-02,-2.639590799808502197e-01,-6.496511399745941162e-02,2.011619657278060913e-01,-1.001116856932640076e-01,1.616315394639968872e-01,-1.144607588648796082e-01,4.765864610671997070e-01,1.111099794507026672e-01,1.275032311677932739e-01,2.681147865951061249e-02,-7.952656014822423458e-04,-1.022986695170402527e-01,4.159617796540260315e-02,-6.779498606920242310e-02,-1.034858357161283493e-02,1.555795073509216309e-01,-2.267214208841323853e-01,1.892437934875488281e-01,7.138463854789733887e-02,-1.217204928398132324e-01,1.037821322679519653e-01,4.101452231407165527e-02,1.353413313627243042e-01,-1.131578236818313599e-01,-4.872673749923706055e-02,-6.126226112246513367e-02,-8.541233092546463013e-02,-4.115846473723649979e-03,1.759974956512451172e-01,1.307621002197265625e-01,-6.644725054502487183e-02,-1.141641568392515182e-02,2.310600429773330688e-01,-3.416404128074645996e-01
-3.324706479907035828e-02,5.887351185083389282e-02,3.162446245551109314e-02,-1.177291572093963623e-01,-1.519650518894195557e-01,5.338169634342193604e-02,-8.293706923723220825e-02,-6.811454892158508301e-02,1.380138546228408813e-01,-9.911847859621047974e-02,6.101471930742263794e-02,1.528435349464416504e-01,-1.126853153109550476e-01,-1.382643729448318481e-01,-9.769621491432189941e-02,-8.121398091316223145e-02,-1.112393215298652649e-01,6.707549840211868286e-02,-6.680790334939956665e-02,-1.542178094387054443e-01,5.122312903404235840e-02,1.056715250015258789e-01,-3.290922194719314575e-02,-2.993562258780002594e-02,1.488288938999176025e-01,-3.120671957731246948e-02,8.018784224987030029e-02,-4.161629825830459595e-03,-1.296327710151672363e-01,-2.655136771500110626e-02,1.024380400776863098e-01,1.214380413293838501e-01,-6.359930336475372314e-02,-8.076851069927215576e-02,-5.757363513112068176e-02,-1.312495172023773193e-01,1.238252222537994385e-01,-1.351946443319320679e-01,-2.429759874939918518e-02,1.448731869459152222e-01
5.860648304224014282e-02,1.260433346033096313e-01,-4.072835668921470642e-02,1.163686960935592651e-01,-1.206298843026161194e-01,3.986584395170211792e-02,1.528714690357446671e-02,9.474252909421920776e-02,3.898231983184814453e-01,1.604892127215862274e-02,9.699274599552154541e-02,4.021902382373809814e-02,3.031134307384490967e-01,1.220068335533142090e-01,-8.509369194507598877e-02,1.246460601687431335e-01,-1.237998008728027344e-01,-6.023816019296646118e-02,9.161816537380218506e-02,-7.673314958810806274e-02,4.516777768731117249e-02,-4.277282953262329102e-02,3.176551312208175659e-02,2.078541070222854614e-01,-4.620714858174324036e-02,-1.900820527225732803e-03,1.044725105166435242e-01,6.810858100652694702e-02,1.322935223579406738e-01,-1.411025524139404297e-01,-5.448095872998237610e-02,-2.931942790746688843e-02,-7.537256181240081787e-02,-7.914047688245773315e-02,1.221318170428276062e-01,-7.689502090215682983e-02,-1.261289864778518677e-01,9.504715353250503540e-02,2.922540307044982910e-01,-1.867672801017761230e-01
1.816747151315212250e-02,8.362720906734466553e-02,-9.587654471397399902e-02,1.300013959407806396e-01,-1.365383416414260864e-01,1.374393105506896973e-01,-6.921474821865558624e-03,-4.781238676514476538e-04,-2.683897502720355988e-03,9.358501434326171875e-02,-1.587373018264770508e-02,-1.798618584871292114e-02,-1.255849003791809082e-01,8.204341679811477661e-02,-1.211140006780624390e-01,-7.201431691646575928e-02,7.292557507753372192e-02,4.903977736830711365e-02,-1.010919585824012756e-01,-9.588713943958282471e-02,6.964755058288574219e-02,1.535237431526184082e-01,-2.456578984856605530e-02,1.160016953945159912e-01,-1.054744645953178406e-01,1.375814080238342285e-01,-8.700440078973770142e-02,6.380791962146759033e-02,7.105578482151031494e-02,-1.078943312168121338e-01,7.390187680721282959e-02,1.285782307386398315e-01,1.107141748070716858e-02,1.368458420038223267e-01,3.513873368501663208e-02,-4.033244773745536804e-02,-1.622087322175502777e-02,-7.778309285640716553e-02,1.023800373077392578e-01,-1.056135520339012146e-01
7.079420238733291626e-02,3.782519325613975525e-02,1.365120857954025269e-01,-3.248989582061767578e-02,1.572532206773757935e-01,-1.292230933904647827e-02,-9.927165508270263672e-02,-1.502497941255569458e-01,-1.495732218027114868e-01,-1.019385531544685364e-01,8.658009767532348633e-02,-1.257623881101608276e-01,-1.031933799386024475e-01,2.072726935148239136e-02,5.055130645632743835e-02,-1.349143087863922119e-01,-1.049859449267387390e-01,1.259839385747909546e-01,-6.442896276712417603e-02,1.402495354413986206e-01,1.017686352133750916e-01,5.645166710019111633e-02,-9.373866021633148193e-02,8.541856706142425537e-02,1.312772035598754883e-01,1.394513100385665894e-01,-6.871794909238815308e-02,-1.578270941972732544e-01,5.196231603622436523e-02,1.325915381312370300e-02,3.659068420529365540e-02,-1.128541231155395508e-01,4.090794548392295837e-02,1.008003056049346924e-01,5.672016739845275879e-02,1.488533616065979004e-01,-1.539505571126937866e-01,9.247560799121856689e-02,1.429606974124908447e-01,2.903446927666664124e-02
-6.985471397638320923e-02,-5.265543982386589050e-02,1.292103379964828491e-01,6.478062272071838379e-02,-4.755277186632156372e-02,-2.892002090811729431e-02,-1.047243848443031311e-01,4.000436142086982727e-02,-8.729328960180282593e-02,6.707082688808441162e-02,-4.519953578710556030e-02,6.100887432694435120e-02,-1.437820494174957275e-01,1.366215795278549194e-01,1.132496446371078491e-01,-1.498137321323156357e-02,5.824916809797286987e-02,-1.505553871393203735e-01,-7.564350962638854980e-02,-7.655248045921325684e-02,-1.453166902065277100e-01,8.820128627121448517e-03,1.452586948871612549e-01,-7.890200614929199219e-02,1.549366414546966553e-01,1.329887360334396362e-01,-9.334072470664978027e-02,7.655131630599498749e-03,-9.005471318960189819e-02,-7.157114893198013306e-02,4.723990336060523987e-02,1.711507700383663177e-02,-1.323451846837997437e-02,1.433294713497161865e-01,1.272924691438674927e-01,3.986793383955955505e-02,-4.217900335788726807e-02,7.377270609140396118e-02,1.443709284067153931e-01,-7.842607796192169189e-02
-2.730918303132057190e-02,-1.777043752372264862e-02,-4.241133283358067274e-04,7.428179681301116943e-02,1.707901209592819214e-01,-6.113824620842933655e-02,3.377885743975639343e-02,7.403678447008132935e-02,-2.070640027523040771e-02,4.889164119958877563e-02,1.302847266197204590e-01,-1.426826417446136475e-01,-6.307159066200256348e-01,-9.199619293212890625e-02,1.827370524406433105e-01,6.549409776926040649e-02,1.221012100577354431e-01,1.649582572281360626e-02,1.508827973157167435e-02,-8.853192627429962158e-02,1.268567442893981934e-01,-1.067662537097930908e-01,2.598816454410552979e-01,-1.541995853185653687e-01,-1.318392902612686157e-01,1.654409915208816528e-01,6.485658884048461914e-02,-1.635996066033840179e-02,-9.592890739440917969e-02,-5.650159716606140137e-02,9.006153047084808350e-02,9.365002065896987915e-02,-1.103424876928329468e-01,7.890136539936065674e-02,-5.077021941542625427e-02,-4.421917721629142761e-02,-3.494688868522644043e-02,6.532523036003112793e-02,-2.143345177173614502e-01,1.818099468946456909e-01
-9.821187704801559448e-02,1.232524067163467407e-01,1.269859820604324341e-01,1.681889295578002930e-01,2.831060439348220825e-02,2.875513955950737000e-02,-6.256753951311111450e-02,5.538142472505569458e-02,3.922411203384399414e-01,1.015955284237861633e-01,-4.006505757570266724e-02,-2.476452104747295380e-02,7.069485187530517578e-01,7.866268604993820190e-02,-2.827980741858482361e-02,9.172447025775909424e-03,1.458654254674911499e-01,-3.496092930436134338e-02,-2.760803513228893280e-02,-1.386613845825195312e-01,1.326998025178909302e-01,5.705690011382102966e-02,-2.282414585351943970e-01,2.794136106967926025e-01,-2.240061387419700623e-02,-1.390158981084823608e-01,1.523451656103134155e-01,1.675032526254653931e-01,1.458269059658050537e-01,-1.379688736051321030e-02,4.094306379556655884e-02,1.520534008741378784e-01,-8.107762783765792847e-02,-6.077858153730630875e-03,6.006998941302299500e-02,3.638898581266403198e-02,-7.534234225749969482e-02,9.896538406610488892e-02,1.700642704963684082e-01,-5.155889689922332764e-02
1.596649289131164551e-01,-7.500869631767272949e-01,1.950693316757678986e-02,-6.179486587643623352e-02,2.119025029242038727e-02,3.664675354957580566e-01,-5.891073867678642273e-02,-1.302060961723327637e+00,1.873202919960021973e-01,-1.079012870788574219e+00,-3.838728964328765869e-01,2.195521891117095947e-01,1.078373908996582031e+00,-1.151223704218864441e-01,-1.657185852527618408e-01,8.259490877389907837e-02,-7.166197150945663452e-02,5.555185303092002869e-02,9.697386622428894043e-02,5.971444398164749146e-02,-1.282937228679656982e-01,5.900057032704353333e-02,9.897704422473907471e-02,4.899353533983230591e-02,9.689437597990036011e-02,4.397108778357505798e-02,6.676438450813293457e-02,-8.063870668411254883e-02,1.122546009719371796e-02,-6.713396310806274414e-01,-4.694671928882598877e-01,-2.532847411930561066e-02,1.515779644250869751e-01,5.059780925512313843e-02,1.205217763781547546e-01,8.004798740148544312e-02,-2.528018690645694733e-02,9.206237643957138062e-02,3.767786622047424316e-01,-1.916928589344024658e-01
-7.306645065546035767e-02,-4.324819892644882202e-02,9.897340089082717896e-02,-1.293196976184844971e-01,1.099641695618629456e-01,4.545621946454048157e-02,9.427160769701004028e-02,4.855891689658164978e-02,-2.920366451144218445e-02,1.480420380830764771e-01,-1.648723892867565155e-02,-2.317077815532684326e-01,-1.723287254571914673e-01,-4.985617008060216904e-03,-4.354462400078773499e-02,-1.392650306224822998e-01,2.041926234960556030e-01,2.665194496512413025e-02,-4.508402198553085327e-02,-1.515769064426422119e-01,1.284342408180236816e-01,-1.247179508209228516e-01,1.592576950788497925e-01,-4.343208670616149902e-02,-8.160840719938278198e-03,2.051022201776504517e-01,1.018559653311967850e-02,-1.017299667000770569e-02,1.423863321542739868e-01,1.905094683170318604e-01,2.325477451086044312e-01,9.052561968564987183e-02,1.638657227158546448e-02,-9.981133043766021729e-02,-1.458956003189086914e-01,1.075358223170042038e-02,-5.193687975406646729e-02,-4.702071100473403931e-02,-3.852732479572296143e-01,2.369582802057266235e-01
7.249049097299575806e-02,1.217434853315353394e-01,1.369953900575637817e-01,-3.532109409570693970e-02,1.585625112056732178e-02,8.648943156003952026e-02,-5.483100563287734985e-02,-6.461281329393386841e-02,-1.455482095479965210e-01,-1.210271790623664856e-01,-1.543178409337997437e-01,-1.136010959744453430e-01,1.023222580552101135e-01,1.427029669284820557e-01,-8.617135882377624512e-02,-2.439231239259243011e-02,1.452339440584182739e-01,-3.349347505718469620e-03,2.004170604050159454e-02,7.234128564596176147e-02,5.310808867216110229e-02,-1.181439161300659180e-01,-3.176967054605484009e-02,7.523677498102188110e-02,-4.657332226634025574e-02,-1.877381466329097748e-03,-1.366592794656753540e-01,6.575854122638702393e-02,7.978253997862339020e-03,-8.398806303739547729e-02,-4.132239148020744324e-02,-1.257018297910690308e-01,1.119883880019187927e-01,1.000172719359397888e-01,-1.153865158557891846e-01,3.995446860790252686e-02,-8.763275295495986938e-02,6.210680678486824036e-02,1.464860048145055771e-02,-9.072250127792358398e-02
1.651885658502578735e-01,-6.505925208330154419e-02,1.512140780687332153e-01,1.505851596593856812e-01,-4.045771062374114990e-02,1.535355001688003540e-01,-3.944621980190277100e-01,1.447822451591491699e-01,4.867196083068847656e-01,8.589235693216323853e-02,1.293090451508760452e-02,-1.189981475472450256e-01,3.931007683277130127e-01,-6.137114390730857849e-02,1.208609808236360550e-02,1.577473580837249756e-01,1.337432414293289185e-01,3.228523954749107361e-02,-4.775189235806465149e-02,-3.130209445953369141e-02,3.000785037875175476e-02,-1.575181633234024048e-01,-6.934904307126998901e-02,5.268887281417846680e-01,6.536334753036499023e-02,1.072513759136199951e-01,-7.525698095560073853e-02,1.165424361824989319e-01,-1.355288326740264893e-01,-8.787872642278671265e-02,-6.980588287115097046e-02,1.418801248073577881e-01,5.127638578414916992e-02,-1.154634132981300354e-01,2.069400995969772339e-02,6.965475529432296753e-02,9.904670529067516327e-03,-1.543138325214385986e-01,3.953001499176025391e-01,-5.942944884300231934e-01
1.874576210975646973e-01,8.678206801414489746e-02,1.355663686990737915e-01,1.166605204343795776e-01,-4.093122854828834534e-02,1.520785093307495117e-01,-3.010435998439788818e-01,-2.229567617177963257e-02,3.907333612442016602e-01,-3.637987002730369568e-02,8.543824404478073120e-02,-3.821758553385734558e-02,3.997453749179840088e-01,1.073876172304153442e-01,-8.206161856651306152e-02,5.703920125961303711e-02,7.031217962503433228e-02,5.329412221908569336e-02,5.196492373943328857e-02,-1.156695857644081116e-01,9.185501933097839355e-02,7.856849581003189087e-02,-2.490540295839309692e-01,2.668363749980926514e-01,-8.132445067167282104e-02,4.165520519018173218e-02,-6.027638912200927734e-03,6.830371171236038208e-02,3.985771909356117249e-03,-2.890711836516857147e-02,-1.937634944915771484e-01,-9.291163831949234009e-02,1.094010993838310242e-01,-8.224153518676757812e-02,7.228200882673263550e-02,1.382706165313720703e-01,-1.048469468951225281e-01,-1.278793066740036011e-01,2.846279740333557129e-01,-2.864094078540802002e-01
1.787763647735118866e-02,2.074526995420455933e-02,-1.507834903895854950e-02,-5.474456585943698883e-03,-4.423267673701047897e-03,3.453994914889335632e-02,7.437653839588165283e-02,-2.777920663356781006e-02,-1.378390341997146606e-01,7.487881928682327271e-02,-6.206647306680679321e-02,-1.068743914365768433e-01,1.351874619722366333e-01,3.108190372586250305e-02,-6.278756260871887207e-02,-1.495771855115890503e-01,1.337132155895233154e-01,7.397591322660446167e-02,-2.445368282496929169e-02,-1.153084565885365009e-03,1.253265189006924629e-03,-1.263169944286346436e-01,-1.630330458283424377e-02,-1.316834688186645508e-01,1.178729906678199768e-01,-4.528384655714035034e-02,1.352156996726989746e-01,-1.279438436031341553e-01,-1.580723971128463745e-01,-9.479604661464691162e-02,1.309719532728195190e-01,6.912468373775482178e-02,-8.974627405405044556e-02,1.423190236091613770e-01,-1.134859323501586914e-01,1.246872246265411377e-01,-1.551814973354339600e-01,8.152494579553604126e-02,6.430303305387496948e-02,-1.005615666508674622e-01
-9.198040515184402466e-02,2.396619170904159546e-01,-3.256668522953987122e-02,7.721619307994842529e-02,5.342372134327888489e-02,4.359862208366394043e-02,2.511299587786197662e-02,-2.682130634784698486e-01,-1.354434490203857422e-01,-1.912754476070404053e-01,5.965650081634521484e-02,-1.834680140018463135e-02,-1.649812459945678711e+00,-1.453186869621276855e-01,1.159797795116901398e-02,2.998046344146132469e-03,-1.277600973844528198e-01,5.291790887713432312e-02,-5.470669642090797424e-02,5.069610476493835449e-02,-8.456329256296157837e-02,-1.934219524264335632e-02,-1.138263717293739319e-01,-1.483430266380310059e-01,1.310635507106781006e-01,1.934856176376342773e-01,-3.819603845477104187e-02,-4.436117131263017654e-03,1.097587049007415771e-01,7.313708961009979248e-02,-7.094469666481018066e-02,6.128194555640220642e-02,1.423762142658233643e-01,-9.050070494413375854e-02,1.871209144592285156e-01,9.475291520357131958e-02,-2.245471812784671783e-02,-3.350022062659263611e-02,-1.775387644767761230e+00,1.397352069616317749e-01
8.986435830593109131e-02,-1.987198442220687866e-01,5.132428929209709167e-02,6.886352598667144775e-02,2.558721415698528290e-02,1.857916861772537231e-01,1.003278605639934540e-02,1.027078405022621155e-01,-1.060912087559700012e-01,-6.879919022321701050e-02,1.752163618803024292e-01,1.715961396694183350e-01,-1.715998798608779907e-01,2.134627662599086761e-03,2.155844271183013916e-01,1.313482820987701416e-01,-3.163173049688339233e-02,1.882361061871051788e-02,2.302639484405517578e-01,-1.061824411153793335e-01,-1.535257995128631592e-01,4.370802640914916992e-02,9.375860914587974548e-03,6.247727572917938232e-02,-2.198070287704467773e-02,-8.749698102474212646e-02,9.975001215934753418e-02,2.175648361444473267e-01,-1.023657396435737610e-01,7.002640981227159500e-03,-1.206358373165130615e-01,-9.802235290408134460e-03,-1.615105010569095612e-02,5.634189397096633911e-02,-6.350099109113216400e-03,-1.227013468742370605e-01,-9.319695085287094116e-02,3.164527192711830139e-02,-1.561717540025711060e-01,-5.071257799863815308e-02
-1.313649415969848633e-01,-9.892611205577850342e-02,-5.148891359567642212e-02,5.001255124807357788e-02,3.745670244097709656e-02,-2.262842655181884766e-01,-1.218853145837783813e-02,1.169402301311492920e-01,-2.150975912809371948e-02,1.948205828666687012e-01,1.304805874824523926e-01,-1.040484476834535599e-02,-1.836152374744415283e-02,-7.095752656459808350e-02,7.555817812681198120e-02,5.358136072754859924e-02,1.612134277820587158e-02,-8.898883312940597534e-02,-5.532145965844392776e-03,6.758897565305233002e-03,2.672522701323032379e-02,-1.359498500823974609e-01,5.479847639799118042e-02,-4.782443866133689880e-03,3.908021375536918640e-02,1.941679567098617554e-01,-1.159753948450088501e-01,-6.429340690374374390e-02,-1.895455457270145416e-02,1.716553866863250732e-01,3.443308174610137939e-02,-3.358388319611549377e-02,9.590905904769897461e-02,-7.869985699653625488e-02,-7.996893674135208130e-02,4.894274845719337463e-02,2.142721116542816162e-01,-1.426554918289184570e-01,-2.666056156158447266e-01,1.305377185344696045e-01
1.350958347320556641e-01,3.220279216766357422e-01,-8.801794052124023438e-02,1.389091610908508301e-01,1.665033996105194092e-01,1.516513340175151825e-02,1.795976459980010986e-01,2.044763267040252686e-01,7.066734880208969116e-02,8.287178725004196167e-02,2.588733285665512085e-02,7.770783454179763794e-02,-3.168504238128662109e-01,-1.317397803068161011e-01,1.331614106893539429e-01,-4.031264781951904297e-02,1.444105058908462524e-01,-4.608276486396789551e-02,1.731732673943042755e-02,4.837227240204811096e-02,1.129771694540977478e-01,-1.224443912506103516e-01,4.760071262717247009e-02,1.171908900141716003e-01,1.349352151155471802e-01,1.799276173114776611e-01,-9.366584569215774536e-02,1.245641186833381653e-01,2.927712723612785339e-02,-6.982834637165069580e-02,3.790756464004516602e-01,-1.506479531526565552e-01,9.870896488428115845e-02,1.102019101381301880e-01,-1.428069546818733215e-02,-6.036151573061943054e-02,2.143765836954116821e-01,-1.224485710263252258e-01,3.076583445072174072e-01,2.067706584930419922e-01
