3.163867443799972534e-02,1.428360193967819214e-01,-7.240386214107275009e-03,-6.581567227840423584e-02,-7.315740734338760376e-02,-8.612133562564849854e-02,-2.411736734211444855e-02,-1.098697260022163391e-01,3.884362429380416870e-02,-2.730259858071804047e-02,-1.278575062751770020e-01,1.440817117691040039e-01,2.714257501065731049e-02,-5.105586722493171692e-02,-1.503589153289794922e-01,1.403284519910812378e-01,-1.137791201472282410e-01,-1.099293828010559082e-01,1.564458459615707397e-01,1.292548626661300659e-01,-1.195485591888427734e-01,-1.013833656907081604e-01,-4.083501920104026794e-02,1.458968073129653931e-01,-1.255749613046646118e-01,-1.945123425684869289e-03,-2.439489401876926422e-02,8.812630176544189453e-02,-7.220917195081710815e-02,3.529204800724983215e-02,-4.428011924028396606e-02,-5.262171849608421326e-02,1.487485915422439575e-01,-1.203521341085433960e-01,9.512250870466232300e-02,1.300527155399322510e-01,-1.034426540136337280e-01,-1.228714827448129654e-02,-9.128656238317489624e-02,-3.253807500004768372e-02
5.943698436021804810e-02,-6.629888713359832764e-02,-4.060968384146690369e-02,-1.314716041088104248e-01,1.161698698997497559e-01,8.343749493360519409e-02,-1.143071725964546204e-01,-4.888612776994705200e-03,-1.005365699529647827e-01,-9.749942272901535034e-02,-5.597210954874753952e-03,8.906129002571105957e-02,-1.091406028717756271e-02,-1.036639884114265442e-01,-1.205705478787422180e-01,-5.091054737567901611e-02,3.450758382678031921e-02,9.832645952701568604e-02,-9.867494553327560425e-02,-1.395589262247085571e-01,-1.146492287516593933e-01,5.551357939839363098e-02,-1.469222903251647949e-01,-7.186235487461090088e-02,-1.402781903743743896e-01,1.036341190338134766e-01,-1.075669676065444946e-01,-4.024666175246238708e-02,4.359073005616664886e-03,-1.091775223612785339e-01,1.069098860025405884e-01,7.996570318937301636e-02,-6.407462805509567261e-02,1.513510644435882568e-01,6.263396888971328735e-02,-1.084451824426651001e-01,-7.843433320522308350e-02,-1.102349534630775452e-01,-1.566208899021148682e-01,9.250844269990921021e-02
3.503296077251434326e-01,4.096006974577903748e-02,-1.107668783515691757e-02,2.604174241423606873e-02,7.988110184669494629e-03,1.182357966899871826e-02,2.686993777751922607e-01,2.203857153654098511e-01,-9.296660125255584717e-02,-4.984540492296218872e-02,-4.259201698005199432e-03,2.547480911016464233e-02,1.166660860180854797e-01,1.738045811653137207e-01,1.221326738595962524e-01,-1.382312271744012833e-02,-4.548380523920059204e-02,1.620709151029586792e-01,-2.430557087063789368e-02,-1.373378187417984009e-01,1.561991288326680660e-03,2.060565054416656494e-01,-1.018124446272850037e-01,-1.250142455101013184e-01,-1.421264261007308960e-01,6.090239062905311584e-02,-7.225137203931808472e-03,7.428199797868728638e-02,8.308120816946029663e-02,-8.895774185657501221e-02,-6.149048209190368652e-01,-2.120952494442462921e-02,-1.177636831998825073e-01,-1.674988865852355957e-01,-1.974614709615707397e-02,9.933800250291824341e-02,1.987888813018798828e-01,8.382738381624221802e-02,2.086335420608520508e-01,3.883222118020057678e-02
3.474471867084503174e-01,9.589341282844543457e-02,-5.152936559170484543e-03,-6.694771349430084229e-02,-5.194248631596565247e-02,-6.761050969362258911e-02,3.993071615695953369e-01,1.820247769355773926e-01,-7.094620913267135620e-02,-1.080706864595413208e-01,1.857969760894775391e-01,9.503748267889022827e-02,6.632111221551895142e-02,2.040525972843170166e-01,-1.005169227719306946e-01,1.120602190494537354e-01,9.101072698831558228e-02,1.120737120509147644e-01,-1.151463240385055542e-01,-1.758996844291687012e-01,1.049108207225799561e-01,1.830294281244277954e-01,-1.341397166252136230e-01,-4.163584485650062561e-02,-1.340349316596984863e-01,-5.670310929417610168e-02,-4.217685386538505554e-02,-9.373381733894348145e-02,-2.075367607176303864e-02,1.032105982303619385e-01,-7.729772925376892090e-01,1.067024990916252136e-01,4.178169369697570801e-02,-1.203930675983428955e-01,6.668518483638763428e-02,-3.869579359889030457e-02,8.533409796655178070e-03,7.836454361677169800e-02,-5.246265977621078491e-02,1.232361271977424622e-01
4.402813315391540527e-02,1.240514516830444336e-01,2.774437330663204193e-02,-1.634301394224166870e-01,-6.373533606529235840e-02,1.339028924703598022e-01,5.678066983819007874e-02,-1.569620221853256226e-01,5.555657204240560532e-03,-2.955029718577861786e-02,2.337495610117912292e-02,4.182001203298568726e-02,-1.672877371311187744e-01,8.950075507164001465e-02,-1.373006105422973633e-01,1.193698570132255554e-01,-3.745823353528976440e-02,-1.378495395183563232e-01,-8.124694973230361938e-02,-1.584122925996780396e-01,-3.438384458422660828e-02,-5.210448056459426880e-02,1.382340490818023682e-01,-7.790351752191781998e-03,-6.699484947603195906e-05,-8.525244146585464478e-02,1.472921967506408691e-01,-1.317238360643386841e-01,8.309020102024078369e-02,1.601093634963035583e-02,3.910746797919273376e-02,2.866900339722633362e-02,8.006828278303146362e-02,-1.407126784324645996e-01,9.801390767097473145e-02,-1.340960711240768433e-01,1.326414346694946289e-01,-7.958231121301651001e-02,1.041408181190490723e-01,-9.232752025127410889e-02
6.557430624961853027e-01,3.072433173656463623e-01,4.504344984889030457e-02,2.235666066408157349e-01,-4.572053253650665283e-02,-1.605309695005416870e-01,4.221414923667907715e-01,1.742840260267257690e-01,5.483978986740112305e-02,1.657297909259796143e-01,1.572965383529663086e-01,-1.484620124101638794e-01,-3.785210475325584412e-02,1.503297388553619385e-01,-2.054115198552608490e-02,1.302285771816968918e-02,3.334113061428070068e-01,-1.238446608185768127e-01,9.737692028284072876e-02,-1.157338023185729980e-01,1.609236747026443481e-02,-1.251317858695983887e-01,1.419316604733467102e-02,-1.302243620157241821e-01,-1.083635538816452026e-01,1.502391248941421509e-01,8.393902331590652466e-02,3.690570220351219177e-02,-1.127345189452171326e-01,-1.352429389953613281e-01,-8.152925968170166016e-01,2.296400219202041626e-01,3.916005417704582214e-02,-9.869475662708282471e-02,1.131891608238220215e-01,2.877569571137428284e-02,8.519511222839355469e-01,1.706859469413757324e-01,5.197483301162719727e-01,7.155166566371917725e-02
-3.667332530021667480e-01,-2.801717258989810944e-02,-8.361280709505081177e-02,-2.002142667770385742e-01,6.727579236030578613e-02,1.191731169819831848e-01,-3.687304630875587463e-02,1.152628511190414429e-01,1.362326145172119141e-01,5.561481416225433350e-02,-2.351627685129642487e-02,-9.015196561813354492e-02,-1.132244765758514404e-01,5.009908229112625122e-02,-6.040379032492637634e-02,1.432824879884719849e-01,3.798308596014976501e-02,-7.089830935001373291e-02,3.551664948463439941e-02,1.909904628992080688e-01,2.147547602653503418e-01,-1.024886444211006165e-01,4.959999024868011475e-02,8.514361828565597534e-02,-8.858160674571990967e-02,-3.723195195198059082e-02,-8.457889407873153687e-02,7.473890483379364014e-02,-3.735247999429702759e-02,7.481141388416290283e-02,7.254205346107482910e-01,-1.343478411436080933e-01,-1.010051649063825607e-02,9.437031298875808716e-02,1.798257529735565186e-01,3.556935116648674011e-02,-4.522121548652648926e-01,6.179367005825042725e-02,-1.581936180591583252e-01,2.045048177242279053e-01
2.216706275939941406e-01,7.395027577877044678e-02,2.033073082566261292e-02,1.997715085744857788e-01,-1.177365034818649292e-01,-1.679178774356842041e-01,3.480625450611114502e-01,1.504264175891876221e-01,1.504307985305786133e-01,-2.401344180107116699e-01,-5.298995599150657654e-02,1.371798813343048096e-01,8.954777568578720093e-02,2.136041969060897827e-01,-5.887462943792343140e-02,5.933550000190734863e-02,1.596882343292236328e-01,1.184687856584787369e-02,7.591149955987930298e-02,-2.837153971195220947e-01,-6.806905567646026611e-02,2.173454761505126953e-01,-1.344640702009201050e-01,1.376597732305526733e-01,-1.558018028736114502e-01,-1.062321811914443970e-01,4.985296633094549179e-03,-1.314420104026794434e-01,6.331646814942359924e-03,-7.870963215827941895e-02,-1.956326961517333984e-01,1.977089792490005493e-01,8.040586486458778381e-03,-4.869875556323677301e-04,-1.564085185527801514e-01,5.517576634883880615e-02,1.006992459297180176e-01,-1.163522079586982727e-01,2.833512425422668457e-01,5.984375625848770142e-02
-2.960686683654785156e-01,-1.858387291431427002e-01,4.003425315022468567e-02,-1.364167928695678711e-01,1.354716569185256958e-01,7.061684131622314453e-02,3.781449422240257263e-02,1.697664707899093628e-01,-1.716083474457263947e-02,1.070273444056510925e-01,-1.154275834560394287e-01,-1.353857517242431641e-01,-6.716892123222351074e-02,-1.109835505485534668e-01,-4.740099608898162842e-02,1.857439577579498291e-01,4.798055067658424377e-02,9.196344763040542603e-02,8.057050406932830811e-02,1.264992505311965942e-01,1.892276406288146973e-01,8.235787041485309601e-03,-4.799505695700645447e-02,1.073227599263191223e-01,1.269311308860778809e-01,-1.452685743570327759e-01,1.180018037557601929e-01,8.289991877973079681e-03,-1.262756437063217163e-02,3.344255685806274414e-02,7.780671119689941406e-01,-2.223155796527862549e-01,1.194839477539062500e-01,2.002657577395439148e-02,2.140636891126632690e-01,8.587687276303768158e-03,-2.114227116107940674e-01,6.106314808130264282e-02,-1.222529038786888123e-01,1.217918470501899719e-01
5.119638442993164062e-01,4.512928426265716553e-02,-1.074261665344238281e-01,9.384038299322128296e-02,-2.207703888416290283e-02,4.756341502070426941e-02,2.359638512134552002e-01,2.144155204296112061e-01,8.813045173883438110e-02,-1.992002315819263458e-02,1.239880919456481934e-01,5.966809391975402832e-02,1.870730370283126831e-01,1.349002718925476074e-01,-8.300858736038208008e-02,8.177981525659561157e-02,1.274646818637847900e-01,1.123120933771133423e-01,-6.878520548343658447e-02,-1.552092134952545166e-01,-4.274740070104598999e-02,6.183113157749176025e-02,-2.411371655762195587e-02,-1.129692867398262024e-01,-8.126293122768402100e-02,-3.558008000254631042e-02,-1.490733176469802856e-01,4.582293797284364700e-03,6.722193956375122070e-02,-1.621973067522048950e-01,-5.901786684989929199e-01,1.460699588060379028e-01,9.137485176324844360e-02,5.009525641798973083e-02,-5.754470825195312500e-02,6.431417167186737061e-02,2.144130915403366089e-01,5.847267806529998779e-02,9.561856836080551147e-02,1.234704181551933289e-01
4.800660908222198486e-01,1.608560234308242798e-01,5.037710815668106079e-02,2.215229272842407227e-01,3.669776394963264465e-02,-9.198731929063796997e-02,1.116168051958084106e-01,8.768752217292785645e-02,7.803981006145477295e-02,-1.449261456727981567e-01,-4.295926913619041443e-02,-9.480677545070648193e-02,1.469427794218063354e-01,-5.351071059703826904e-02,1.656826436519622803e-01,-6.852485984563827515e-02,2.623434551060199738e-02,-7.468128204345703125e-02,-1.525504589080810547e-01,6.432414054870605469e-02,3.706983849406242371e-02,1.820407807826995850e-01,-7.214260846376419067e-02,3.138044849038124084e-02,-1.471753567457199097e-01,8.881787210702896118e-02,-1.548465490341186523e-01,-5.061196163296699524e-02,1.620583385229110718e-01,-3.772391751408576965e-02,-7.379445433616638184e-01,2.011644393205642700e-01,3.667770698666572571e-02,5.820582062005996704e-02,9.385726600885391235e-02,-1.019083186984062195e-01,1.400771886110305786e-01,8.953942358493804932e-02,9.021446108818054199e-02,6.646502017974853516e-02
8.491361141204833984e-02,-1.553012877702713013e-01,9.903722256422042847e-02,-4.516978561878204346e-02,-1.571167707443237305e-01,-7.048872858285903931e-02,-8.101904392242431641e-02,1.221629455685615540e-01,8.868403732776641846e-02,-5.557008087635040283e-02,7.205217331647872925e-02,-1.040780637413263321e-02,-1.540953963994979858e-01,2.926255948841571808e-02,-1.486335545778274536e-01,-5.273484066128730774e-02,-1.470924913883209229e-02,1.313394308090209961e-01,-1.096121966838836670e-01,9.576096385717391968e-02,-8.253958821296691895e-02,-1.322585344314575195e-01,-1.382008790969848633e-01,7.606967538595199585e-02,8.855044096708297729e-02,6.439923495054244995e-02,5.358899384737014771e-02,1.546239554882049561e-01,1.395345628261566162e-01,-5.530000478029251099e-02,7.053004205226898193e-02,-2.627339400351047516e-02,-1.052304878830909729e-01,1.200740560889244080e-01,-2.287921868264675140e-02,-3.422687528654932976e-03,-4.781279712915420532e-02,-1.790186506696045399e-03,-1.470634788274765015e-01,4.543320462107658386e-02
1.209750548005104065e-01,-9.692361205816268921e-02,-5.195236578583717346e-02,1.354549825191497803e-01,9.650439769029617310e-02,-1.493572145700454712e-01,-1.302749961614608765e-01,-4.992567747831344604e-02,1.421189606189727783e-01,-5.310258641839027405e-02,-4.139019548892974854e-02,1.088019111193716526e-03,-1.368488520383834839e-01,-1.535243541002273560e-01,-1.577486693859100342e-01,-1.039497852325439453e-01,-1.122521758079528809e-01,2.843828406184911728e-03,-3.509470447897911072e-02,8.701682090759277344e-02,-2.659309282898902893e-02,1.033656150102615356e-01,5.698636546730995178e-02,3.909206762909889221e-02,9.166626632213592529e-02,6.062277778983116150e-02,7.674070447683334351e-02,1.967738009989261627e-02,-1.508560497313737869e-02,1.064287051558494568e-01,9.677383303642272949e-02,1.222752779722213745e-01,-1.234712451696395874e-02,1.032171994447708130e-01,1.459278818219900131e-02,1.544823944568634033e-01,-9.503985196352005005e-02,-8.854593336582183838e-02,-8.670834824442863464e-03,1.341012716293334961e-01
-4.715559780597686768e-01,-1.789560467004776001e-01,-6.200450006872415543e-03,-1.595346182584762573e-01,-5.013980343937873840e-02,1.479352861642837524e-01,2.918652258813381195e-02,1.551371812820434570e-01,1.425888538360595703e-01,5.461478978395462036e-02,1.177533119916915894e-01,-2.841512113809585571e-02,-1.451777666807174683e-01,1.568578183650970459e-01,1.785236001014709473e-01,1.711119264364242554e-01,-2.300387918949127197e-01,-1.060178056359291077e-01,-1.696238480508327484e-02,-9.868258237838745117e-02,1.442035138607025146e-01,-7.599160075187683105e-02,1.261225789785385132e-01,2.309298142790794373e-03,-3.875361755490303040e-02,-1.115076690912246704e-01,2.120397053658962250e-03,6.210936978459358215e-02,-1.234394535422325134e-01,-1.721722632646560669e-02,8.281387686729431152e-01,-1.006363183259963989e-01,1.427037417888641357e-01,1.464514136314392090e-01,2.302841655910015106e-02,-3.584942221641540527e-02,-3.423360884189605713e-01,8.585479110479354858e-02,3.518878296017646790e-02,9.070011973381042480e-02
3.886901438236236572e-01,2.179414592683315277e-02,-9.651575982570648193e-02,1.411884725093841553e-01,-1.160533800721168518e-01,1.038559675216674805e-01,2.150578945875167847e-01,-2.208197861909866333e-02,4.963025078177452087e-02,-1.235308051109313965e-01,4.160936549305915833e-02,-1.197465434670448303e-01,1.937841475009918213e-01,1.080255135893821716e-01,-5.846821144223213196e-02,1.242926269769668579e-01,1.965891756117343903e-02,1.545427292585372925e-01,1.026048511266708374e-01,-9.553455561399459839e-02,-7.867181301116943359e-02,4.322792589664459229e-02,-6.978030502796173096e-02,-5.573214218020439148e-02,-1.099138520658016205e-02,-5.305003374814987183e-02,-1.457727253437042236e-01,-1.289901230484247208e-02,-2.315901964902877808e-02,2.035086415708065033e-02,-5.028075575828552246e-01,1.930724680423736572e-01,-1.210984811186790466e-01,3.394420444965362549e-02,7.776425033807754517e-02,9.002492576837539673e-02,2.172160893678665161e-01,1.736119836568832397e-01,1.841136217117309570e-01,-7.314963638782501221e-02
3.728392720222473145e-01,2.017789930105209351e-01,1.409834474325180054e-01,2.170769423246383667e-01,1.093967512133531272e-04,-1.033213734626770020e-01,3.367016613483428955e-01,1.343792378902435303e-01,5.420508980751037598e-02,-3.592500835657119751e-02,-3.300415724515914917e-02,9.845247864723205566e-02,-2.854199614375829697e-03,1.207161545753479004e-01,-9.333327412605285645e-02,9.900059551000595093e-02,9.929528832435607910e-02,1.712747961282730103e-01,-1.756523968651890755e-03,2.065735636278986931e-03,6.618116050958633423e-02,1.072381287813186646e-01,6.607833504676818848e-02,2.510558255016803741e-02,-7.434777170419692993e-02,3.667570278048515320e-02,-1.002419516444206238e-01,-2.330706454813480377e-02,1.438074409961700439e-01,3.271612524986267090e-02,-5.598808526992797852e-01,5.230500176548957825e-02,-1.440779566764831543e-01,1.609133370220661163e-02,8.730574510991573334e-03,-2.381458319723606110e-02,3.052401542663574219e-01,-8.455315232276916504e-02,3.632562234997749329e-02,1.099347770214080811e-01
3.516020178794860840e-01,2.193217575550079346e-01,1.207146123051643372e-01,1.420922875404357910e-01,-5.980291869491338730e-03,6.357801705598831177e-02,3.838523030281066895e-01,9.711842238903045654e-02,-1.593584567308425903e-02,-9.936264157295227051e-02,2.040912955999374390e-01,-1.889143022708594799e-03,4.658864811062812805e-02,1.793543398380279541e-01,3.100132802501320839e-03,2.438732050359249115e-02,1.663405150175094604e-01,1.676623076200485229e-01,-2.192281931638717651e-02,-1.501865983009338379e-01,-1.710010915994644165e-01,1.034184545278549194e-01,-3.470699116587638855e-02,4.587663710117340088e-02,2.528377063572406769e-02,-4.788478836417198181e-02,-3.893439844250679016e-02,-1.321889907121658325e-01,2.287825010716915131e-02,-6.891911476850509644e-02,-5.202132463455200195e-01,-6.944728549569845200e-03,-1.364347040653228760e-01,5.943065974861383438e-03,8.233598619699478149e-02,-4.186253622174263000e-02,1.211783736944198608e-01,1.190386414527893066e-01,1.747899055480957031e-01,-8.248251676559448242e-02
5.385696887969970703e-01,5.054284259676933289e-02,-8.479816466569900513e-02,2.341357022523880005e-01,9.770141541957855225e-02,-2.002590708434581757e-02,3.399100005626678467e-01,1.546787768602371216e-01,-1.381049305200576782e-01,-1.610381454229354858e-01,1.962504535913467407e-01,1.126273721456527710e-01,1.475688517093658447e-01,1.988398283720016479e-01,7.777415215969085693e-02,1.409486979246139526e-01,2.114727050065994263e-01,1.057491172105073929e-02,-7.013998925685882568e-02,7.112120091915130615e-02,6.828789412975311279e-02,-5.333329737186431885e-02,-1.760301180183887482e-02,-1.543928086757659912e-01,-1.213438585400581360e-01,1.061396375298500061e-01,1.509970277547836304e-01,1.169464662671089172e-01,1.383856534957885742e-01,-7.815007865428924561e-02,-5.722064375877380371e-01,1.789480000734329224e-01,1.448758393526077271e-01,-7.785882055759429932e-02,-9.606256335973739624e-02,-4.545621946454048157e-02,2.438026666641235352e-01,-4.219185933470726013e-02,-7.062231190502643585e-03,-4.067478701472282410e-02
3.973287940025329590e-01,9.474286437034606934e-02,1.415634751319885254e-01,1.003604829311370850e-01,1.099300608038902283e-01,4.078869894146919250e-02,3.677712082862854004e-01,1.602206677198410034e-01,-1.163605749607086182e-01,-1.550298882648348808e-03,8.339229226112365723e-02,4.515034332871437073e-02,1.947481557726860046e-02,1.493899077177047729e-01,-9.965273737907409668e-02,-2.050712704658508301e-03,3.217206001281738281e-01,-1.513985991477966309e-01,-1.181798279285430908e-01,3.701900318264961243e-02,1.015488281846046448e-01,-2.288020849227905273e-01,-2.066590264439582825e-02,-4.699245840311050415e-02,-3.338984027504920959e-02,1.187720671296119690e-01,5.831561237573623657e-02,1.487253606319427490e-01,1.397611945867538452e-01,-2.060804218053817749e-01,-6.176179647445678711e-01,1.221810802817344666e-01,6.896451115608215332e-02,-9.691688418388366699e-02,1.370416767895221710e-02,-1.000245511531829834e-01,5.065609216690063477e-01,1.503546833992004395e-01,2.959313690662384033e-01,-7.254499942064285278e-02
-2.240519970655441284e-01,1.217932160943746567e-02,-3.445861861109733582e-02,-5.093155428767204285e-02,6.573329120874404907e-02,-7.908853143453598022e-02,-1.522831171751022339e-01,-4.551034048199653625e-02,-8.081890642642974854e-02,2.546270564198493958e-02,-3.377359732985496521e-02,-5.490805953741073608e-02,-4.210850968956947327e-02,5.186454206705093384e-02,-2.278430387377738953e-02,1.653358638286590576e-01,-1.930690109729766846e-01,-1.159481629729270935e-01,-1.004349999129772186e-02,2.049962580204010010e-01,1.386987268924713135e-01,1.170756071805953979e-01,1.474912613630294800e-01,3.326565027236938477e-02,5.673472583293914795e-02,3.154605999588966370e-02,8.432675898075103760e-02,9.750593453645706177e-02,-6.753000617027282715e-02,3.573776409029960632e-02,7.438215613365173340e-01,-6.284155696630477905e-02,-1.159438490867614746e-01,1.934587955474853516e-01,1.704279184341430664e-01,-9.479725360870361328e-02,-3.253682553768157959e-01,9.885099530220031738e-02,-4.218956455588340759e-02,1.799369156360626221e-01
5.629777908325195312e-01,6.954975426197052002e-03,-1.608639396727085114e-02,2.008099108934402466e-01,7.714126259088516235e-02,5.886375904083251953e-02,3.570809066295623779e-01,1.381766647100448608e-01,-7.818811386823654175e-02,-1.287431567907333374e-01,-1.595338806509971619e-02,1.901771640405058861e-03,1.515324264764785767e-01,-3.409598395228385925e-02,7.576904445886611938e-02,1.485009640455245972e-01,-1.672054640948772430e-02,1.182483360171318054e-01,-1.460546106100082397e-01,7.627344876527786255e-02,7.990133017301559448e-02,-7.087134569883346558e-02,8.419523388147354126e-02,7.987001538276672363e-02,1.449880003929138184e-02,2.784176543354988098e-02,1.234365254640579224e-01,2.725372463464736938e-02,6.174145266413688660e-02,-2.051633596420288086e-01,-5.490142107009887695e-01,1.195860803127288818e-01,-1.138812080025672913e-01,-2.762964740395545959e-02,-1.417796462774276733e-01,1.482500433921813965e-01,2.887945473194122314e-01,1.952500641345977783e-02,3.997043147683143616e-02,-1.235034018754959106e-01
6.165210530161857605e-02,-1.586524210870265961e-02,-5.071157962083816528e-02,-3.646643459796905518e-02,-1.040961742401123047e-01,1.384326517581939697e-01,3.397432342171669006e-02,-6.091456860303878784e-03,-3.290126845240592957e-02,9.577127546072006226e-02,-1.196126863360404968e-01,6.931906938552856445e-02,-6.458229422569274902e-01,-3.039304614067077637e-01,1.313732117414474487e-01,1.348320245742797852e-01,1.265722215175628662e-01,-7.890555262565612793e-01,7.610049098730087280e-02,4.968606308102607727e-02,1.515257060527801514e-01,-1.666979432106018066e+00,6.710970401763916016e-02,-1.570774763822555542e-01,-2.122981101274490356e-02,4.613857716321945190e-02,6.100491806864738464e-02,3.958889842033386230e-02,-3.441856801509857178e-01,1.929749697446823120e-01,2.089383602142333984e+00,3.470499068498611450e-02,-2.743646269664168358e-03,2.412722557783126831e-01,7.322820276021957397e-02,-1.144314184784889221e-01,-1.701602101325988770e+00,-3.163847699761390686e-02,-5.293025076389312744e-02,-2.109065800905227661e-01
3.477797210216522217e-01,6.592043489217758179e-02,4.812965169548988342e-02,1.670388504862785339e-02,-7.945215702056884766e-02,7.577376812696456909e-02,1.976203471422195435e-01,1.616162657737731934e-01,-1.287484616041183472e-01,-1.673763096332550049e-01,2.453092187643051147e-01,-1.057705208659172058e-01,2.077541947364807129e-01,1.589482426643371582e-01,-6.771048158407211304e-02,2.005624473094940186e-01,5.835840106010437012e-02,1.195885092020034790e-01,5.968613177537918091e-02,-1.251349896192550659e-01,-2.779761701822280884e-02,1.679296195507049561e-01,-3.092071786522865295e-02,-2.070517838001251221e-02,-1.716291159391403198e-01,1.336364597082138062e-01,-8.337384462356567383e-02,3.703274205327033997e-02,2.924054116010665894e-02,-9.817338734865188599e-02,-8.229328393936157227e-01,2.315639555454254150e-01,-3.245811909437179565e-03,-3.746971487998962402e-02,-1.095307618379592896e-01,-4.570339992642402649e-02,9.259959310293197632e-02,1.368639171123504639e-01,1.491313576698303223e-01,8.265153318643569946e-02
-5.915286764502525330e-02,-1.044759824872016907e-01,1.206577057018876076e-03,1.152414679527282715e-01,6.626277416944503784e-02,-1.265268027782440186e-01,-1.314982175827026367e-01,1.153931170701980591e-01,-1.211294904351234436e-01,-1.384599953889846802e-01,8.343700319528579712e-02,-1.290372610092163086e-01,-1.384811103343963623e-01,-9.409977495670318604e-02,1.214286126196384430e-02,2.388916909694671631e-02,9.550438821315765381e-02,3.425923362374305725e-02,5.094711109995841980e-02,-1.543965786695480347e-01,2.700462192296981812e-02,4.777143895626068115e-02,5.558070912957191467e-02,3.786262869834899902e-02,-8.297587186098098755e-02,2.672861702740192413e-02,-2.739007584750652313e-02,-1.220215950161218643e-02,-5.704209953546524048e-02,-1.541487276554107666e-01,-6.534063071012496948e-02,-1.468495428562164307e-01,1.022478938102722168e-01,-3.432776406407356262e-02,-9.623702615499496460e-02,1.422283649444580078e-01,1.228019222617149353e-01,7.652482390403747559e-02,1.073110401630401611e-01,6.338151544332504272e-02
5.544868707656860352e-01,2.137129381299018860e-02,-9.401961416006088257e-02,1.468209624290466309e-01,5.443280190229415894e-02,1.474062651395797729e-01,2.480824291706085205e-01,9.714055061340332031e-02,-8.611838519573211670e-02,1.113697215914726257e-01,1.923018544912338257e-01,6.765954196453094482e-02,1.297103762626647949e-01,3.070598281919956207e-02,-5.717769637703895569e-02,4.269365593791007996e-02,-2.282112091779708862e-02,1.166939735412597656e-01,7.847802713513374329e-03,9.680981934070587158e-02,-6.565272063016891479e-02,1.228694766759872437e-01,-2.008526027202606201e-01,6.048180907964706421e-02,-4.176115989685058594e-02,-9.492064267396926880e-02,-1.441120505332946777e-01,7.554201036691665649e-02,1.505673974752426147e-01,1.144495159387588501e-01,-7.435621619224548340e-01,5.424274876713752747e-02,1.547283828258514404e-01,-2.982544340193271637e-02,-1.418129652738571167e-01,-8.153370767831802368e-02,1.839153766632080078e-01,-1.554189994931221008e-02,5.339813232421875000e-02,4.383746162056922913e-02
-2.336328029632568359e-01,-1.099451929330825806e-01,-6.183470785617828369e-02,2.879242412745952606e-02,1.170255709439516068e-03,-7.792232930660247803e-02,-1.980939209461212158e-01,1.194753423333168030e-01,-7.567304372787475586e-02,1.015303432941436768e-01,5.081942677497863770e-02,-4.889898002147674561e-02,-2.985913679003715515e-02,1.134980246424674988e-01,2.140115015208721161e-02,1.702294796705245972e-01,2.391936816275119781e-02,-2.108829282224178314e-02,7.351467013359069824e-02,-1.842731982469558716e-02,1.126903891563415527e-01,1.555610597133636475e-01,1.656705439090728760e-01,2.344117127358913422e-02,3.117117285728454590e-02,-2.400026097893714905e-02,-1.420786082744598389e-01,-6.493436545133590698e-02,-1.120702177286148071e-01,1.047569513320922852e-01,7.125712037086486816e-01,-1.238625794649124146e-01,5.684579536318778992e-02,1.727276854217052460e-02,7.770167291164398193e-02,5.372544005513191223e-02,-4.710653126239776611e-01,-3.689544647932052612e-02,-5.064832419157028198e-02,2.286606878042221069e-01
1.691394299268722534e-02,1.132719591259956360e-01,-2.046299166977405548e-02,-5.888684093952178955e-02,5.730004981160163879e-02,-3.905217722058296204e-02,-1.757281646132469177e-02,-8.896042406558990479e-02,-2.444627135992050171e-02,4.726741835474967957e-02,-1.448528170585632324e-01,1.263664513826370239e-01,6.063931807875633240e-02,-3.891634196043014526e-02,-1.717706471681594849e-01,4.332698136568069458e-02,2.331400662660598755e-02,7.967820018529891968e-02,-8.011545985937118530e-02,6.802644580602645874e-02,-1.435673534870147705e-01,1.017083898186683655e-01,-7.158627361059188843e-02,5.959004163742065430e-02,-1.701877079904079437e-02,-5.354743078351020813e-02,1.489149928092956543e-01,2.320286817848682404e-02,-5.239582434296607971e-02,-9.160296618938446045e-02,4.680928587913513184e-02,-1.875410825014114380e-01,-4.428933560848236084e-02,6.123765930533409119e-02,-1.178249418735504150e-01,1.369533389806747437e-01,2.954965084791183472e-02,-1.675462275743484497e-01,-8.547206968069076538e-02,1.157734766602516174e-01
-1.518117934465408325e-01,-1.525234151631593704e-02,5.649251490831375122e-02,9.713060408830642700e-02,5.725876614451408386e-02,5.120856221765279770e-03,8.883324265480041504e-02,4.889790434390306473e-03,7.537227869033813477e-02,7.654803246259689331e-02,2.420539036393165588e-02,-1.394838392734527588e-01,-4.961381480097770691e-02,-1.404762417078018188e-01,5.850709602236747742e-02,-3.898613899946212769e-02,1.070445179939270020e-01,-1.118923127651214600e-01,-7.318308204412460327e-02,-1.331266760826110840e-01,-9.299193322658538818e-02,-7.284001912921667099e-03,-5.857709795236587524e-02,1.641494408249855042e-02,-6.303975731134414673e-02,1.353050768375396729e-01,-4.518166929483413696e-02,1.098540797829627991e-01,1.442360728979110718e-01,6.871395558118820190e-02,7.318615168333053589e-02,-1.497558653354644775e-01,2.852372825145721436e-02,1.563605070114135742e-01,9.122317284345626831e-02,-1.119295433163642883e-01,-8.543081581592559814e-02,-1.544870287179946899e-01,9.699268639087677002e-02,-1.290223896503448486e-01
-1.172776743769645691e-01,-1.521743535995483398e-01,-1.159042268991470337e-01,-1.448945701122283936e-01,9.687303751707077026e-02,-3.209920227527618408e-02,1.268689185380935669e-01,-3.731364011764526367e-02,-4.633563756942749023e-02,-3.003033809363842010e-02,-3.287978097796440125e-02,1.475637108087539673e-01,9.592704474925994873e-02,-1.491576433181762695e-01,2.673303149640560150e-02,1.497715115547180176e-01,-9.851422905921936035e-02,7.432451844215393066e-02,5.262156948447227478e-02,-1.088557988405227661e-01,-5.367878824472427368e-02,-1.163709983229637146e-01,-1.057142913341522217e-01,9.236336499452590942e-02,-1.037946343421936035e-01,-3.820309042930603027e-02,-3.993124887347221375e-02,9.500632435083389282e-02,6.714715808629989624e-02,-7.011514157056808472e-02,-1.057620197534561157e-01,1.195313483476638794e-01,1.560925543308258057e-01,-4.815438389778137207e-02,1.114833727478981018e-01,-7.135266810655593872e-02,-1.106119453907012939e-01,-5.939090624451637268e-02,-9.482641518115997314e-02,2.625934593379497528e-02
-2.791673541069030762e-01,-7.961429655551910400e-02,1.071165427565574646e-01,-1.919918879866600037e-02,1.367184221744537354e-01,2.156135290861129761e-01,5.772171542048454285e-02,3.446960449218750000e-02,-1.316339373588562012e-01,3.995599597692489624e-02,1.734441667795181274e-01,3.876479715108871460e-02,-5.191240459680557251e-02,-4.939680173993110657e-02,-3.361529111862182617e-02,1.828990429639816284e-01,-1.680297404527664185e-01,-1.779341697692871094e-01,-9.231889992952346802e-02,-2.611594274640083313e-02,5.553926154971122742e-02,-1.120284795761108398e-01,1.135158240795135498e-01,2.913689240813255310e-02,-4.566516727209091187e-02,8.455480635166168213e-02,-8.171112835407257080e-02,-5.149815231561660767e-02,-1.120352372527122498e-01,1.977956593036651611e-01,7.195307016372680664e-01,4.323446750640869141e-02,1.265183836221694946e-01,5.118077248334884644e-02,2.027958258986473083e-02,-1.164650171995162964e-01,-6.975942850112915039e-02,1.760746389627456665e-01,-1.626603305339813232e-02,3.120421804487705231e-02
-4.234600067138671875e-01,-6.422317586839199066e-03,-4.244955629110336304e-02,-1.226788037456572056e-03,-6.951200962066650391e-02,2.328811585903167725e-01,-1.187575161457061768e-01,4.898513108491897583e-02,-1.005065441131591797e-01,1.263392418622970581e-01,-1.764563471078872681e-01,-1.281048506498336792e-01,7.658113539218902588e-02,2.159030549228191376e-02,-1.581075601279735565e-02,1.578214019536972046e-01,-8.839987218379974365e-02,6.867548078298568726e-02,-8.030379563570022583e-02,1.703862473368644714e-02,1.797259300947189331e-01,-1.706714481115341187e-01,-2.712191641330718994e-02,-4.826230928301811218e-02,-1.652980409562587738e-02,1.021308600902557373e-01,9.861304610967636108e-02,8.154622465372085571e-02,-8.639957010746002197e-02,7.536186277866363525e-02,6.157820224761962891e-01,-1.508088596165180206e-02,-1.514862328767776489e-01,2.435572445392608643e-01,1.891139000654220581e-01,6.710051000118255615e-02,-2.521026134490966797e-01,1.849463284015655518e-01,-3.042825683951377869e-02,1.573929786682128906e-01
-4.604759216308593750e-01,-1.770685613155364990e-01,5.678696557879447937e-02,-1.323874443769454956e-01,1.063489262014627457e-02,1.484722644090652466e-01,7.028138637542724609e-02,-7.541491091251373291e-02,6.334629654884338379e-02,1.633949577808380127e-01,1.190719902515411377e-01,2.447605691850185394e-02,-2.171767950057983398e-01,8.106312155723571777e-02,1.983748823404312134e-01,1.742663979530334473e-01,1.871225889772176743e-03,-3.790313750505447388e-02,8.898486196994781494e-02,4.949352145195007324e-02,1.979082226753234863e-01,1.360956132411956787e-01,1.667411774396896362e-01,-2.842644974589347839e-02,1.911177188158035278e-01,8.425834029912948608e-02,-1.296183019876480103e-01,7.837360352277755737e-02,-1.153297275304794312e-01,1.343508213758468628e-01,6.790214776992797852e-01,-5.083515495061874390e-02,-4.466434940695762634e-02,2.203131318092346191e-01,1.422538608312606812e-01,-8.225958794355392456e-02,-8.389893174171447754e-02,-7.953896187245845795e-03,-8.297160267829895020e-02,3.240438178181648254e-02
4.566133916378021240e-01,-5.755861476063728333e-02,6.561120599508285522e-02,1.035773828625679016e-01,-5.379449576139450073e-02,1.211976110935211182e-01,2.963164448738098145e-01,8.135484904050827026e-02,1.249192580580711365e-01,-2.845273725688457489e-02,1.191205158829689026e-01,-3.815440461039543152e-02,1.362179964780807495e-01,8.423661440610885620e-02,-8.675608783960342407e-02,1.188295856118202209e-01,2.414249628782272339e-01,8.136883378028869629e-02,1.250391155481338501e-01,1.061236038804054260e-01,-3.284854814410209656e-02,-3.717776015400886536e-02,-1.351138055324554443e-01,4.127074405550956726e-02,-1.060849130153656006e-01,8.604935370385646820e-03,-3.516776114702224731e-02,-1.384630054235458374e-01,-9.022043645381927490e-02,-1.854940354824066162e-01,-6.011447906494140625e-01,2.366805225610733032e-01,1.071351245045661926e-01,-2.024689912796020508e-01,-4.026035591959953308e-02,6.796274334192276001e-02,3.421958088874816895e-01,1.282248198986053467e-01,1.024729236960411072e-01,1.092250570654869080e-01
-3.296975195407867432e-01,-1.006965860724449158e-01,1.075459271669387817e-01,-2.547118961811065674e-01,8.980800211429595947e-02,-8.897488936781883240e-03,-7.616745308041572571e-03,2.130846679210662842e-01,3.390070050954818726e-03,2.148555517196655273e-01,2.556845732033252716e-02,5.880294367671012878e-02,5.547740310430526733e-02,-7.213172316551208496e-02,9.946223348379135132e-02,1.709288507699966431e-01,-2.044164240360260010e-01,-1.418655812740325928e-01,1.248610466718673706e-01,2.120311856269836426e-01,-1.273183990269899368e-02,3.655023127794265747e-02,-1.478266343474388123e-02,-1.730827614665031433e-02,8.056249469518661499e-02,-3.279198333621025085e-02,1.470773816108703613e-01,-1.024086922407150269e-01,-6.134365126490592957e-02,1.112519279122352600e-01,8.517471551895141602e-01,9.304422885179519653e-02,-4.242912679910659790e-02,1.090003103017807007e-01,9.564151614904403687e-02,-4.034627601504325867e-02,-2.942698001861572266e-01,2.652558498084545135e-02,8.595149964094161987e-02,-1.484779268503189087e-02
3.894609808921813965e-01,1.938039511442184448e-01,2.869361080229282379e-02,4.319029301404953003e-02,1.449963897466659546e-01,-7.404949516057968140e-02,4.136873185634613037e-01,6.972794979810714722e-02,1.202620845288038254e-02,2.941703796386718750e-02,-4.121142253279685974e-02,-4.833578318357467651e-02,1.968946903944015503e-01,1.060223132371902466e-01,2.797307074069976807e-02,-7.032217830419540405e-02,2.463758736848831177e-01,3.437507664784789085e-03,6.614028662443161011e-02,1.058500483632087708e-01,-5.753666162490844727e-02,1.919952929019927979e-01,-1.100928559899330139e-01,-1.132638752460479736e-01,1.160262897610664368e-01,1.114822179079055786e-02,-9.302412718534469604e-02,4.351199790835380554e-02,2.118309885263442993e-01,1.086781695485115051e-01,-6.403958201408386230e-01,-5.110772326588630676e-02,1.115468591451644897e-01,-6.554391980171203613e-02,2.861277759075164795e-02,1.000968515872955322e-01,3.265891671180725098e-01,-4.884513840079307556e-02,3.956727683544158936e-02,8.920882642269134521e-02
6.657143682241439819e-02,7.690789550542831421e-02,-1.539891958236694336e-01,1.841792277991771698e-02,8.692523464560508728e-03,-1.731050312519073486e-01,1.179328933358192444e-01,-8.937433362007141113e-02,-1.535248458385467529e-01,-1.300866249948740005e-02,-1.521841138601303101e-01,2.353241853415966034e-02,3.721618279814720154e-02,1.063430458307266235e-01,-3.290125727653503418e-02,2.434479631483554840e-02,-1.662827432155609131e-01,-5.791141465306282043e-02,-1.554477065801620483e-01,-1.390832960605621338e-01,4.389965906739234924e-03,4.950177296996116638e-02,-6.410649418830871582e-02,4.996775533072650433e-05,1.159034948796033859e-02,7.507972419261932373e-02,1.394296586513519287e-01,1.421586722135543823e-01,1.051646471023559570e-01,-7.433159649372100830e-02,4.157792031764984131e-02,-1.086817309260368347e-01,-4.694350808858871460e-02,1.303913593292236328e-01,-1.368969976902008057e-01,5.869154632091522217e-02,-5.862529948353767395e-02,1.208602413535118103e-01,-1.666577458381652832e-01,5.670358985662460327e-02
-1.025899797677993774e-01,-2.635541744530200958e-02,-2.728118747472763062e-02,1.532878130674362183e-01,4.554269462823867798e-02,1.164380647242069244e-02,-1.103832721710205078e-01,-1.357810795307159424e-01,3.437615558505058289e-02,-3.477414697408676147e-02,-8.359793573617935181e-02,1.016197130084037781e-01,1.522148996591567993e-01,-1.377953439950942993e-01,-1.036244109272956848e-01,-1.001857817173004150e-01,1.123524308204650879e-01,-7.222074270248413086e-02,-1.398763526231050491e-02,3.448954969644546509e-02,5.922360718250274658e-02,-6.740400940179824829e-02,-1.212505921721458435e-01,2.505648136138916016e-02,-1.188623383641242981e-01,-1.301437169313430786e-01,5.196135491132736206e-02,-1.343857944011688232e-01,-1.129482164978981018e-01,3.584503196179866791e-03,1.285727918148040771e-01,4.618077725172042847e-02,7.020249217748641968e-02,-6.197356805205345154e-02,7.513936609029769897e-02,9.878332912921905518e-02,1.494222432374954224e-01,1.959505025297403336e-03,1.111648529767990112e-01,4.387323278933763504e-03
4.620523750782012939e-01,1.906307637691497803e-01,-2.790918573737144470e-02,-3.179789707064628601e-02,9.805018454790115356e-02,4.553516209125518799e-02,1.538049280643463135e-01,1.868112534284591675e-01,9.504085034132003784e-02,-1.816408038139343262e-01,2.055857479572296143e-01,7.978548109531402588e-02,7.220178842544555664e-02,2.151275724172592163e-01,-8.384732156991958618e-02,1.096079424023628235e-01,-2.756532840430736542e-02,1.841550022363662720e-01,-2.499320730566978455e-02,1.010608300566673279e-01,-1.773756146430969238e-01,1.689189970493316650e-01,-1.417446881532669067e-01,-1.076777428388595581e-01,-3.245216608047485352e-02,7.846924662590026855e-02,1.173668503761291504e-01,1.305581778287887573e-01,2.593490853905677795e-02,-9.037036448717117310e-02,-7.580638527870178223e-01,5.860666930675506592e-02,2.556778863072395325e-02,-9.123750030994415283e-02,-1.016182005405426025e-01,-7.586058974266052246e-02,4.313571378588676453e-02,1.580693125724792480e-01,-4.956954345107078552e-02,1.476770788431167603e-01
-7.451250404119491577e-02,4.082247614860534668e-03,2.477258443832397461e-02,-3.325579687952995300e-02,1.176930591464042664e-01,1.335262954235076904e-01,1.108771041035652161e-01,-1.180476229637861252e-02,-1.204723715782165527e-01,3.106028400361537933e-02,1.183574125170707703e-01,-5.420066788792610168e-02,-3.310219570994377136e-02,1.280767917633056641e-01,-1.331044286489486694e-01,-3.208644688129425049e-02,-9.930377453565597534e-02,-7.933477312326431274e-02,-3.540208796039223671e-03,7.189432531595230103e-02,-5.410033836960792542e-02,-8.751487731933593750e-02,-1.060589030385017395e-01,-1.163614764809608459e-01,-1.269531697034835815e-01,-1.415468454360961914e-01,5.154201015830039978e-02,1.049698665738105774e-01,5.995308980345726013e-02,-4.569406062364578247e-02,1.028756350278854370e-01,1.075812131166458130e-01,-9.246228635311126709e-02,1.233421117067337036e-01,9.479531645774841309e-02,-6.295087188482284546e-02,-1.638653874397277832e-02,-4.719710350036621094e-02,8.960239589214324951e-02,-1.183131113648414612e-01
-1.301481872797012329e-01,1.002461314201354980e-01,-3.803993761539459229e-02,-2.477880194783210754e-02,2.981095761060714722e-02,-1.144529655575752258e-01,1.301762014627456665e-01,1.153112426400184631e-01,-1.498603224754333496e-01,-4.880387336015701294e-02,-4.589191451668739319e-02,-1.534505635499954224e-01,7.670885324478149414e-02,-1.223549097776412964e-01,1.145230308175086975e-01,8.733499050140380859e-02,5.679772794246673584e-02,-3.755583614110946655e-02,-2.277170680463314056e-02,-1.431794911623001099e-01,-1.654062122106552124e-01,-8.544234186410903931e-02,9.941180236637592316e-03,-1.829164661467075348e-02,3.257286921143531799e-02,-1.444517821073532104e-01,9.229040145874023438e-02,1.447073817253112793e-01,-1.084031835198402405e-01,6.864973902702331543e-02,1.359780877828598022e-01,-1.485465764999389648e-01,-7.271241047419607639e-04,1.331754028797149658e-01,-1.518974751234054565e-01,9.493049234151840210e-02,1.466200500726699829e-01,1.365670114755630493e-01,-1.178701072931289673e-01,-1.632073223590850830e-01
