1.319118291139602661e-01
-2.366917394101619720e-02
8.222116529941558838e-02
1.785871200263500214e-02
-2.672592643648386002e-03
-6.854305863380432129e-01
5.158609151840209961e-01
3.597728908061981201e-01
-1.488280743360519409e-01
5.136312842369079590e-01
4.313063919544219971e-01
-2.448694854974746704e-01
-8.219391703605651855e-01
-4.199941828846931458e-02
6.631698608398437500e-01
2.604432404041290283e-01
4.581710696220397949e-01
-3.716573417186737061e-01
-2.026277780532836914e-02
1.060942336916923523e-01
-6.957643032073974609e-01
-1.593193858861923218e-01
3.829409182071685791e-01
4.030471444129943848e-01
-5.452517271041870117e-01
5.850767493247985840e-01
2.248726189136505127e-01
2.710187109187245369e-03
-4.958536326885223389e-01
7.505933642387390137e-01
4.005310833454132080e-01
-9.335533529520034790e-02
4.901707544922828674e-02
-5.316076874732971191e-01
1.343207526952028275e-02
-9.019274264574050903e-03
1.693715006113052368e-01
-5.276297926902770996e-01
-5.746294856071472168e-01
4.814420938491821289e-01
