1.349690705537796021e-01
1.115425955504179001e-02
-1.703421585261821747e-02
-6.556276232004165649e-02
-2.360673807561397552e-02
-9.233543276786804199e-02
2.123310603201389313e-02
-6.521839648485183716e-02
9.063266217708587646e-02
-5.428328365087509155e-02
1.131452098488807678e-01
-1.286240518093109131e-01
1.610298156738281250e-01
2.026440203189849854e-01
1.096328720450401306e-01
1.099935695528984070e-01
1.579632051289081573e-02
1.798158138990402222e-01
-1.534275114536285400e-01
1.465011686086654663e-01
7.785100489854812622e-02
1.066240295767784119e-01
1.070253700017929077e-01
-3.007508441805839539e-02
1.210914403200149536e-01
-4.783904179930686951e-03
-1.410304158926010132e-01
-1.169921532273292542e-01
1.784003973007202148e-01
-3.251922130584716797e-02
-1.873520761728286743e-01
6.844194978475570679e-02
-9.817320108413696289e-02
-6.196236982941627502e-02
2.189116328954696655e-01
1.327979266643524170e-01
9.682909399271011353e-02
8.585318177938461304e-02
-3.229359164834022522e-02
7.353609800338745117e-02
