-1.440475285053253174e-01
7.482241094112396240e-02
1.686546355485916138e-01
1.862718313932418823e-01
-1.506451610475778580e-02
-2.043605595827102661e-01
1.897828727960586548e-01
-3.336640074849128723e-02
1.565436869859695435e-01
4.475521296262741089e-02
1.952350437641143799e-01
-6.388015300035476685e-02
4.510958120226860046e-02
4.659146443009376526e-02
-1.643394120037555695e-02
1.711936295032501221e-01
4.285573959350585938e-02
-4.059802368283271790e-02
-4.162863641977310181e-02
1.065447032451629639e-01
2.051194570958614349e-02
-2.199264317750930786e-01
1.648823767900466919e-01
-1.626451909542083740e-01
-4.382792860269546509e-02
-9.592624753713607788e-02
2.225388400256633759e-02
-1.474031805992126465e-02
-1.149277538061141968e-01
9.036915004253387451e-02
-1.759571731090545654e-01
-4.668485000729560852e-02
5.990797281265258789e-02
1.636668741703033447e-01
1.321758180856704712e-01
-7.601924985647201538e-02
-1.139082312583923340e-01
1.749002039432525635e-01
-8.599241822957992554e-02
-1.210635229945182800e-01
