9.504667669534683228e-02,-9.260184317827224731e-02,3.547621369361877441e-01,2.224838435649871826e-01,1.036725640296936035e-01,5.747254937887191772e-02,1.449142247438430786e-01,1.399581283330917358e-01,1.265738010406494141e+00,1.181273311376571655e-01,-1.026466041803359985e-01,1.379517465829849243e-01,-5.492147803306579590e-02,-5.201096460223197937e-02,-3.996402397751808167e-02,-1.762297004461288452e-02,1.500237584114074707e-01,4.587610810995101929e-02,-8.960833773016929626e-03,-5.150792654603719711e-03,-1.782656065188348293e-03,6.703750044107437134e-02,-1.740617305040359497e-02,-1.507062166929244995e-01,1.827946007251739502e-01,5.565218999981880188e-02,1.656322740018367767e-02,6.267456710338592529e-02,1.869474500417709351e-01,3.113139793276786804e-02,7.642249017953872681e-02,-1.426265835762023926e+00,1.395479775965213776e-02,-1.960115134716033936e-01,3.126079216599464417e-02,-3.243951499462127686e-02,6.037842854857444763e-02,-7.256124634295701981e-03,1.893855780363082886e-01,-1.203653141856193542e-01
6.776607781648635864e-02,1.490902751684188843e-01,5.098717808723449707e-01,-2.945506386458873749e-02,-3.427017480134963989e-02,1.136851981282234192e-01,-9.457011520862579346e-02,1.047222912311553955e-01,1.221378445625305176e+00,-3.930553048849105835e-02,-8.474779874086380005e-02,1.612850874662399292e-01,8.413089811801910400e-02,6.998780369758605957e-02,1.573997884988784790e-01,-7.961931079626083374e-02,1.013456284999847412e-01,-7.669353485107421875e-02,-1.506153047084808350e-01,1.055159196257591248e-01,1.253503113985061646e-01,1.446936130523681641e-01,-4.017005488276481628e-02,-2.764788828790187836e-02,2.666885554790496826e-01,3.115033730864524841e-03,2.710793167352676392e-03,1.107649132609367371e-01,1.563235819339752197e-01,-2.458944544196128845e-02,8.365970104932785034e-02,-1.422390103340148926e+00,7.010729610919952393e-02,-1.093715280294418335e-01,-1.418455541133880615e-01,-1.094763502478599548e-01,4.149263352155685425e-02,1.148928515613079071e-02,-5.920284241437911987e-02,1.219749450683593750e-01
-1.138680521398782730e-02,-8.000495145097374916e-04,-4.181312918663024902e-01,2.218038141727447510e-01,-7.296506781131029129e-03,-9.474106878042221069e-02,1.999134570360183716e-02,-5.428710952401161194e-03,-1.150434970855712891e+00,4.873529821634292603e-02,-1.027709692716598511e-01,1.265731900930404663e-01,-1.406641155481338501e-01,3.609905391931533813e-02,-3.346576541662216187e-02,-1.795201189815998077e-02,1.117712333798408508e-01,8.982980251312255859e-02,-2.940948121249675751e-02,9.049978107213973999e-02,1.711964160203933716e-01,-3.746343031525611877e-02,1.089035868644714355e-01,-4.358722269535064697e-02,-1.594269722700119019e-01,2.015465646982192993e-01,1.394264549016952515e-01,1.754524856805801392e-01,4.618320614099502563e-02,6.357760727405548096e-02,1.550766825675964355e-01,1.701793789863586426e+00,9.366381913423538208e-02,9.932482242584228516e-02,1.480892300605773926e-01,-5.069625377655029297e-02,1.340678632259368896e-01,2.095102099701762199e-03,-1.609312593936920166e-01,1.584175527095794678e-01
1.177176758646965027e-01,8.865295350551605225e-02,-1.452346742153167725e-01,1.334602832794189453e-01,3.919248655438423157e-02,-6.653865426778793335e-02,-1.181527078151702881e-01,9.491722285747528076e-02,-2.552604302763938904e-02,3.531561046838760376e-02,2.201832644641399384e-02,1.987867243587970734e-02,7.194943726062774658e-02,5.308532156050205231e-03,-1.571470648050308228e-01,-1.041738986968994141e-01,-1.678956896066665649e-01,1.360551174730062485e-02,1.235227007418870926e-02,-1.187899149954319000e-02,1.158652305603027344e-01,9.137954562902450562e-03,-1.047463044524192810e-01,1.152856796979904175e-01,-1.355296652764081955e-02,1.195755749940872192e-01,1.003035679459571838e-01,7.532616704702377319e-02,-1.187369078397750854e-01,1.606254465878009796e-02,-3.262734040617942810e-02,-1.353650391101837158e-01,-1.287230849266052246e-01,-3.457162156701087952e-02,-9.262091666460037231e-02,-7.413631677627563477e-02,4.598312079906463623e-02,-6.404301524162292480e-02,4.197787865996360779e-02,4.692250490188598633e-02
-1.022379249334335327e-01,5.629771202802658081e-02,-4.680069163441658020e-02,1.352702528238296509e-01,-1.367655098438262939e-01,5.849273130297660828e-02,1.559812873601913452e-01,-3.680050745606422424e-02,1.518644094467163086e-01,9.121989458799362183e-02,1.562373526394367218e-02,-1.356584876775741577e-01,-1.315801590681076050e-01,3.364228457212448120e-02,9.283580631017684937e-02,-1.027871593832969666e-01,7.363349199295043945e-02,1.417170315980911255e-01,9.344243258237838745e-02,-1.352322846651077271e-01,-2.781488746404647827e-02,-1.488326583057641983e-02,1.483633220195770264e-01,6.690810620784759521e-02,-1.577739268541336060e-01,-3.420335054397583008e-02,4.569585993885993958e-02,6.412016600370407104e-02,-8.247914165258407593e-02,-8.790517598390579224e-02,-7.098014652729034424e-02,8.274478837847709656e-03,1.551471464335918427e-02,1.215704903006553650e-01,-1.141900941729545593e-01,1.561539471149444580e-01,1.971108280122280121e-02,-1.274503767490386963e-02,-1.049637608230113983e-02,-1.009495481848716736e-01
1.395733803510665894e-01,3.214967995882034302e-02,-4.723998606204986572e-01,-4.069897532463073730e-02,-7.749409973621368408e-02,-4.204129800200462341e-02,-4.255485162138938904e-02,-7.906141132116317749e-02,-1.083707571029663086e+00,8.121874928474426270e-02,-5.269144102931022644e-02,-1.658792234957218170e-02,8.067047595977783203e-02,8.962809294462203979e-02,8.624004572629928589e-02,1.639847904443740845e-01,4.269832745194435120e-03,5.808930471539497375e-02,7.556656748056411743e-02,-4.921951889991760254e-02,-5.680590495467185974e-02,1.013674400746822357e-02,1.607705503702163696e-01,1.054305881261825562e-01,-1.805530786514282227e-01,1.499035302549600601e-02,8.096463233232498169e-02,1.081062555313110352e-01,2.019222453236579895e-02,-7.051783800125122070e-02,4.241438582539558411e-02,1.372440099716186523e+00,1.641635894775390625e-01,2.663485705852508545e-01,-3.923757746815681458e-02,-1.120965033769607544e-01,1.625062152743339539e-02,1.327621787786483765e-01,-1.294659525156021118e-01,-4.305310081690549850e-03
-1.351911276578903198e-01,5.143106728792190552e-02,4.972814321517944336e-01,3.050278127193450928e-01,2.767921052873134613e-02,-2.967882901430130005e-02,4.243803676217794418e-03,-7.752277702093124390e-02,1.540735363960266113e+00,-8.094408363103866577e-02,-1.539727598428726196e-01,4.316547885537147522e-02,-7.516019046306610107e-02,5.019001662731170654e-02,9.054434299468994141e-02,4.353618621826171875e-02,6.691535562276840210e-02,-7.830976694822311401e-02,5.266682431101799011e-02,9.524510242044925690e-03,1.599180698394775391e-01,-1.919920928776264191e-02,-4.484205320477485657e-02,1.332009285688400269e-01,1.453011631965637207e-01,-1.026546582579612732e-01,9.174718707799911499e-02,1.746851354837417603e-01,2.013962417840957642e-01,-2.439231984317302704e-02,-9.418471902608871460e-02,-1.722372531890869141e+00,1.114369407296180725e-01,-3.491269648075103760e-01,1.141192913055419922e-01,-9.258139133453369141e-02,-1.977507621049880981e-01,1.453622728586196899e-01,1.066228449344635010e-01,2.317518927156925201e-02
1.325767785310745239e-01,1.399157382547855377e-02,-5.517337098717689514e-02,7.737676501274108887e-01,1.033193022012710571e-01,9.498764574527740479e-02,1.679185181856155396e-01,1.215367168188095093e-01,-1.678854674100875854e-01,-7.611421495676040649e-02,-4.573734477162361145e-02,2.043199911713600159e-02,-2.125699073076248169e-02,-1.008902266621589661e-01,-6.061124429106712341e-02,8.734626322984695435e-02,7.113988697528839111e-02,-6.277602910995483398e-02,-1.256615817546844482e-01,1.906646639108657837e-01,-4.031872749328613281e-02,-4.168226569890975952e-02,-1.582708805799484253e-01,-3.738399222493171692e-02,-6.142808124423027039e-02,-7.380723953247070312e-02,1.314842104911804199e-01,6.655786186456680298e-02,1.268294006586074829e-01,-1.869281977415084839e-01,4.456672072410583496e-02,2.022120170295238495e-03,-1.579812765121459961e-01,-6.860625743865966797e-01,9.773215278983116150e-03,-2.229738049209117889e-03,-1.238725900650024414e+00,-8.677666634321212769e-02,-3.690094500780105591e-02,-1.046731472015380859e-01
8.697027713060379028e-02,-1.419651210308074951e-01,2.999705970287322998e-01,-2.588296867907047272e-02,1.577639579772949219e-01,-1.249494105577468872e-01,2.148743420839309692e-01,-1.469464004039764404e-01,-3.341995924711227417e-02,-3.193020448088645935e-02,-6.835941225290298462e-02,-7.973852567374706268e-03,-1.507397294044494629e-01,9.338597767055034637e-03,-1.548425480723381042e-02,1.536848954856395721e-02,2.198836952447891235e-02,-1.689873784780502319e-01,-1.153755262494087219e-01,-2.061640284955501556e-02,4.154940322041511536e-02,-1.434855610132217407e-01,-3.021680414676666260e-01,-1.104186549782752991e-01,-1.296992897987365723e-01,-7.388803362846374512e-02,-1.045778915286064148e-01,8.669996261596679688e-02,1.867607235908508301e-01,-1.474426537752151489e-01,2.113818004727363586e-02,1.033981144428253174e-01,5.766261368989944458e-02,-4.165598452091217041e-01,-1.736156083643436432e-02,1.138272210955619812e-01,-3.297049105167388916e-01,8.016955852508544922e-02,-5.907298624515533447e-02,5.138672888278961182e-02
3.991873189806938171e-02,1.043380424380302429e-01,-5.047636032104492188e-01,-6.037139892578125000e-01,7.680305093526840210e-02,-1.478268951177597046e-01,-1.182954981923103333e-01,9.232640266418457031e-02,-1.416913032531738281e+00,1.471688002347946167e-01,-1.580642461776733398e-01,2.590716071426868439e-02,4.413064941763877869e-02,2.337273210287094116e-02,-3.535456955432891846e-02,1.942539960145950317e-01,5.283222347497940063e-02,9.126391261816024780e-02,-2.063651196658611298e-02,-1.069186627864837646e-01,-6.421323120594024658e-02,-1.341039389371871948e-01,1.427967697381973267e-01,4.013194516301155090e-02,-3.566268458962440491e-02,-1.707551814615726471e-02,-1.438077986240386963e-01,-4.202020913362503052e-02,6.606912612915039062e-02,-1.038306206464767456e-01,5.102512985467910767e-02,1.574312806129455566e+00,-2.500796876847743988e-02,3.068450093269348145e-01,1.039965972304344177e-01,9.447316988371312618e-04,2.183859944343566895e-01,-4.028158634901046753e-02,-1.121333837509155273e-01,2.044614776968955994e-02
1.095184013247489929e-01,1.029493883252143860e-01,-2.812553346157073975e-01,-4.998059570789337158e-01,-1.009925678372383118e-01,6.750667840242385864e-02,1.427616178989410400e-01,-3.322263807058334351e-02,-1.318023085594177246e+00,3.229426592588424683e-02,6.009141728281974792e-02,6.195449829101562500e-02,1.302897781133651733e-01,-8.328615874052047729e-02,-1.508128046989440918e-01,-1.389674935489892960e-02,-9.687848389148712158e-02,1.335703730583190918e-01,1.525103151798248291e-01,-1.364512890577316284e-01,-6.023801397532224655e-03,-2.447245642542839050e-02,1.319131255149841309e-01,1.384781897068023682e-01,-2.101955935359001160e-02,1.304484605789184570e-01,-4.705897346138954163e-02,-4.977672360837459564e-04,7.809626404196023941e-03,-8.084025979042053223e-02,1.672945171594619751e-01,1.767115712165832520e+00,1.570516377687454224e-01,3.964455723762512207e-01,8.642740547657012939e-03,7.286872714757919312e-02,1.846012324094772339e-01,1.483914107084274292e-01,-6.336107850074768066e-02,-4.774593189358711243e-02
-7.628498226404190063e-02,-1.517096906900405884e-01,-4.389801919460296631e-01,-1.623183637857437134e-01,-1.318439692258834839e-01,-7.493236660957336426e-02,1.626574099063873291e-01,1.962903328239917755e-02,-9.459701180458068848e-01,-6.596938520669937134e-02,1.094870790839195251e-01,1.438055038452148438e-01,-8.381845057010650635e-02,1.309408694505691528e-01,4.767230898141860962e-02,-4.177392274141311646e-02,9.239145368337631226e-02,3.594062477350234985e-02,-1.455102264881134033e-01,3.503042971715331078e-03,3.873054683208465576e-02,-1.345568448305130005e-01,1.290854662656784058e-01,3.480202332139015198e-02,-2.546593546867370605e-01,8.868271857500076294e-02,-3.332050144672393799e-02,1.089152321219444275e-01,6.687598768621683121e-03,-7.409098744392395020e-02,-8.115790784358978271e-02,1.258160710334777832e+00,1.639411784708499908e-02,1.818200647830963135e-01,1.728410720825195312e-01,9.885949641466140747e-02,1.990029662847518921e-01,1.034213788807392120e-02,1.284458488225936890e-01,9.604847431182861328e-02
8.616863191127777100e-02,8.625248819589614868e-02,3.835465908050537109e-01,3.373596817255020142e-02,-2.979645133018493652e-02,-1.305731832981109619e-01,1.232565566897392273e-01,-4.870413988828659058e-02,1.253232955932617188e+00,-5.113286525011062622e-02,-1.157812029123306274e-01,9.773389250040054321e-02,-8.991796523332595825e-02,-2.762649394571781158e-02,-5.584440380334854126e-02,2.234427034854888916e-01,8.391799777746200562e-02,3.601342812180519104e-02,1.093094497919082642e-01,7.336811721324920654e-02,3.544817119836807251e-02,4.788603261113166809e-02,-1.152062639594078064e-01,-4.987333342432975769e-02,3.922841325402259827e-02,2.024120837450027466e-01,1.354349255561828613e-01,1.908386945724487305e-01,-4.547201842069625854e-02,6.153346970677375793e-02,1.845760196447372437e-01,-1.166713714599609375e+00,1.283326651901006699e-02,-2.864449918270111084e-01,1.519674807786941528e-02,-9.186217933893203735e-02,-1.183293014764785767e-01,-8.395023643970489502e-02,1.719336062669754028e-01,-3.412190452218055725e-02
1.248006969690322876e-01,4.305296018719673157e-02,-1.157197058200836182e-01,4.516041837632656097e-03,-4.300194233655929565e-02,-5.448145791888237000e-02,6.570300459861755371e-02,4.525276366621255875e-03,-1.483685821294784546e-01,1.075790077447891235e-01,6.151688471436500549e-02,-1.768905520439147949e-01,8.145978301763534546e-02,-1.165249943733215332e-01,5.794917419552803040e-02,1.265549510717391968e-01,1.034070253372192383e-01,-9.970507817342877388e-04,-1.489115953445434570e-01,-7.851433008909225464e-02,1.254822462797164917e-01,4.465997684746980667e-03,1.189274191856384277e-01,1.932095550000667572e-02,1.598755568265914917e-01,-9.549520909786224365e-02,9.782536327838897705e-02,-1.007129810750484467e-02,-1.224708557128906250e-01,-1.209204718470573425e-01,-1.617246866226196289e-01,5.229146406054496765e-02,7.701868563890457153e-02,1.621499359607696533e-01,-1.281704753637313843e-01,-1.173144876956939697e-01,9.102616459131240845e-02,9.872923046350479126e-02,2.444491721689701080e-02,-1.324712038040161133e-01
9.136109054088592529e-02,-2.336095273494720459e-02,-1.301667392253875732e-01,-1.369661241769790649e-01,-2.418405376374721527e-02,-1.546698808670043945e-01,4.627313837409019470e-02,-4.099253937602043152e-02,2.896393835544586182e-02,-1.561549007892608643e-01,-1.397062093019485474e-01,-1.525622457265853882e-01,-6.964555010199546814e-03,7.479337602853775024e-02,-1.464774608612060547e-01,2.042744308710098267e-02,1.394639462232589722e-01,-1.267556399106979370e-01,-3.988552093505859375e-02,5.896656587719917297e-02,-1.454643309116363525e-01,1.104089431464672089e-02,2.695808419957756996e-03,1.299780011177062988e-01,8.720464259386062622e-02,8.668515831232070923e-02,-2.185245789587497711e-02,1.006732285022735596e-01,-1.738449931144714355e-02,-1.293727159500122070e-01,-1.381269842386245728e-01,-1.425199657678604126e-01,2.282638661563396454e-02,-6.817007809877395630e-02,5.458864942193031311e-02,1.343880593776702881e-01,-1.413084119558334351e-01,1.125169801525771618e-03,-9.340858459472656250e-02,-8.571759611368179321e-02
2.071556448936462402e-02,-1.394282579421997070e-01,2.859885804355144501e-02,-5.645871907472610474e-02,-9.885838627815246582e-02,7.521788775920867920e-02,-7.241547107696533203e-02,-4.374849423766136169e-02,6.522810459136962891e-02,1.517258733510971069e-01,4.680951312184333801e-02,-1.065397337079048157e-01,-2.869668183848261833e-03,-1.954114250838756561e-02,1.191476657986640930e-01,1.228281855583190918e-01,-9.654248505830764771e-02,-4.393705353140830994e-02,4.018329083919525146e-02,-7.919764518737792969e-02,-1.523941457271575928e-01,-2.368426322937011719e-02,1.269045025110244751e-01,3.885271027684211731e-02,3.828263282775878906e-02,9.130925685167312622e-02,1.113165076822042465e-02,-7.392409443855285645e-02,9.330570697784423828e-02,-1.500002741813659668e-01,-1.590056531131267548e-02,1.099139451980590820e-01,-9.617708623409271240e-02,2.000947482883930206e-02,-9.138708002865314484e-03,-1.171234697103500366e-01,-9.143363684415817261e-03,1.414500772953033447e-01,-8.550971746444702148e-02,1.310377717018127441e-01
-6.973044574260711670e-02,-1.285102516412734985e-01,3.629980981349945068e-01,1.739983856678009033e-01,1.913134455680847168e-01,-1.877669803798198700e-02,1.472054123878479004e-01,1.305274665355682373e-01,1.376753807067871094e+00,-4.182753339409828186e-02,-4.992491006851196289e-02,1.504151970148086548e-01,1.539995819330215454e-01,3.332534339278936386e-03,1.089183539152145386e-01,2.113639414310455322e-01,-3.572222590446472168e-02,1.621778905391693115e-01,-1.454326957464218140e-01,2.142111957073211670e-01,5.780759453773498535e-02,-5.010689422488212585e-02,-1.810990124940872192e-01,-1.411207858473062515e-02,2.799542248249053955e-01,4.770400468260049820e-03,-5.554836615920066833e-02,7.242856174707412720e-02,1.738659292459487915e-01,3.862269967794418335e-02,1.259897649288177490e-01,-1.191520690917968750e+00,8.143233507871627808e-02,-1.285474002361297607e-01,1.830421686172485352e-01,-8.470904827117919922e-02,-1.444585621356964111e-02,1.689285226166248322e-02,1.743766665458679199e-01,9.809064865112304688e-02
-1.171856895089149475e-01,-4.118119552731513977e-02,-4.574981033802032471e-01,8.978207409381866455e-02,1.475716233253479004e-01,-1.031160503625869751e-01,-8.744756132364273071e-02,6.456847768276929855e-03,-1.153572082519531250e+00,5.683757737278938293e-02,-1.431300193071365356e-01,-1.181129142642021179e-01,-1.314785778522491455e-01,1.000147312879562378e-01,-3.767466987483203411e-04,-9.095869213342666626e-02,4.142653569579124451e-02,6.912202388048171997e-02,4.378140345215797424e-02,-4.279990121722221375e-02,1.605769097805023193e-01,1.064362749457359314e-01,9.041816741228103638e-02,-1.022178828716278076e-01,-8.054760843515396118e-02,9.116518497467041016e-02,7.471502572298049927e-02,1.661789417266845703e-01,4.906399920582771301e-02,-1.448359787464141846e-01,1.622629314661026001e-01,1.122386336326599121e+00,1.469690352678298950e-01,1.293325871229171753e-01,2.923294715583324432e-02,-1.383503973484039307e-01,-1.010547056794166565e-01,6.108206510543823242e-02,6.352148205041885376e-02,9.356935322284698486e-02
-8.118576556444168091e-02,1.477597206830978394e-01,4.530055522918701172e-01,1.368595659732818604e-01,-4.804625734686851501e-02,-1.392878890037536621e-01,-6.616102904081344604e-02,-7.601936906576156616e-02,8.365004658699035645e-01,-1.658635400235652924e-02,-1.535001490265130997e-02,8.885755389928817749e-02,1.028297394514083862e-01,8.283139765262603760e-02,-1.380089968442916870e-01,8.508601039648056030e-02,1.600017994642257690e-01,1.011168733239173889e-01,7.637324929237365723e-02,2.350467443466186523e-01,1.491760760545730591e-01,2.434183657169342041e-02,-2.001089453697204590e-01,-1.119591519236564636e-01,1.911331266164779663e-01,1.887028850615024567e-02,-5.613825470209121704e-02,1.123108714818954468e-01,1.484564563725143671e-04,-5.220026522874832153e-02,5.163710936903953552e-02,-1.040503978729248047e+00,-1.195204555988311768e-01,-1.683524847030639648e-01,1.320631206035614014e-01,-1.155742853879928589e-01,-2.089995592832565308e-01,-6.321318447589874268e-02,-1.172210499644279480e-01,9.365483373403549194e-02
-1.478958576917648315e-01,1.834602467715740204e-02,1.238765120506286621e-01,-6.886423379182815552e-02,-1.660296767950057983e-01,-1.463752985000610352e-01,-7.111995667219161987e-02,-1.287735253572463989e-01,-1.360666006803512573e-01,1.283950358629226685e-01,8.265735208988189697e-02,1.286329180002212524e-01,4.405644256621599197e-03,1.063159033656120300e-01,1.530986577272415161e-01,-1.498471666127443314e-02,1.199446269311010838e-03,-1.139270886778831482e-01,6.535349041223526001e-02,1.353707630187273026e-02,-1.313056517392396927e-02,-1.550977975130081177e-01,-8.425413817167282104e-02,1.216588392853736877e-01,1.699511334300041199e-02,1.645522378385066986e-02,-1.575332880020141602e-01,9.195851534605026245e-02,-1.389337778091430664e-01,-1.478582024574279785e-01,8.301860094070434570e-02,6.953491270542144775e-02,-1.619882732629776001e-01,4.713102802634239197e-02,9.415534138679504395e-02,1.483696550130844116e-01,-9.037488698959350586e-02,8.089653402566909790e-02,-7.474967092275619507e-02,1.077755168080329895e-02
-1.212407872080802917e-01,-1.108369976282119751e-02,-3.274509608745574951e-01,5.888442322611808777e-02,-6.816133111715316772e-02,-1.960684917867183685e-02,-6.583706475794315338e-03,-1.022761538624763489e-01,-1.270918488502502441e+00,-1.323911547660827637e-01,2.840072102844715118e-02,1.514507383108139038e-01,1.724777184426784515e-02,-3.726740553975105286e-02,-9.800827503204345703e-02,-2.199902944266796112e-02,-9.851956367492675781e-02,1.688857823610305786e-01,-1.173735409975051880e-01,-2.254710532724857330e-02,7.929993420839309692e-02,-1.367840450257062912e-02,2.339832335710525513e-01,3.071569837629795074e-02,-1.576136350631713867e-01,2.477404661476612091e-02,7.893133163452148438e-02,-1.175740584731101990e-01,-1.247380673885345459e-01,-5.879057198762893677e-02,1.828777045011520386e-01,1.585716366767883301e+00,-4.116849228739738464e-02,2.010612338781356812e-01,1.581431925296783447e-01,1.568569540977478027e-01,2.231908217072486877e-02,-1.058384105563163757e-01,1.688382960855960846e-02,1.403860151767730713e-01
-1.396421045064926147e-01,-5.798675864934921265e-02,4.637684300541877747e-02,1.516368687152862549e-01,-4.100499674677848816e-02,1.516979336738586426e-01,-9.854514151811599731e-02,-9.617669135332107544e-02,2.817159704864025116e-02,1.108445003628730774e-01,-1.047752201557159424e-01,-4.630163684487342834e-02,-2.121075522154569626e-03,1.085986867547035217e-01,2.916407212615013123e-02,-7.188103348016738892e-02,-9.392567723989486694e-02,-7.016841322183609009e-02,1.161145418882369995e-01,-4.203863814473152161e-02,-1.066036298871040344e-01,-6.559737026691436768e-02,-3.222882375121116638e-02,-2.911740355193614960e-02,-1.410906016826629639e-01,-1.365597993135452271e-01,4.417245462536811829e-02,-1.200619935989379883e-01,-9.314166754484176636e-02,1.054094359278678894e-01,-2.522947452962398529e-02,2.797532640397548676e-02,1.578653454780578613e-01,1.324445009231567383e-01,1.237476244568824768e-01,-1.172440499067306519e-01,9.907983243465423584e-02,7.719795405864715576e-02,4.654821380972862244e-02,1.146166995167732239e-01
-1.964565925300121307e-02,1.159141287207603455e-01,-3.792162612080574036e-02,3.480974957346916199e-02,6.175148114562034607e-02,-1.138140484690666199e-01,-4.819932207465171814e-02,-1.063741445541381836e-01,1.487257629632949829e-01,1.137948408722877502e-01,-2.916478924453258514e-02,1.056130975484848022e-03,-1.340492963790893555e-01,1.446233838796615601e-01,4.299460351467132568e-02,-3.918451443314552307e-02,7.206907868385314941e-02,2.009708061814308167e-02,-1.490731835365295410e-01,1.694994419813156128e-02,8.160268515348434448e-02,-1.572932302951812744e-01,-5.126095190644264221e-02,-1.387023460119962692e-02,4.132193699479103088e-02,2.314179949462413788e-02,-3.223561123013496399e-02,-4.538134858012199402e-02,1.135990582406520844e-02,-3.602826595306396484e-02,-8.701872080564498901e-02,7.842882536351680756e-03,4.512935504317283630e-02,-4.939096421003341675e-02,-1.576715707778930664e-01,9.180184453725814819e-02,-5.691400542855262756e-02,6.918549537658691406e-02,8.236730098724365234e-02,-1.325746029615402222e-01
-3.889081999659538269e-02,-4.156263545155525208e-02,4.052640795707702637e-01,5.636733770370483398e-01,1.141845360398292542e-01,7.914263010025024414e-02,6.232704967260360718e-02,1.555537059903144836e-02,2.126838922500610352e+00,-9.027254581451416016e-02,-1.499929577112197876e-01,-5.871790274977684021e-02,-6.726621091365814209e-02,6.626924872398376465e-02,-4.776042699813842773e-02,-8.992347866296768188e-02,1.378361433744430542e-01,1.673208028078079224e-01,-4.025340825319290161e-02,3.220075964927673340e-01,-1.710246950387954712e-01,-1.171027943491935730e-01,-6.965727359056472778e-02,1.590213179588317871e-01,7.922807335853576660e-02,-8.930904418230056763e-02,1.330431103706359863e-01,-1.445141853764653206e-03,1.432851999998092651e-01,1.683692783117294312e-01,-1.627079248428344727e-01,-2.132586956024169922e+00,-3.169415891170501709e-02,-2.699863910675048828e-01,8.283989876508712769e-02,4.265864565968513489e-02,1.185079887509346008e-01,4.657446965575218201e-02,6.474805623292922974e-02,-3.382627293467521667e-02
2.012464031577110291e-02,1.249510720372200012e-01,3.621670901775360107e-01,3.136211931705474854e-01,1.291746050119400024e-01,7.940112054347991943e-02,-8.592575788497924805e-02,-7.059099525213241577e-02,8.300241827964782715e-01,-9.892559796571731567e-02,-1.496609449386596680e-01,1.637224480509757996e-02,8.248058706521987915e-02,-1.117031872272491455e-01,-1.560993343591690063e-01,1.719152927398681641e-01,6.124068051576614380e-02,7.935417443513870239e-02,-1.491018384695053101e-01,1.042944639921188354e-01,6.427474319934844971e-02,-3.156403452157974243e-02,-1.226303949952125549e-01,-4.135700315237045288e-02,1.833130568265914917e-01,-6.985695660114288330e-02,-7.135105133056640625e-02,8.646516501903533936e-02,2.129569798707962036e-01,1.614771783351898193e-01,-4.602989554405212402e-02,-1.117171287536621094e+00,-4.380142688751220703e-02,1.397822331637144089e-02,-1.528172940015792847e-01,-3.649985045194625854e-02,-1.427003741264343262e-01,6.409537978470325470e-03,-2.027388848364353180e-02,1.154963076114654541e-01
-5.386339128017425537e-02,1.010586246848106384e-01,1.145194768905639648e-01,-2.308760210871696472e-02,2.081854082643985748e-02,-1.276600956916809082e-01,6.803244352340698242e-02,-3.766629844903945923e-02,-1.502871215343475342e-01,-4.007155820727348328e-02,1.470328420400619507e-01,3.520616888999938965e-02,1.154094710946083069e-01,3.635782748460769653e-02,-7.867348380386829376e-03,-6.187950447201728821e-02,-1.105723977088928223e-01,-4.571118950843811035e-02,-1.467166692018508911e-01,-1.029553264379501343e-01,1.145589649677276611e-01,9.622211754322052002e-02,1.248566210269927979e-01,-1.393933892250061035e-01,-2.750915847718715668e-02,-6.588874757289886475e-02,-1.226208657026290894e-01,-8.703945577144622803e-02,7.729462534189224243e-02,1.287311315536499023e-01,-1.170117482542991638e-01,-8.435618132352828979e-02,3.030781634151935577e-02,-5.067404359579086304e-02,-6.975468993186950684e-02,1.326048821210861206e-01,7.026088237762451172e-02,3.244780749082565308e-02,1.206788420677185059e-02,1.073326021432876587e-01
7.651118934154510498e-02,-1.232461910694837570e-02,3.692770600318908691e-01,-2.320168726146221161e-02,1.058739945292472839e-01,3.087257035076618195e-02,7.099083065986633301e-02,-1.589547656476497650e-02,1.495548129081726074e+00,-8.459410816431045532e-02,-1.154846027493476868e-01,-1.606363803148269653e-02,-3.054349124431610107e-02,1.875317469239234924e-02,-3.763324022293090820e-02,-1.358661353588104248e-01,6.172099709510803223e-02,1.163865923881530762e-01,-8.914270251989364624e-02,2.151541858911514282e-01,5.226603150367736816e-02,1.034376621246337891e-01,-1.293029636144638062e-01,-3.082828223705291748e-02,1.701069027185440063e-01,8.754823356866836548e-02,1.205397117882966995e-02,1.095832362771034241e-01,-3.809108212590217590e-02,-6.869700551033020020e-02,-1.059004962444305420e-01,-1.400392055511474609e+00,1.435648798942565918e-01,-1.259690970182418823e-01,3.308049216866493225e-02,5.503223463892936707e-02,6.796251982450485229e-02,-1.750473456922918558e-04,-4.292204510420560837e-03,3.941649571061134338e-02
-1.042617261409759521e-01,-5.398449301719665527e-02,8.744497783482074738e-03,-1.283703837543725967e-02,-8.544847369194030762e-02,-3.942421823740005493e-02,6.356535851955413818e-02,3.546768054366111755e-02,-5.375206470489501953e-02,7.897478342056274414e-02,-1.385939866304397583e-01,9.205251932144165039e-02,-1.777764409780502319e-02,2.909374795854091644e-02,3.079761005938053131e-02,2.097234874963760376e-02,-5.880319699645042419e-02,1.108021140098571777e-01,-1.685877330601215363e-02,3.808306297287344933e-03,-1.472166478633880615e-01,9.054347127676010132e-02,-2.570036984980106354e-02,3.224800154566764832e-02,-1.030154228210449219e-01,-1.305073499679565430e-01,-3.698765486478805542e-02,-1.421515457332134247e-02,3.084135986864566803e-02,3.411424160003662109e-02,1.076868101954460144e-01,1.006959974765777588e-01,-4.068636149168014526e-02,-1.388733536005020142e-01,-2.293204329907894135e-02,-5.813168734312057495e-02,1.084223166108131409e-01,-1.130996048450469971e-01,1.092875450849533081e-01,-1.253654509782791138e-01
7.487627118825912476e-02,-3.803520649671554565e-02,2.389789819717407227e-01,2.277672141790390015e-01,1.235960647463798523e-01,1.418809033930301666e-02,5.473309196531772614e-03,-9.171657264232635498e-02,1.184423089027404785e+00,1.037572603672742844e-02,9.914141148328781128e-02,3.402677923440933228e-02,-8.068022131919860840e-02,-1.535129696130752563e-01,-6.276737898588180542e-02,-1.109134927392005920e-01,1.447283923625946045e-01,4.397169873118400574e-02,-1.517706513404846191e-01,1.006784662604331970e-01,1.095028594136238098e-01,-7.551451027393341064e-02,-7.302149385213851929e-02,7.156246900558471680e-02,2.595360279083251953e-01,-1.165039241313934326e-01,-5.391737446188926697e-02,-5.126663297414779663e-02,1.991779208183288574e-01,-9.727508574724197388e-02,7.048926502466201782e-02,-1.453730344772338867e+00,4.965040087699890137e-02,-2.810436300933361053e-02,-2.182789705693721771e-02,-1.167032271623611450e-01,-1.009360924363136292e-01,-7.949388772249221802e-02,1.177485361695289612e-01,1.125562563538551331e-01
1.674536056816577911e-02,-5.231868848204612732e-02,-1.971313655376434326e-01,8.592583984136581421e-02,-4.378275480121374130e-04,-3.766200318932533264e-02,1.104160398244857788e-01,-7.933603227138519287e-02,-7.720116376876831055e-01,1.095867082476615906e-01,2.238611876964569092e-02,-8.816426992416381836e-02,-8.662949502468109131e-02,-1.087650209665298462e-01,4.271700233221054077e-02,-2.787549281492829323e-03,1.552335321903228760e-01,1.610802412033081055e-01,-1.538618803024291992e-01,2.056736499071121216e-02,-1.434345245361328125e-01,-1.235913857817649841e-01,4.071001708507537842e-02,1.716147661209106445e-01,-2.076024003326892853e-02,1.046369299292564392e-01,-1.451393663883209229e-01,-8.752133697271347046e-02,-1.632130891084671021e-01,9.847255796194076538e-02,-1.011752486228942871e-01,1.229534029960632324e+00,1.722108125686645508e-01,2.846834063529968262e-01,-1.341391205787658691e-01,-4.791979119181632996e-02,1.397440582513809204e-01,1.329377293586730957e-01,-7.587119936943054199e-02,6.335407961159944534e-03
3.138532862067222595e-02,-4.342205449938774109e-02,3.594233393669128418e-01,1.910838633775711060e-01,2.075513452291488647e-01,1.256337165832519531e-01,4.566977173089981079e-02,2.661731839179992676e-02,4.478747844696044922e-01,-9.312374144792556763e-02,8.322834968566894531e-02,5.793297663331031799e-03,3.605204448103904724e-02,-3.192557021975517273e-02,-1.492995470762252808e-01,6.834577769041061401e-02,1.962932646274566650e-01,3.029044345021247864e-02,-4.830662161111831665e-03,1.469460278749465942e-01,1.445466279983520508e-01,-7.918027043342590332e-02,1.264154724776744843e-02,-1.486286520957946777e-01,-3.964775428175926208e-02,1.730104088783264160e-01,-1.314732432365417480e-01,1.757633686065673828e-01,7.358009368181228638e-02,-1.589955836534500122e-01,2.839750982820987701e-02,-1.147837281227111816e+00,-1.485950797796249390e-01,-1.043926626443862915e-01,1.324733644723892212e-01,-3.668006509542465210e-02,-1.480712741613388062e-01,-3.645927086472511292e-02,1.054379269480705261e-01,6.898469477891921997e-02
-1.580931991338729858e-01,-1.201458722352981567e-01,3.511919379234313965e-01,1.823658682405948639e-02,1.374846994876861572e-01,6.811466068029403687e-03,-2.000870517804287374e-05,-1.285668760538101196e-01,6.118353083729743958e-02,-2.158054709434509277e-02,1.041865572333335876e-01,1.385829001665115356e-01,1.291836649179458618e-01,3.467841446399688721e-02,-1.678288914263248444e-02,7.298481464385986328e-02,-7.737285643815994263e-02,-9.799014776945114136e-02,-2.092876099050045013e-02,5.979565437883138657e-03,1.547737866640090942e-01,-8.714308589696884155e-02,-3.266896009445190430e-01,-8.557977527379989624e-02,2.141270227730274200e-02,1.175557151436805725e-01,5.266169458627700806e-02,5.146534740924835205e-02,1.305618602782487869e-02,-2.674188017845153809e-01,-1.122565492987632751e-01,-2.189744636416435242e-02,1.085158251225948334e-02,-5.059350132942199707e-01,-1.598386168479919434e-01,1.505256444215774536e-02,-4.285847246646881104e-01,-4.909826442599296570e-02,-1.506153047084808350e-01,3.136069327592849731e-02
-1.274769566953182220e-02,1.402599960565567017e-01,1.129880025982856750e-01,4.510050639510154724e-02,5.569843947887420654e-02,6.857956200838088989e-02,-1.384009867906570435e-01,8.275270462036132812e-02,7.061712443828582764e-02,1.246426906436681747e-02,1.317891925573348999e-01,-7.241083681583404541e-02,7.047309726476669312e-02,-9.860948473215103149e-02,-1.188610494136810303e-02,-1.232274770736694336e-01,7.446188479661941528e-02,-1.327684521675109863e-01,-1.380982697010040283e-01,-2.335007768124341965e-03,-3.925096243619918823e-02,-1.228509172797203064e-01,-2.326361835002899170e-02,1.512183099985122681e-01,-1.173767820000648499e-01,-1.711060991510748863e-03,-1.144284158945083618e-01,-1.034500077366828918e-01,9.882551431655883789e-02,2.633615396916866302e-02,-3.640683367848396301e-02,5.332102254033088684e-02,1.272087097167968750e-01,9.770289063453674316e-03,-1.100454851984977722e-01,2.069383114576339722e-02,-1.421326100826263428e-01,-6.393663585186004639e-02,-9.293515980243682861e-02,4.674559831619262695e-02
-1.078860387206077576e-01,-5.909843370318412781e-02,-7.810375839471817017e-02,-7.462422549724578857e-02,5.459365993738174438e-02,-4.639128223061561584e-02,-8.316903561353683472e-02,-1.403892934322357178e-01,1.405042111873626709e-01,-1.035688444972038269e-01,-1.035048216581344604e-01,1.213919520378112793e-01,1.206638291478157043e-01,1.053500100970268250e-01,-8.133413642644882202e-02,-2.324183098971843719e-02,-8.210148662328720093e-02,7.648331671953201294e-02,-1.341857314109802246e-01,-1.446365267038345337e-01,9.095818549394607544e-02,-5.734072253108024597e-02,-1.149280294775962830e-01,-1.263011097908020020e-01,8.379425108432769775e-02,-8.966531604528427124e-02,1.494497060775756836e-01,-1.231457218527793884e-01,8.176169544458389282e-02,-1.511180996894836426e-01,2.778119593858718872e-02,5.827050656080245972e-02,-1.537270098924636841e-01,9.639424085617065430e-02,8.695375174283981323e-02,7.907343655824661255e-02,-1.452338546514511108e-01,-8.961945772171020508e-03,-6.527785956859588623e-02,1.047992333769798279e-01
1.044328287243843079e-01,5.747599899768829346e-02,-2.456017136573791504e-01,-5.999449640512466431e-02,-2.484373748302459717e-02,8.442646823823451996e-03,-3.510276973247528076e-02,8.302608877420425415e-02,-1.150172948837280273e+00,-9.757501631975173950e-02,1.259714961051940918e-01,1.852286979556083679e-02,-8.316151797771453857e-02,-1.342275738716125488e-01,1.423378884792327881e-01,4.937038198113441467e-02,6.850613653659820557e-02,-5.294983834028244019e-02,9.910209476947784424e-02,-3.661203011870384216e-02,-4.893388599157333374e-02,-1.490974575281143188e-01,2.398076653480529785e-01,4.383176937699317932e-02,3.355598822236061096e-02,-1.385912150144577026e-01,-5.104525387287139893e-02,3.902456536889076233e-02,-4.656948894262313843e-02,1.186914145946502686e-01,5.132952705025672913e-02,1.634746909141540527e+00,1.316995918750762939e-01,2.127860784530639648e-01,-1.195186376571655273e-02,-8.910200744867324829e-02,7.412318605929613113e-03,-1.196995377540588379e-01,8.273015916347503662e-02,1.397715415805578232e-02
8.308063447475433350e-02,1.878828927874565125e-02,-2.997712492942810059e-01,7.167237251996994019e-02,-4.857394844293594360e-02,1.055691391229629517e-01,-1.896429434418678284e-02,-9.728367626667022705e-02,-8.870365619659423828e-01,3.384929895401000977e-02,3.285443037748336792e-02,8.773045986890792847e-02,-5.166765674948692322e-02,5.192844569683074951e-02,1.303401291370391846e-01,1.713288598693907261e-03,5.554294213652610779e-02,1.312964409589767456e-01,1.142177656292915344e-01,-2.340432405471801758e-01,-3.365765511989593506e-02,-8.588780462741851807e-02,1.127919107675552368e-01,1.437311768531799316e-01,-2.363351732492446899e-01,1.163297742605209351e-01,1.645750482566654682e-03,7.774578034877777100e-02,-1.282561123371124268e-01,4.666993394494056702e-02,1.257821023464202881e-01,1.255759477615356445e+00,9.616234153509140015e-02,1.412179172039031982e-01,-6.902132183313369751e-02,-3.278826922178268433e-02,2.298291623592376709e-01,-4.734217748045921326e-02,-1.189388111233711243e-01,-1.089009419083595276e-01
-7.037923485040664673e-02,-2.732142992317676544e-02,2.609251812100410461e-02,-1.309118866920471191e-01,-2.600734494626522064e-02,1.157041117548942566e-01,1.002561151981353760e-01,-1.508256644010543823e-01,-7.181254029273986816e-02,-1.464420855045318604e-01,1.404483467340469360e-01,6.966599728912115097e-03,1.361760050058364868e-01,9.900834411382675171e-02,-1.125085875391960144e-01,8.494587242603302002e-02,5.550394952297210693e-02,-6.699264049530029297e-02,1.133886128664016724e-01,-1.563163250684738159e-01,2.752219885587692261e-02,3.641064092516899109e-02,9.299480170011520386e-02,-4.400404170155525208e-02,-1.748010399751365185e-04,-5.956463515758514404e-02,-3.873017430305480957e-02,-2.901318110525608063e-02,-3.084519132971763611e-02,-7.211922854185104370e-02,-1.425613462924957275e-01,8.354048430919647217e-02,-1.001030355691909790e-01,1.449478268623352051e-01,-1.234651356935501099e-01,4.761175066232681274e-02,-4.180700704455375671e-02,1.979914307594299316e-02,-7.728614658117294312e-02,-1.405124217271804810e-01
9.071480482816696167e-02,1.322690397500991821e-02,7.385404407978057861e-02,6.985685974359512329e-02,-6.339672207832336426e-02,9.994568675756454468e-02,1.886595599353313446e-02,-1.193485558032989502e-01,-5.249554757028818130e-03,3.061635978519916534e-02,-1.378923356533050537e-01,1.334974467754364014e-01,-2.006321214139461517e-02,-1.062487885355949402e-01,2.387964725494384766e-02,-8.765536546707153320e-02,-1.006794068962335587e-02,-1.643840409815311432e-02,3.799698082730174065e-03,9.079821407794952393e-02,-1.291476488113403320e-01,1.130071356892585754e-01,-3.068118169903755188e-02,7.157304137945175171e-02,7.997895777225494385e-02,-2.412374317646026611e-02,-5.675439536571502686e-02,-2.670912444591522217e-02,-2.883554063737392426e-02,5.267376452684402466e-02,1.071629207581281662e-02,6.372884660959243774e-02,5.878371745347976685e-02,1.225024014711380005e-01,-1.138632744550704956e-01,3.895122930407524109e-02,9.322386234998703003e-02,-8.472286164760589600e-02,1.275051534175872803e-01,-4.800916090607643127e-02
1.041356995701789856e-01,-1.250077486038208008e-01,-1.890373378992080688e-01,-1.675964146852493286e-01,1.109312996268272400e-01,-6.587408483028411865e-02,-1.104071959853172302e-01,-6.456602714024484158e-04,-8.661345243453979492e-01,-6.986314058303833008e-02,1.118166968226432800e-01,1.338799297809600830e-01,-8.944090455770492554e-02,-1.561268977820873260e-02,-1.544969379901885986e-01,1.773402243852615356e-01,1.220834180712699890e-01,2.769977226853370667e-02,-1.928587630391120911e-02,1.223344635218381882e-02,-3.625741973519325256e-02,-4.821155220270156860e-02,5.412716045975685120e-02,3.434943780303001404e-02,-1.476672738790512085e-01,8.413296192884445190e-02,8.589178323745727539e-02,5.160481855273246765e-02,-1.303708553314208984e-01,8.234115689992904663e-02,5.111462250351905823e-02,1.190737724304199219e+00,1.815667599439620972e-01,2.741331160068511963e-01,-3.038496896624565125e-02,-9.907714277505874634e-02,1.523710936307907104e-01,-4.606093838810920715e-02,-3.450496867299079895e-02,8.257126435637474060e-03
1.487756967544555664e-01,5.105944722890853882e-02,-2.321258932352066040e-01,3.593768179416656494e-02,6.209313496947288513e-02,5.480555817484855652e-02,-2.471219748258590698e-02,-1.145846792496740818e-03,-5.934284925460815430e-01,1.542851328849792480e-01,2.851611236110329628e-03,1.204637363553047180e-01,-5.816740542650222778e-02,-7.685183733701705933e-02,8.894874900579452515e-02,2.148927003145217896e-01,7.660736888647079468e-02,1.079591736197471619e-01,1.268558353185653687e-01,-2.248216271400451660e-01,2.886719256639480591e-02,-3.560041263699531555e-02,4.641393572092056274e-02,1.915423423051834106e-01,-2.514388263225555420e-01,1.745093613862991333e-01,3.418516367673873901e-02,1.544709969311952591e-02,7.838989049196243286e-02,2.950192615389823914e-02,8.074499666690826416e-03,1.182733058929443359e+00,1.257417947053909302e-01,7.468866556882858276e-02,1.772649288177490234e-01,-1.222929954528808594e-01,5.464639142155647278e-02,9.525043517351150513e-02,8.626712113618850708e-02,5.899682268500328064e-02
