2.264966517686843872e-01,7.493554055690765381e-02,-9.655147790908813477e-02,7.157636433839797974e-02,-3.475863113999366760e-02,-6.610448006540536880e-03,1.162868142127990723e-01,1.121803402900695801e+00,6.526807695627212524e-02,-1.687095016241073608e-01,-1.650350987911224365e-01,-8.035404235124588013e-02,2.579099871218204498e-02,-5.829174816608428955e-02,1.249198168516159058e-01,-6.070876494050025940e-02,1.626314967870712280e-02,2.576532214879989624e-02,1.797429472208023071e-01,1.448412612080574036e-02,7.619935274124145508e-02,9.883846342563629150e-02,-1.232745498418807983e-01,7.145333886146545410e-01,9.880112856626510620e-02,2.623926848173141479e-02,1.730998009443283081e-01,1.140774264931678772e-01,1.660629361867904663e-01,6.036288663744926453e-02,1.909679472446441650e-01,1.481323689222335815e-01,-5.182681605219841003e-02,-7.203494012355804443e-02,-1.796716749668121338e-01,-1.739957630634307861e-01,1.441019177436828613e-01,-1.329271346330642700e-01,-6.019494682550430298e-02,1.137358918786048889e-01
6.621499080210924149e-03,1.013663336634635925e-01,1.347296983003616333e-01,-1.183466147631406784e-02,-8.981785923242568970e-02,-5.738700181245803833e-02,-1.203066110610961914e-02,1.123284578323364258e+00,4.937842488288879395e-02,-7.375457137823104858e-02,-2.384786307811737061e-01,4.981546476483345032e-02,9.325560182332992554e-02,7.094570994377136230e-02,1.419364511966705322e-01,1.430571675300598145e-01,-1.184733957052230835e-02,-7.469406723976135254e-02,2.087949663400650024e-01,-3.321740031242370605e-02,-2.330105751752853394e-01,1.190551742911338806e-01,4.203924909234046936e-02,4.608367979526519775e-01,1.909646540880203247e-01,-4.595395177602767944e-02,-2.749545872211456299e-02,-6.586533039808273315e-02,1.728282570838928223e-01,-1.013084948062896729e-01,1.811836957931518555e-01,3.573683276772499084e-02,8.926598727703094482e-02,1.168210580945014954e-01,-2.174623459577560425e-01,5.011700093746185303e-02,-1.260053366422653198e-01,1.408999115228652954e-01,5.567923653870820999e-03,-5.867042765021324158e-02
-1.009233221411705017e-01,-1.452787816524505615e-01,-2.008267119526863098e-02,2.572062425315380096e-02,-8.232917636632919312e-03,1.162967085838317871e-01,-2.205324359238147736e-03,-9.983048439025878906e-01,1.637176610529422760e-02,2.338060289621353149e-01,1.910386607050895691e-02,4.908934980630874634e-02,1.149186715483665466e-01,-2.673064358532428741e-02,-9.351520985364913940e-02,7.144732773303985596e-02,5.865775980055332184e-03,9.460556507110595703e-02,-1.734031364321708679e-02,-1.007181406021118164e-01,2.676812112331390381e-01,-4.090406373143196106e-02,-2.834797464311122894e-02,-5.952554941177368164e-01,-1.359036266803741455e-01,-7.507952302694320679e-02,-2.052965462207794189e-01,1.456293016672134399e-01,-1.252782344818115234e-01,1.772974878549575806e-01,6.002691760659217834e-02,3.095329180359840393e-02,-4.985696077346801758e-02,-1.370462924242019653e-01,-3.445316851139068604e-02,1.010325849056243896e-01,-2.356446813791990280e-03,-7.087484002113342285e-02,2.324510812759399414e-01,2.294425219297409058e-01
-1.346847414970397949e-01,-1.420899480581283569e-01,2.056149542331695557e-01,1.048757657408714294e-01,-4.177797958254814148e-02,2.568301744759082794e-02,-2.050793915987014771e-01,-9.215630888938903809e-01,-1.904301196336746216e-01,5.783852934837341309e-02,7.626002188771963120e-03,3.743011131882667542e-02,9.048457443714141846e-02,-1.075787171721458435e-01,4.623602330684661865e-02,6.272132694721221924e-02,5.168547853827476501e-02,1.570138931274414062e-01,8.829779177904129028e-02,-7.972206920385360718e-02,2.244983017444610596e-01,4.705205559730529785e-03,1.460450440645217896e-01,-6.155728101730346680e-01,1.093183606863021851e-01,8.362908661365509033e-02,-8.048134297132492065e-02,6.419276446104049683e-02,-1.826687455177307129e-01,1.695196330547332764e-01,-6.705564260482788086e-02,-2.191950827836990356e-01,1.265200134366750717e-02,-7.186550647020339966e-02,1.942833960056304932e-01,1.844286322593688965e-01,-2.992523834109306335e-03,1.454722434282302856e-01,-3.715540468692779541e-02,1.265344023704528809e-01
-2.900779433548450470e-02,1.118249073624610901e-01,1.000446379184722900e-01,1.244255602359771729e-01,-4.448952898383140564e-02,-5.982626229524612427e-02,5.838187783956527710e-02,9.790364503860473633e-01,2.669465541839599609e-01,-2.619000375270843506e-01,-7.032930105924606323e-02,-1.077527180314064026e-01,1.727440655231475830e-01,4.209622275084257126e-03,-3.184638544917106628e-02,-6.928066164255142212e-02,2.273364067077636719e-01,5.441395938396453857e-02,1.799803972244262695e-01,-8.706580847501754761e-02,-1.000424697995185852e-01,-9.947473555803298950e-02,-2.626184932887554169e-02,5.528371930122375488e-01,-6.522591412067413330e-02,6.988710165023803711e-02,2.644125223159790039e-01,1.213784962892532349e-01,-2.646604180335998535e-02,-1.386413127183914185e-01,2.165428362786769867e-02,1.632228195667266846e-01,-4.531374201178550720e-02,-1.176546886563301086e-01,-3.980190679430961609e-02,-2.149458229541778564e-01,-6.359267979860305786e-02,-6.745616346597671509e-02,-6.733432412147521973e-02,-4.502644762396812439e-03
-1.160974279046058655e-01,-1.864183098077774048e-01,8.861401677131652832e-02,-8.356454968452453613e-02,-7.464171946048736572e-02,2.560576796531677246e-01,-6.996097415685653687e-02,-1.156735062599182129e+00,-1.342701911926269531e-01,1.464624423533678055e-02,1.841151714324951172e-01,2.169318348169326782e-01,1.027320027351379395e-01,7.242802530527114868e-02,5.269074067473411560e-02,-6.013704836368560791e-02,2.496668603271245956e-03,7.947283238172531128e-02,2.330851927399635315e-02,-2.320602536201477051e-02,2.770491838455200195e-01,-1.072321981191635132e-01,5.513123050332069397e-02,-6.240710020065307617e-01,5.192442610859870911e-02,-1.477955132722854614e-01,-1.091622486710548401e-01,-6.334973871707916260e-02,-1.760507076978683472e-01,5.645369738340377808e-02,9.726145863533020020e-02,-1.060157120227813721e-01,-3.848438709974288940e-02,3.051391988992691040e-02,1.836448311805725098e-01,1.133029758930206299e-01,-5.183675512671470642e-02,-1.136672589927911758e-02,2.195747345685958862e-01,8.482169359922409058e-03
1.844339817762374878e-01,9.071177244186401367e-02,-1.249349908903241158e-03,2.929487451910972595e-02,-2.413664944469928741e-02,-1.936713755130767822e-01,2.966745495796203613e-01,1.149688363075256348e+00,1.491038203239440918e-01,-2.458779960870742798e-01,-1.677281558513641357e-01,-1.890042610466480255e-02,2.184561491012573242e-01,-1.305168420076370239e-01,-1.314094662666320801e-01,3.274727612733840942e-02,1.867662221193313599e-01,-8.727620542049407959e-02,2.240003794431686401e-01,-9.804547578096389771e-02,-6.915881484746932983e-02,-1.341961175203323364e-01,-7.560832053422927856e-02,5.822756886482238770e-01,2.118274569511413574e-01,-1.078915372490882874e-01,1.618376970291137695e-01,4.206019267439842224e-02,-7.061811536550521851e-02,-2.355040237307548523e-02,1.004676893353462219e-01,-3.220161050558090210e-02,1.083992496132850647e-01,-1.200968474149703979e-01,-1.249671131372451782e-01,-1.703175753355026245e-01,-3.910348191857337952e-02,7.418428361415863037e-02,-7.942922413349151611e-02,1.588333025574684143e-02
4.778327047824859619e-02,8.511406183242797852e-02,1.386131644248962402e-01,1.575758308172225952e-01,1.111892387270927429e-01,-2.826095931231975555e-02,7.932803034782409668e-02,7.472227811813354492e-01,-1.509915851056575775e-02,1.140355467796325684e-01,-6.818848848342895508e-02,-6.142045557498931885e-02,-5.653802771121263504e-03,4.446246102452278137e-02,1.221039444208145142e-01,-5.012527108192443848e-02,7.395292818546295166e-02,-6.430464982986450195e-02,5.928439646959304810e-02,1.036998629570007324e-01,-1.708791702985763550e-01,1.501708179712295532e-01,-2.937014214694499969e-02,4.095079302787780762e-01,3.805918991565704346e-02,1.098881289362907410e-01,-3.899275511503219604e-02,4.572635889053344727e-02,1.266059875488281250e-01,5.114411935210227966e-02,8.398544788360595703e-02,-6.724457442760467529e-02,-1.064445078372955322e-02,-1.489342451095581055e-01,-1.579987257719039917e-01,-1.136664077639579773e-01,1.444229036569595337e-01,-2.784474380314350128e-02,-1.361538320779800415e-01,4.489591345191001892e-02
1.393440514802932739e-01,1.561661809682846069e-01,-8.762395381927490234e-02,-4.009448736906051636e-02,-8.175271004438400269e-02,2.801234088838100433e-02,4.784187674522399902e-02,1.002202749252319336e+00,2.078568786382675171e-01,-1.637084186077117920e-01,-1.365872472524642944e-01,-2.081901580095291138e-01,2.116257138550281525e-02,-1.044161096215248108e-01,1.497504413127899170e-01,-9.835422039031982422e-02,2.425738275051116943e-01,-3.925427049398422241e-02,2.260107696056365967e-01,8.121860027313232422e-02,-2.266448438167572021e-01,-1.444620788097381592e-01,1.100784987211227417e-01,6.902068853378295898e-01,5.361120402812957764e-02,-1.009220704436302185e-01,9.588732570409774780e-02,-9.362816065549850464e-02,2.108817100524902344e-01,1.112346127629280090e-01,-3.506476059556007385e-02,2.786453366279602051e-01,-1.234961971640586853e-01,-7.381884008646011353e-02,-1.863714456558227539e-01,-2.050058245658874512e-01,9.585425257682800293e-02,-3.975730016827583313e-02,1.145848184823989868e-01,1.133487671613693237e-01
2.416835129261016846e-01,7.962111383676528931e-02,1.008550003170967102e-01,-1.090251207351684570e-01,-1.086910441517829895e-01,-2.250982075929641724e-01,1.487055867910385132e-01,1.109191298484802246e+00,2.127945721149444580e-01,-2.563697993755340576e-01,-2.209936082363128662e-01,-1.347716152667999268e-01,4.693069308996200562e-02,1.284184902906417847e-01,4.992715269327163696e-02,-3.478147834539413452e-02,2.493375837802886963e-01,1.196911837905645370e-02,1.928499191999435425e-01,1.901881583034992218e-02,-1.037066355347633362e-01,1.031295061111450195e-01,1.126049309968948364e-01,5.269118547439575195e-01,1.045358479022979736e-01,-1.309022158384323120e-01,1.438800990581512451e-01,-1.115314066410064697e-01,7.334414869546890259e-02,-1.153207942843437195e-01,1.280885189771652222e-01,4.135662689805030823e-02,2.785603329539299011e-02,1.619645357131958008e-01,-8.476493507623672485e-02,-6.365809589624404907e-02,1.197060942649841309e-01,6.225636973977088928e-02,8.059397339820861816e-02,-1.040236130356788635e-01
-1.645407229661941528e-01,-1.163712982088327408e-02,2.348411381244659424e-01,1.235651504248380661e-02,-1.372305303812026978e-01,2.477599233388900757e-01,-2.280962914228439331e-01,-1.048222541809082031e+00,-2.480524033308029175e-01,8.251455426216125488e-02,2.354553788900375366e-01,2.479166239500045776e-01,5.131365731358528137e-03,-8.781937509775161743e-02,-1.523175686597824097e-01,1.053225472569465637e-01,5.141945928335189819e-02,1.996930092573165894e-01,-1.374523490667343140e-01,-3.591724112629890442e-02,1.277258098125457764e-01,-1.112816929817199707e-01,1.253482848405838013e-01,-5.918908715248107910e-01,-6.618870794773101807e-02,-1.419129967689514160e-02,4.664277285337448120e-02,5.843286961317062378e-02,7.504384964704513550e-02,-1.380956079810857773e-02,-1.688063703477382660e-02,-2.164747864007949829e-01,9.741061925888061523e-02,-9.276008605957031250e-02,-6.419367343187332153e-02,-4.340063035488128662e-02,2.465455420315265656e-02,-1.165274232625961304e-01,5.060836672782897949e-02,1.875073760747909546e-01
1.493841875344514847e-03,-9.064616262912750244e-02,-1.122001484036445618e-01,-1.496440023183822632e-01,-6.667406111955642700e-02,-1.890336573123931885e-01,2.179790586233139038e-01,1.692021489143371582e+00,6.754141449928283691e-01,-1.998835206031799316e-01,-2.961705327033996582e-01,-1.416155844926834106e-01,1.866379082202911377e-01,1.272660344839096069e-01,1.267285943031311035e-01,-5.536191537976264954e-02,1.390817761421203613e-02,1.023643091320991516e-01,2.151436656713485718e-01,-6.044207885861396790e-02,-9.139766544103622437e-02,7.805997878313064575e-02,-1.362625956535339355e-01,3.351536095142364502e-01,-7.855895161628723145e-02,6.942520849406719208e-03,3.568406775593757629e-02,-1.318701356649398804e-01,1.115674600005149841e-01,-2.204114496707916260e-01,3.771949931979179382e-02,7.930160164833068848e-01,-1.434798352420330048e-02,7.885322719812393188e-02,-1.388974338769912720e-01,-1.214388236403465271e-01,-9.798712283372879028e-02,4.325107857584953308e-02,-3.488493384793400764e-03,-4.704823717474937439e-02
2.099835425615310669e-01,1.928616017103195190e-01,-1.290250122547149658e-01,9.438424557447433472e-02,5.893041566014289856e-02,-1.807935088872909546e-01,3.098796308040618896e-01,1.088161230087280273e+00,3.451430201530456543e-01,-5.149531736969947815e-02,-4.160032048821449280e-02,-2.184544950723648071e-01,-4.285697266459465027e-02,8.611130714416503906e-02,1.098490655422210693e-01,1.479824334383010864e-01,1.972755044698715210e-01,9.496188163757324219e-02,1.998298764228820801e-01,1.530099511146545410e-01,-5.409627780318260193e-02,-3.811001405119895935e-02,-1.262181550264358521e-01,7.562819123268127441e-01,6.372234225273132324e-02,-1.419223397970199585e-01,1.398082673549652100e-01,-1.434636265039443970e-01,2.015996873378753662e-01,-2.945467084646224976e-02,-3.098388947546482086e-02,1.954258531332015991e-01,-1.397862881422042847e-01,-7.071013003587722778e-02,-1.171733886003494263e-01,1.983882673084735870e-02,-7.720669358968734741e-02,7.689078152179718018e-02,-1.307071186602115631e-02,6.699972599744796753e-02
2.116684764623641968e-01,1.107662096619606018e-01,-1.694883108139038086e-01,-1.036538858897984028e-03,6.491180509328842163e-02,-7.882127165794372559e-02,4.730258509516716003e-02,1.148799419403076172e+00,1.243760511279106140e-01,-2.548308670520782471e-01,-8.028370141983032227e-02,7.457450032234191895e-02,2.393903434276580811e-01,9.536925703287124634e-02,-3.300557658076286316e-02,2.658020704984664917e-02,8.749987185001373291e-02,1.284314133226871490e-02,1.733110249042510986e-01,-3.169538825750350952e-02,2.918636798858642578e-02,-1.101570874452590942e-01,-2.512265555560588837e-02,6.083379387855529785e-01,1.357972323894500732e-01,1.354853212833404541e-01,2.387182563543319702e-01,-5.979070067405700684e-02,2.272998392581939697e-01,-1.992829293012619019e-01,-6.355214864015579224e-02,2.830144166946411133e-01,-7.536285370588302612e-02,-1.186184734106063843e-01,-1.988613232970237732e-02,-1.723726689815521240e-01,-1.058968454599380493e-01,-9.051484614610671997e-02,-4.176372196525335312e-03,4.378581047058105469e-02
-7.642716914415359497e-02,-1.807806491851806641e-01,1.916440427303314209e-01,-8.203095197677612305e-02,-4.548564180731773376e-02,5.887053906917572021e-02,-2.135308533906936646e-01,-9.076384902000427246e-01,-4.189145565032958984e-01,1.940914690494537354e-01,2.163112908601760864e-01,-4.810741543769836426e-02,6.970322132110595703e-02,5.108886584639549255e-02,2.008479461073875427e-02,-1.137331500649452209e-01,1.099356412887573242e-01,9.434613585472106934e-02,-9.398330003023147583e-03,1.578323841094970703e-01,2.232651971280574799e-02,6.077111884951591492e-02,-1.383988112211227417e-01,-6.122866868972778320e-01,-2.540899254381656647e-02,4.860446974635124207e-02,-1.116995736956596375e-01,-6.335984915494918823e-02,-3.850835189223289490e-02,9.740206599235534668e-02,1.233438253402709961e-01,-3.060252368450164795e-01,1.021401211619377136e-01,-1.341104954481124878e-01,1.364500373601913452e-01,2.088017296046018600e-03,-8.697815984487533569e-02,7.799828797578811646e-02,3.476919978857040405e-02,1.094877645373344421e-01
-9.910162538290023804e-02,-1.337239444255828857e-01,4.571813717484474182e-02,1.157693490386009216e-01,1.171343475580215454e-01,-8.849258720874786377e-02,-6.547410041093826294e-02,8.735685050487518311e-02,-6.649518851190805435e-03,-2.334298938512802124e-02,1.293679475784301758e-01,6.100989133119583130e-02,-8.185460418462753296e-02,2.971957996487617493e-02,-1.101998388767242432e-01,1.544760614633560181e-01,-8.038961887359619141e-02,-4.706046357750892639e-02,-7.891380786895751953e-02,1.418426185846328735e-01,9.044310450553894043e-02,-9.636406600475311279e-02,-1.129476875066757202e-01,1.078709773719310760e-02,3.567769378423690796e-02,5.951393395662307739e-02,1.154088154435157776e-01,-9.867072850465774536e-02,-8.370405435562133789e-02,-3.180881962180137634e-02,-1.157363429665565491e-01,8.738183975219726562e-02,1.075178831815719604e-01,8.387840539216995239e-02,8.901980519294738770e-02,-5.071553587913513184e-02,1.127378493547439575e-01,1.093582063913345337e-01,-1.488194316625595093e-01,-1.079842522740364075e-01
-6.433088332414627075e-03,1.115134954452514648e-01,-1.164477691054344177e-01,8.838165551424026489e-02,-1.450519263744354248e-01,-1.212678104639053345e-01,2.158678472042083740e-01,9.752353429794311523e-01,1.496576964855194092e-01,2.638844307512044907e-03,-6.727712601423263550e-02,-1.074342802166938782e-01,-5.321451649069786072e-02,7.640555500984191895e-02,-3.182883560657501221e-02,-8.706584572792053223e-03,4.700686037540435791e-02,-1.093753501772880554e-01,1.263544056564569473e-02,-6.511747092008590698e-02,-5.815163999795913696e-02,-1.307062953710556030e-01,-1.336570531129837036e-01,6.618981957435607910e-01,2.175106406211853027e-01,6.694613397121429443e-02,-3.358728438615798950e-02,1.373411808162927628e-02,2.379174381494522095e-01,-1.313137263059616089e-01,1.367960721254348755e-01,2.620087563991546631e-02,-9.526530653238296509e-02,8.147371560335159302e-02,-1.824853122234344482e-01,9.942587465047836304e-02,-8.757373690605163574e-02,1.028263047337532043e-01,-2.469220198690891266e-02,1.486113369464874268e-01
4.220739752054214478e-02,7.232094556093215942e-02,3.718452528119087219e-02,-1.551377214491367340e-02,8.085387945175170898e-02,-1.223343517631292343e-02,6.106521561741828918e-02,-1.155928149819374084e-01,6.042420864105224609e-02,-1.397792994976043701e-01,-1.633750796318054199e-01,9.463142603635787964e-02,1.273519843816757202e-01,9.508795291185379028e-02,-1.061772331595420837e-01,-3.636253997683525085e-02,-4.209854826331138611e-02,1.445721834897994995e-01,-1.555262207984924316e-01,1.205487642437219620e-02,1.084581110626459122e-02,1.403216123580932617e-01,-1.059621572494506836e-01,-7.858112454414367676e-02,1.232843995094299316e-01,-1.144835725426673889e-01,7.126252166926860809e-03,7.242295891046524048e-02,-6.344228982925415039e-02,4.936301335692405701e-02,-9.651959687471389771e-02,-9.446740150451660156e-02,2.591842971742153168e-02,5.521018430590629578e-02,-1.495848000049591064e-01,-2.673737891018390656e-02,2.968697249889373779e-02,1.359042823314666748e-01,-5.343287810683250427e-02,5.541549250483512878e-02
2.063987702131271362e-01,-4.266047105193138123e-02,1.311439648270606995e-02,1.431739479303359985e-01,1.068054959177970886e-01,-2.081560790538787842e-01,2.101674228906631470e-01,9.375462532043457031e-01,2.058550715446472168e-01,-1.926061809062957764e-01,5.041463300585746765e-02,-1.571014821529388428e-01,-4.040196537971496582e-02,5.806746333837509155e-02,1.565268486738204956e-01,-1.066435724496841431e-01,2.423085272312164307e-01,-4.810287058353424072e-02,-7.018723338842391968e-02,6.779081374406814575e-02,-1.249308064579963684e-01,-1.526190489530563354e-01,4.506965354084968567e-02,6.765115857124328613e-01,1.327996850013732910e-01,-1.443330496549606323e-01,9.263348579406738281e-02,-2.881642803549766541e-02,5.894838646054267883e-02,-1.730383783578872681e-01,1.194270402193069458e-01,2.445157170295715332e-01,8.650471456348896027e-03,-1.364720910787582397e-01,-9.100014716386795044e-02,-1.310964375734329224e-01,-1.924299076199531555e-02,-1.515917479991912842e-02,1.044216901063919067e-01,7.436638232320547104e-03
4.454041272401809692e-02,7.119500078260898590e-03,4.707213863730430603e-02,-2.890181913971900940e-02,-2.560079284012317657e-02,2.287180274724960327e-01,2.167256921529769897e-02,-1.144164919853210449e+00,-2.104515135288238525e-01,1.400706022977828979e-01,2.272545695304870605e-01,1.288349181413650513e-01,8.091089874505996704e-02,-1.073642745614051819e-01,1.258704066276550293e-01,2.672635950148105621e-02,5.457480438053607941e-03,1.048587709665298462e-01,-1.533772498369216919e-01,8.223154395818710327e-02,5.242425203323364258e-02,-1.389085501432418823e-01,2.148399688303470612e-02,-5.068646073341369629e-01,6.366907805204391479e-02,4.043623432517051697e-02,-1.328805685043334961e-01,-1.359926350414752960e-02,-2.064202278852462769e-01,-5.544053390622138977e-02,-5.901667103171348572e-02,-5.918528139591217041e-02,9.633886814117431641e-02,2.522959001362323761e-02,1.258505433797836304e-01,1.569970399141311646e-01,9.663219004869461060e-02,8.382668346166610718e-02,1.206141784787178040e-01,1.051421090960502625e-01
-8.342016488313674927e-02,-1.232723742723464966e-01,9.142548590898513794e-02,-9.445858001708984375e-02,-4.209825769066810608e-02,-3.575413674116134644e-02,-1.386430412530899048e-01,1.513301283121109009e-01,9.279158711433410645e-02,-5.265437997877597809e-03,4.130297154188156128e-02,-6.683852523565292358e-02,-6.166294962167739868e-02,-1.216423604637384415e-02,-3.856664150953292847e-02,9.832752868533134460e-03,-1.394146233797073364e-01,6.663979589939117432e-02,-6.355427950620651245e-02,1.425866335630416870e-01,1.379172503948211670e-02,-1.083351820707321167e-01,3.258964419364929199e-02,1.538765877485275269e-01,-4.673372954130172729e-02,3.799475729465484619e-02,-1.090971380472183228e-01,-4.522304236888885498e-02,1.420971006155014038e-01,7.031361758708953857e-02,2.704340033233165741e-02,2.158441022038459778e-02,-2.834817161783576012e-03,9.163418784737586975e-03,-6.816692650318145752e-02,-6.165991351008415222e-02,1.802782341837882996e-02,-1.310884654521942139e-01,-1.278077904134988785e-02,8.516316860914230347e-02
2.617854475975036621e-01,2.970537357032299042e-02,9.519669413566589355e-02,9.580695629119873047e-02,-1.376668363809585571e-01,-2.216097414493560791e-01,2.728391587734222412e-01,1.019486427307128906e+00,1.595806777477264404e-01,-8.059559017419815063e-02,-4.359697550535202026e-02,-1.614053398370742798e-01,1.598319411277770996e-01,1.281325221061706543e-01,5.129407718777656555e-02,9.434273466467857361e-03,6.017497926950454712e-02,4.832762852311134338e-02,1.768943071365356445e-01,-1.425794046372175217e-02,-2.430721819400787354e-01,1.447885930538177490e-01,2.887384034693241119e-02,6.627779006958007812e-01,1.688629090785980225e-01,3.535981476306915283e-02,1.140529755502939224e-02,1.358295828104019165e-01,2.450362220406532288e-02,4.070210456848144531e-02,-1.669320091605186462e-02,1.757771670818328857e-01,-2.062147110700607300e-02,9.503701329231262207e-02,-1.793407648801803589e-01,-1.204435601830482483e-01,-1.248289346694946289e-01,-5.541380867362022400e-02,-4.310490936040878296e-02,-2.599290339276194572e-03
1.379807144403457642e-01,5.619363393634557724e-03,-3.707883134484291077e-02,7.987379282712936401e-02,1.395105719566345215e-01,-1.877521872520446777e-01,3.359033763408660889e-01,1.020672321319580078e+00,7.570014894008636475e-02,-1.558466404676437378e-01,-2.206653803586959839e-01,3.238683566451072693e-03,1.653387993574142456e-01,1.156913936138153076e-01,1.195088624954223633e-01,7.885631173849105835e-03,2.157125473022460938e-01,-9.807553887367248535e-02,2.158306688070297241e-01,9.061256796121597290e-02,-8.801728487014770508e-02,8.143160492181777954e-03,-2.973803691565990448e-02,7.500685453414916992e-01,-2.044084109365940094e-02,-1.387116126716136932e-02,1.623505651950836182e-01,-6.733664870262145996e-02,1.924872696399688721e-01,-1.870264261960983276e-01,9.433331899344921112e-03,1.633162028156220913e-03,1.568962782621383667e-01,8.966171741485595703e-02,-1.566583514213562012e-01,-1.069063395261764526e-01,-4.881519079208374023e-02,1.005493700504302979e-01,-3.944407217204570770e-03,9.202092140913009644e-02
1.198327690362930298e-01,3.623170033097267151e-02,8.347520232200622559e-02,1.324572712182998657e-01,6.426805257797241211e-02,1.767590641975402832e-02,1.948748975992202759e-01,1.154685497283935547e+00,2.664475142955780029e-01,-2.026252448558807373e-01,-1.398144103586673737e-02,-5.403003469109535217e-02,5.811970680952072144e-02,7.031469047069549561e-02,-1.593730039894580841e-02,-8.211570233106613159e-02,2.035348862409591675e-01,-5.341728404164314270e-02,1.284818351268768311e-01,-1.132642477750778198e-01,-3.903246298432350159e-02,-1.480197161436080933e-01,8.844985812902450562e-02,4.428551197052001953e-01,1.554433256387710571e-01,1.446964144706726074e-01,1.653998643159866333e-01,1.167943701148033142e-01,-3.841625526547431946e-02,-1.253132373094558716e-01,1.590304076671600342e-01,1.057473942637443542e-01,-9.662005305290222168e-02,1.292667686939239502e-01,-9.889370203018188477e-02,1.984916627407073975e-02,-1.414374411106109619e-01,1.276841908693313599e-01,-1.339902877807617188e-01,-1.608619093894958496e-01
3.413823992013931274e-02,-1.893133968114852905e-01,1.395823657512664795e-01,1.603285372257232666e-01,-2.829317189753055573e-02,1.862714141607284546e-01,-1.233191266655921936e-01,-1.073142647743225098e+00,-6.051500141620635986e-02,-2.872464433312416077e-02,2.838632464408874512e-02,1.528664678335189819e-01,3.089261800050735474e-02,-2.580807358026504517e-02,-2.674364298582077026e-02,-3.223651275038719177e-02,-1.769300922751426697e-02,-7.411595433950424194e-02,9.040506184101104736e-02,8.366050571203231812e-02,2.046027332544326782e-01,7.287884503602981567e-02,-1.104945987462997437e-01,-6.168637871742248535e-01,-1.454247534275054932e-01,1.501043736934661865e-01,-8.012593537569046021e-02,-4.205520078539848328e-02,2.251906320452690125e-02,1.329718381166458130e-01,2.566050738096237183e-02,-1.531066149473190308e-01,-2.161441743373870850e-02,1.011528745293617249e-01,9.570077806711196899e-02,2.138988375663757324e-01,6.993214040994644165e-02,4.498311784118413925e-03,1.418409496545791626e-01,1.869043707847595215e-01
3.613276034593582153e-02,3.080317005515098572e-02,-1.649462059140205383e-02,-6.503269821405410767e-02,-8.441416174173355103e-02,-1.704342430457472801e-04,5.309867113828659058e-02,-9.091404080390930176e-01,-5.149318277835845947e-02,1.638223081827163696e-01,1.024675443768501282e-01,1.271746903657913208e-01,-1.102626845240592957e-01,1.159317698329687119e-02,1.443425118923187256e-01,1.499252766370773315e-01,-2.098929882049560547e-02,2.181081473827362061e-01,-9.786224365234375000e-02,-5.842430517077445984e-02,-7.559776306152343750e-03,-1.349935084581375122e-01,4.192936420440673828e-02,-4.009126424789428711e-01,-4.509636014699935913e-02,-7.340566813945770264e-02,-8.511049300432205200e-02,-1.312802135944366455e-01,-9.268074482679367065e-02,-1.297522429376840591e-02,2.773876301944255829e-02,-8.822561055421829224e-02,1.449251025915145874e-01,1.017370074987411499e-01,4.524911567568778992e-02,2.165050059556961060e-01,6.447046250104904175e-02,1.548609137535095215e-01,9.815783053636550903e-02,1.725380122661590576e-01
-5.086809862405061722e-03,4.406818374991416931e-02,-1.237084046006202698e-01,-1.379063725471496582e-01,-1.295576095581054688e-01,5.949566140770912170e-02,-1.626482792198657990e-02,-2.179741114377975464e-02,-2.442380040884017944e-01,2.002284973859786987e-01,1.469767242670059204e-01,2.534560300409793854e-02,-7.634258270263671875e-02,1.400808393955230713e-01,7.315744459629058838e-02,1.267236024141311646e-01,4.819593951106071472e-02,-2.294206293299794197e-03,-2.042259871959686279e-01,9.701214730739593506e-03,9.415910392999649048e-02,6.039407104253768921e-03,6.328457593917846680e-02,3.992905616760253906e-01,6.115389615297317505e-02,-3.827041760087013245e-02,8.586751669645309448e-02,3.990533296018838882e-03,1.366129517555236816e-02,1.449989154934883118e-02,-2.441791743040084839e-01,-3.878263831138610840e-01,-8.060527965426445007e-03,-1.154256798326969147e-02,9.366378188133239746e-02,1.759109050035476685e-01,-7.650415599346160889e-02,-9.260906279087066650e-02,9.978275746107101440e-02,3.909761831164360046e-02
-4.495555907487869263e-02,-6.795738637447357178e-02,8.986198157072067261e-02,1.359253004193305969e-02,1.086200550198554993e-01,3.296365588903427124e-02,-1.172329634428024292e-01,1.861045323312282562e-02,1.090156137943267822e-01,-1.272075176239013672e-01,-1.024124622344970703e-01,-5.706624686717987061e-02,-2.515875548124313354e-02,2.341568842530250549e-02,-1.461964249610900879e-01,7.103375345468521118e-02,-1.096758469939231873e-01,-6.436006724834442139e-02,8.485263586044311523e-02,9.409243240952491760e-03,8.624523133039474487e-02,-6.699967384338378906e-02,1.346342414617538452e-01,1.247456371784210205e-01,-1.260452717542648315e-01,-7.359439879655838013e-02,5.404336005449295044e-02,1.087922602891921997e-01,5.077259149402379990e-03,-4.737683758139610291e-02,8.751287311315536499e-02,2.469765953719615936e-02,2.140570618212223053e-02,1.195620745420455933e-01,9.242589026689529419e-02,-6.474737077951431274e-02,-1.145726665854454041e-01,7.859073579311370850e-02,8.961287885904312134e-02,-7.132183760404586792e-02
-1.414002478122711182e-01,-4.286856204271316528e-02,7.111061364412307739e-02,-7.071373611688613892e-02,-2.725069038569927216e-02,-8.682827651500701904e-02,-3.002093173563480377e-02,1.262054890394210815e-01,3.208272904157638550e-02,3.846357762813568115e-02,-1.134791597723960876e-01,3.278527408838272095e-02,-3.322065994143486023e-02,1.084287241101264954e-01,1.514358446002006531e-02,-1.348714828491210938e-01,-4.551135003566741943e-02,-1.520905941724777222e-01,-1.498420089483261108e-01,-5.417007952928543091e-02,-1.107513904571533203e-01,1.293717622756958008e-01,7.317375391721725464e-02,-1.468900293111801147e-01,-1.848495937883853912e-02,-2.328648045659065247e-02,-1.394474357366561890e-01,-6.674003321677446365e-03,-1.398122608661651611e-01,1.574242413043975830e-01,-1.050492376089096069e-01,5.735557526350021362e-02,-9.653191268444061279e-02,-1.354971379041671753e-01,1.334582418203353882e-01,2.812161110341548920e-02,-1.310452520847320557e-01,3.618411719799041748e-03,8.015025407075881958e-02,-5.445429682731628418e-02
-9.690307825803756714e-02,-1.277270764112472534e-01,1.817316859960556030e-01,5.385775491595268250e-02,2.138429507613182068e-02,-9.065823629498481750e-03,-1.208747476339340210e-01,-9.406049847602844238e-01,-8.605764806270599365e-02,2.227102071046829224e-01,6.279037892818450928e-02,6.693492084741592407e-02,5.874029546976089478e-02,-2.548361429944634438e-03,1.257908940315246582e-01,8.065451681613922119e-02,4.522038623690605164e-02,1.515367776155471802e-01,-2.657773159444332123e-02,-4.831670597195625305e-02,1.115378644317388535e-02,3.244605660438537598e-02,-4.687651991844177246e-02,-6.362116336822509766e-01,-3.775801137089729309e-02,-1.242227181792259216e-01,-4.011851549148559570e-02,3.614922985434532166e-02,-1.139030307531356812e-01,8.503069169819355011e-03,4.335336014628410339e-02,-3.614730015397071838e-02,-6.696493178606033325e-02,-1.545354425907135010e-01,6.382010877132415771e-03,1.964767724275588989e-01,7.949207723140716553e-02,3.990534320473670959e-02,1.085924282670021057e-01,9.588833898305892944e-02
7.383778691291809082e-02,1.383426785469055176e-01,-7.586869597434997559e-02,-7.796142250299453735e-02,-3.427693620324134827e-02,-1.130555048584938049e-01,-6.747607141733169556e-03,4.298242926597595215e-02,-4.309329390525817871e-02,-1.542131155729293823e-01,4.196757823228836060e-02,4.271647334098815918e-02,1.170733347535133362e-01,-1.732080988585948944e-02,1.105819344520568848e-01,1.877434179186820984e-02,-1.398444026708602905e-01,-1.304184738546609879e-02,-1.458940356969833374e-01,-3.772795200347900391e-02,1.278066169470548630e-02,7.288604229688644409e-02,1.040496006608009338e-01,-6.588364392518997192e-02,-1.191348284482955933e-01,8.018599450588226318e-02,-1.980394870042800903e-02,1.118049919605255127e-01,-3.478385275229811668e-03,-1.498741060495376587e-01,-1.053521782159805298e-01,-9.570475667715072632e-02,1.507596373558044434e-01,-1.470659375190734863e-01,-1.012884452939033508e-01,-5.449957028031349182e-02,2.301981113851070404e-02,7.757421582937240601e-02,1.041396036744117737e-01,1.481387913227081299e-01
-9.749803692102432251e-02,6.108584254980087280e-02,-1.007704213261604309e-01,1.223427951335906982e-01,1.527841836214065552e-01,6.472826004028320312e-02,7.299423962831497192e-02,-2.251626364886760712e-02,-8.237369358539581299e-02,3.915807977318763733e-02,-9.004545211791992188e-02,-7.459835708141326904e-02,1.240630447864532471e-01,-1.363431960344314575e-01,5.267766118049621582e-02,6.546480953693389893e-02,8.510717749595642090e-02,4.250250756740570068e-02,-5.078503489494323730e-02,-1.252046078443527222e-01,-7.099856884451583028e-05,5.053498595952987671e-02,-1.292796432971954346e-01,4.161163792014122009e-02,-5.202080681920051575e-02,1.467492431402206421e-01,8.809898048639297485e-02,5.738797411322593689e-02,1.325971931219100952e-01,-5.003259330987930298e-02,-1.523097902536392212e-01,-7.103268057107925415e-02,1.617019437253475189e-02,-6.304297596216201782e-02,2.329245954751968384e-02,-1.398140192031860352e-02,-3.467434272170066833e-02,9.057442098855972290e-02,8.038509637117385864e-02,-1.462066620588302612e-01
-1.934164948761463165e-02,-1.712292991578578949e-02,8.364202827215194702e-02,8.803287148475646973e-02,-1.016880720853805542e-01,-1.317496448755264282e-01,2.573777139186859131e-01,1.401576876640319824e+00,3.217808902263641357e-01,-1.482134163379669189e-01,-3.224966228008270264e-01,-4.607270285487174988e-02,3.934849426150321960e-02,-1.156410276889801025e-01,-8.260625414550304413e-03,2.422137372195720673e-02,-1.053913086652755737e-01,-3.420812636613845825e-02,5.237165838479995728e-02,1.209360063076019287e-01,-1.164152622222900391e-01,1.562245283275842667e-02,-2.492178976535797119e-02,1.293555647134780884e-01,2.028254419565200806e-01,-1.060691028833389282e-01,-1.957633718848228455e-02,1.334063261747360229e-01,8.861125260591506958e-02,-3.061486780643463135e-01,1.767765134572982788e-01,4.083827733993530273e-01,-3.727716952562332153e-02,6.050821766257286072e-02,-7.763135433197021484e-02,-1.637576073408126831e-01,1.321050673723220825e-01,5.952477082610130310e-02,-2.372603863477706909e-01,2.298395894467830658e-02
-3.627365082502365112e-02,-1.140547469258308411e-01,-4.876873642206192017e-02,3.147855401039123535e-03,-1.251699626445770264e-01,2.394676767289638519e-02,-1.401542127132415771e-01,1.252532899379730225e-01,1.098350062966346741e-01,-2.466552332043647766e-02,9.422502666711807251e-02,4.271864145994186401e-02,-5.485878884792327881e-02,-1.248171478509902954e-01,9.075172990560531616e-02,-1.196259483695030212e-01,1.269926428794860840e-01,-5.060380324721336365e-02,-5.082923173904418945e-02,-4.793549422174692154e-03,-1.466141492128372192e-01,1.097688451409339905e-01,4.851897060871124268e-02,-2.783234044909477234e-02,-8.726062625646591187e-02,5.254449695348739624e-02,-1.245708540081977844e-01,-1.311531662940979004e-01,-9.211905300617218018e-02,-9.463289380073547363e-02,3.253198415040969849e-02,-4.798487760126590729e-03,1.284462511539459229e-01,-1.244965568184852600e-01,1.543636061251163483e-02,-6.524749845266342163e-02,1.052351593971252441e-01,-1.115735992789268494e-01,9.318155050277709961e-02,-1.099111884832382202e-01
5.126458778977394104e-02,3.981311246752738953e-02,1.248636320233345032e-01,1.240937113761901855e-01,-8.939430862665176392e-02,3.549118712544441223e-02,-2.393693923950195312e-01,-8.701976537704467773e-01,-1.258777529001235962e-01,2.677401304244995117e-01,1.347185969352722168e-01,2.502399086952209473e-01,-1.180484667420387268e-01,1.460199058055877686e-01,-9.959238767623901367e-02,-4.059534147381782532e-02,6.227378919720649719e-02,8.175618201494216919e-02,-5.102748796343803406e-02,-5.612871795892715454e-02,2.177558243274688721e-01,1.074913665652275085e-01,5.005447566509246826e-02,-4.616944789886474609e-01,9.220550209283828735e-02,3.124640882015228271e-02,-1.989040523767471313e-01,8.513744175434112549e-02,-1.622783392667770386e-01,1.389516443014144897e-01,6.380738317966461182e-02,-1.643792539834976196e-01,-1.224459335207939148e-01,1.082607656717300415e-01,1.578337550163269043e-01,2.327045351266860962e-01,-1.500711888074874878e-01,-9.024630486965179443e-02,1.868761181831359863e-01,1.206466779112815857e-01
-1.386737525463104248e-01,-1.905651241540908813e-01,1.621442586183547974e-01,1.375265568494796753e-01,1.544799208641052246e-01,-2.623908035457134247e-02,-1.740400306880474091e-02,-9.257447123527526855e-01,-3.641171380877494812e-02,-2.415093034505844116e-02,6.536320596933364868e-02,2.275333255529403687e-01,-3.250078856945037842e-02,1.239739209413528442e-01,1.209900081157684326e-01,8.787821978330612183e-02,9.234695136547088623e-02,-1.185780316591262817e-01,-1.668237745761871338e-01,1.160586699843406677e-01,-1.083740219473838806e-02,-4.419211670756340027e-02,1.356362458318471909e-02,-5.382612943649291992e-01,6.970379501581192017e-02,-6.723858416080474854e-02,4.845565557479858398e-02,2.944468706846237183e-02,-1.059775426983833313e-01,-9.893023408949375153e-03,8.980874717235565186e-02,-1.162679791450500488e-01,-9.820793569087982178e-02,3.844215301796793938e-03,4.868759773671627045e-03,2.316542416810989380e-01,1.035514194518327713e-02,-8.811942487955093384e-02,1.576741486787796021e-01,1.894866377115249634e-01
-3.098369948565959930e-02,8.744717389345169067e-02,-1.629808545112609863e-01,-1.418887078762054443e-01,1.073349192738533020e-01,-8.396407216787338257e-02,2.448230385780334473e-01,1.394971489906311035e+00,5.785253047943115234e-01,-1.955234557390213013e-01,4.248689115047454834e-02,4.434281587600708008e-02,9.387847781181335449e-02,1.261061578989028931e-01,1.894192583858966827e-02,2.811169624328613281e-02,6.474440544843673706e-02,-1.395115256309509277e-01,-3.551587089896202087e-02,-4.626211244612932205e-03,-3.875713050365447998e-02,-1.805042289197444916e-02,-3.346872702240943909e-02,6.925581097602844238e-01,-9.260825812816619873e-02,9.727807343006134033e-02,2.149896025657653809e-01,1.509459167718887329e-01,3.501417115330696106e-02,5.522396415472030640e-02,5.504382774233818054e-03,5.944547653198242188e-01,1.221455261111259460e-01,1.142175793647766113e-01,5.241368710994720459e-02,-7.407462596893310547e-02,-1.370631307363510132e-01,1.425316631793975830e-01,8.379548788070678711e-02,1.182818189263343811e-01
-2.429036796092987061e-02,1.474809050559997559e-01,-6.552325189113616943e-02,-2.011011354625225067e-02,8.545645326375961304e-02,-1.613426953554153442e-01,3.001763224601745605e-01,1.178336262702941895e+00,9.698486328125000000e-02,-6.790731847286224365e-02,-1.549425572156906128e-01,7.143778353929519653e-02,8.805738389492034912e-02,-2.387563139200210571e-02,-3.559624776244163513e-02,-1.314886808395385742e-01,4.569170624017715454e-02,2.623049728572368622e-02,8.402689546346664429e-02,-1.200482398271560669e-01,-1.139371842145919800e-01,-8.003608882427215576e-02,1.542637497186660767e-01,5.473561882972717285e-01,1.008014604449272156e-01,8.043710142374038696e-02,1.795736402273178101e-01,9.942775219678878784e-02,9.637940675020217896e-02,-1.716540604829788208e-01,2.020482271909713745e-01,2.599008679389953613e-01,-8.266042172908782959e-02,1.631527952849864960e-02,5.241038650274276733e-02,4.573561996221542358e-02,1.484438963234424591e-02,1.220096796751022339e-01,-1.349930018186569214e-01,7.984185218811035156e-02
-2.759083360433578491e-02,4.925440996885299683e-02,1.242367103695869446e-01,1.261812597513198853e-01,-5.514657124876976013e-02,7.676605880260467529e-02,3.202841281890869141e-01,1.039695024490356445e+00,1.382272457703948021e-04,-2.296385727822780609e-02,-1.802117526531219482e-01,-1.946887671947479248e-01,2.203644216060638428e-01,5.249660089612007141e-02,-7.516940683126449585e-02,-8.567385375499725342e-02,4.220307990908622742e-02,-1.213072612881660461e-01,1.138566341251134872e-02,-2.004168229177594185e-03,-1.557187438011169434e-01,-4.239371046423912048e-02,1.434076875448226929e-01,7.426111102104187012e-01,9.280384331941604614e-02,1.790189743041992188e-02,2.583745121955871582e-01,-4.357250034809112549e-02,9.411928057670593262e-02,-5.269782245159149170e-02,-6.011908873915672302e-02,2.682896852493286133e-01,-8.964490145444869995e-02,-2.889154013246297836e-03,-5.872564390301704407e-02,-1.883201152086257935e-01,1.004982069134712219e-01,6.062532961368560791e-02,1.159968301653862000e-01,-1.178322136402130127e-01
-1.021363735198974609e-01,-2.341756969690322876e-02,2.157644033432006836e-01,1.382138952612876892e-02,1.494558155536651611e-01,-4.643388092517852783e-02,-2.440282106399536133e-01,-1.117903709411621094e+00,-1.581750661134719849e-01,1.692002564668655396e-01,2.239985466003417969e-01,-4.901727079413831234e-04,6.047519668936729431e-02,-7.380222529172897339e-02,-1.558219939470291138e-01,-4.566933959722518921e-02,3.050537221133708954e-02,1.888510137796401978e-01,-1.294443160295486450e-01,1.496437191963195801e-02,1.066565439105033875e-01,-5.629784613847732544e-02,-5.151113867759704590e-02,-5.077460408210754395e-01,-8.195258677005767822e-02,5.705047026276588440e-02,5.446069687604904175e-02,7.500495016574859619e-02,-2.109949849545955658e-02,7.005444169044494629e-02,1.261014342308044434e-01,-1.062664985656738281e-01,1.685097068548202515e-02,1.453283429145812988e-01,1.289429515600204468e-01,3.064834140241146088e-02,1.185506731271743774e-01,1.194784194231033325e-01,1.963150352239608765e-01,-1.723354123532772064e-02
