-1.481265425682067871e-01
7.406470365822315216e-03
1.948799192905426025e-01
-1.020420249551534653e-02
3.538020327687263489e-02
-3.134344890713691711e-02
-1.558661609888076782e-01
7.349992543458938599e-02
1.045363722369074821e-03
-1.444277018308639526e-01
-1.030843481421470642e-01
-1.405789703130722046e-01
1.423787772655487061e-01
-4.379664361476898193e-02
-7.090964913368225098e-02
8.020327985286712646e-02
-7.826973451301455498e-04
1.128890961408615112e-01
1.272513419389724731e-01
4.657853022217750549e-02
3.142334893345832825e-02
1.454911530017852783e-01
-7.988157123327255249e-02
-1.725199669599533081e-01
8.877496421337127686e-02
-3.344373777508735657e-02
-1.571500897407531738e-01
-4.821344837546348572e-02
-1.195558011531829834e-01
5.561666563153266907e-03
2.741950936615467072e-02
3.027258254587650299e-02
1.231966763734817505e-01
-1.582010239362716675e-01
1.600692719221115112e-01
1.375064402818679810e-01
4.894673824310302734e-02
-2.029160968959331512e-02
-1.256824731826782227e-01
9.540504217147827148e-02
