-3.501704707741737366e-02
1.107392236590385437e-01
3.480619192123413086e-02
6.338170915842056274e-02
-2.968893572688102722e-02
6.358741968870162964e-02
-8.429837226867675781e-02
5.423644557595252991e-02
-1.094637885689735413e-01
7.428710162639617920e-02
1.461525708436965942e-01
6.932655721902847290e-02
-9.462147951126098633e-02
1.605205386877059937e-01
-6.975283473730087280e-02
1.494181007146835327e-01
1.443472206592559814e-01
-1.492965370416641235e-01
1.134957298636436462e-01
1.637056916952133179e-01
-9.135998785495758057e-02
1.400643121451139450e-02
-9.492515586316585541e-03
-4.766974225640296936e-02
5.182334035634994507e-02
1.427829712629318237e-01
-1.350217163562774658e-01
2.690044417977333069e-02
-7.583618164062500000e-02
-1.872803643345832825e-02
-1.057773455977439880e-01
-8.417836390435695648e-03
6.414662301540374756e-02
1.525375247001647949e-01
-6.458232179284095764e-03
1.220502424985170364e-02
-2.742854654788970947e-01
-7.048472017049789429e-02
1.583320647478103638e-01
3.104240261018276215e-02
