8.839997053146362305e-01,-2.505279183387756348e-01,-1.941902041435241699e-01,3.995955339632928371e-04,7.125850021839141846e-02,-7.884433120489120483e-02,1.399176865816116333e-01,1.979464143514633179e-01,-1.312259882688522339e-01,-1.746481843292713165e-02,-1.604400016367435455e-02,-1.439837813377380371e-01,8.860628008842468262e-01,-1.276255548000335693e-01,2.080403119325637817e-01,1.529870182275772095e-01,7.488877773284912109e+00,1.101214066147804260e-01,5.021783113479614258e-01,4.308601021766662598e-01,-5.470392107963562012e-02,-1.291279681026935577e-03,-1.615583896636962891e-01,1.132613141089677811e-02,7.286804318428039551e-01,-2.312535494565963745e-01,-6.763280928134918213e-02,-1.224376916885375977e+00,7.932500541210174561e-02,2.214961647987365723e-01,-2.554951906204223633e-01,9.265543818473815918e-01,-2.746554277837276459e-02,-1.571629312820732594e-03,5.247161388397216797e-01,-6.130444258451461792e-02,2.184551060199737549e-01,1.021616831421852112e-01,9.846676141023635864e-02,-1.240642964839935303e-01
