2.990577369928359985e-02,-1.233818158507347107e-01,-1.577832251787185669e-01,-8.331311345100402832e-01,1.682658642530441284e-01,-2.317767620086669922e+00,-8.346355557441711426e-01,-1.108234375715255737e-01,-2.557681687176227570e-02,2.255772948265075684e-01,1.726093590259552002e-01,7.169743627309799194e-02,6.790176848880946636e-04,-8.236080408096313477e-02,-1.040706992149353027e+00,-7.470965981483459473e-01,5.795827507972717285e-02,1.729624569416046143e-01,6.627842038869857788e-02,1.295504719018936157e-01,1.062428727746009827e-01,-3.807972371578216553e-02,-8.199648000299930573e-03,-6.282433271408081055e-01,-5.947294831275939941e-01,-5.521424859762191772e-02,-1.274814307689666748e-01,3.044680953025817871e-01,2.918535768985748291e-01,-6.947837471961975098e-01,2.939747571945190430e-01,-7.308442592620849609e-01,-4.738043993711471558e-02,2.544121257960796356e-02,-1.458119392395019531e+00,-2.501644752919673920e-02,-5.797816440463066101e-02,-2.756938338279724121e-01,2.007626295089721680e-01,2.878937423229217529e-01
8.895129710435867310e-02,-8.719056844711303711e-01,-7.891659438610076904e-02,1.780516356229782104e-01,-6.936730444431304932e-02,4.277763366699218750e-01,2.674375474452972412e-01,-2.797117233276367188e-01,5.958601459860801697e-02,-1.867902576923370361e-01,-1.024153009057044983e-01,-1.371154338121414185e-01,1.756173372268676758e-01,-8.611315488815307617e-02,1.780319064855575562e-01,4.102340638637542725e-01,2.130808979272842407e-01,-9.613105095922946930e-03,-6.156643107533454895e-02,-2.075632810592651367e-01,-2.979192696511745453e-02,-4.950426220893859863e-01,3.348743543028831482e-02,1.189554948359727859e-02,-3.600588142871856689e-01,1.491224914789199829e-01,-1.441780179738998413e-01,-1.960245519876480103e-02,5.924023315310478210e-02,-1.699890792369842529e-01,8.339332044124603271e-02,3.001021742820739746e-01,4.539055004715919495e-02,1.926496177911758423e-01,1.323871165513992310e-01,8.540203422307968140e-02,1.550641953945159912e-01,4.543310701847076416e-01,6.573037803173065186e-02,-2.418476194143295288e-01
1.799339801073074341e-02,-1.550723391119390726e-04,-6.846366077661514282e-02,-2.137111872434616089e-01,9.279190003871917725e-02,9.305278211832046509e-02,7.546640466898679733e-03,-6.472730040550231934e-01,-1.443798374384641647e-02,-2.660667598247528076e-01,1.832222640514373779e-01,-1.551287323236465454e-01,1.706601493060588837e-02,8.618568629026412964e-02,4.731577355414628983e-03,1.256683617830276489e-01,2.432203888893127441e-01,2.090613171458244324e-02,2.057652175426483154e-01,1.589811742305755615e-01,-2.218974083662033081e-01,5.844098702073097229e-02,-1.360264420509338379e-01,1.151525005698204041e-01,-8.926503658294677734e-01,-2.513395063579082489e-02,1.274756342172622681e-01,-7.507435232400894165e-02,-8.868110179901123047e-02,-3.914296627044677734e-01,1.804165840148925781e-01,8.383776247501373291e-02,-9.666983038187026978e-02,1.365156769752502441e-01,-3.666898012161254883e-01,1.640783064067363739e-02,1.179087609052658081e-01,2.323395013809204102e-01,-4.487831145524978638e-02,-9.842437505722045898e-02
-2.382387779653072357e-02,-2.230477333068847656e-01,-6.574200838804244995e-02,-6.114568933844566345e-02,-3.670854121446609497e-02,7.536350190639495850e-02,-7.059834897518157959e-02,3.697428619489073753e-03,8.339767158031463623e-02,-1.432740837335586548e-01,7.499270141124725342e-02,-2.069386392831802368e-01,-1.020676568150520325e-01,-9.493722580373287201e-03,-1.215670853853225708e-01,1.986457780003547668e-02,-3.201547637581825256e-02,1.336102783679962158e-01,1.621569395065307617e-01,-7.587508857250213623e-02,-7.509507983922958374e-02,4.306670278310775757e-03,1.498246937990188599e-01,-2.150309644639492035e-02,6.169920042157173157e-02,-7.442330475896596909e-03,-6.001181900501251221e-02,-6.192810367792844772e-03,5.329564586281776428e-02,1.756274513900279999e-02,-1.072992533445358276e-01,-1.289482563734054565e-01,1.577043533325195312e-01,-4.447398707270622253e-02,3.841871768236160278e-02,-1.218299791216850281e-01,-1.303123384714126587e-01,7.650773227214813232e-02,-9.867686033248901367e-02,-1.531288027763366699e-01
-5.489735305309295654e-02,-1.039160415530204773e-01,4.885660856962203979e-02,-7.277008891105651855e-02,4.438672587275505066e-02,1.058697402477264404e-01,-1.072920188307762146e-01,6.197096779942512512e-02,-1.125039905309677124e-01,1.813599467277526855e-02,2.378370799124240875e-02,6.225818023085594177e-02,-8.086823672056198120e-02,-5.938610062003135681e-02,9.882780909538269043e-02,1.338889896869659424e-01,-1.182797644287347794e-02,-1.402277201414108276e-01,6.035963445901870728e-02,3.331479057669639587e-02,-1.534628123044967651e-01,-1.341342628002166748e-01,-1.262280493974685669e-01,-2.192788943648338318e-02,1.270698010921478271e-01,1.343952268362045288e-01,8.271551877260208130e-02,5.565152317285537720e-02,-3.613077476620674133e-02,-2.635031007230281830e-02,-9.874664992094039917e-02,-7.456261664628982544e-02,3.815283998847007751e-02,1.551595777273178101e-01,-6.337473541498184204e-02,-8.112514764070510864e-02,-4.861215874552726746e-02,-1.427003890275955200e-01,-7.022222131490707397e-02,-9.506328403949737549e-02
-4.107878729701042175e-02,-3.693777322769165039e-01,1.440392285585403442e-01,1.084035187959671021e-01,-2.654867246747016907e-02,1.988801062107086182e-01,1.800277456641197205e-02,-1.905498653650283813e-02,5.065227672457695007e-02,-2.802210450172424316e-01,-3.892806172370910645e-02,-6.088678911328315735e-02,1.685539782047271729e-01,5.620997399091720581e-02,-8.661273866891860962e-02,2.982232570648193359e-01,5.165910348296165466e-02,2.241378882899880409e-03,4.965705424547195435e-02,8.318562991917133331e-03,-3.008738160133361816e-01,4.032232984900474548e-02,-1.480195224285125732e-01,1.714331060647964478e-01,1.803952604532241821e-01,5.074912682175636292e-02,-1.323452442884445190e-01,-1.112228725105524063e-02,-1.245845034718513489e-01,2.233321368694305420e-01,-1.083740685135126114e-02,1.016365438699722290e-01,1.548928916454315186e-01,2.161480039358139038e-01,9.695152193307876587e-02,1.935173198580741882e-02,9.610881656408309937e-02,1.886255741119384766e-01,1.673234552145004272e-01,-1.216686144471168518e-01
-5.362566933035850525e-02,-3.742905333638191223e-02,-1.262196600437164307e-01,1.993091851472854614e-01,2.225420027971267700e-01,-4.212676882743835449e-01,-7.312840223312377930e-02,1.146417483687400818e-01,1.442372351884841919e-01,9.912435710430145264e-02,-1.035839505493640900e-02,8.055412769317626953e-02,1.530041992664337158e-01,1.517927050590515137e-01,-1.562496423721313477e-01,-6.649748980998992920e-02,-1.452788263559341431e-01,2.517325580120086670e-01,7.234830409288406372e-02,1.373438835144042969e-01,6.241524219512939453e-02,-1.520492322742938995e-02,-3.596187010407447815e-02,-1.339855194091796875e-01,2.176606506109237671e-01,1.168269291520118713e-01,1.354835927486419678e-01,2.982116341590881348e-01,2.308180928230285645e-01,1.867731064558029175e-01,1.169530823826789856e-01,-2.333642542362213135e-01,1.295894980430603027e-01,-1.123446077108383179e-01,8.935120701789855957e-02,-7.684957236051559448e-02,1.430237889289855957e-01,1.549552381038665771e-02,-2.220795117318630219e-02,1.416063010692596436e-01
1.080045253038406372e-01,-8.423404395580291748e-02,-1.894741086289286613e-03,1.579418331384658813e-01,1.895976066589355469e-01,-4.674746096134185791e-01,-9.155078232288360596e-02,2.412584871053695679e-01,-1.446290910243988037e-01,1.843995451927185059e-01,-6.896979361772537231e-02,-5.783015117049217224e-02,1.098877340555191040e-01,-5.038097128272056580e-02,-7.121076434850692749e-02,-3.917236998677253723e-02,-2.332627959549427032e-02,1.625489741563796997e-01,4.475833848118782043e-03,2.539395987987518311e-01,9.986838698387145996e-02,1.768932193517684937e-01,8.312002569437026978e-02,3.265289589762687683e-02,2.402496486902236938e-01,-8.493722975254058838e-02,1.051622182130813599e-01,1.813663989305496216e-01,8.485050499439239502e-02,1.436602473258972168e-01,8.216389268636703491e-02,-1.149800643324851990e-01,-3.904583305120468140e-02,1.039420533925294876e-02,1.543381661176681519e-01,-8.265643566846847534e-02,-5.358136072754859924e-02,-1.245327815413475037e-01,-1.240383088588714600e-01,1.509784758090972900e-01
1.237181946635246277e-01,5.441813468933105469e-01,-5.423465743660926819e-02,4.694400355219841003e-02,3.265719860792160034e-02,2.323687076568603516e-01,1.562748998403549194e-01,-1.210234686732292175e-01,-2.349605783820152283e-02,-2.928051911294460297e-02,-7.527312636375427246e-02,-1.949411332607269287e-01,1.199767217040061951e-01,1.108166575431823730e-01,1.173600777983665466e-01,1.208759695291519165e-01,7.624901086091995239e-02,-1.120101511478424072e-01,1.030825674533843994e-01,9.078487008810043335e-02,2.216460183262825012e-02,2.312481217086315155e-02,3.963587060570716858e-02,1.006558462977409363e-01,1.448490768671035767e-01,-6.159140169620513916e-02,-1.026374399662017822e-01,-1.758987754583358765e-01,-1.009924933314323425e-01,1.163294538855552673e-01,9.849786758422851562e-02,8.011128753423690796e-02,1.159322559833526611e-01,2.210481464862823486e-02,-3.751083016395568848e-01,-1.106851994991302490e-01,8.628701791167259216e-03,2.398339658975601196e-02,1.426496803760528564e-01,-1.613407433032989502e-01
1.415807604789733887e-01,-5.077617764472961426e-01,-1.763829402625560760e-02,8.074389398097991943e-02,-1.158413812518119812e-01,2.603039443492889404e-01,-2.278027869760990143e-02,4.823606461286544800e-02,1.574099957942962646e-01,-1.443717777729034424e-01,1.309962719678878784e-01,-1.165222376585006714e-01,-5.675850436091423035e-02,-1.023107171058654785e-01,-8.254984766244888306e-02,1.553492844104766846e-01,-2.515293844044208527e-02,1.210563033819198608e-01,1.921371817588806152e-01,-1.261014938354492188e-01,-1.245326995849609375e-01,4.514459893107414246e-02,6.453827023506164551e-03,2.452328354120254517e-01,1.787236034870147705e-01,7.382022589445114136e-02,3.727130591869354248e-02,-2.005034312605857849e-02,2.486886270344257355e-02,6.887311488389968872e-02,-8.004388958215713501e-02,-9.886812418699264526e-02,-1.333419047296047211e-02,1.551828440278768539e-02,5.776701867580413818e-02,9.926967322826385498e-02,-4.545290023088455200e-02,1.717382073402404785e-01,3.462422639131546021e-02,-1.267321407794952393e-01
-5.191136151552200317e-02,-2.755879759788513184e-01,-6.590155512094497681e-02,8.156674355268478394e-02,3.755066171288490295e-02,1.329741925001144409e-01,3.782866150140762329e-02,-5.925387516617774963e-02,3.772202506661415100e-02,-3.211559951305389404e-01,-3.640167415142059326e-02,2.797787450253963470e-02,5.941049009561538696e-02,5.593915656208992004e-02,3.087269701063632965e-02,1.272275894880294800e-01,1.189875751733779907e-01,-1.357963681221008301e-01,-6.750365346670150757e-02,7.639622688293457031e-02,5.758283194154500961e-03,-9.222386777400970459e-02,6.917275488376617432e-02,2.921273708343505859e-01,4.479881376028060913e-02,-1.463551521301269531e-01,-8.075457811355590820e-02,9.598665684461593628e-02,-4.602897912263870239e-02,7.494696974754333496e-02,3.249435499310493469e-02,7.172792404890060425e-02,4.025412350893020630e-02,3.008126020431518555e-01,-8.463445305824279785e-02,2.069265209138393402e-02,-6.904141604900360107e-02,1.405295580625534058e-01,-5.038052052259445190e-02,8.123679459095001221e-02
6.813345942646265030e-03,-6.741217970848083496e-01,-8.688192069530487061e-02,1.915412247180938721e-01,-1.378023475408554077e-01,3.088790476322174072e-01,8.079453371465206146e-03,-9.678688645362854004e-02,-1.267383992671966553e-01,1.028978973627090454e-01,-5.897212401032447815e-02,-2.638667821884155273e-01,1.869936436414718628e-01,-7.735148072242736816e-02,2.968824282288551331e-02,2.661694586277008057e-01,1.601819396018981934e-01,-5.449663475155830383e-02,-1.574975252151489258e-01,-2.571242451667785645e-01,2.271656692028045654e-01,-3.016274571418762207e-01,-1.476318091154098511e-01,2.538148462772369385e-01,6.129292398691177368e-02,-5.011912435293197632e-02,-3.813655301928520203e-02,-4.339442402124404907e-02,-1.752623170614242554e-02,4.703036248683929443e-01,1.065814867615699768e-01,1.752003282308578491e-01,-5.279944092035293579e-02,4.973628371953964233e-02,2.126244157552719116e-01,-1.293920874595642090e-01,-9.821822494268417358e-02,1.785250604152679443e-01,8.447842672467231750e-03,-4.010788723826408386e-02
4.618986323475837708e-02,-1.177091598510742188e+00,8.861874043941497803e-02,-2.080570310354232788e-01,-1.573936492204666138e-01,8.959602564573287964e-02,1.557650417089462280e-01,-9.191415905952453613e-01,1.132112890481948853e-01,-2.789448499679565430e-01,1.976930350065231323e-01,-3.089904785156250000e-02,4.239642247557640076e-02,-1.249166727066040039e-01,-1.390752643346786499e-01,4.702213034033775330e-02,9.109287858009338379e-01,1.388157904148101807e-01,-6.455204486846923828e-01,8.032714128494262695e-01,3.121665120124816895e-01,1.222474128007888794e-01,3.387059643864631653e-02,-7.475945353507995605e-02,1.084486097097396851e-01,1.390822678804397583e-01,-1.388294249773025513e-01,-1.271269321441650391e+00,-1.573998481035232544e-01,-4.539789855480194092e-01,-4.618437886238098145e-01,-8.707777597010135651e-03,3.532612696290016174e-03,-1.033494547009468079e-01,-4.806198596954345703e+00,6.558535993099212646e-02,-2.635605819523334503e-02,2.855525612831115723e-01,5.311180353164672852e-01,-2.089572399854660034e-01
-1.221501603722572327e-01,5.595148354768753052e-02,1.529245078563690186e-01,-3.774288296699523926e-02,4.216239973902702332e-02,-1.305518001317977905e-01,-3.078541345894336700e-02,-1.192645281553268433e-01,8.764898031949996948e-02,-2.115858159959316254e-02,6.503752619028091431e-02,4.835981503129005432e-02,2.564642578363418579e-02,4.511937499046325684e-02,9.434863924980163574e-02,6.462314166128635406e-03,1.271772384643554688e-01,-5.078077316284179688e-02,-1.506740152835845947e-01,-9.673383831977844238e-02,-1.564925909042358398e-01,-5.403932556509971619e-02,3.242560476064682007e-02,6.203058362007141113e-02,-4.502518847584724426e-02,1.742628775537014008e-02,7.634624373167753220e-03,-5.725198239088058472e-02,1.610884256660938263e-02,-1.005677506327629089e-01,-1.300860047340393066e-01,-9.004360437393188477e-02,1.075487956404685974e-01,-6.831617653369903564e-02,1.454826295375823975e-01,5.759892985224723816e-02,-9.553802758455276489e-02,-9.350715577602386475e-02,-1.245575100183486938e-01,8.112352341413497925e-02
-4.933178797364234924e-02,-1.190967917442321777e+00,9.307162463665008545e-02,1.183769032359123230e-01,-6.468886882066726685e-02,-1.001856401562690735e-01,-7.053907960653305054e-02,5.316297709941864014e-02,1.548090130090713501e-01,4.974882304668426514e-02,1.994596570730209351e-01,2.477318793535232544e-01,8.619814366102218628e-02,-6.919144839048385620e-02,-6.921542435884475708e-02,-4.361537396907806396e-01,-8.179260790348052979e-02,2.171577513217926025e-01,2.382869720458984375e-01,2.784833908081054688e-01,9.076972305774688721e-02,7.289437949657440186e-02,-1.496588736772537231e-01,-2.547650635242462158e-01,1.894631236791610718e-02,-5.649462714791297913e-02,-1.325134038925170898e-01,2.246259897947311401e-01,1.038249954581260681e-01,-2.701199948787689209e-01,1.456219851970672607e-01,2.080264501273632050e-02,1.749815791845321655e-02,-1.876427531242370605e-01,1.277677118778228760e-01,7.989093661308288574e-02,1.533666402101516724e-01,-2.464867085218429565e-01,3.005751036107540131e-02,-9.045463055372238159e-02
-1.422706395387649536e-01,6.365346312522888184e-01,1.649067853577435017e-03,-7.030292414128780365e-03,2.330971956253051758e-01,-2.024119943380355835e-01,3.616857528686523438e-02,1.876688450574874878e-01,1.149228736758232117e-01,8.047474920749664307e-02,2.552425255998969078e-03,2.570219635963439941e-01,2.393148690462112427e-01,-1.090652644634246826e-01,-1.608617901802062988e-01,3.941577970981597900e-01,4.823015630245208740e-02,1.587165594100952148e-01,1.220604851841926575e-01,2.046328932046890259e-01,-5.028050020337104797e-02,8.676980435848236084e-02,5.562101304531097412e-02,-1.132405847311019897e-01,-4.768129065632820129e-02,-1.611171639524400234e-03,1.545531302690505981e-01,1.610768437385559082e-01,7.417931407690048218e-02,-6.917221844196319580e-02,9.612082690000534058e-02,-9.547660499811172485e-02,2.600788697600364685e-02,-3.280232846736907959e-01,-1.030068695545196533e-01,-1.291245073080062866e-01,8.791507035493850708e-02,-4.951292574405670166e-01,1.895347535610198975e-01,8.952344954013824463e-02
-3.977843746542930603e-02,-2.678256511688232422e+00,2.167754247784614563e-02,-8.706181645393371582e-01,4.757203757762908936e-01,-3.094371080398559570e+00,-2.071832895278930664e+00,1.548995375633239746e-01,1.301255375146865845e-01,5.060670971870422363e-01,-3.741086646914482117e-02,-6.176640745252370834e-03,-3.501121699810028076e-01,-1.508822571486234665e-02,2.215887159109115601e-01,1.241917088627815247e-01,-1.227425970137119293e-02,1.038986742496490479e-01,5.820915102958679199e-02,2.939855158329010010e-01,6.421358883380889893e-02,2.137619256973266602e-01,-1.388801783323287964e-01,-1.278773546218872070e+00,1.646828055381774902e-01,-2.042391337454319000e-02,-1.400711536407470703e-01,1.887767910957336426e-01,-3.651126325130462646e-01,-1.827134490013122559e-01,-9.936872869729995728e-03,-1.759666562080383301e+00,-1.280999183654785156e-01,-1.837123990058898926e+00,-2.684026241302490234e+00,5.671212077140808105e-02,1.102801933884620667e-01,-1.729055404663085938e+00,-5.017285048961639404e-02,2.163979262113571167e-01
1.271419376134872437e-01,2.723267972469329834e-01,1.257779300212860107e-01,9.159715473651885986e-02,-1.448803953826427460e-02,-2.283269166946411133e-01,-5.915927141904830933e-02,7.389090955257415771e-02,7.368397712707519531e-02,2.748928964138031006e-01,-5.384746193885803223e-02,-6.921221315860748291e-02,2.370273768901824951e-01,9.350683540105819702e-02,-4.606099799275398254e-02,-9.412702918052673340e-02,5.606125295162200928e-02,7.820636779069900513e-02,1.034508422017097473e-01,2.984732687473297119e-01,1.453273445367813110e-01,1.103598326444625854e-01,1.020866483449935913e-01,-3.465642780065536499e-02,2.017158418893814087e-01,1.604984104633331299e-01,-1.135112419724464417e-01,2.502412199974060059e-01,2.084721997380256653e-02,7.895759306848049164e-03,2.343330085277557373e-01,-1.345675718039274216e-02,1.580710560083389282e-01,-7.459777593612670898e-02,-1.029627621173858643e-01,1.379092335700988770e-01,-1.163725405931472778e-01,-2.903365902602672577e-02,-1.686501130461692810e-02,1.476822346448898315e-01
-9.440281987190246582e-02,-1.127357557415962219e-01,-1.130568608641624451e-01,-6.420233249664306641e-01,8.876734226942062378e-02,-2.809831380844116211e+00,-1.333412408828735352e+00,1.309290062636137009e-02,-7.694244384765625000e-02,3.093633651733398438e-01,2.874277159571647644e-02,2.148458063602447510e-01,1.077051907777786255e-01,1.291162073612213135e-01,-4.728195071220397949e-01,4.354244768619537354e-01,-3.259585052728652954e-02,2.076098918914794922e-01,1.993508487939834595e-01,7.904060184955596924e-02,6.925366818904876709e-03,-3.113233856856822968e-02,-1.217877492308616638e-01,-3.998570442199707031e-01,-7.824041694402694702e-02,1.019316613674163818e-01,8.650179952383041382e-02,2.401713877916336060e-01,1.346581578254699707e-01,-3.313813507556915283e-01,4.086420685052871704e-02,-2.396776914596557617e+00,7.599113509058952332e-03,-4.595664516091346741e-02,-1.915088057518005371e+00,1.392215341329574585e-01,1.153397709131240845e-01,-3.728479146957397461e-01,2.697900533676147461e-01,1.259636580944061279e-01
-5.478509515523910522e-02,-6.967515349388122559e-01,-1.367441713809967041e-01,7.614444941282272339e-02,-4.324708878993988037e-01,2.904066145420074463e-01,1.161631941795349121e-01,-6.366319954395294189e-02,-7.945128530263900757e-02,-3.551391065120697021e-01,-1.254835277795791626e-01,-4.015398323535919189e-01,2.293462678790092468e-02,3.021910600364208221e-02,7.431371510028839111e-02,3.547038733959197998e-01,-3.801234811544418335e-02,-1.873163729906082153e-01,-1.711202859878540039e-01,2.916847467422485352e-01,-7.754102945327758789e-01,-3.253169059753417969e-01,7.173892855644226074e-02,7.633110880851745605e-01,3.701146245002746582e-01,1.075035259127616882e-01,9.984216839075088501e-02,-1.161827705800533295e-02,-1.178066059947013855e-01,7.011508941650390625e-01,-9.967018663883209229e-02,1.630454063415527344e-01,-5.033528432250022888e-02,5.493075847625732422e-01,-1.833645254373550415e-01,1.316088587045669556e-01,1.061674952507019043e-01,1.125089973211288452e-01,-4.371420666575431824e-02,-1.228435635566711426e-01
5.449006333947181702e-02,-2.250576019287109375e-01,1.265119314193725586e-01,8.544683456420898438e-02,-1.616367697715759277e-01,1.507332026958465576e-01,1.130483299493789673e-01,-1.282811015844345093e-01,-3.003028593957424164e-02,-2.911547124385833740e-01,7.023105025291442871e-02,-1.258913427591323853e-01,-6.343138962984085083e-02,-2.221280522644519806e-02,5.773170292377471924e-02,1.230183839797973633e-01,8.649895340204238892e-02,4.651966039091348648e-03,1.616445630788803101e-01,7.976616173982620239e-02,-8.590296655893325806e-02,-9.835454821586608887e-02,1.541105657815933228e-01,1.775260716676712036e-01,6.902921199798583984e-02,8.437555283308029175e-02,-4.774361476302146912e-02,6.408575177192687988e-02,-6.541291624307632446e-02,2.608705759048461914e-01,1.488769054412841797e-01,1.997054517269134521e-01,2.776182815432548523e-02,2.046746313571929932e-01,1.044519990682601929e-01,-1.125016584992408752e-01,-1.066883206367492676e-01,1.726141273975372314e-01,-5.512784118764102459e-04,-1.138149946928024292e-01
1.543068736791610718e-01,-1.021434962749481201e-01,3.227753937244415283e-02,-9.250497817993164062e-02,-3.925611730664968491e-03,2.532795257866382599e-02,4.170781001448631287e-02,-2.410216182470321655e-01,7.416634261608123779e-02,2.597674913704395294e-02,-1.828647106885910034e-01,-2.570661902427673340e-01,-2.904338836669921875e-01,-2.613381482660770416e-02,-2.558417432010173798e-02,5.633514374494552612e-03,6.390753388404846191e-02,7.633495330810546875e-02,5.459947884082794189e-02,-7.822590321302413940e-02,-7.231236994266510010e-02,-1.044874116778373718e-01,-7.906244695186614990e-02,1.064289882779121399e-01,6.865247339010238647e-02,-2.743014879524707794e-02,-1.017312780022621155e-01,-3.149266168475151062e-02,-2.329233884811401367e-01,-7.066218554973602295e-02,9.930436313152313232e-02,2.482308633625507355e-02,-7.169217616319656372e-02,-2.565766312181949615e-02,2.386239543557167053e-02,1.632439494132995605e-01,5.904567614197731018e-02,-6.059541925787925720e-02,3.945837542414665222e-02,-6.527972221374511719e-02
3.021798096597194672e-02,-7.169761229306459427e-03,1.154145598411560059e-02,1.604274362325668335e-01,-1.714693568646907806e-02,3.296017050743103027e-01,2.154241204261779785e-01,-1.996866613626480103e-01,1.557879745960235596e-01,-3.378485143184661865e-01,1.781170070171356201e-01,-1.309980452060699463e-01,-9.200530499219894409e-02,2.397532388567924500e-02,1.004136800765991211e-01,-1.021726801991462708e-01,2.655774056911468506e-01,4.597475752234458923e-02,2.332841753959655762e-01,3.663030639290809631e-02,-4.237055182456970215e-01,6.912373751401901245e-02,1.388360410928726196e-01,2.434754967689514160e-01,-2.689777314662933350e-01,3.172649070620536804e-02,6.645695865154266357e-02,-7.016294449567794800e-02,6.807485967874526978e-02,-2.653176486492156982e-01,1.081344634294509888e-01,2.095231711864471436e-01,-3.918502852320671082e-02,2.107714563608169556e-01,1.219185441732406616e-02,2.699266001582145691e-02,1.163844168186187744e-01,2.656755447387695312e-01,-6.841680966317653656e-03,5.008682608604431152e-02
2.906374074518680573e-02,1.029815822839736938e-01,-1.330005563795566559e-02,-2.045285189524292946e-03,8.789736777544021606e-02,-7.245607208460569382e-03,-8.168037235736846924e-02,-1.314853131771087646e-01,1.857909001410007477e-02,-9.665753692388534546e-03,1.464944630861282349e-01,1.183146331459283829e-02,-1.090606227517127991e-01,-6.148103252053260803e-02,1.253971159458160400e-01,1.550845205783843994e-01,-1.497666537761688232e-01,3.744916245341300964e-02,7.886875420808792114e-03,-1.317968070507049561e-01,-4.365336522459983826e-02,-1.063074767589569092e-01,4.845535755157470703e-02,1.135205700993537903e-01,-9.702648222446441650e-02,6.052533164620399475e-02,5.728809535503387451e-02,-4.786631837487220764e-02,-1.128254383802413940e-01,-1.363731473684310913e-01,7.615247741341590881e-03,5.522761866450309753e-02,-9.482158720493316650e-02,5.232354998588562012e-02,7.256746292114257812e-02,2.901722304522991180e-02,1.327059511095285416e-02,-1.181327626109123230e-01,-3.571314737200737000e-02,-4.980778694152832031e-02
1.146630793809890747e-01,-6.007041931152343750e-01,8.040910214185714722e-02,-1.365913271903991699e+00,4.521277248859405518e-01,-3.250761508941650391e+00,-1.661107182502746582e+00,-3.261081874370574951e-01,-3.029744140803813934e-02,3.195391893386840820e-01,2.126361280679702759e-01,1.215189918875694275e-01,-1.080566197633743286e-01,3.558128327131271362e-02,-9.836712479591369629e-01,-4.467592835426330566e-01,-1.827205345034599304e-02,2.575115561485290527e-01,1.259570717811584473e-01,3.111573457717895508e-01,6.107161194086074829e-02,2.675913870334625244e-01,2.014907076954841614e-02,-3.346994221210479736e-01,-6.056104898452758789e-01,-2.400104887783527374e-02,-8.920354396104812622e-02,1.798444986343383789e-01,1.796145439147949219e-01,-8.065393567085266113e-01,3.075868487358093262e-01,-2.339854985475540161e-01,-1.380234956741333008e-01,3.604191541671752930e-02,-1.545380830764770508e+00,8.732362650334835052e-03,-1.569586098194122314e-01,-1.817045658826828003e-01,-5.798642337322235107e-02,1.554663181304931641e-01
1.137921959161758423e-01,-4.407853782176971436e-01,3.730188682675361633e-02,6.022408604621887207e-02,-2.100055664777755737e-01,4.921256899833679199e-01,1.536734849214553833e-01,-1.231196597218513489e-01,-1.104342117905616760e-01,-2.892258465290069580e-01,5.052446573972702026e-02,-1.611851751804351807e-01,6.678758561611175537e-02,-1.176774352788925171e-01,1.853722482919692993e-01,2.716083079576492310e-02,2.754474282264709473e-01,-7.919579744338989258e-02,-7.826566696166992188e-02,-1.396555826067924500e-02,-1.439684331417083740e-01,-2.303266078233718872e-01,-1.944297179579734802e-02,1.848964840173721313e-01,-3.079819120466709137e-02,1.267547756433486938e-01,-7.706283032894134521e-02,1.061128005385398865e-01,-9.959632903337478638e-02,-4.195925220847129822e-02,-1.153884902596473694e-01,6.577192246913909912e-02,-5.127796158194541931e-02,2.959840893745422363e-01,3.205781057476997375e-02,2.942906692624092102e-02,1.944908499717712402e-02,4.630201756954193115e-01,2.747902274131774902e-01,1.052693128585815430e-01
-9.493435919284820557e-02,-5.095285177230834961e-01,1.215384230017662048e-01,1.721718013286590576e-01,-6.146923452615737915e-02,1.469727605581283569e-01,-9.263164550065994263e-02,-1.838008016347885132e-01,5.698837339878082275e-02,-2.014346718788146973e-01,8.698873221874237061e-02,-1.566070765256881714e-01,1.033095568418502808e-01,-1.663027144968509674e-02,-1.001169532537460327e-01,2.720359265804290771e-01,1.825392693281173706e-01,-7.346481084823608398e-02,4.024893417954444885e-02,-6.315224617719650269e-02,-1.605474948883056641e-01,3.077613748610019684e-02,-1.041667014360427856e-01,3.598099574446678162e-02,3.370274975895881653e-02,1.136195510625839233e-01,2.935623377561569214e-02,1.662089377641677856e-01,1.057148426771163940e-01,1.221568882465362549e-01,-1.035952791571617126e-01,1.714143753051757812e-01,5.187723413109779358e-02,2.139590084552764893e-01,9.159247577190399170e-02,6.059887260198593140e-02,-1.407193541526794434e-01,3.343721628189086914e-01,2.003323286771774292e-01,4.053107649087905884e-02
8.565357327461242676e-02,1.200672388076782227e+00,-8.821005374193191528e-02,-4.223389327526092529e-01,7.096496224403381348e-02,1.873504929244518280e-02,3.884459659457206726e-02,-9.521716237068176270e-01,2.976814284920692444e-02,9.699276834726333618e-02,-6.909883022308349609e-02,-1.279123276472091675e-01,-2.940975688397884369e-02,-5.012363195419311523e-02,-8.476383984088897705e-02,1.721651703119277954e-01,9.886985421180725098e-01,-1.601520627737045288e-01,-1.209557503461837769e-01,1.594314426183700562e-01,-5.184333398938179016e-02,-1.434129923582077026e-01,1.715607009828090668e-02,-2.157205529510974884e-02,-1.053582280874252319e-01,-6.739289313554763794e-02,1.332390755414962769e-01,-8.575875759124755859e-01,-1.476897448301315308e-01,-1.802161335945129395e-01,-1.539150811731815338e-02,-1.044825166463851929e-01,-6.020256876945495605e-02,1.704495400190353394e-01,-2.226721942424774170e-01,-8.583937585353851318e-02,1.082797646522521973e-01,4.137530922889709473e-01,7.206708192825317383e-01,-1.079396232962608337e-01
-7.592798769474029541e-02,7.209391593933105469e-01,-8.460854180157184601e-03,-3.385480493307113647e-02,2.736900150775909424e-01,-1.808671504259109497e-01,-1.300822384655475616e-02,3.477443754673004150e-02,8.072579652070999146e-02,1.148856505751609802e-01,-3.550950810313224792e-02,-1.179188191890716553e-01,5.340450629591941833e-02,4.205963760614395142e-02,7.862196862697601318e-02,-7.634516358375549316e-01,-1.275520026683807373e-01,-3.884961828589439392e-02,6.932943314313888550e-02,7.352481037378311157e-02,-2.726656794548034668e-01,-3.718093037605285645e-02,1.218290477991104126e-01,-1.782823055982589722e-01,-6.549462676048278809e-02,-5.761316418647766113e-02,-1.354672014713287354e-01,1.851046979427337646e-01,1.896969974040985107e-01,-1.398828923702239990e-01,2.212756872177124023e-01,-2.189294397830963135e-01,-9.317342191934585571e-02,-5.067247524857521057e-02,-1.293412595987319946e-01,4.024111200124025345e-03,-1.444160193204879761e-01,-2.712145745754241943e-01,-1.332427095621824265e-02,9.289091080427169800e-02
-9.899307042360305786e-02,8.145086765289306641e-01,5.758577212691307068e-02,6.086108461022377014e-02,-1.395684033632278442e-01,-7.275903224945068359e-01,-9.689392894506454468e-02,2.238371372222900391e-01,1.178760230541229248e-01,3.984992206096649170e-02,-1.046068500727415085e-02,2.618662714958190918e-01,7.218632847070693970e-02,-8.468133956193923950e-02,-1.079950779676437378e-01,5.188402533531188965e-01,2.262534806504845619e-03,2.044425159692764282e-01,8.524857461452484131e-02,1.751322299242019653e-01,2.914343774318695068e-01,6.384678930044174194e-02,1.240300759673118591e-01,-5.129379034042358398e-01,6.376980803906917572e-03,-1.368544101715087891e-01,7.600102573633193970e-02,2.240242213010787964e-01,-4.767180234193801880e-02,-7.176620420068502426e-03,1.034781113266944885e-01,-2.848608493804931641e-01,-4.591480642557144165e-02,-3.433866202831268311e-01,-1.158218681812286377e-01,-7.908956706523895264e-02,1.334108710289001465e-01,-1.809262782335281372e-01,2.704793214797973633e-01,3.808083757758140564e-02
-6.044042482972145081e-02,6.731452941894531250e-01,1.080224737524986267e-01,-3.400303125381469727e-01,1.259170770645141602e-01,2.558028697967529297e-01,-2.677972316741943359e-01,-5.682064294815063477e-01,-1.271526813507080078e-01,4.888072609901428223e-02,-5.995554476976394653e-02,1.164985001087188721e-01,-4.299664869904518127e-02,1.391009539365768433e-01,1.729710698127746582e-01,1.025207936763763428e-01,3.455404639244079590e-01,-2.085625380277633667e-02,-2.922325953841209412e-02,3.829488754272460938e-01,8.654774725437164307e-02,5.940319504588842392e-03,1.420118659734725952e-02,1.045128628611564636e-01,2.623507007956504822e-02,8.528544753789901733e-02,-1.564879566431045532e-01,-3.645544350147247314e-01,-1.161910519003868103e-01,-2.337419986724853516e-01,5.969374626874923706e-02,2.017005085945129395e-01,-7.058926671743392944e-02,3.704101592302322388e-02,-6.071503758430480957e-01,-2.902338281273841858e-02,-6.194276735186576843e-02,1.127317026257514954e-01,2.362492233514785767e-01,-1.355745047330856323e-01
6.473389267921447754e-02,2.692430615425109863e-01,-8.315323852002620697e-03,1.004373561590909958e-02,9.593038260936737061e-02,1.814528703689575195e-01,-3.652335703372955322e-01,2.393059432506561279e-01,-5.052001797594130039e-04,2.574119269847869873e-01,-1.084099635481834412e-01,-3.881169110536575317e-02,-3.868358135223388672e-01,-9.824514389038085938e-02,-3.953984081745147705e-01,-4.145265519618988037e-01,3.340810239315032959e-01,1.389708071947097778e-01,8.730576373636722565e-03,8.944611996412277222e-02,5.761884450912475586e-01,5.046429112553596497e-02,-5.820085643790662289e-04,-1.273632287979125977e+00,4.250491261482238770e-01,1.053336635231971741e-01,3.426698595285415649e-02,3.483117744326591492e-02,-3.755771219730377197e-01,2.620004713535308838e-01,-1.693863570690155029e-01,-6.593196392059326172e-01,1.167558655142784119e-01,-7.708752155303955078e-01,-6.698783040046691895e-01,-1.493739485740661621e-01,-3.946975618600845337e-02,-1.287242889404296875e+00,-3.984788432717323303e-03,4.203185439109802246e-02
-1.250866353511810303e-01,-1.261650323867797852e-01,1.716129928827285767e-01,-2.330142818391323090e-02,8.831372857093811035e-02,3.205513581633567810e-02,1.245724931359291077e-01,-1.979620307683944702e-01,-1.045719832181930542e-01,-1.577455103397369385e-01,-8.984554558992385864e-02,1.523051131516695023e-02,3.411159291863441467e-02,-1.449765712022781372e-01,1.998699456453323364e-01,2.116639018058776855e-01,1.913436353206634521e-01,-8.542583882808685303e-02,1.259965300559997559e-01,-1.112787127494812012e-01,-4.334544241428375244e-01,-7.571614533662796021e-02,6.296371668577194214e-02,4.652330279350280762e-02,-2.235244661569595337e-01,-1.640542596578598022e-02,2.633702196180820465e-02,4.399942979216575623e-02,1.436201483011245728e-01,-2.369875311851501465e-01,-5.126043781638145447e-02,-4.222407191991806030e-02,1.165230497717857361e-01,2.519346773624420166e-01,1.520752757787704468e-01,-7.062117010354995728e-02,1.521825939416885376e-01,2.529135346412658691e-01,7.837640494108200073e-02,-9.351973980665206909e-02
1.675856485962867737e-02,2.353202104568481445e-01,1.366870254278182983e-01,9.690565615892410278e-02,6.605844944715499878e-02,-1.511492580175399780e-01,1.870891079306602478e-02,1.520169526338577271e-01,9.972672909498214722e-03,-1.119862049818038940e-01,6.228772923350334167e-02,-9.647251665592193604e-02,2.100501358509063721e-01,-1.074378713965415955e-01,1.987786777317523956e-02,-1.702988445758819580e-01,-2.005323171615600586e-01,3.048142045736312866e-02,5.563053116202354431e-02,5.497511848807334900e-02,-6.157133728265762329e-02,1.816403307020664215e-02,1.203561946749687195e-02,-1.768443882465362549e-01,1.565324068069458008e-01,-1.219624578952789307e-01,-2.041136659681797028e-02,3.344029933214187622e-02,1.309456229209899902e-01,1.232338324189186096e-02,1.348626166582107544e-01,-2.390497326850891113e-01,-5.366472527384757996e-03,-8.502299338579177856e-02,5.025330185890197754e-02,6.847725808620452881e-02,-8.482696115970611572e-02,-1.061848402023315430e-01,-3.063407260924577713e-03,-3.987739980220794678e-02
-3.340803459286689758e-02,-1.511086672544479370e-01,1.103800311684608459e-01,1.377062648534774780e-01,-1.231737807393074036e-01,2.017201632261276245e-01,1.951554864645004272e-01,-6.222226843237876892e-02,1.572001725435256958e-01,-2.415139675140380859e-01,-3.962103649973869324e-02,-3.482682406902313232e-01,2.676946669816970825e-02,1.020260155200958252e-02,-1.314921826124191284e-01,-1.408306360244750977e-01,3.312741518020629883e-01,-7.808545976877212524e-02,-2.731196954846382141e-02,-3.918378949165344238e-01,-1.478553861379623413e-01,-5.719469189643859863e-01,4.572475329041481018e-02,2.311589661985635757e-03,-1.605919748544692993e-01,-7.288431283086538315e-03,-8.967826142907142639e-03,-1.948737055063247681e-01,-9.437341243028640747e-02,4.988488182425498962e-02,-1.588514596223831177e-01,1.949541270732879639e-01,1.045640930533409119e-01,-9.386042952537536621e-01,3.280559480190277100e-01,-1.559341549873352051e-01,-1.142936870455741882e-01,-3.815815746784210205e-01,2.677300870418548584e-01,-1.935069859027862549e-01
1.228313706815242767e-02,-4.297328591346740723e-01,-7.481678575277328491e-02,9.967898577451705933e-02,-2.036623060703277588e-01,5.668912455439567566e-02,1.274868100881576538e-01,-3.656349144876003265e-03,-5.865506827831268311e-02,-1.944780796766281128e-01,-1.032331064343452454e-01,-2.022602409124374390e-01,1.180519536137580872e-01,-8.309469372034072876e-02,2.687675692141056061e-02,1.250067055225372314e-01,1.562806963920593262e-01,-9.071483276784420013e-03,1.091813668608665466e-01,7.167308032512664795e-02,-2.016794830560684204e-01,-8.900566399097442627e-02,-4.240623861551284790e-02,5.721400491893291473e-03,-5.479909852147102356e-02,1.431995034217834473e-01,-8.385397493839263916e-02,2.408836223185062408e-02,5.959564819931983948e-02,1.722752600908279419e-01,3.844941034913063049e-02,5.353633314371109009e-02,-1.425409764051437378e-01,1.734925657510757446e-01,5.643309280276298523e-02,3.707053884863853455e-02,1.081571578979492188e-01,2.294516712427139282e-01,1.307123303413391113e-01,-1.249259784817695618e-01
-3.465244546532630920e-02,-2.080833762884140015e-01,4.347363859415054321e-02,3.001950681209564209e-01,1.337799727916717529e-01,-3.190949559211730957e-01,-1.250489503145217896e-01,-4.474275186657905579e-02,5.919446796178817749e-02,2.693067491054534912e-01,-8.474629372358322144e-02,9.813494235277175903e-02,-8.217460662126541138e-02,-1.198650449514389038e-01,-2.072824724018573761e-02,-6.516119241714477539e-01,-2.835731506347656250e-01,8.317751437425613403e-02,-1.413169950246810913e-01,1.033745408058166504e-01,1.339979320764541626e-01,-1.464931964874267578e-01,1.788199692964553833e-02,-2.478524148464202881e-01,-4.598135501146316528e-02,-9.446731954813003540e-02,4.721411690115928650e-02,5.834801495075225830e-02,4.666945710778236389e-02,3.807735741138458252e-01,2.158609777688980103e-01,2.793749868869781494e-01,1.571637578308582306e-03,1.179240643978118896e-05,3.562828600406646729e-01,1.101816222071647644e-01,1.794816926121711731e-02,-4.457903653383255005e-02,-2.079397588968276978e-01,-4.588513076305389404e-02
1.244701817631721497e-01,-3.774064779281616211e-02,1.507807075977325439e-01,-7.891748100519180298e-02,9.121712297201156616e-02,-9.215275943279266357e-02,-1.507817208766937256e-01,-1.698572747409343719e-02,-1.547181606292724609e-01,-5.179082974791526794e-02,7.063073106110095978e-03,-6.516864150762557983e-02,-7.904263585805892944e-02,1.283261626958847046e-01,2.262798603624105453e-03,-1.621920317411422729e-01,4.580584168434143066e-02,8.027242869138717651e-02,7.390322536230087280e-02,-1.506293863058090210e-01,1.808703131973743439e-02,-1.058507710695266724e-01,-5.358533561229705811e-02,1.183011084794998169e-01,1.376746594905853271e-01,5.345897376537322998e-02,-4.181952401995658875e-02,1.365342736244201660e-01,-1.164049133658409119e-01,9.203962981700897217e-02,-1.246041432023048401e-01,-4.025664925575256348e-02,1.344908177852630615e-01,1.456457376480102539e-01,-6.810563057661056519e-02,-8.562883734703063965e-02,-4.050400108098983765e-02,-1.912256143987178802e-02,-6.882493942975997925e-02,1.870417594909667969e-02
-1.369575262069702148e-01,6.732949018478393555e-01,-1.366443932056427002e-01,4.860528279095888138e-03,1.669413447380065918e-01,-2.700381278991699219e-01,5.927252396941184998e-02,1.581586748361587524e-01,9.040808305144309998e-03,3.959489762783050537e-01,2.420891672372817993e-01,6.654641032218933105e-02,2.185512520372867584e-02,-2.133668400347232819e-02,5.237239226698875427e-02,-3.334962129592895508e-01,1.234106048941612244e-01,1.509858518838882446e-01,4.792217165231704712e-02,1.029988527297973633e-01,3.364303708076477051e-01,1.515823998488485813e-03,-3.390056267380714417e-02,-2.888163030147552490e-01,-2.342500686645507812e-01,-1.492886394262313843e-01,-2.085806056857109070e-02,1.990624219179153442e-01,2.350804507732391357e-01,-3.370709121227264404e-01,8.326774090528488159e-02,1.414499431848526001e-02,3.615435585379600525e-02,-4.130602180957794189e-01,1.674285084009170532e-01,-1.150557175278663635e-01,1.224350407719612122e-01,-3.636974096298217773e-01,-2.716443873941898346e-02,-2.187191881239414215e-02
-1.230339705944061279e-01,-2.145853340625762939e-01,7.867058366537094116e-02,1.121019050478935242e-01,8.463058620691299438e-02,3.035586774349212646e-01,-4.858776181936264038e-02,-7.268953323364257812e-02,1.533267903141677380e-03,-4.603845626115798950e-02,-1.530717164278030396e-01,7.602117490023374557e-03,8.421674370765686035e-02,6.543385982513427734e-02,1.320653855800628662e-01,9.192433208227157593e-02,1.608607023954391479e-01,-9.688747115433216095e-03,1.066979691386222839e-01,-1.158108711242675781e-01,-2.493019402027130127e-01,-9.607871621847152710e-02,-1.085721328854560852e-01,2.701480984687805176e-01,-5.271146297454833984e-01,4.599316045641899109e-02,-1.296323239803314209e-01,1.265237331390380859e-01,6.890179961919784546e-02,-2.738084495067596436e-01,3.255241364240646362e-02,1.168694943189620972e-01,-9.566365182399749756e-02,2.807547450065612793e-01,8.220018446445465088e-02,-1.210739985108375549e-01,-1.071044951677322388e-01,1.659381240606307983e-01,1.883125305175781250e-01,-1.215158030390739441e-01
