-1.027396544814109802e-01
-3.131278157234191895e-01
3.210297320038080215e-03
1.508195549249649048e-01
7.561719417572021484e-02
3.182387650012969971e-01
7.403825223445892334e-02
-1.730941534042358398e-01
-1.520086228847503662e-01
6.236770749092102051e-02
-2.174371108412742615e-02
-6.033414974808692932e-02
-8.370360732078552246e-02
-9.637319296598434448e-02
-8.441118896007537842e-02
2.920346856117248535e-01
1.250476986169815063e-01
-6.329779326915740967e-02
-1.047636717557907104e-01
1.677823513746261597e-01
-4.295861348509788513e-02
-2.059150934219360352e-01
-1.797052770853042603e-01
4.197724163532257080e-01
1.425330340862274170e-01
-1.532946825027465820e-01
-6.608489155769348145e-02
-7.856556773185729980e-02
-8.360135555267333984e-02
2.029227763414382935e-01
1.196345835924148560e-01
2.691102921962738037e-01
-5.553971603512763977e-02
3.993981778621673584e-01
-4.852070510387420654e-01
-1.154484972357749939e-01
-4.518468305468559265e-02
4.590570330619812012e-01
1.911105662584304810e-01
-1.099835932254791260e-01
