-3.305399417877197266e-02,-3.172802971675992012e-03,-7.576816529035568237e-02,9.489848464727401733e-02,-1.768893003463745117e-01,-8.713431656360626221e-02,-7.828813046216964722e-02,7.339580357074737549e-02,-1.153169870376586914e-01,1.252760142087936401e-01,1.041801497340202332e-01,2.821326255798339844e-02,-1.521303206682205200e-01,-7.490570843219757080e-02,-1.851645559072494507e-01,-1.000620648264884949e-01,-1.489687412977218628e-01,2.098603360354900360e-02,4.213220998644828796e-02,1.100197583436965942e-01,-7.554890960454940796e-02,1.613514497876167297e-02,-7.154152542352676392e-02,1.862298101186752319e-01,6.456840038299560547e-02
2.404366433620452881e-01,4.909110441803932190e-02,9.579315036535263062e-02,1.632562130689620972e-01,-1.243927702307701111e-01,1.035486608743667603e-01,-1.878396272659301758e-01,-3.999514505267143250e-02,-3.411991987377405167e-03,-1.371602118015289307e-01,1.957551240921020508e-01,1.723900139331817627e-01,1.508119851350784302e-01,2.670101225376129150e-01,-1.964861899614334106e-01,1.708960831165313721e-01,-6.009505316615104675e-02,1.880201399326324463e-01,5.364118516445159912e-02,1.610108613967895508e-01,6.440284103155136108e-02,1.317420601844787598e-01,1.226293146610260010e-01,-1.866221427917480469e-01,1.020515039563179016e-01
2.683592438697814941e-01,1.633014976978302002e-01,-3.267622087150812149e-03,1.285961121320724487e-01,-1.115814447402954102e-01,3.173950314521789551e-01,-3.105448558926582336e-03,1.055724620819091797e-01,-3.223614394664764404e-02,4.057483747601509094e-02,-6.072847917675971985e-02,9.384363144636154175e-02,2.631044387817382812e-01,4.235577285289764404e-01,3.050498105585575104e-02,-9.613609872758388519e-03,2.773320078849792480e-01,1.816329807043075562e-01,1.512246904894709587e-03,2.385271638631820679e-01,2.477553673088550568e-03,7.655233889818191528e-02,-1.902804374694824219e-01,1.710673123598098755e-01,-1.353059522807598114e-02
1.109623908996582031e+00,-8.293169736862182617e-02,1.623918116092681885e-01,8.834052681922912598e-01,7.075879722833633423e-02,1.193790789693593979e-02,-9.394359588623046875e-01,1.549156159162521362e-01,4.124746620655059814e-01,4.881849512457847595e-02,-1.751015186309814453e-01,-5.400338396430015564e-02,6.343547105789184570e-01,1.117197155952453613e+00,-3.256748914718627930e-01,1.148458719253540039e-01,-2.725603282451629639e-01,-1.036129519343376160e-01,-2.167716473340988159e-01,-4.300107434391975403e-02,-1.292529851198196411e-01,-1.867136806249618530e-01,2.076476812362670898e-01,-2.107808552682399750e-02,-7.836473733186721802e-02
2.676748931407928467e-01,-2.483049407601356506e-02,8.820505440235137939e-02,1.147872135043144226e-01,-1.362042874097824097e-01,7.264105230569839478e-02,-1.769943237304687500e-01,-1.577269136905670166e-01,-1.978652030229568481e-01,1.351729631423950195e-01,-5.813346058130264282e-02,-7.752847671508789062e-02,2.306409776210784912e-01,3.529823124408721924e-01,-1.860229969024658203e-01,-3.424525260925292969e-02,4.113545641303062439e-02,1.817281246185302734e-01,3.179404139518737793e-02,3.345407843589782715e-01,2.343903481960296631e-01,-9.386779367923736572e-02,-1.142264381051063538e-01,3.270564228296279907e-02,1.992078423500061035e-01
-9.176051616668701172e-02,-1.662239134311676025e-01,1.429709494113922119e-01,-1.964497612789273262e-03,1.799898594617843628e-01,-4.650902934372425079e-03,-1.031803414225578308e-01,-9.280534088611602783e-02,1.113591250032186508e-02,-3.485150262713432312e-02,-1.647497415542602539e-01,-1.319925636053085327e-01,-1.998873203992843628e-01,-1.551036816090345383e-02,-1.182185411453247070e-01,-1.814676523208618164e-01,-8.963129669427871704e-02,9.640479087829589844e-02,1.080553513020277023e-02,-8.473308384418487549e-02,1.227123290300369263e-01,-5.069310590624809265e-02,5.848398432135581970e-02,1.144900359213352203e-02,1.988413631916046143e-01
-1.199528723955154419e-01,3.592199385166168213e-01,-7.063847035169601440e-02,1.745324879884719849e-01,1.220669969916343689e-01,1.010906919836997986e-01,1.191031783819198608e-01,-1.336767226457595825e-01,1.781240999698638916e-01,1.867683976888656616e-01,9.723973460495471954e-03,-1.315837204456329346e-01,1.371718943119049072e-01,-2.370212554931640625e+00,-2.009288817644119263e-01,-1.110084801912307739e-01,3.108115494251251221e-01,-1.933154910802841187e-01,2.730151116847991943e-01,7.382534444332122803e-02,1.613472402095794678e-01,3.221613168716430664e-01,2.086786746978759766e+00,8.217322826385498047e-02,1.482463926076889038e-01
-3.043335974216461182e-01,2.907113730907440186e-01,-5.874564871191978455e-02,-2.316590100526809692e-01,-9.866874665021896362e-02,-2.476827055215835571e-01,2.065113782882690430e-01,5.463118478655815125e-02,1.834884136915206909e-01,1.594486273825168610e-02,4.859442636370658875e-02,1.635498851537704468e-01,-2.201887518167495728e-01,1.267989158630371094e+00,2.241844385862350464e-01,-1.071925684809684753e-01,-2.010353058576583862e-01,-9.288547188043594360e-02,-9.963128715753555298e-02,6.171731352806091309e-01,2.186180353164672852e-01,1.369527429342269897e-01,-1.467947214841842651e-01,1.767834722995758057e-01,-6.727524101734161377e-02
2.294754981994628906e-01,2.222252786159515381e-01,1.649224609136581421e-01,9.753810763359069824e-01,-3.399906307458877563e-02,1.039096266031265259e-01,-6.827207207679748535e-01,-4.290349408984184265e-02,4.503476917743682861e-01,1.414647102355957031e-01,1.195893287658691406e-01,-5.199985578656196594e-02,8.841164112091064453e-01,1.334401369094848633e+00,-1.085988759994506836e+00,4.455578327178955078e-02,-3.821744918823242188e-01,-1.662137955427169800e-01,-6.002373620867729187e-02,5.834055542945861816e-01,1.324393786489963531e-02,-2.012033909559249878e-01,-8.645537495613098145e-02,-8.602023124694824219e-03,-1.325849629938602448e-02
-8.270247280597686768e-02,2.447919733822345734e-02,1.898938715457916260e-01,-1.394419521093368530e-01,1.934573501348495483e-01,-1.164318472146987915e-01,2.077363282442092896e-01,-5.099518224596977234e-02,1.202343776822090149e-01,-1.010601744055747986e-01,1.536474227905273438e-01,5.217638239264488220e-02,-1.989700049161911011e-01,-1.032124876976013184e+00,1.247687935829162598e-01,-7.084164768457412720e-02,1.473749279975891113e-01,-1.650167703628540039e-01,1.784418523311614990e-01,-7.817884683609008789e-01,1.118715628981590271e-01,2.049402594566345215e-01,4.247247278690338135e-01,-1.635132133960723877e-01,-1.081560477614402771e-01
-6.564130187034606934e-01,4.631223082542419434e-01,-3.339741379022598267e-02,-3.244078159332275391e-01,-7.862172275781631470e-02,-7.382681965827941895e-01,9.074502438306808472e-02,-1.739327907562255859e-01,7.080084681510925293e-01,9.253352135419845581e-02,1.589097082614898682e-01,1.319104433059692383e-01,-7.045268416404724121e-01,-4.583650827407836914e-01,-6.814785003662109375e-01,1.893256902694702148e-01,-1.160284802317619324e-01,-1.337633188813924789e-02,-5.866297334432601929e-02,-4.061480462551116943e-01,1.704433858394622803e-01,-3.468356654047966003e-02,5.755846500396728516e-01,-2.944068983197212219e-02,-5.204967781901359558e-02
-5.164185166358947754e-01,-3.562812344171106815e-04,7.595703750848770142e-02,1.181058645248413086e+00,2.360904216766357422e-02,-1.039770126342773438e+00,-3.007184267044067383e-01,-3.732786327600479126e-02,6.598225980997085571e-02,3.239965531975030899e-03,-1.637960970401763916e-01,6.903345882892608643e-02,-1.886042356491088867e-01,2.854314744472503662e-01,-2.360756509006023407e-02,-8.211638778448104858e-02,-1.324672400951385498e-01,-6.077220663428306580e-02,8.103817701339721680e-02,-2.678966522216796875e-01,-1.027266681194305420e-01,-1.983640342950820923e-01,2.045833468437194824e-01,1.748189032077789307e-01,3.859887272119522095e-02
1.315930634737014771e-01,-1.808988302946090698e-01,-4.428071901202201843e-02,-5.440968743641860783e-05,-1.227129027247428894e-01,5.378530919551849365e-02,-6.645934190601110458e-03,-1.352579612284898758e-02,-1.462725847959518433e-01,9.984636306762695312e-02,-1.634829118847846985e-02,-1.299482434988021851e-01,-1.910783350467681885e-01,-7.989534735679626465e-02,-1.427834294736385345e-02,-3.665423486381769180e-03,1.596103981137275696e-02,6.806860119104385376e-02,2.045447379350662231e-02,-6.778607517480850220e-02,6.646598875522613525e-02,-2.137703448534011841e-01,-8.180890232324600220e-02,1.288418322801589966e-01,-1.353050172328948975e-01
1.391138136386871338e-01,-1.024168636649847031e-02,-1.069672126322984695e-02,7.248359173536300659e-02,-1.242118626832962036e-01,1.301654875278472900e-01,-2.293648123741149902e-01,-1.632097810506820679e-01,-2.646893076598644257e-02,3.261137055233120918e-03,1.693969219923019409e-01,1.786005049943923950e-01,2.681611776351928711e-01,5.565395951271057129e-01,-1.976882964372634888e-01,7.995607703924179077e-02,2.644537985324859619e-01,-1.436000913381576538e-01,2.527927607297897339e-02,4.091207981109619141e-01,-3.694695234298706055e-02,-8.992846310138702393e-02,-4.326406419277191162e-01,-1.222466751933097839e-01,2.874045073986053467e-01
2.182470262050628662e-01,6.991355121135711670e-02,-4.504942800849676132e-03,8.080071210861206055e-02,1.235010847449302673e-01,2.897961735725402832e-01,1.534497290849685669e-01,-4.731812700629234314e-02,-3.999910503625869751e-02,-6.683161109685897827e-02,8.184728771448135376e-02,1.615619636140763760e-03,-1.217562407255172729e-01,4.464668631553649902e-01,-4.519632831215858459e-02,5.394296720623970032e-02,1.082749217748641968e-01,1.115375757217407227e-01,6.866744719445705414e-03,1.697054505348205566e-01,1.740203350782394409e-01,9.946762770414352417e-02,-1.027780398726463318e-01,1.156058833003044128e-01,2.311421185731887817e-01
-4.365217685699462891e-02,-1.977670192718505859e-02,7.955374568700790405e-02,-3.387599065899848938e-02,-1.765560358762741089e-01,5.087614059448242188e-02,3.739485889673233032e-02,-1.813993304967880249e-01,-6.435868889093399048e-02,1.236184835433959961e-01,-3.432433679699897766e-02,1.156318411231040955e-01,1.342383623123168945e-01,1.159269586205482483e-01,2.936377562582492828e-02,-1.061590462923049927e-01,-4.913144186139106750e-02,-1.609366014599800110e-02,5.573077127337455750e-02,7.077570259571075439e-02,-7.301392406225204468e-02,-4.206981882452964783e-02,2.586364862509071827e-04,-1.957951784133911133e-01,-1.162787452340126038e-01
3.744706511497497559e-02,4.699021577835083008e-02,3.129170089960098267e-02,2.442757338285446167e-01,9.892299026250839233e-02,3.847755193710327148e-01,-4.422365874052047729e-02,-1.265826970338821411e-01,1.726669669151306152e-01,6.810181587934494019e-02,1.816139668226242065e-01,-6.399782001972198486e-02,-6.054108962416648865e-02,4.861243069171905518e-01,1.362344324588775635e-01,6.581604480743408203e-02,3.240207433700561523e-01,1.192720159888267517e-01,-3.485515713691711426e-02,5.409042239189147949e-01,2.810330390930175781e-01,6.426119804382324219e-02,4.665138199925422668e-03,9.104032814502716064e-02,1.816157102584838867e-01
-2.578053772449493408e-01,1.510370820760726929e-01,1.494984608143568039e-02,3.236202895641326904e-02,-1.424609422683715820e-01,3.013541549444198608e-02,2.500479519367218018e-01,-1.044413372874259949e-01,-1.819662600755691528e-01,2.838790416717529297e-02,-1.911121904850006104e-01,-1.154000088572502136e-01,1.348100155591964722e-01,-1.455541014671325684e+00,-1.000533849000930786e-01,1.663440912961959839e-01,2.319361120462417603e-01,-1.547507494688034058e-01,1.753121763467788696e-01,-1.176052451133728027e+00,3.225131034851074219e-01,2.609024047851562500e-01,4.624558091163635254e-01,1.305661499500274658e-01,-1.140294224023818970e-01
1.624787896871566772e-01,1.371872574090957642e-01,-1.048888191580772400e-01,1.704701036214828491e-01,-3.655796125531196594e-02,3.505307063460350037e-02,-1.876273006200790405e-01,-1.997702568769454956e-01,6.962949782609939575e-02,7.408338040113449097e-02,-2.511210553348064423e-02,-7.478328049182891846e-02,-1.033126786351203918e-01,7.900564670562744141e-01,-2.699805498123168945e-01,1.835558712482452393e-01,-3.516941890120506287e-02,3.192105516791343689e-02,9.660154581069946289e-02,3.460206091403961182e-01,7.223352044820785522e-02,1.195130199193954468e-01,-3.017598688602447510e-01,-4.794321209192276001e-02,2.767985872924327850e-02
2.905650734901428223e-01,-1.841759532690048218e-01,1.703953593969345093e-01,-1.985939443111419678e-01,1.517824679613113403e-01,4.037168249487876892e-02,-1.837252639234066010e-02,8.376598707400262356e-04,1.545985788106918335e-01,5.201969295740127563e-02,1.135284677147865295e-01,6.532073020935058594e-02,-1.459612250328063965e-01,2.326513290405273438e+00,-4.721656814217567444e-02,-1.578079313039779663e-01,2.365166544914245605e-01,1.426097899675369263e-01,9.372430294752120972e-02,-2.321435511112213135e-01,-1.633271109312772751e-03,8.422984182834625244e-02,-1.156415343284606934e+00,-1.134007722139358521e-01,2.956116795539855957e-01
-1.481807976961135864e-01,-1.283862628042697906e-02,-1.568796187639236450e-01,-1.220405325293540955e-01,1.633038520812988281e-01,8.268954604864120483e-02,-1.930954009294509888e-01,-4.088678583502769470e-02,6.850166618824005127e-02,2.385907247662544250e-02,-1.610749810934066772e-01,-9.114728122949600220e-02,7.415290176868438721e-02,1.452009528875350952e-01,9.357819706201553345e-02,9.295117855072021484e-02,-1.463824361562728882e-01,-4.408288002014160156e-02,8.601754158735275269e-02,-9.785175323486328125e-02,-6.760921329259872437e-02,-1.214482784271240234e-01,-5.207803472876548767e-02,1.357791721820831299e-01,1.484161913394927979e-01
1.054485365748405457e-01,-5.095236375927925110e-02,1.000983268022537231e-01,-1.567405313253402710e-01,-2.834301069378852844e-02,1.148470640182495117e-01,6.429300457239151001e-02,1.695270538330078125e-01,1.491137742996215820e-01,-1.033362150192260742e-01,1.775507926940917969e-01,1.405435651540756226e-01,1.034736856818199158e-01,1.641369313001632690e-01,-1.510030329227447510e-01,2.672290895134210587e-03,-5.321903154253959656e-02,1.519195288419723511e-01,-1.170415654778480530e-01,3.479306772351264954e-02,4.958853870630264282e-02,-1.590051501989364624e-01,-8.382701873779296875e-02,4.371535778045654297e-02,-1.237450391054153442e-01
-2.656940817832946777e-01,1.976261585950851440e-01,7.382183521986007690e-02,7.248023152351379395e-02,1.521933376789093018e-01,-1.317619085311889648e-01,3.342412784695625305e-02,1.630344688892364502e-01,1.929508298635482788e-01,1.381265968084335327e-01,-8.736377209424972534e-02,-1.069217696785926819e-01,-9.554927796125411987e-02,-6.682752370834350586e-01,3.902230411767959595e-02,2.325511071830987930e-03,2.945853173732757568e-01,-1.474102735519409180e-01,2.108218222856521606e-01,-6.803286075592041016e-01,3.067302703857421875e-01,2.276704609394073486e-01,4.440253078937530518e-01,1.385968774557113647e-01,-1.403954923152923584e-01
-2.859166823327541351e-02,1.005100309848785400e-01,1.591941416263580322e-01,3.134318394586443901e-03,-1.017820611596107483e-01,1.421918869018554688e-01,3.567884117364883423e-02,7.969379425048828125e-02,-6.042304635047912598e-01,-1.711249798536300659e-01,1.121557280421257019e-01,-1.189203038811683655e-01,1.603386402130126953e-01,-2.663096189498901367e+00,2.396660000085830688e-01,-9.417223930358886719e-02,1.953613609075546265e-01,1.942032128572463989e-01,9.572999924421310425e-02,6.693680882453918457e-01,8.346290141344070435e-02,-9.200555086135864258e-02,3.644433319568634033e-01,6.793663650751113892e-02,1.241500303149223328e-01
-1.788863241672515869e-01,-9.444885700941085815e-02,-1.322003602981567383e-01,2.551965788006782532e-02,4.758262634277343750e-02,3.524596616625785828e-02,-8.513999171555042267e-03,-8.185243606567382812e-02,-1.356822699308395386e-01,-2.239468134939670563e-02,-5.094890668988227844e-02,-6.652605533599853516e-02,3.031492233276367188e-02,-6.090912967920303345e-02,-1.610686816275119781e-02,1.596453636884689331e-01,-1.582605838775634766e-01,-1.702155321836471558e-01,-1.394918262958526611e-01,9.896574169397354126e-02,1.625144481658935547e-02,-1.050655171275138855e-01,7.973120361566543579e-02,1.418423652648925781e-01,-1.070025488734245300e-01
