2.865102589130401611e-01
1.696695834398269653e-01
2.953985035419464111e-01
-6.023825407028198242e-01
5.673172473907470703e-01
-5.651449561119079590e-01
-4.323832392692565918e-01
-3.239971399307250977e-01
-5.003935098648071289e-01
1.425153459422290325e-03
-7.044170498847961426e-01
2.985800206661224365e-01
4.614825844764709473e-01
4.517315328121185303e-01
1.216367259621620178e-01
1.670547872781753540e-01
8.050323128700256348e-01
5.909692645072937012e-01
5.539563894271850586e-01
6.232625842094421387e-01
-7.343733310699462891e-01
5.335200950503349304e-02
-5.836860537528991699e-01
-2.494851127266883850e-02
-6.221157312393188477e-02
6.622363328933715820e-01
-9.522169828414916992e-02
3.085317611694335938e-01
5.718086361885070801e-01
8.040329217910766602e-01
-5.298705101013183594e-01
-5.763409733772277832e-01
5.815193653106689453e-01
-1.017606496810913086e+00
-3.038807809352874756e-01
5.869019310921430588e-03
-5.389565229415893555e-01
3.029180467128753662e-01
1.399564296007156372e-01
2.608126401901245117e-01
