-9.095703810453414917e-02,7.400953769683837891e-02,-2.599653303623199463e-01,-1.551917940378189087e-01,-5.095554888248443604e-02,-8.261857926845550537e-02,1.196031644940376282e-01,-4.252527281641960144e-02,7.229656726121902466e-02,3.577258437871932983e-02,7.650426775217056274e-02,-6.127295270562171936e-02,1.962115019559860229e-01,-4.671862348914146423e-02,4.512035474181175232e-02,1.110570579767227173e-01,2.548409402370452881e-01,-4.006509110331535339e-02,-2.587259113788604736e-01,-2.815467864274978638e-02,3.954610824584960938e-01,-1.006575822830200195e-01,2.705223299562931061e-02,-1.619798690080642700e-01,-1.973429471254348755e-01,8.138009905815124512e-02,-8.741842210292816162e-02,-5.982007831335067749e-02,-9.711083024740219116e-02,-1.115875467658042908e-01,-3.975093960762023926e-01,-4.089280962944030762e-02,4.141192510724067688e-02,1.878213733434677124e-01,1.008983328938484192e-01,3.727089986205101013e-02,2.610162198543548584e-01,2.342071384191513062e-01,1.307557672262191772e-01,3.893266618251800537e-02
7.618595659732818604e-02,5.238112062215805054e-02,-1.549549698829650879e-01,4.371913895010948181e-02,-1.158826872706413269e-01,7.360558956861495972e-02,1.475964337587356567e-01,-3.641671035438776016e-03,9.257686883211135864e-02,-5.187637731432914734e-02,6.195206195116043091e-02,-2.312436327338218689e-02,-8.576347678899765015e-02,2.949727885425090790e-02,1.447649300098419189e-02,4.818359762430191040e-02,-2.449842542409896851e-02,-3.695172816514968872e-02,-3.728182613849639893e-02,8.603348582983016968e-02,-2.289776504039764404e-02,-4.808875173330307007e-02,-1.348516047000885010e-01,-1.324069499969482422e-01,-1.522642970085144043e-01,-1.371784973889589310e-02,1.024131774902343750e-01,-1.634499281644821167e-01,1.282375305891036987e-01,1.056881174445152283e-01,8.240731060504913330e-02,1.328814122825860977e-02,1.515158358961343765e-02,1.367385238409042358e-01,-8.696398884057998657e-02,-6.539198756217956543e-02,7.180880010128021240e-02,-1.896775327622890472e-02,-3.909808024764060974e-02,-1.545604765415191650e-01
1.485697273164987564e-02,-9.437297284603118896e-02,-3.644383326172828674e-02,-2.942556142807006836e-01,4.573932290077209473e-02,3.586726635694503784e-02,1.133274734020233154e-01,-3.605417534708976746e-02,1.177058219909667969e-01,1.889219284057617188e-01,-6.119891535490751266e-03,-3.063930869102478027e-01,1.989023983478546143e-01,-8.034616708755493164e-02,8.806836605072021484e-02,-4.201062768697738647e-02,-3.460158035159111023e-02,-1.221278607845306396e-01,7.162828464061021805e-03,3.712279349565505981e-02,1.017781496047973633e+00,-6.360964849591255188e-03,-2.708331495523452759e-02,-4.413090646266937256e-02,-1.943511366844177246e-01,1.222358569502830505e-01,1.101917922496795654e-01,-1.661500036716461182e-01,-9.549836814403533936e-02,-2.362180650234222412e-01,-2.088178694248199463e-01,-8.673806488513946533e-02,1.629636734724044800e-01,3.937143087387084961e-02,1.529758679680526257e-03,7.862767577171325684e-02,4.018319025635719299e-02,1.491233855485916138e-01,-3.071733191609382629e-02,7.886605709791183472e-02
-5.781685560941696167e-02,-1.393599957227706909e-01,-1.243688240647315979e-01,-2.071100473403930664e-01,7.991685718297958374e-02,-1.194113567471504211e-01,5.602672323584556580e-02,9.206028282642364502e-02,8.245433121919631958e-02,4.409104958176612854e-02,5.489229038357734680e-02,-6.241462826728820801e-01,1.514471322298049927e-01,-1.118739023804664612e-01,3.876589238643646240e-02,1.494809836149215698e-01,1.789814382791519165e-01,5.414146557450294495e-02,-2.230139970779418945e-01,-9.126280993223190308e-02,6.610432863235473633e-01,6.911318749189376831e-02,5.936936289072036743e-02,-7.728268951177597046e-02,-1.784103810787200928e-01,1.669344156980514526e-01,-1.795323938131332397e-02,-7.690901309251785278e-02,7.386604696512222290e-02,-1.746659576892852783e-01,-2.551319897174835205e-01,1.265745609998703003e-01,1.014874354004859924e-01,-6.121266260743141174e-02,2.230756580829620361e-01,1.865835338830947876e-01,1.245629340410232544e-01,-9.450127370655536652e-03,-3.221336752176284790e-02,-1.475647091865539551e-02
1.229200325906276703e-02,8.231566101312637329e-02,2.087912708520889282e-01,3.614816367626190186e-01,4.327830299735069275e-02,1.020374223589897156e-01,1.156443133950233459e-01,-3.465360729023814201e-03,1.889613866806030273e-01,-1.762717813253402710e-01,2.229347229003906250e-01,-3.989312648773193359e-01,-3.483839333057403564e-01,-3.223327174782752991e-02,1.097516715526580811e-01,6.489703059196472168e-02,-4.013242423534393311e-01,-1.161106377840042114e-01,2.769435942173004150e-01,-6.874659098684787750e-03,-3.328488469123840332e-01,-9.287371486425399780e-02,-1.719469390809535980e-02,1.884834915399551392e-01,1.419833898544311523e-01,-2.378096580505371094e-01,4.474027082324028015e-03,2.043709158897399902e-01,-8.650388568639755249e-02,-1.016775295138359070e-01,5.723345279693603516e-02,1.073266789317131042e-01,-2.621134221553802490e-01,-2.599429786205291748e-01,-1.666633933782577515e-01,-1.696287840604782104e-01,-2.267562150955200195e-01,-3.764202892780303955e-01,1.299155950546264648e-01,4.372329264879226685e-02
-1.409235596656799316e-01,1.371153146028518677e-01,-8.134904201142489910e-04,1.589666903018951416e-01,1.951144486665725708e-01,5.201689526438713074e-02,-5.265054851770401001e-02,3.788330405950546265e-02,1.560891419649124146e-01,-6.498569995164871216e-02,2.796255946159362793e-01,5.596190690994262695e-01,-1.966126114130020142e-01,7.086434215307235718e-02,1.771774329245090485e-02,-7.473147660493850708e-02,-1.210522726178169250e-01,-1.088358368724584579e-02,1.468625366687774658e-01,1.409061849117279053e-01,-7.490049004554748535e-01,-6.154144182801246643e-02,-8.857204020023345947e-02,1.162607893347740173e-01,2.285587489604949951e-01,-2.287690043449401855e-01,1.107613369822502136e-01,1.129007339477539062e-01,1.579360663890838623e-01,7.369901053607463837e-03,3.511524796485900879e-01,2.327298521995544434e-01,-2.470323294401168823e-01,-6.618124991655349731e-02,-2.180958986282348633e-01,-1.090190932154655457e-01,1.772194728255271912e-02,-3.965488076210021973e-02,-1.371767073869705200e-01,1.387773007154464722e-01
8.604310452938079834e-03,-9.016458690166473389e-02,-2.419830299913883209e-02,1.794499456882476807e-01,2.171108126640319824e-01,1.676598936319351196e-02,1.152882128953933716e-01,-3.082446940243244171e-02,9.971977025270462036e-02,-2.712332308292388916e-01,2.588192224502563477e-01,2.985858917236328125e-01,-2.070152163505554199e-01,-1.485175080597400665e-02,3.045307472348213196e-02,3.865364938974380493e-02,-1.515383720397949219e-01,1.264864355325698853e-01,2.715292200446128845e-02,4.824201017618179321e-02,-7.328159213066101074e-01,4.728766623884439468e-03,-8.043584972620010376e-02,1.404304355382919312e-01,2.151394076645374298e-02,-2.284786552190780640e-01,-1.554525345563888550e-01,2.445786148309707642e-01,-1.320117264986038208e-01,1.598967611789703369e-01,4.924157857894897461e-01,2.666200101375579834e-01,-1.033890098333358765e-01,1.095406711101531982e-01,-1.137753650546073914e-01,-1.484094411134719849e-01,-3.983993083238601685e-02,-1.526836156845092773e-01,7.393851410597562790e-03,-9.448448196053504944e-03
9.059236943721771240e-02,-5.695724487304687500e-02,8.605825155973434448e-02,2.432715594768524170e-01,-6.776857655495405197e-03,8.604384213685989380e-02,6.760264188051223755e-02,1.400760561227798462e-01,4.320407658815383911e-02,-2.412295788526535034e-01,2.286938279867172241e-01,5.631209015846252441e-01,5.460262298583984375e-02,-5.517985671758651733e-02,1.178044900298118591e-01,2.073151059448719025e-02,-1.662606745958328247e-01,-6.911595910787582397e-02,3.115511834621429443e-01,2.216253578662872314e-01,-1.286311149597167969e+00,3.756691142916679382e-02,-1.159557234495878220e-02,2.654159665107727051e-01,2.609098851680755615e-01,-1.758301630616188049e-02,8.165070414543151855e-02,2.438841909170150757e-01,2.181909605860710144e-02,8.165100216865539551e-02,3.919752240180969238e-01,-4.244009498506784439e-03,-3.437287732958793640e-02,-1.249528303742408752e-01,-6.700836122035980225e-02,-3.633888438344001770e-02,-1.561743486672639847e-02,-9.804351627826690674e-02,-5.049384012818336487e-02,-1.517664548009634018e-02
-7.314623892307281494e-02,-5.550710484385490417e-02,1.311901956796646118e-01,1.165026202797889709e-01,4.944770783185958862e-02,-6.800381839275360107e-02,1.422210782766342163e-01,-1.398388147354125977e-01,4.544283449649810791e-02,-2.060435116291046143e-01,2.042137831449508667e-01,3.737353980541229248e-01,4.019379615783691406e-02,1.136964857578277588e-01,3.030164400115609169e-03,4.730698466300964355e-02,-2.119137048721313477e-01,3.556098043918609619e-02,9.549131989479064941e-02,2.334407567977905273e-01,-6.134234666824340820e-01,1.469939760863780975e-02,-1.538684070110321045e-01,2.880370616912841797e-01,1.138227880001068115e-01,-7.708626240491867065e-02,3.088429383933544159e-02,1.105781048536300659e-01,-5.809197202324867249e-02,1.366544514894485474e-01,3.061480224132537842e-01,1.921226382255554199e-01,-2.460393756628036499e-01,3.189533576369285583e-02,-1.512912064790725708e-01,1.249255836009979248e-01,-2.201477289199829102e-01,-1.640745997428894043e-01,-1.718869991600513458e-02,-1.912992261350154877e-02
2.448062784969806671e-02,-1.133032515645027161e-01,-1.689835935831069946e-01,-8.072014153003692627e-02,2.325891144573688507e-02,-1.011596322059631348e-01,-7.855347543954849243e-02,8.633790910243988037e-02,-9.262929856777191162e-02,1.357749402523040771e-01,-5.118768289685249329e-02,7.450128346681594849e-02,1.195845156908035278e-01,2.815291844308376312e-02,-1.003594137728214264e-02,-1.488465070724487305e-01,-7.299400120973587036e-02,-2.151994779706001282e-02,1.506440527737140656e-02,-6.080457195639610291e-02,5.435829609632492065e-02,1.274242252111434937e-01,-1.511865854263305664e-01,-3.841435303911566734e-03,-6.962487846612930298e-02,-9.321075677871704102e-02,1.328611671924591064e-01,-1.852848380804061890e-02,-1.284676492214202881e-01,1.260358840227127075e-01,1.442285329103469849e-01,3.054490778595209122e-03,3.984156996011734009e-02,-1.296905130147933960e-01,7.107189297676086426e-02,-1.191684678196907043e-01,5.480711162090301514e-02,7.202490419149398804e-02,7.564820349216461182e-02,1.731743663549423218e-02
1.336725354194641113e-01,-1.414997279644012451e-01,-7.849263399839401245e-02,-2.042082399129867554e-01,1.389930695295333862e-01,1.788332872092723846e-02,-1.485379338264465332e-01,1.867683790624141693e-02,-7.363028824329376221e-02,7.878131419420242310e-02,-7.245445996522903442e-02,-4.558466374874114990e-01,1.004693582653999329e-01,-1.719949953258037567e-02,1.117716655135154724e-01,-2.829007990658283234e-02,3.041622042655944824e-02,-3.329497948288917542e-02,-6.465667486190795898e-02,5.564545840024948120e-02,1.471094608306884766e+00,-9.062521904706954956e-02,-4.986549913883209229e-02,-9.421501308679580688e-02,-1.078605502843856812e-01,2.279400378465652466e-01,1.230204775929450989e-01,-5.987087264657020569e-02,-1.492659300565719604e-01,-1.851171106100082397e-01,-4.347817301750183105e-01,1.128469854593276978e-01,2.282990515232086182e-01,-7.516726851463317871e-02,7.151095196604728699e-03,1.690836250782012939e-01,1.688820570707321167e-01,6.319139152765274048e-02,1.471285223960876465e-01,7.620736211538314819e-02
-8.847589045763015747e-02,-3.342580748721957207e-03,1.030445098876953125e-01,2.331703528761863708e-02,-7.400717586278915405e-02,8.388206362724304199e-02,-7.439257949590682983e-02,-1.354435235261917114e-01,-2.255568280816078186e-02,2.539859153330326080e-02,-1.193454563617706299e-01,-1.238408684730529785e-02,1.114048734307289124e-01,7.504163682460784912e-02,1.057081893086433411e-01,-9.803890436887741089e-02,-4.710115864872932434e-02,1.330740656703710556e-02,1.729187183082103729e-02,8.068341761827468872e-02,-1.569388508796691895e-01,-1.259906142950057983e-01,-1.349127590656280518e-01,-1.571521759033203125e-01,-1.005324572324752808e-01,7.381493598222732544e-02,-7.380188256502151489e-02,5.875546485185623169e-02,9.547656029462814331e-02,1.090247407555580139e-01,7.516067475080490112e-02,3.315700963139533997e-02,-6.034636124968528748e-02,-1.257760524749755859e-01,-8.422487974166870117e-02,-1.251465827226638794e-01,-2.846427261829376221e-02,-2.526915073394775391e-02,-1.086607500910758972e-01,-1.279055327177047729e-01
-1.071423441171646118e-01,-1.472150832414627075e-01,2.686893939971923828e-01,4.196204617619514465e-02,8.494939655065536499e-02,-1.067204326391220093e-01,-7.720492780208587646e-02,-2.539741620421409607e-02,1.019316539168357849e-01,-4.006999079138040543e-03,7.693735510110855103e-02,3.919797539710998535e-01,-2.176739275455474854e-01,1.331967711448669434e-01,-1.139180734753608704e-01,1.022343039512634277e-01,-1.383296549320220947e-01,-5.449231341481208801e-02,2.153604477643966675e-01,1.831731409765779972e-03,-6.366633176803588867e-01,1.198372989892959595e-01,-7.860212028026580811e-02,1.594648212194442749e-01,2.437632083892822266e-01,-2.220762968063354492e-01,4.713329486548900604e-03,2.182084918022155762e-01,-1.464308202266693115e-01,2.650645673274993896e-01,3.893675208091735840e-01,2.359887957572937012e-01,-8.197106420993804932e-02,-1.069251075387001038e-01,8.063291758298873901e-02,1.102709490805864334e-02,-4.760459810495376587e-02,-1.801662445068359375e-01,1.222938597202301025e-01,6.558332592248916626e-02
-1.394388377666473389e-01,8.534909039735794067e-02,-1.373124569654464722e-01,-5.403276532888412476e-02,-6.089254096150398254e-02,-1.222067102789878845e-01,2.555487863719463348e-02,-8.572072535753250122e-02,1.373884826898574829e-01,2.385518327355384827e-02,-1.169471070170402527e-01,-8.715693652629852295e-02,-8.328493684530258179e-02,-7.334862649440765381e-02,7.810538262128829956e-02,6.667099148035049438e-02,-4.482435435056686401e-02,-1.665385067462921143e-02,-1.130008250474929810e-01,-1.458648294210433960e-01,3.628541156649589539e-02,-7.915960997343063354e-02,2.726000174880027771e-02,-1.375266611576080322e-01,1.304184198379516602e-01,-1.240882128477096558e-01,1.431021988391876221e-01,1.050452962517738342e-01,8.284672349691390991e-02,-1.356026083230972290e-01,1.358344107866287231e-01,-4.046615213155746460e-03,-4.356692358851432800e-02,1.442165374755859375e-01,-3.779499977827072144e-02,-8.850193768739700317e-02,-8.553825318813323975e-02,1.509716659784317017e-01,2.632919885218143463e-02,3.927346691489219666e-02
-8.254170417785644531e-02,1.508779674768447876e-01,-5.973312631249427795e-02,-1.810730546712875366e-01,1.852351985871791840e-02,-1.509282290935516357e-01,-1.243314966559410095e-01,1.560259759426116943e-01,2.834266610443592072e-02,2.187289893627166748e-01,2.236178889870643616e-02,-5.332422256469726562e-01,2.132510542869567871e-01,-4.519897326827049255e-02,1.115673109889030457e-01,-2.080890262732282281e-04,-1.567943766713142395e-02,2.014650404453277588e-02,-1.538705080747604370e-01,-1.229686141014099121e-01,7.107246518135070801e-01,1.269093900918960571e-01,2.571550570428371429e-02,-1.311395466327667236e-01,4.872277379035949707e-02,-2.064099162817001343e-02,-5.367413163185119629e-02,3.690983355045318604e-02,6.275691837072372437e-02,-2.719737291336059570e-01,-1.493681818246841431e-01,-1.600596755743026733e-01,2.336717955768108368e-02,2.297461330890655518e-01,1.064710989594459534e-01,2.327810972929000854e-01,4.125792533159255981e-02,3.314881399273872375e-02,1.535550504922866821e-01,-1.141300424933433533e-01
-2.643635310232639313e-02,1.333667933940887451e-01,-3.771837800741195679e-02,1.981904730200767517e-02,1.395412832498550415e-01,-5.820359289646148682e-02,-8.587799966335296631e-03,-6.906476616859436035e-02,1.236908137798309326e-01,-8.411740511655807495e-02,-1.065575852990150452e-01,-1.499230116605758667e-01,7.838542014360427856e-02,9.883433580398559570e-02,2.463445998728275299e-02,7.757820934057235718e-02,-4.105543717741966248e-02,-1.526980400085449219e-01,-1.041116341948509216e-01,-9.649621695280075073e-02,-1.179766356945037842e-01,1.365934610366821289e-01,1.227085739374160767e-01,-1.377606689929962158e-01,-1.549126058816909790e-01,5.541968718171119690e-02,-7.103262096643447876e-02,5.612588673830032349e-02,1.375784575939178467e-01,-1.377757191658020020e-01,-7.524638622999191284e-02,-9.998781234025955200e-02,-3.348156064748764038e-02,1.229552999138832092e-01,-8.740466833114624023e-02,-1.318179666996002197e-01,2.105378359556198120e-02,-1.456324160099029541e-01,-5.765882879495620728e-02,-8.191946893930435181e-02
1.477589905261993408e-01,-3.680323436856269836e-02,2.768245041370391846e-01,2.214907109737396240e-01,1.968589127063751221e-01,-1.392828822135925293e-01,-5.880278348922729492e-02,-3.704553842544555664e-02,2.314602434635162354e-01,-2.147326320409774780e-01,2.832398936152458191e-02,3.939903080463409424e-01,-9.000142663717269897e-02,1.130470409989356995e-01,-4.374906048178672791e-02,-1.396612524986267090e-01,-5.652301758527755737e-02,-1.967445947229862213e-02,2.568352222442626953e-01,1.659675687551498413e-02,-6.768496632575988770e-01,-4.238192737102508545e-02,-1.449213176965713501e-01,2.431697249412536621e-01,7.748643308877944946e-02,-1.417417377233505249e-01,-1.569782942533493042e-01,1.825266033411026001e-01,2.797176316380500793e-02,3.176795318722724915e-02,2.707881033420562744e-01,-3.345271572470664978e-02,-1.656325161457061768e-01,7.648421823978424072e-02,-1.218040958046913147e-01,8.200681954622268677e-02,-1.697935014963150024e-01,-1.608794331550598145e-01,1.226728186011314392e-01,-1.357635706663131714e-01
1.107368171215057373e-01,9.892970323562622070e-02,-1.097958832979202271e-01,3.892662003636360168e-02,-2.768565341830253601e-02,1.207772418856620789e-01,1.390220522880554199e-01,-6.644054502248764038e-02,4.841142520308494568e-02,-1.202366873621940613e-01,-1.275065392255783081e-01,-1.108826696872711182e-01,-1.322228163480758667e-01,-5.882486328482627869e-02,1.518961787223815918e-01,-1.055368334054946899e-01,-1.258973330259323120e-01,-3.486056579276919365e-03,-6.408936530351638794e-02,-3.591271489858627319e-02,1.510011851787567139e-01,3.451516479253768921e-02,-3.148298338055610657e-02,-6.827400624752044678e-02,7.342837005853652954e-02,1.334983110427856445e-01,7.991369068622589111e-02,-1.463774889707565308e-01,9.272373467683792114e-02,-1.160690039396286011e-01,1.550318002700805664e-01,7.232222706079483032e-02,-4.853399470448493958e-02,1.048082038760185242e-01,-1.543681323528289795e-02,9.317589551210403442e-02,3.815159574151039124e-02,-7.166615873575210571e-02,-7.770200818777084351e-02,-2.503437176346778870e-02
1.061004102230072021e-01,-8.700928092002868652e-02,8.804363757371902466e-02,-5.252858623862266541e-02,-1.563414186239242554e-01,-1.014758180826902390e-02,3.705520927906036377e-02,-6.934464722871780396e-02,1.355638951063156128e-01,-8.158788084983825684e-02,-7.923353463411331177e-02,1.391388326883316040e-01,1.095850691199302673e-01,-1.120337396860122681e-01,2.164240740239620209e-02,1.765380986034870148e-02,-9.328361600637435913e-02,-1.046281233429908752e-01,7.868586480617523193e-02,-7.569398730993270874e-02,1.033725216984748840e-01,1.274977028369903564e-01,1.072717737406492233e-02,-7.020524144172668457e-02,-1.565720289945602417e-01,1.171139925718307495e-01,6.276641786098480225e-02,-5.221856385469436646e-02,-1.147760227322578430e-01,8.508377522230148315e-02,-8.325640112161636353e-02,-3.186934441328048706e-02,5.182611569762229919e-02,2.616838179528713226e-02,-1.138968467712402344e-01,-1.048070713877677917e-01,-5.139205232262611389e-02,-2.864215336740016937e-02,-1.433669328689575195e-01,1.465397030115127563e-01
8.669371157884597778e-02,3.904084488749504089e-02,4.075019434094429016e-02,-8.965964429080486298e-03,1.759407222270965576e-01,-9.598714858293533325e-02,-7.802225649356842041e-02,-9.533639997243881226e-02,6.739855278283357620e-03,1.806371957063674927e-01,1.862130500376224518e-02,-5.018742084503173828e-01,1.180101558566093445e-01,3.770265728235244751e-02,-1.303709745407104492e-01,7.558960467576980591e-02,9.376144409179687500e-02,-1.074899509549140930e-01,-2.043912261724472046e-01,1.349837779998779297e-01,7.606819272041320801e-01,-3.971780464053153992e-02,9.052257239818572998e-02,-2.141727954149246216e-01,-1.834979504346847534e-01,-4.051782935857772827e-02,7.416497915983200073e-02,-7.187307626008987427e-02,-9.419617056846618652e-02,-6.056103855371475220e-02,-3.634457886219024658e-01,-1.149763464927673340e-01,2.250182926654815674e-01,9.499351680278778076e-02,1.896533370018005371e-01,1.550261229276657104e-01,1.464947611093521118e-01,1.338188052177429199e-01,-2.193422242999076843e-02,1.285980790853500366e-01
-2.660862915217876434e-02,-6.188950315117835999e-02,-1.092702597379684448e-01,-8.787256665527820587e-03,-8.727581240236759186e-03,-1.626080088317394257e-02,5.388527363538742065e-02,1.013372838497161865e-01,-1.301735043525695801e-01,-1.453429460525512695e-01,-1.030861139297485352e-01,-9.808403998613357544e-02,-1.306866705417633057e-01,-9.710468351840972900e-02,-9.345862269401550293e-02,-7.551480829715728760e-02,1.505661662667989731e-02,-1.153814643621444702e-01,-4.605279490351676941e-02,1.379242837429046631e-01,-5.970087274909019470e-02,-2.978592738509178162e-02,5.858049169182777405e-02,2.797594852745532990e-02,-2.614372782409191132e-02,3.119354322552680969e-02,-4.668471589684486389e-02,-1.401100680232048035e-02,8.637391147203743458e-04,-1.172653436660766602e-01,4.269044473767280579e-02,8.789037913084030151e-02,-8.520703017711639404e-02,7.305658608675003052e-02,2.955727465450763702e-02,-5.020275712013244629e-02,-7.975891977548599243e-02,-1.142956689000129700e-01,3.687550500035285950e-02,-1.342760398983955383e-02
-6.681451946496963501e-02,3.665448725223541260e-02,-6.529074162244796753e-02,8.975556492805480957e-02,-1.180824190378189087e-01,-7.251069694757461548e-02,6.800922006368637085e-02,1.093846932053565979e-01,-5.087605118751525879e-02,-3.762781247496604919e-02,-1.543550342321395874e-01,1.321818977594375610e-01,-1.084800660610198975e-01,-5.033500120043754578e-02,-4.165271297097206116e-02,1.417813748121261597e-01,6.143775582313537598e-02,4.481155797839164734e-02,-1.553669720888137817e-01,1.126114130020141602e-01,-3.051482327282428741e-02,4.617859050631523132e-02,-5.941295996308326721e-02,-1.549156755208969116e-01,1.036530062556266785e-01,7.135504484176635742e-02,-1.068895608186721802e-01,-1.111640781164169312e-01,1.481309235095977783e-01,-8.327677845954895020e-02,3.541801497340202332e-02,1.112174391746520996e-01,1.974276639521121979e-02,3.423609212040901184e-02,-3.679238259792327881e-02,9.155163541436195374e-03,-1.219271421432495117e-01,-1.184037327766418457e-01,4.115734994411468506e-02,-8.434796333312988281e-02
8.574604988098144531e-02,1.191889271140098572e-01,-1.313948333263397217e-01,-2.788774073123931885e-01,8.060388267040252686e-02,-3.329298272728919983e-02,1.976642385125160217e-02,-2.772273495793342590e-02,-4.844910278916358948e-02,1.814656108617782593e-01,1.585163921117782593e-01,-2.854945063591003418e-01,2.342439591884613037e-01,1.501087695360183716e-01,-7.234176993370056152e-02,4.333254322409629822e-02,-3.440032526850700378e-02,5.074782297015190125e-02,-2.108040899038314819e-01,1.722545623779296875e-01,6.459447145462036133e-01,-1.260330379009246826e-01,5.793735757470130920e-02,1.085033733397722244e-02,-1.910844743251800537e-01,2.125830799341201782e-01,-1.037636655382812023e-03,-1.962806284427642822e-01,1.112071871757507324e-01,-1.125051975250244141e-01,-2.842093110084533691e-01,-3.530251979827880859e-02,9.018637984991073608e-02,4.175893962383270264e-02,2.130797356367111206e-01,-2.439441904425621033e-02,2.976899407804012299e-02,1.407907009124755859e-01,-1.184766516089439392e-01,-1.046653091907501221e-01
-7.993270643055438995e-03,-7.846441864967346191e-02,-6.950546056032180786e-02,-4.497563838958740234e-02,8.561978489160537720e-02,6.948099285364151001e-02,-5.162359029054641724e-02,3.037377819418907166e-02,9.754137694835662842e-02,2.596319615840911865e-01,6.075767427682876587e-02,-5.898874998092651367e-01,1.458097100257873535e-01,1.094922050833702087e-01,-1.232708469033241272e-01,5.630734562873840332e-02,1.741216331720352173e-01,2.593083307147026062e-03,-4.049979522824287415e-02,-1.798675060272216797e-01,1.407409667968750000e+00,-3.280457481741905212e-02,5.591893196105957031e-02,-1.778567880392074585e-01,-1.438363194465637207e-01,-2.632025070488452911e-02,-8.141347020864486694e-02,5.335260182619094849e-02,-9.323538094758987427e-02,-2.404374033212661743e-01,-5.160330533981323242e-01,7.686939835548400879e-02,2.176817059516906738e-01,3.928162530064582825e-02,8.467498235404491425e-03,-5.156657099723815918e-02,3.520326688885688782e-02,1.672275215387344360e-01,1.262012273073196411e-01,-8.949483186006546021e-02
3.574479371309280396e-02,-3.349518775939941406e-02,-5.431249737739562988e-02,6.276166439056396484e-02,7.274735718965530396e-02,6.916633993387222290e-02,-6.665555387735366821e-02,9.652804583311080933e-03,5.362931638956069946e-02,-2.229662612080574036e-03,-1.443178206682205200e-01,3.243578970432281494e-02,1.942744851112365723e-02,1.044974103569984436e-01,1.384319737553596497e-03,-3.204154595732688904e-02,-9.281867742538452148e-02,7.221480831503868103e-03,5.715275555849075317e-02,-7.388999313116073608e-02,-4.567952081561088562e-02,-4.661276936531066895e-02,-8.032871782779693604e-02,-9.886980056762695312e-02,-3.098660893738269806e-02,-8.324999362230300903e-02,1.265488266944885254e-01,1.452327072620391846e-01,3.518823161721229553e-02,4.745449498295783997e-02,1.232329905033111572e-01,-7.675343751907348633e-02,4.558719694614410400e-02,8.330027759075164795e-02,-2.686027809977531433e-02,-1.419694907963275909e-02,6.275014951825141907e-03,1.380820125341415405e-01,-3.864782396703958511e-03,-7.168540358543395996e-02
-3.761031478643417358e-02,6.540237367153167725e-02,-1.161299645900726318e-01,1.463852077722549438e-02,1.822712719440460205e-01,1.476154923439025879e-01,-7.971207052469253540e-02,-1.156692653894424438e-01,2.249491401016712189e-02,2.802166342735290527e-01,-3.415996581315994263e-02,-4.694171845912933350e-01,-2.795513905584812164e-02,-1.497060060501098633e-01,-1.557859242893755436e-03,1.056011095643043518e-01,2.063469402492046356e-02,3.387598693370819092e-02,-4.890152812004089355e-02,-1.788314729928970337e-01,5.977134108543395996e-01,1.222360730171203613e-01,-2.282534912228584290e-02,5.385550484061241150e-02,-8.836667239665985107e-02,1.116450205445289612e-01,1.502740103751420975e-02,-7.383071631193161011e-02,-1.176970750093460083e-01,-2.756852805614471436e-01,-3.228193819522857666e-01,-1.553973108530044556e-01,1.966647654771804810e-01,1.092145368456840515e-01,2.318171262741088867e-01,3.395471721887588501e-02,1.138032898306846619e-01,2.480137199163436890e-01,-4.632031545042991638e-02,1.367506384849548340e-01
5.098134279251098633e-02,-7.966090925037860870e-03,7.080738246440887451e-02,1.706670373678207397e-01,1.263756453990936279e-01,-5.666034296154975891e-02,-8.484707772731781006e-02,-6.054504774510860443e-03,1.290029734373092651e-01,-1.234638094902038574e-01,1.224431097507476807e-01,5.545077323913574219e-01,-1.646268740296363831e-02,-2.483670599758625031e-02,-4.969205334782600403e-02,1.574920117855072021e-01,-8.600924909114837646e-02,1.089574322104454041e-01,2.314436733722686768e-01,1.684665232896804810e-01,-6.306013464927673340e-01,1.205525696277618408e-01,5.574034061282873154e-03,2.519851922988891602e-01,2.116860002279281616e-01,3.366991505026817322e-02,1.494453847408294678e-01,1.961222738027572632e-01,-7.718427479267120361e-02,2.320376187562942505e-01,2.593757808208465576e-01,1.273933239281177521e-02,-8.623348921537399292e-02,-5.323293432593345642e-02,-1.526367217302322388e-01,-1.362566500902175903e-01,-1.067207381129264832e-01,-1.334588527679443359e-01,4.273343831300735474e-02,1.169561892747879028e-01
7.918711751699447632e-02,7.197672873735427856e-02,1.986611336469650269e-01,2.345202118158340454e-01,-1.797663420438766479e-02,-1.344688236713409424e-01,-6.218145415186882019e-02,-5.211033672094345093e-02,1.801938563585281372e-01,-4.848039150238037109e-02,2.479079365730285645e-01,5.101128220558166504e-01,3.892920166254043579e-02,1.041387394070625305e-01,-1.246027499437332153e-01,5.835012346506118774e-02,-1.116375327110290527e-01,9.704902768135070801e-03,1.732169538736343384e-01,1.016611680388450623e-01,-7.384991645812988281e-01,-1.082438752055168152e-01,-1.745619997382164001e-02,-2.212034538388252258e-02,1.706163138151168823e-01,-2.399201244115829468e-01,1.112876646220684052e-02,2.408808022737503052e-01,-9.231521189212799072e-02,2.236039787530899048e-01,4.111398458480834961e-01,6.695246696472167969e-02,-1.701993793249130249e-01,-9.905270487070083618e-02,2.342495508491992950e-02,-5.885360762476921082e-02,-1.587973535060882568e-01,-2.370751798152923584e-01,-1.141947731375694275e-01,8.212836831808090210e-02
1.424272358417510986e-01,-1.171938888728618622e-02,3.667735680937767029e-02,8.173477649688720703e-02,-9.680289775133132935e-03,-6.386359781026840210e-02,1.091400608420372009e-01,-1.641765795648097992e-02,8.484308421611785889e-02,-2.318048328161239624e-01,2.722249925136566162e-01,3.963932394981384277e-01,2.966508828103542328e-02,4.501352086663246155e-02,-1.135267168283462524e-01,7.259999960660934448e-02,-8.540359139442443848e-02,-1.216438114643096924e-01,2.932170629501342773e-01,2.293695062398910522e-01,-6.811245083808898926e-01,-1.332311630249023438e-01,-3.503329679369926453e-02,1.444151103496551514e-01,2.654212415218353271e-01,6.198308989405632019e-02,-6.745580583810806274e-02,2.484850138425827026e-01,1.286927461624145508e-01,6.908078677952289581e-03,4.300884902477264404e-01,2.099415659904479980e-01,-2.273493111133575439e-01,-1.594131439924240112e-01,-8.956775069236755371e-02,-6.524992734193801880e-02,-1.733900755643844604e-01,2.500146999955177307e-02,1.500457376241683960e-01,-1.525879353284835815e-01
-1.350715607404708862e-01,1.295094937086105347e-01,4.849078506231307983e-02,1.955362707376480103e-01,2.175142168998718262e-01,-1.300038695335388184e-01,1.210756748914718628e-01,7.971061021089553833e-02,1.124338060617446899e-01,-7.976902276277542114e-02,2.588441967964172363e-01,3.069034516811370850e-01,-1.033488437533378601e-01,1.788732409477233887e-02,-1.334909908473491669e-02,1.794322952628135681e-02,-2.200109958648681641e-01,2.137383446097373962e-02,8.916817605495452881e-02,2.497708946466445923e-01,-7.319532632827758789e-01,1.524197459220886230e-01,1.126030385494232178e-01,1.110210642218589783e-01,1.737132519483566284e-01,-2.118011265993118286e-01,3.592903912067413330e-02,-1.691485941410064697e-02,1.075054407119750977e-01,1.549967378377914429e-01,3.337911069393157959e-01,-1.208193413913249969e-02,-2.118245661258697510e-01,-1.200614720582962036e-01,8.041762560606002808e-02,1.719373464584350586e-02,-2.567714750766754150e-01,-1.144073605537414551e-01,-5.265890806913375854e-02,2.999019064009189606e-02
7.416354864835739136e-02,-1.045507267117500305e-01,6.206419318914413452e-02,-9.964062273502349854e-02,4.975105077028274536e-02,-6.664465367794036865e-02,1.544281840324401855e-01,3.603983297944068909e-02,-9.788689017295837402e-02,3.518302738666534424e-02,1.116971969604492188e-01,7.933505624532699585e-02,-1.373888254165649414e-01,-4.599483683705329895e-02,1.521764248609542847e-01,1.277660951018333435e-02,-1.036493331193923950e-01,1.316934227943420410e-01,-1.570488959550857544e-01,-1.797553710639476776e-02,1.299413591623306274e-01,3.431033715605735779e-02,1.048931702971458435e-01,-1.780734956264495850e-02,1.142510492354631424e-02,1.059755533933639526e-01,3.461123630404472351e-02,-1.048774346709251404e-01,1.467439234256744385e-01,-9.549378603696823120e-02,-5.941735208034515381e-02,-6.857442110776901245e-02,5.748775973916053772e-02,1.617865823209285736e-02,-1.242601349949836731e-01,-1.528060287237167358e-01,-1.088113337755203247e-02,-1.091642528772354126e-01,-1.407749801874160767e-01,7.927270233631134033e-02
-1.413054615259170532e-01,-3.190312162041664124e-02,2.750086784362792969e-01,2.946508526802062988e-01,1.699174642562866211e-01,-1.322236806154251099e-01,-1.393834501504898071e-01,-8.601256459951400757e-02,9.129649400711059570e-02,2.085283584892749786e-02,2.492486266419291496e-03,3.529119789600372314e-01,-6.319479644298553467e-02,1.421294361352920532e-01,-1.797525398433208466e-02,-5.909268558025360107e-02,-1.490468531847000122e-01,1.268015205860137939e-01,1.906473040580749512e-01,1.754702627658843994e-01,-7.657358050346374512e-01,-6.262110918760299683e-02,8.768690377473831177e-02,1.840901225805282593e-01,1.041855365037918091e-01,-2.043151557445526123e-01,-1.268813014030456543e-01,1.368051022291183472e-01,-1.110783144831657410e-01,3.878879919648170471e-02,4.813559353351593018e-01,1.788382828235626221e-01,-9.531183540821075439e-02,-1.242570281028747559e-01,-6.396654248237609863e-02,6.297938525676727295e-02,-1.095047071576118469e-01,-2.464980334043502808e-01,-2.527082897722721100e-02,1.521212905645370483e-01
-1.548695564270019531e-01,2.863255888223648071e-02,4.171282052993774414e-02,-1.480714529752731323e-01,-1.021360084414482117e-01,-1.331642568111419678e-01,9.364296495914459229e-02,3.509741649031639099e-02,1.230886727571487427e-01,2.879799343645572662e-02,-5.175160989165306091e-02,-3.354787081480026245e-02,-5.779255926609039307e-02,1.000587791204452515e-01,7.834906131029129028e-02,-1.449886709451675415e-02,9.388678707182407379e-03,1.037465333938598633e-01,-1.356406789273023605e-02,-6.731917709112167358e-02,-6.180323287844657898e-02,-6.993785500526428223e-02,-1.056317538022994995e-01,1.386835724115371704e-01,-6.506915390491485596e-02,-2.688553556799888611e-02,1.202096343040466309e-01,1.172722280025482178e-01,2.256397530436515808e-02,-3.671205043792724609e-02,-3.453887626528739929e-02,1.335027962923049927e-01,-3.871569782495498657e-02,1.153616309165954590e-01,-1.520244479179382324e-01,-1.540997922420501709e-01,-1.190187633037567139e-01,-7.369109243154525757e-02,-1.529326885938644409e-01,-1.209686920046806335e-01
-2.736710757017135620e-02,-1.167925745248794556e-01,-4.591775313019752502e-02,-2.418432682752609253e-01,2.130657583475112915e-01,1.119961738586425781e-01,8.516335487365722656e-02,-3.017051517963409424e-02,-1.055781766772270203e-01,2.510399520397186279e-01,-1.055967211723327637e-01,-5.982429385185241699e-01,2.963883988559246063e-02,5.934352055191993713e-02,-6.708814948797225952e-02,-1.134559586644172668e-01,1.375191360712051392e-01,8.024710416793823242e-02,-8.120964467525482178e-02,-7.177340239286422729e-02,1.227375984191894531e+00,1.131341606378555298e-01,1.237192936241626740e-02,-1.054578572511672974e-01,-3.062953054904937744e-02,1.474181413650512695e-01,8.124598115682601929e-02,-1.044244915246963501e-01,-1.868449151515960693e-02,-2.160096764564514160e-01,-1.322192847728729248e-01,3.344064950942993164e-02,2.380100339651107788e-01,1.914060860872268677e-01,1.837052553892135620e-01,1.175329685211181641e-01,2.391938120126724243e-01,-5.782349500805139542e-03,-4.294346645474433899e-02,-1.562079191207885742e-01
1.529762595891952515e-01,5.095828697085380554e-02,8.439049124717712402e-02,1.940618157386779785e-01,1.071252599358558655e-01,4.775660485029220581e-02,-5.534550547599792480e-02,-4.856603592634201050e-02,2.821308560669422150e-02,-8.939321152865886688e-03,2.034018635749816895e-01,5.855212807655334473e-01,-5.624759942293167114e-02,-1.577481478452682495e-01,-3.462345106527209282e-03,-1.220390647649765015e-01,-1.963076144456863403e-01,1.314914226531982422e-01,1.461367309093475342e-01,2.214086055755615234e-01,-7.187752127647399902e-01,-1.317463517189025879e-01,-1.479796022176742554e-01,1.904764771461486816e-01,1.691850461065769196e-02,1.858225092291831970e-02,6.782175507396459579e-03,2.293498367071151733e-01,1.141850277781486511e-01,9.451518952846527100e-02,4.581787288188934326e-01,8.603861927986145020e-02,4.936936497688293457e-02,1.080653443932533264e-02,-3.572220727801322937e-02,-1.312456279993057251e-01,-2.523819208145141602e-01,-2.257983684539794922e-01,9.880847483873367310e-02,4.303923621773719788e-02
1.395225822925567627e-01,-2.679377049207687378e-02,-1.074797436594963074e-01,-2.835384011268615723e-01,1.404094398021697998e-01,8.314270526170730591e-02,1.571137160062789917e-01,-1.369921267032623291e-01,-2.530130092054605484e-03,1.361125260591506958e-01,-1.624462306499481201e-01,-5.740919709205627441e-01,8.442183583974838257e-02,6.452706456184387207e-02,7.947869598865509033e-02,7.707342505455017090e-03,9.778653830289840698e-02,-7.885242998600006104e-02,-1.813349127769470215e-01,3.794419020414352417e-02,8.245630860328674316e-01,4.682291299104690552e-02,-3.151657059788703918e-02,2.613417431712150574e-02,-2.279040776193141937e-02,2.135283052921295166e-01,5.902177467942237854e-02,5.234407261013984680e-02,6.511254608631134033e-02,-2.844348549842834473e-01,-3.583100438117980957e-01,5.982040613889694214e-02,1.069726869463920593e-01,2.215054780244827271e-01,1.380201280117034912e-01,1.344739496707916260e-01,2.647831439971923828e-01,1.411867886781692505e-01,-6.858814042061567307e-03,5.521080642938613892e-02
-1.245915293693542480e-01,5.707897245883941650e-03,2.252969658002257347e-03,-7.459329813718795776e-02,-6.370286643505096436e-02,-2.180358022451400757e-02,-5.842413008213043213e-02,1.407024823129177094e-02,-1.065353378653526306e-01,2.531564235687255859e-01,-5.771372094750404358e-02,-3.034196197986602783e-01,1.629817634820938110e-01,1.162147447466850281e-01,-1.344319880008697510e-01,6.411703675985336304e-02,1.135628819465637207e-01,-2.066979929804801941e-02,-1.161979436874389648e-01,1.204301342368125916e-01,1.234423518180847168e+00,1.885865256190299988e-02,2.238664776086807251e-02,1.413036370649933815e-03,-1.306778639554977417e-01,-4.857489839196205139e-03,-1.321522146463394165e-01,5.062881484627723694e-02,1.067756791599094868e-03,-2.372734844684600830e-01,-5.819724798202514648e-01,-1.601136475801467896e-01,8.636125177145004272e-02,4.693629965186119080e-02,1.772180385887622833e-02,1.759245544672012329e-01,2.189126312732696533e-01,2.290569543838500977e-01,-4.068443924188613892e-02,8.267684280872344971e-02
1.384997516870498657e-01,-9.568592905998229980e-02,-2.971885539591312408e-02,3.697754442691802979e-02,-2.218074649572372437e-01,-4.725132137537002563e-02,9.305638074874877930e-02,9.228331595659255981e-02,-1.003807336091995239e-01,-1.952110230922698975e-01,-2.209772467613220215e-01,2.422796785831451416e-01,-1.466571837663650513e-01,-7.365188747644424438e-02,-1.051610484719276428e-01,-7.999147474765777588e-02,-1.501594334840774536e-01,-9.165608882904052734e-02,1.276320666074752808e-01,2.904863841831684113e-02,-7.737480849027633667e-02,8.120296895503997803e-02,3.574937582015991211e-02,1.547971218824386597e-01,9.329030662775039673e-02,-3.083477495238184929e-03,6.616311520338058472e-02,-4.301260411739349365e-02,-3.472451493144035339e-02,1.385232210159301758e-01,5.919078588485717773e-01,-1.757001876831054688e-01,1.249693185091018677e-01,1.051683872938156128e-01,3.627753853797912598e-01,-2.134132981300354004e-01,-6.063355877995491028e-02,-7.805563807487487793e-01,1.254336833953857422e-01,-1.558906286954879761e-01
-1.325021833181381226e-01,3.760277479887008667e-02,-1.249882131814956665e-01,-2.051893770694732666e-01,1.543038189411163330e-01,-9.183059446513652802e-03,1.266229301691055298e-01,-3.012942522764205933e-02,1.686134487390518188e-01,2.438125312328338623e-01,-1.265528202056884766e-01,-4.289647936820983887e-01,1.295041143894195557e-01,-9.523277403786778450e-04,2.115179784595966339e-02,-3.737384453415870667e-02,1.582363911438733339e-04,-5.532480403780937195e-02,-9.153548628091812134e-02,-1.314108669757843018e-01,8.351594805717468262e-01,-1.585919223725795746e-02,8.228135854005813599e-02,-1.938957870006561279e-01,-1.698021590709686279e-01,9.867908060550689697e-02,-5.858548730611801147e-02,1.156014110893011093e-02,-3.768051043152809143e-02,-1.886439174413681030e-01,-2.351337224245071411e-01,-2.681442128960043192e-04,2.144887447357177734e-01,2.056273519992828369e-01,1.474713236093521118e-01,1.559508591890335083e-01,-4.461877048015594482e-03,1.801973730325698853e-01,1.017984300851821899e-01,-5.953811481595039368e-02
5.547353997826576233e-02,-1.813213713467121124e-02,4.783211648464202881e-02,2.378323078155517578e-01,6.280540674924850464e-02,-8.700004778802394867e-03,-7.083872705698013306e-02,-9.202627837657928467e-02,1.764039844274520874e-01,-2.169196680188179016e-02,5.062971636652946472e-02,4.105755090713500977e-01,-2.041513286530971527e-02,1.303893774747848511e-01,3.720882534980773926e-02,-1.065959930419921875e-01,-1.369661092758178711e-01,7.094891369342803955e-02,1.558268815279006958e-01,5.890179425477981567e-02,-6.951673030853271484e-01,-6.902574747800827026e-02,1.263537108898162842e-01,2.339618504047393799e-01,2.306516617536544800e-01,-2.233448624610900879e-01,1.564939469099044800e-01,6.096626818180084229e-02,4.332809150218963623e-02,2.983196675777435303e-01,4.739491343498229980e-01,1.124423146247863770e-01,-3.594693541526794434e-02,-2.223109602928161621e-01,-4.078891500830650330e-02,4.918020963668823242e-02,-7.272983342409133911e-02,2.124839276075363159e-02,9.396634995937347412e-02,-6.263498682528734207e-03
