2.166818268597126007e-02
-1.535064280033111572e-01
1.558157354593276978e-01
1.617707908153533936e-01
1.711608320474624634e-01
7.843831181526184082e-02
-1.103908717632293701e-01
1.133942157030105591e-01
-5.221562832593917847e-02
1.042334884405136108e-01
5.219819024205207825e-02
-1.155847087502479553e-01
8.673618733882904053e-02
-1.223856732249259949e-01
9.603055566549301147e-02
5.269192904233932495e-02
-6.531743332743644714e-03
-2.039014175534248352e-02
2.127705514430999756e-01
2.274576276540756226e-01
2.125694900751113892e-01
-4.643591493368148804e-02
1.014843583106994629e-01
2.336037606000900269e-01
-7.620301097631454468e-02
-1.542768329381942749e-01
-1.323476880788803101e-01
-6.536154448986053467e-02
-1.354463100433349609e-01
-1.523537635803222656e-01
-1.654383540153503418e-01
1.896771937608718872e-01
-6.751994043588638306e-02
3.732268512248992920e-02
5.400449410080909729e-02
5.114671774208545685e-03
-1.791973598301410675e-02
1.004420071840286255e-01
1.350857466459274292e-01
-6.952067464590072632e-02
