-4.710392653942108154e-01,-1.740533858537673950e-01,-6.665822118520736694e-02,1.715052127838134766e-01,7.077479958534240723e-01,1.904075592756271362e-02,-5.151906237006187439e-02,1.385133564472198486e-01,-8.957518637180328369e-02,1.364860236644744873e-01,-8.094815909862518311e-02,4.057137295603752136e-02,1.370916366577148438e-01,-8.641910739243030548e-03,1.559722870588302612e-01,4.663799330592155457e-02,8.351963013410568237e-02,-1.375197172164916992e-01,-1.278405785560607910e-01,-1.110489144921302795e-01,-1.613309681415557861e-01,1.373382210731506348e-01,-1.766598522663116455e-01,-8.764345943927764893e-02,-1.276876181364059448e-01
-4.989957213401794434e-01,-3.342045843601226807e-01,2.824687361717224121e-01,8.774536252021789551e-01,-1.412020683288574219e+00,3.897297978401184082e-01,8.239813148975372314e-02,-1.900467574596405029e-01,5.233538746833801270e-01,-5.006074309349060059e-01,3.001583814620971680e-01,4.566861987113952637e-01,-1.607998907566070557e-01,3.011059714481234550e-03,2.495112866163253784e-01,-3.019236586987972260e-02,-5.745842680335044861e-02,1.964762359857559204e-01,9.014379978179931641e-02,1.666646748781204224e-01,-1.959850788116455078e-01,-1.989946067333221436e-01,6.848652660846710205e-02,-2.160318009555339813e-02,1.622436046600341797e-01
-9.491898119449615479e-02,3.819919228553771973e-01,-6.262236833572387695e-01,3.262847959995269775e-01,4.798466563224792480e-01,3.821766674518585205e-01,-1.236474514007568359e-01,-7.078643143177032471e-02,-3.338338062167167664e-02,4.510550498962402344e-01,-8.270021528005599976e-02,-1.848533600568771362e-01,5.949633121490478516e-01,-1.978239975869655609e-02,-1.214217953383922577e-02,-3.533149063587188721e-01,-1.691375225782394409e-01,-1.123399496078491211e+00,-5.590094253420829773e-02,1.209504827857017517e-01,8.827617019414901733e-02,3.963058590888977051e-01,1.680874377489089966e-01,8.291459642350673676e-03,1.338475048542022705e-01
7.562120258808135986e-02,2.631155587732791901e-02,-2.120292373001575470e-02,-5.831387042999267578e-01,1.053779840469360352e+00,-2.277642935514450073e-01,5.647394806146621704e-02,1.961586922407150269e-01,-1.434371322393417358e-01,1.579673737287521362e-01,-5.352722480893135071e-02,1.545979827642440796e-01,3.129462003707885742e-01,3.487768396735191345e-02,9.215888381004333496e-02,2.348258942365646362e-01,-2.784692868590354919e-02,-1.583090871572494507e-01,2.915442883968353271e-01,-3.105807304382324219e-02,5.166576057672500610e-02,2.744224965572357178e-01,-1.769325882196426392e-01,-1.103688478469848633e-01,6.901021301746368408e-02
-3.718178346753120422e-02,-1.733322255313396454e-02,1.857820302248001099e-01,1.281035244464874268e-01,-9.046333283185958862e-02,-9.360428154468536377e-02,1.100419536232948303e-01,-1.231745481491088867e-01,-1.250095218420028687e-01,3.512518480420112610e-02,-1.720825433731079102e-01,1.838207244873046875e-04,-1.850328743457794189e-01,-4.367385059595108032e-02,7.642891258001327515e-02,-1.967682391405105591e-01,-8.258157223463058472e-02,3.222560975700616837e-03,-8.548128604888916016e-02,1.063385531306266785e-01,2.629227750003337860e-02,-1.637198030948638916e-01,7.636208832263946533e-02,1.135782971978187561e-01,1.182079358841292560e-04
-1.735523045063018799e-01,-1.305547207593917847e-01,1.867275871336460114e-02,1.700837723910808563e-02,5.505666509270668030e-02,7.100451737642288208e-02,5.113382264971733093e-02,1.547571122646331787e-01,-5.286293849349021912e-02,1.128683090209960938e-01,-2.247968874871730804e-02,-7.462476193904876709e-02,-2.619192190468311310e-02,-1.970676630735397339e-01,-1.479297131299972534e-01,-4.807597398757934570e-02,-1.651520840823650360e-02,-2.145181037485599518e-02,-1.222604960203170776e-01,1.598159372806549072e-01,8.445449173450469971e-02,1.562763303518295288e-01,-7.432191818952560425e-02,6.174402311444282532e-02,1.828573793172836304e-01
2.304175049066543579e-01,3.147713840007781982e-01,-2.245205081999301910e-02,-1.085513472557067871e+00,9.301350712776184082e-01,5.322821810841560364e-02,-3.946077823638916016e-02,1.739379465579986572e-01,-1.983399689197540283e-01,5.012502074241638184e-01,-3.939353302121162415e-02,-1.437575370073318481e-01,2.161093950271606445e-01,-7.451050728559494019e-02,4.064261317253112793e-01,2.482306212186813354e-01,-1.264769881963729858e-01,-2.260796129703521729e-01,-1.749265193939208984e-02,1.736889332532882690e-01,1.849410086870193481e-01,4.523627161979675293e-01,1.882910728454589844e-02,-1.006626114249229431e-01,-5.247948318719863892e-02
7.940932363271713257e-02,-5.971517786383628845e-02,-2.729063630104064941e-01,-4.392530620098114014e-01,1.024700641632080078e+00,-2.450923621654510498e-01,-1.115512400865554810e-01,1.574137806892395020e-01,-5.617262050509452820e-02,8.153308928012847900e-02,1.471830010414123535e-01,-2.230398952960968018e-01,7.385540008544921875e-02,9.347631782293319702e-02,3.728779852390289307e-01,6.824748963117599487e-02,1.706439703702926636e-01,-4.687978327274322510e-02,2.236758917570114136e-01,-1.685114949941635132e-01,1.179794073104858398e-01,4.478639066219329834e-01,1.231359168887138367e-01,-1.175477281212806702e-01,9.212820976972579956e-02
6.454874575138092041e-02,8.415066637098789215e-03,-3.295231610536575317e-02,-5.854487419128417969e-01,1.139521598815917969e+00,-3.965508341789245605e-01,1.327262669801712036e-01,1.235033422708511353e-01,-2.194729000329971313e-01,-4.188334569334983826e-02,2.485134005546569824e-01,-2.114394009113311768e-01,1.050154194235801697e-01,-1.465557813644409180e-01,2.008684575557708740e-01,2.667211592197418213e-01,2.709589153528213501e-02,1.982347518205642700e-01,1.815849542617797852e-01,1.612981408834457397e-01,-4.131589084863662720e-02,2.593618333339691162e-01,9.700726368464529514e-04,5.072290822863578796e-02,-3.849449381232261658e-02
2.490446204319596291e-03,1.673852950334548950e-01,7.934840023517608643e-02,8.024879544973373413e-02,1.196021437644958496e-01,-4.687248170375823975e-02,2.167227305471897125e-02,-1.137452274560928345e-01,-5.528186261653900146e-02,-5.789043009281158447e-02,-4.370042309165000916e-02,1.445522182621061802e-03,-7.314375042915344238e-02,1.329509466886520386e-01,-1.875148564577102661e-01,9.652975946664810181e-03,-1.799257695674896240e-01,7.487092912197113037e-02,-8.378685265779495239e-02,-5.172190815210342407e-02,-7.518816273659467697e-03,1.188947036862373352e-01,-1.682919114828109741e-01,8.315999805927276611e-02,-5.376629903912544250e-02
-8.803818225860595703e-01,4.305466711521148682e-01,-2.683578431606292725e-01,-1.192101955413818359e+00,9.766800403594970703e-01,-1.565601229667663574e-01,-8.819025009870529175e-02,-1.742629706859588623e-01,-2.236056923866271973e-01,9.235630035400390625e-01,-5.196738988161087036e-02,-5.845107510685920715e-02,8.506912589073181152e-01,-1.422635614871978760e-01,4.170385897159576416e-01,6.661779433488845825e-02,9.477894753217697144e-02,-8.001600503921508789e-01,1.520956903696060181e-01,-6.869252026081085205e-02,-6.620883941650390625e-04,2.621954679489135742e-01,-6.134397909045219421e-02,4.256243631243705750e-02,-1.947450637817382812e-01
-2.774454653263092041e-01,-7.571712136268615723e-02,3.224073350429534912e-01,3.844459354877471924e-01,-1.263528227806091309e+00,2.144416421651840210e-01,-8.546860516071319580e-02,-5.427372828125953674e-02,2.215190231800079346e-01,-1.001049652695655823e-01,8.658367395401000977e-02,3.033254742622375488e-01,-3.302966058254241943e-01,-1.805982589721679688e-01,-7.825002074241638184e-02,1.383311599493026733e-01,8.513873070478439331e-02,1.929097026586532593e-01,2.397845499217510223e-02,-1.655774116516113281e-01,-1.257719248533248901e-01,-1.044867187738418579e-01,-1.244292631745338440e-01,5.222582723945379257e-03,9.387572109699249268e-02
-4.192445874214172363e-01,-1.734416931867599487e-01,1.918136775493621826e-01,4.236791133880615234e-01,-1.444276809692382812e+00,5.346342921257019043e-01,-6.654701381921768188e-02,-1.240194775164127350e-02,2.582729756832122803e-01,-9.652410447597503662e-02,4.447755217552185059e-02,3.031394481658935547e-01,-2.550814151763916016e-01,4.948034510016441345e-02,4.765970632433891296e-02,-1.846383064985275269e-01,-1.601207554340362549e-01,2.032634764909744263e-01,2.335527390241622925e-01,1.251457035541534424e-01,1.268119066953659058e-01,-4.262751340866088867e-01,-1.134820841252803802e-02,-6.936340779066085815e-02,-1.997624635696411133e-01
3.284660875797271729e-01,7.142867892980575562e-02,-2.336641550064086914e-01,-6.434651017189025879e-01,1.160829424858093262e+00,-3.187505900859832764e-01,4.952030256390571594e-02,8.413017541170120239e-02,-1.407165974378585815e-01,9.310481697320938110e-02,2.881682515144348145e-01,-2.460390701889991760e-02,2.778312005102634430e-02,7.043304294347763062e-02,1.408866047859191895e-01,2.957728505134582520e-01,8.242525905370712280e-02,-1.861173063516616821e-01,3.069856464862823486e-01,-8.772487938404083252e-02,1.743100732564926147e-01,8.549700677394866943e-02,-1.789820343255996704e-01,-1.061630249023437500e-02,1.934478282928466797e-01
2.029545009136199951e-01,-1.034921035170555115e-01,5.138690397143363953e-02,-1.458921879529953003e-01,1.049371957778930664e+00,-1.025421172380447388e-01,-2.353055588901042938e-02,-1.707999855279922485e-01,-2.218943983316421509e-01,1.056606136262416840e-02,5.710676196031272411e-04,-6.726504862308502197e-02,1.205377355217933655e-01,1.537944078445434570e-01,2.288737744092941284e-01,1.357345879077911377e-01,2.141072787344455719e-02,2.845720015466213226e-02,-1.635744422674179077e-02,6.238243728876113892e-02,-1.474960297346115112e-01,1.906773447990417480e-01,-8.189066499471664429e-02,-2.368085458874702454e-02,-1.800626069307327271e-01
-1.129669174551963806e-01,-1.582869142293930054e-01,-1.631953865289688110e-01,-1.267389804124832153e-01,-1.394985467195510864e-01,1.452700197696685791e-01,-1.412546485662460327e-01,-1.644459217786788940e-01,-1.743613630533218384e-01,1.699303239583969116e-01,-1.792753674089908600e-02,1.329703778028488159e-01,-1.449141800403594971e-01,-1.108944937586784363e-01,-1.936232447624206543e-01,-1.644644737243652344e-01,-1.226431354880332947e-01,1.477106362581253052e-01,-8.310218900442123413e-02,1.365077048540115356e-01,-1.406738758087158203e-01,-1.001858264207839966e-01,-1.811926215887069702e-01,3.739278391003608704e-02,1.208100374788045883e-02
2.243236303329467773e-01,1.658256351947784424e-02,-1.531586199998855591e-01,-3.087176680564880371e-01,8.402397632598876953e-01,-1.484299749135971069e-01,-1.308097876608371735e-02,3.344993591308593750e-01,8.243317902088165283e-02,3.267263174057006836e-01,1.688496954739093781e-02,-1.510792076587677002e-01,3.750129938125610352e-01,-9.041271358728408813e-02,1.970631182193756104e-01,2.453223317861557007e-01,-5.150452256202697754e-02,-2.240209579467773438e-01,1.371600925922393799e-01,-1.115003824234008789e-01,1.118584424257278442e-01,3.919176459312438965e-01,-1.763684302568435669e-01,9.035887569189071655e-02,-8.662321418523788452e-02
2.106939554214477539e-01,6.443540006875991821e-02,3.089367970824241638e-02,-4.088281393051147461e-01,9.985882639884948730e-01,-3.016265034675598145e-01,7.166077941656112671e-02,3.231084644794464111e-01,-1.483169645071029663e-01,2.982816994190216064e-01,4.187968745827674866e-02,-1.951292008161544800e-01,1.788930296897888184e-01,8.511400781571865082e-03,1.853681206703186035e-01,2.955264747142791748e-01,-1.400808151811361313e-02,1.931267678737640381e-01,3.014436662197113037e-01,-1.175655648112297058e-01,7.564168423414230347e-02,1.011017784476280212e-01,2.816558815538883209e-02,4.480364546179771423e-02,8.570261299610137939e-02
5.724000558257102966e-02,-1.767629534006118774e-01,3.629310056567192078e-02,-1.767251193523406982e-01,5.449070930480957031e-01,-3.247401118278503418e-02,-1.304148733615875244e-01,-9.934212267398834229e-02,-4.276115074753761292e-02,4.525921493768692017e-02,-4.614919051527976990e-02,3.782215341925621033e-02,1.116254702210426331e-01,-1.452936232089996338e-01,-5.037349089980125427e-02,7.401007413864135742e-02,-1.757741719484329224e-01,-2.155055254697799683e-01,1.600037701427936554e-02,-1.875845044851303101e-01,-1.898282766342163086e-01,9.731510281562805176e-02,-4.182676970958709717e-02,1.603301316499710083e-01,-8.998253196477890015e-02
2.861036956310272217e-01,-2.690269239246845245e-02,-1.147982031106948853e-01,-6.441133618354797363e-01,1.016118168830871582e+00,-7.707839459180831909e-02,-1.932995766401290894e-01,2.561717331409454346e-01,-3.549260646104812622e-02,2.735647559165954590e-01,-2.479558065533638000e-02,-1.457946598529815674e-01,2.046743780374526978e-02,-1.944141685962677002e-01,1.934412568807601929e-01,2.092876434326171875e-01,-1.799190044403076172e-01,-8.470375090837478638e-02,1.382467448711395264e-01,1.434363573789596558e-01,-9.811103343963623047e-02,2.935985326766967773e-01,-1.546460241079330444e-01,4.102659411728382111e-03,-6.827681511640548706e-02
-1.297869682312011719e-01,1.691605895757675171e-01,1.359033882617950439e-01,-1.421595066785812378e-01,-1.890277713537216187e-01,-3.934616968035697937e-02,2.409858815371990204e-02,-1.526237279176712036e-01,6.569331139326095581e-02,1.085443273186683655e-01,-4.734823852777481079e-02,1.720943003892898560e-01,-1.061229482293128967e-01,1.588718444108963013e-01,-6.363444775342941284e-02,-1.938043385744094849e-01,-1.753569096326828003e-01,-1.109381243586540222e-01,-7.931721210479736328e-02,4.617967829108238220e-02,-7.602248340845108032e-02,-1.342737972736358643e-01,-6.080589443445205688e-02,-1.533359736204147339e-01,-1.280083209276199341e-01
3.677757382392883301e-01,3.671862781047821045e-01,-2.859800457954406738e-01,-1.090340495109558105e+00,1.003866553306579590e+00,-2.256569266319274902e-02,-2.818074263632297516e-02,1.441224366426467896e-01,-3.200334012508392334e-01,5.973465442657470703e-01,2.192930579185485840e-01,2.505673281848430634e-02,3.895241022109985352e-01,-1.222462654113769531e-01,4.144645631313323975e-01,1.103636473417282104e-01,5.213547032326459885e-03,-2.747449576854705811e-01,1.150086801499128342e-02,4.594421479851007462e-03,6.920821964740753174e-02,2.678702771663665771e-01,-1.667201370000839233e-01,-1.352724134922027588e-01,1.962321549654006958e-01
-3.094642758369445801e-01,-2.355134636163711548e-01,3.492067754268646240e-01,1.296875715255737305e+00,-1.601664662361145020e+00,2.174491733312606812e-01,1.774690002202987671e-01,-5.668584257364273071e-02,4.434336721897125244e-01,-1.154705405235290527e+00,1.425857990980148315e-01,4.186850190162658691e-01,-2.486958652734756470e-01,5.628919601440429688e-02,1.238291114568710327e-01,-1.154039520770311356e-02,2.262635342776775360e-02,2.833761274814605713e-01,-3.940743859857320786e-03,-8.725273609161376953e-02,1.641656011343002319e-01,-3.670690059661865234e-01,-6.814463436603546143e-02,1.963916122913360596e-01,6.120312213897705078e-02
3.557946383953094482e-01,2.538542449474334717e-01,-5.336255580186843872e-02,-7.145190238952636719e-01,8.063042759895324707e-01,-3.004156947135925293e-01,-2.645008638501167297e-02,2.769722342491149902e-01,-2.197757810354232788e-01,2.979544401168823242e-01,3.536060452461242676e-01,-1.940702050924301147e-01,2.176784425973892212e-01,-1.633994430303573608e-01,1.985511034727096558e-01,6.326318718492984772e-03,-1.887172758579254150e-01,-2.940901741385459900e-02,3.328668475151062012e-01,-6.620726734399795532e-02,4.298970848321914673e-02,3.167369663715362549e-01,1.030945330858230591e-01,1.373990625143051147e-01,1.488733142614364624e-01
3.256954252719879150e-01,2.628859281539916992e-01,-2.373344600200653076e-01,-4.171891510486602783e-01,9.766419529914855957e-01,-9.030865132808685303e-02,-1.020355448126792908e-01,2.553536891937255859e-01,-1.631635427474975586e-01,8.726980537176132202e-02,1.834214329719543457e-01,-2.787815220654010773e-02,1.386847645044326782e-01,-1.253833621740341187e-01,-2.452109241858124733e-03,-3.991915285587310791e-02,-9.251177310943603516e-02,-9.275901317596435547e-02,2.624254822731018066e-01,-1.733308881521224976e-01,8.990359306335449219e-02,3.085318207740783691e-01,1.298753619194030762e-01,1.327350884675979614e-01,9.124226868152618408e-02
