-3.710570633411407471e-01
-1.511375308036804199e-01
7.809344530105590820e-01
-1.456983089447021484e-01
-3.241774141788482666e-01
7.190154790878295898e-01
-6.410873532295227051e-01
-8.159016966819763184e-01
3.696785867214202881e-01
-2.407636046409606934e-01
-6.932423263788223267e-02
-2.518033981323242188e-01
-4.712644815444946289e-01
4.033829569816589355e-01
-5.214976668357849121e-01
7.894925475120544434e-01
7.084544748067855835e-02
4.244564771652221680e-01
-5.997994542121887207e-01
-1.117203235626220703e-01
-4.421861767768859863e-01
-1.213780343532562256e-01
-6.222248822450637817e-02
4.969995319843292236e-01
-2.187525928020477295e-01
-2.648433446884155273e-01
-5.920003652572631836e-01
-1.697600781917572021e-01
4.860992431640625000e-01
-5.976373553276062012e-01
3.889724239706993103e-02
1.554379016160964966e-01
6.214921474456787109e-01
-6.544085741043090820e-01
-6.338275671005249023e-01
-2.501816749572753906e-01
-8.267370611429214478e-02
4.959201514720916748e-01
1.500340998172760010e-01
8.175144195556640625e-01
