-1.391295623034238815e-02,-2.909156261011958122e-03,1.700466126203536987e-02,7.965676486492156982e-02,3.248993307352066040e-02,9.898827224969863892e-02,-1.463251113891601562e-01,-2.935278601944446564e-02,-1.249118447303771973e-01,-1.104996278882026672e-01,-3.061336278915405273e-02,-6.913256645202636719e-02,-4.103500396013259888e-03,-9.209543466567993164e-02,9.449055045843124390e-02,1.029156893491744995e-01,-1.398757100105285645e-01,-1.262347400188446045e-01,1.106700748205184937e-01,-1.058527380228042603e-01,-1.210746169090270996e-01,9.400214068591594696e-03,1.148268431425094604e-01,-4.258602112531661987e-02,1.359993368387222290e-01,9.930105879902839661e-03,1.624187640845775604e-02,-9.105443954467773438e-02,-6.832316517829895020e-02,-4.844843968749046326e-02,5.133901163935661316e-02,1.312979906797409058e-01,-7.326836884021759033e-02,-1.238121613860130310e-01,8.958413451910018921e-02,2.936554513871669769e-02,-8.144310116767883301e-02,8.038801699876785278e-02,-1.354410778731107712e-02,-1.558244675397872925e-01
-8.157304674386978149e-02,1.150072645395994186e-02,-1.047305837273597717e-01,-1.529776901006698608e-01,-7.008962333202362061e-02,-1.431475281715393066e-01,-6.425197422504425049e-02,8.499059081077575684e-02,1.482803523540496826e-01,-1.445760875940322876e-01,-1.691154949367046356e-02,-9.551723301410675049e-02,-1.131095439195632935e-01,-3.356752917170524597e-02,4.937283322215080261e-02,-1.486827731132507324e-01,-1.063709259033203125e-01,-2.795491367578506470e-02,9.946376085281372070e-02,8.385805040597915649e-02,7.959071546792984009e-02,-6.120757665485143661e-03,2.051348797976970673e-02,6.568951904773712158e-02,5.044145882129669189e-02,3.474677726626396179e-02,1.358810067176818848e-02,-3.443905338644981384e-02,-1.524946987628936768e-01,6.317991763353347778e-02,-1.092863152734935284e-03,1.499762088060379028e-01,-1.159016266465187073e-01,-1.554963886737823486e-01,1.505028158426284790e-01,-1.403131037950515747e-01,-1.691215299069881439e-02,1.346561014652252197e-01,1.521341055631637573e-01,1.154757067561149597e-01
2.878101076930761337e-03,-1.749690026044845581e-01,4.907112568616867065e-02,-2.144395411014556885e-01,-1.232937201857566833e-01,-7.898356020450592041e-02,-1.239861920475959778e-02,8.564393222332000732e-02,-1.244227588176727295e-01,6.148481369018554688e-01,1.460868716239929199e-01,-1.089150831103324890e-01,-3.226297721266746521e-02,4.079198464751243591e-03,1.793479621410369873e-01,1.161795482039451599e-01,-4.302741959691047668e-02,3.197049796581268311e-01,-3.005795478820800781e-01,2.657132744789123535e-01,6.829048041254281998e-03,-9.633466601371765137e-03,-8.548115938901901245e-02,1.350382566452026367e-01,-1.526034623384475708e-01,-1.206424757838249207e-01,-1.406444758176803589e-01,5.844217911362648010e-02,1.664415150880813599e-01,1.067423969507217407e-01,6.236528605222702026e-02,1.339750289916992188e-01,2.876482903957366943e-03,-6.009445711970329285e-02,-4.077415168285369873e-02,4.009266570210456848e-02,3.751064091920852661e-02,7.542181760072708130e-02,-8.491446264088153839e-03,-1.060800720006227493e-02
7.117941975593566895e-02,-2.082753181457519531e-01,-9.501799196004867554e-02,3.916345164179801941e-02,-4.752255231142044067e-02,9.291733056306838989e-02,-5.113957449793815613e-03,2.707335054874420166e-01,-6.118541210889816284e-02,7.190070152282714844e-01,-6.615927815437316895e-02,1.089916750788688660e-01,1.256916522979736328e-01,-2.445559501647949219e-01,2.662850022315979004e-01,-7.349622994661331177e-02,-5.238386616110801697e-02,3.826347291469573975e-01,-1.084146648645401001e-01,3.263657093048095703e-01,4.206299036741256714e-02,-1.527405437082052231e-02,-2.378983795642852783e-02,7.324171811342239380e-02,-7.531184703111648560e-02,1.427921354770660400e-01,-6.935578584671020508e-02,6.692355871200561523e-02,6.980519741773605347e-02,-6.009168177843093872e-02,8.491994440555572510e-02,4.407981410622596741e-03,-1.417561918497085571e-01,-2.341349273920059204e-01,-8.657077699899673462e-02,1.912646442651748657e-01,-2.108076959848403931e-02,-1.563225872814655304e-02,1.326873451471328735e-01,-1.356805860996246338e-01
-6.696378439664840698e-02,-1.480278670787811279e-01,-1.453521400690078735e-01,1.063485294580459595e-01,1.401275992393493652e-01,2.688877657055854797e-02,-7.525867316871881485e-03,-7.400865107774734497e-02,-4.951285943388938904e-02,-3.967432305216789246e-03,-9.912785887718200684e-02,7.657773792743682861e-02,-7.129631191492080688e-02,-6.617061048746109009e-02,-1.007715985178947449e-01,4.750448092818260193e-02,1.068653464317321777e-01,2.300980128347873688e-02,-1.387324035167694092e-01,-4.848097264766693115e-02,-7.665630429983139038e-03,4.339692648500204086e-03,-1.149968896061182022e-02,2.870780415832996368e-03,-4.546456784009933472e-02,-1.688403077423572540e-02,6.862928718328475952e-02,-6.702227145433425903e-02,7.773265242576599121e-02,-5.145340412855148315e-02,-4.424801841378211975e-02,-1.531914323568344116e-01,-1.384938806295394897e-01,5.243089515715837479e-03,1.578369587659835815e-01,6.352969259023666382e-02,3.412439301609992981e-02,7.866594195365905762e-02,-1.267345398664474487e-01,-9.714251756668090820e-02
6.321881711483001709e-02,-1.184604782611131668e-02,8.581745624542236328e-02,3.671549633145332336e-02,-1.797180920839309692e-01,-1.104019582271575928e-02,7.245940715074539185e-02,1.093281432986259460e-01,-1.421148143708705902e-02,5.473768711090087891e-02,8.197586983442306519e-02,5.278107523918151855e-02,1.539165675640106201e-01,8.816417306661605835e-02,-3.103815577924251556e-02,1.989055797457695007e-02,-4.897556267678737640e-03,-2.710688114166259766e-02,4.282400384545326233e-02,-1.660383641719818115e-01,5.767119303345680237e-02,1.441862285137176514e-01,-6.092330068349838257e-02,6.820420920848846436e-02,8.461297303438186646e-02,3.128618374466896057e-02,-1.585502475500106812e-01,-7.056456804275512695e-02,-1.531210988759994507e-01,7.753630727529525757e-02,-2.937668375670909882e-02,6.404376775026321411e-02,-1.324456781148910522e-01,-1.508294939994812012e-01,1.252907216548919678e-01,-1.823725402355194092e-01,8.749566972255706787e-02,5.430725961923599243e-02,8.029955439269542694e-03,4.213105887174606323e-03
-1.007225811481475830e-01,1.890119910240173340e-01,-7.573524117469787598e-02,-3.116814792156219482e-01,-1.890419051051139832e-02,1.087065190076828003e-01,-1.682105660438537598e-02,3.893881291151046753e-02,-3.629820793867111206e-02,-2.929503917694091797e-01,2.444450557231903076e-01,8.655413240194320679e-02,-1.300597935914993286e-01,-2.248108536005020142e-01,5.241425335407257080e-02,2.150091156363487244e-02,-2.721753530204296112e-02,-4.330362379550933838e-02,-2.525592148303985596e-01,4.758141934871673584e-02,5.929227918386459351e-02,-1.499762684106826782e-01,-1.062946021556854248e-02,5.351046845316886902e-02,1.481480896472930908e-01,-1.122375875711441040e-01,1.368823349475860596e-01,1.265507191419601440e-01,-1.470656320452690125e-02,-1.568561419844627380e-02,2.464869320392608643e-01,9.144157171249389648e-02,-1.039215773344039917e-01,-1.854120790958404541e-01,-8.330260217189788818e-02,-9.247439503669738770e-01,1.492059603333473206e-02,6.457603722810745239e-02,-8.623801171779632568e-03,2.093132026493549347e-02
-3.198090493679046631e-01,1.467600315809249878e-01,5.016159266233444214e-02,-2.233720272779464722e-01,1.564873158931732178e-01,9.634847193956375122e-02,-1.156050041317939758e-01,-2.011440992355346680e-01,4.061995819211006165e-02,-3.503200411796569824e-01,9.271889925003051758e-02,1.918105930089950562e-01,-1.163314878940582275e-01,-7.169064134359359741e-02,9.243417531251907349e-02,-5.888891220092773438e-02,1.445610076189041138e-01,1.209338381886482239e-01,-2.942148745059967041e-01,-1.170868426561355591e-02,3.985221683979034424e-02,4.780421406030654907e-02,5.050158500671386719e-02,-1.542192995548248291e-01,7.922922074794769287e-02,7.450601458549499512e-02,6.787805259227752686e-02,-9.523320198059082031e-02,-6.636690348386764526e-02,7.552813738584518433e-02,2.469846755266189575e-01,-3.468025848269462585e-02,-8.183401077985763550e-02,-5.076357722282409668e-02,-3.415962681174278259e-02,-7.064658999443054199e-01,3.062953474000096321e-03,-2.245252020657062531e-02,1.469125151634216309e-01,1.445033550262451172e-01
-8.175221085548400879e-02,7.886445149779319763e-03,-5.118064582347869873e-02,-4.742825776338577271e-02,-4.563449695706367493e-02,1.232607439160346985e-01,-1.497147721238434315e-03,3.954376876354217529e-01,3.620126843452453613e-02,7.108373045921325684e-01,-8.626910857856273651e-03,-2.045825682580471039e-02,7.632852345705032349e-02,1.979676820337772369e-02,1.481272131204605103e-01,5.398226901888847351e-02,8.281800150871276855e-02,4.051802456378936768e-01,-1.545548141002655029e-01,1.259916722774505615e-01,1.196558848023414612e-01,1.410334706306457520e-01,-1.621264070272445679e-01,-4.802523180842399597e-02,-4.958254471421241760e-02,3.800448402762413025e-02,8.616912364959716797e-02,-4.301727935671806335e-02,-1.023929473012685776e-02,4.358515143394470215e-02,1.225180625915527344e-01,-5.258373916149139404e-02,7.651148736476898193e-02,-8.480753004550933838e-02,-7.652726769447326660e-02,1.537353824824094772e-02,-4.876034334301948547e-02,-9.632512927055358887e-02,-1.384973675012588501e-01,-5.511847883462905884e-02
-2.003020346164703369e-01,2.902442812919616699e-01,-7.796326652169227600e-03,-2.864772975444793701e-01,2.531948387622833252e-01,2.417613118886947632e-01,-1.190103739500045776e-01,6.070058047771453857e-02,7.206115126609802246e-02,-2.083964496850967407e-01,4.592794924974441528e-02,9.173442423343658447e-02,-7.689483463764190674e-02,-2.749910354614257812e-01,1.886404901742935181e-01,1.441094130277633667e-01,6.024149060249328613e-02,2.032792009413242340e-02,-1.761765480041503906e-01,-4.050834849476814270e-02,1.523581594228744507e-01,-1.088058501482009888e-01,1.399814933538436890e-01,6.477127224206924438e-02,-4.657480865716934204e-03,3.185309469699859619e-02,-2.574496529996395111e-02,-4.856824129819869995e-02,1.429232954978942871e-01,-8.457725867629051208e-03,2.268116921186447144e-01,1.427019536495208740e-01,4.644550755620002747e-02,-5.140012502670288086e-02,-8.499671518802642822e-02,-7.211517095565795898e-01,9.648249298334121704e-02,-1.114126369357109070e-01,1.196779385209083557e-01,5.607409775257110596e-02
-2.630667760968208313e-03,2.197137922048568726e-01,1.487889289855957031e-01,2.474862486124038696e-01,3.934001922607421875e-01,5.258599296212196350e-02,1.506536267697811127e-02,-1.073209196329116821e-01,-7.942300289869308472e-02,-2.496659904718399048e-01,1.474732607603073120e-01,9.450453519821166992e-02,1.389728635549545288e-01,1.013679951429367065e-01,9.030412882566452026e-02,4.997406899929046631e-02,5.236520618200302124e-02,8.792030066251754761e-02,-5.657107755541801453e-02,2.000502347946166992e-01,1.337615400552749634e-01,-1.968531683087348938e-02,-3.818299388512969017e-03,-8.482735604047775269e-02,9.705877304077148438e-02,-1.397949457168579102e-01,2.213772982358932495e-01,-9.215079247951507568e-02,6.108032166957855225e-02,-4.787103272974491119e-03,-4.898706451058387756e-02,4.935066774487495422e-02,1.505444198846817017e-01,7.330638170242309570e-02,-3.811695799231529236e-02,-1.160111784934997559e+00,-1.039707213640213013e-01,1.053856685757637024e-01,1.490243524312973022e-02,1.695592105388641357e-01
2.966581657528877258e-02,-7.277356833219528198e-02,1.558601856231689453e-01,-4.545749688986688852e-04,-4.372138902544975281e-02,-1.067533642053604126e-01,1.568831354379653931e-01,2.692258358001708984e-02,1.041316837072372437e-01,9.467178583145141602e-02,-1.547295749187469482e-01,1.490246206521987915e-01,-1.235679374076426029e-03,-1.204568296670913696e-01,-6.674295756965875626e-03,8.355814963579177856e-02,1.438218802213668823e-01,1.357998996973037720e-01,7.634834945201873779e-02,-1.502827852964401245e-01,-5.036091059446334839e-02,3.973840735852718353e-03,-8.568962663412094116e-02,-7.350657880306243896e-02,8.052890747785568237e-02,1.584758050739765167e-02,4.464482143521308899e-02,1.045776680111885071e-01,2.817849814891815186e-02,5.300771817564964294e-02,-8.278176188468933105e-02,1.358299553394317627e-01,-1.443899273872375488e-01,-8.923673629760742188e-02,6.447928398847579956e-02,8.548430167138576508e-03,1.252657920122146606e-01,8.233024924993515015e-02,-3.913572058081626892e-02,-1.520602963864803314e-02
1.599322408437728882e-01,6.026013940572738647e-02,-5.702747404575347900e-02,-2.877508997917175293e-01,-2.287427663803100586e+00,-5.837707519531250000e-01,-9.696400165557861328e-02,3.099675178527832031e-01,-3.394425660371780396e-02,6.099015474319458008e-01,-8.530289679765701294e-02,6.937190890312194824e-03,-5.833001062273979187e-02,1.128694042563438416e-01,3.315200805664062500e-01,1.719554141163825989e-02,-1.447008457034826279e-02,2.576246857643127441e-01,3.133085370063781738e-02,-2.434448301792144775e-01,1.970409601926803589e-01,-6.014443933963775635e-02,1.124509721994400024e-01,-1.234956532716751099e-01,-1.260821968317031860e-01,4.733197763562202454e-02,-2.144503593444824219e+00,7.006675750017166138e-02,-1.691545359790325165e-02,-9.093675017356872559e-02,2.137367427349090576e-02,9.734155982732772827e-02,-2.731669902801513672e+00,1.077699586749076843e-01,2.485897392034530640e-02,2.105452120304107666e-02,-7.756706327199935913e-02,-7.101163268089294434e-02,-1.407473087310791016e-01,-2.009482860565185547e+00
-2.003818750381469727e-02,-5.282613262534141541e-02,-1.325594782829284668e-01,3.503878787159919739e-02,7.928852736949920654e-02,6.186924502253532410e-02,1.254044771194458008e-01,-9.007847309112548828e-02,-3.085651062428951263e-02,-1.025399938225746155e-01,6.689563393592834473e-02,-6.043346971273422241e-02,2.555397339165210724e-02,-1.483741551637649536e-01,5.385586246848106384e-02,-7.968674600124359131e-02,6.972263753414154053e-02,-4.972818121314048767e-02,-5.316105857491493225e-02,-8.285606652498245239e-02,-7.182041555643081665e-02,-5.213284119963645935e-02,7.016920298337936401e-02,-1.203411072492599487e-01,2.353671565651893616e-02,1.079034134745597839e-01,1.612629182636737823e-02,-9.260132908821105957e-02,4.245941713452339172e-02,-3.527436777949333191e-02,4.409581422805786133e-02,3.003861196339130402e-02,-2.582448720932006836e-02,1.621623039245605469e-01,-2.313775941729545593e-02,-9.792124480009078979e-02,-8.188569545745849609e-02,-9.569165855646133423e-02,-1.529028713703155518e-01,-3.894523158669471741e-02
-1.715910583734512329e-01,8.765473030507564545e-03,-1.085925027728080750e-01,-1.894943714141845703e-01,-2.694759368896484375e-01,1.585775762796401978e-01,-1.279989182949066162e-01,3.409225344657897949e-01,3.305275365710258484e-02,5.072655081748962402e-01,3.115848824381828308e-02,1.457126289606094360e-01,1.898731291294097900e-02,-3.745593503117561340e-02,3.146967589855194092e-01,2.154807001352310181e-02,4.679322615265846252e-02,3.414281308650970459e-01,-2.269794940948486328e-01,2.166025191545486450e-01,2.261073142290115356e-01,1.531799882650375366e-01,9.412895143032073975e-02,-8.345676213502883911e-02,9.551787376403808594e-02,8.391012996435165405e-02,2.135073393583297729e-02,-2.865012735128402710e-02,1.018280982971191406e-01,-9.931165724992752075e-02,-2.142771519720554352e-02,-1.426430344581604004e-01,6.979500502347946167e-02,-8.475729078054428101e-02,4.746125265955924988e-02,9.518294781446456909e-02,-3.051650337874889374e-02,-9.642094373703002930e-02,-5.863601714372634888e-02,-9.798391722142696381e-03
-3.270372748374938965e-01,6.519474834203720093e-02,5.411922559142112732e-02,-3.688792586326599121e-01,2.152009457349777222e-01,2.678797543048858643e-01,1.201542615890502930e-01,-3.764924407005310059e-02,-3.432741388678550720e-02,-4.102266132831573486e-01,1.851837933063507080e-01,1.110052168369293213e-01,1.559703946113586426e-01,-2.848270535469055176e-01,1.665770411491394043e-01,7.434064894914627075e-02,1.221798285841941833e-01,-1.085594110190868378e-02,-1.806755214929580688e-01,6.103669479489326477e-02,1.608937531709671021e-01,7.857970893383026123e-02,1.401586085557937622e-01,-1.070882678031921387e-01,-7.287696003913879395e-02,1.555255800485610962e-01,1.247092708945274353e-01,-1.125225722789764404e-01,1.063207611441612244e-01,-1.480032056570053101e-01,1.931455731391906738e-01,-3.109805658459663391e-02,1.570241153240203857e-01,-1.512823104858398438e-01,-9.449248202145099640e-03,-6.545457243919372559e-01,-1.456274241209030151e-01,-7.127201557159423828e-02,-6.972358096390962601e-03,8.738753199577331543e-02
6.961256265640258789e-02,2.906686067581176758e-02,7.013953477144241333e-02,1.383037269115447998e-01,1.315749585628509521e-01,4.790731891989707947e-02,-8.481731265783309937e-02,1.670551300048828125e-01,1.280345022678375244e-02,-1.594540029764175415e-01,1.061476841568946838e-01,5.715040117502212524e-02,-1.102097705006599426e-01,-4.803025722503662109e-02,1.636777073144912720e-01,-5.412450060248374939e-02,1.548690348863601685e-01,3.260283917188644409e-02,1.500135511159896851e-01,1.477452069520950317e-01,5.439496133476495743e-03,1.000863537192344666e-01,8.795541524887084961e-02,-1.246434599161148071e-01,2.551269531250000000e-02,1.014370322227478027e-01,6.252806633710861206e-02,9.821032732725143433e-02,-3.117062449455261230e-01,-6.172883510589599609e-02,1.971482336521148682e-01,-8.102483302354812622e-02,6.696210801601409912e-02,2.293377816677093506e-01,-1.160886138677597046e-01,-1.946101069450378418e+00,-6.342004239559173584e-02,-6.361623108386993408e-02,-4.339231178164482117e-02,9.180024266242980957e-02
-1.214334275573492050e-02,9.320741146802902222e-02,1.244311854243278503e-01,-1.085933297872543335e-01,2.026088535785675049e-02,8.316484093666076660e-02,5.132310464978218079e-02,9.947717189788818359e-02,-2.600000798702239990e-02,6.973458826541900635e-02,4.771218076348304749e-02,-5.117161571979522705e-02,-1.973573677241802216e-02,7.401871029287576675e-03,6.959423189982771873e-04,-4.777501523494720459e-02,3.372376784682273865e-02,-4.941992461681365967e-02,9.729165583848953247e-02,-9.518323838710784912e-02,-1.815318465232849121e-01,5.460339039564132690e-02,4.434778541326522827e-02,-2.351716905832290649e-02,-1.214052811264991760e-01,-3.056115284562110901e-02,-1.258640587329864502e-01,-1.434470117092132568e-01,5.156009271740913391e-02,-3.682131692767143250e-02,2.032160013914108276e-02,-5.559137836098670959e-02,-2.713522408157587051e-03,-8.391595445573329926e-03,8.373159170150756836e-02,-8.755530416965484619e-02,-1.264546513557434082e-01,3.655967861413955688e-02,-3.521169722080230713e-02,-2.525147609412670135e-02
-1.196493580937385559e-01,-1.532431691884994507e-01,-7.724790275096893311e-02,1.166802272200584412e-01,6.275384128093719482e-02,1.459517031908035278e-01,2.748676948249340057e-02,2.102460712194442749e-02,6.555876880884170532e-02,-6.921291351318359375e-02,5.315098911523818970e-02,-1.388922631740570068e-01,2.047912590205669403e-02,9.984754025936126709e-02,-1.303321123123168945e-01,2.245482243597507477e-02,-5.206014029681682587e-03,-5.699324607849121094e-02,5.589565262198448181e-04,-6.581237912178039551e-02,7.561480253934860229e-02,1.035565212368965149e-01,-1.460872441530227661e-01,-9.446376562118530273e-02,9.365738183259963989e-02,1.580509841442108154e-01,1.356800347566604614e-01,-8.528766036033630371e-02,2.733694203197956085e-02,-1.360423713922500610e-01,-1.083139181137084961e-01,-1.185285672545433044e-01,6.168377026915550232e-02,-4.143003374338150024e-02,1.712263561785221100e-02,-1.182486265897750854e-01,4.241476207971572876e-02,-1.491695046424865723e-01,-1.089035794138908386e-01,1.577024608850479126e-01
-9.446826577186584473e-02,5.829484388232231140e-02,1.328058391809463501e-01,1.197731960564851761e-02,2.632705569267272949e-01,-9.190146811306476593e-03,1.761703565716743469e-02,3.723368048667907715e-02,7.880146801471710205e-02,-2.570173740386962891e-01,3.154113590717315674e-01,1.471397131681442261e-01,1.047545596957206726e-01,5.840398743748664856e-02,2.140528410673141479e-01,6.262087076902389526e-02,4.310850799083709717e-02,1.410707831382751465e-01,-6.125307455658912659e-02,2.638347744941711426e-01,1.840677708387374878e-01,-1.197659373283386230e-01,-1.114048063755035400e-01,-3.179048001766204834e-02,6.762205064296722412e-02,1.104084178805351257e-01,1.417543888092041016e-01,1.351580023765563965e-01,-2.219701111316680908e-01,1.454706192016601562e-01,1.057818979024887085e-01,-5.646235495805740356e-02,2.720324993133544922e-01,2.987147308886051178e-02,-2.956064604222774506e-02,-1.687506675720214844e+00,1.154286563396453857e-01,-7.925881445407867432e-02,-1.362625807523727417e-01,3.455229699611663818e-01
1.114840954542160034e-01,-2.112650871276855469e-02,-4.988182336091995239e-02,-1.406443566083908081e-01,-1.211963966488838196e-01,1.621977686882019043e-01,6.030335277318954468e-02,3.172667622566223145e-01,4.815055802464485168e-02,6.807112693786621094e-01,3.972885757684707642e-02,-5.887450650334358215e-02,1.344060748815536499e-01,-6.850825250148773193e-02,1.744152754545211792e-01,-1.166877895593643188e-01,-3.206989169120788574e-02,1.747470051050186157e-01,-8.114664256572723389e-02,3.037487268447875977e-01,2.545989155769348145e-01,5.238268151879310608e-02,-1.025098040699958801e-01,1.317701339721679688e-01,-8.203086256980895996e-02,-6.898032128810882568e-02,-4.248193278908729553e-02,-3.364305570721626282e-02,2.471649786457419395e-03,8.393300813622772694e-04,8.980322629213333130e-02,3.116393275558948517e-02,1.012238115072250366e-01,-1.397311687469482422e-01,1.267394274473190308e-01,3.517834097146987915e-02,8.301457762718200684e-02,-1.466401964426040649e-01,8.893189579248428345e-02,-1.632419228553771973e-01
-2.879765033721923828e-01,2.607806622982025146e-01,-1.475598514080047607e-01,-4.657514691352844238e-01,2.024460881948471069e-01,-2.806000784039497375e-02,1.565554589033126831e-01,-8.600180596113204956e-02,-1.557796597480773926e-01,-3.410486876964569092e-01,1.708760112524032593e-01,1.861112266778945923e-01,-1.133808121085166931e-02,-1.484378576278686523e-01,1.539099067449569702e-01,3.579561039805412292e-02,-1.247766241431236267e-01,-9.026644378900527954e-02,-2.665880620479583740e-01,5.837043747305870056e-02,8.159461431205272675e-03,1.392631828784942627e-01,-8.906903117895126343e-02,-1.120476871728897095e-01,7.613080088049173355e-03,6.477568298578262329e-02,1.045323908329010010e-01,-4.496760293841362000e-02,-5.318476259708404541e-02,-1.164816766977310181e-01,2.114372998476028442e-01,4.609416704624891281e-03,1.568901091814041138e-01,-1.042265519499778748e-01,-5.590943619608879089e-02,-8.911954164505004883e-01,9.204486012458801270e-02,-7.544530928134918213e-02,8.050067117437720299e-04,2.024373263120651245e-01
-7.750421017408370972e-02,5.986658856272697449e-02,-1.262331902980804443e-01,-6.041178712621331215e-04,8.061097562313079834e-02,8.232243359088897705e-02,-1.276271641254425049e-01,-2.046276628971099854e-02,7.138192653656005859e-02,9.166568517684936523e-02,-3.486652299761772156e-02,1.436032913625240326e-02,1.550840884447097778e-01,-6.720694899559020996e-02,-6.323974579572677612e-02,4.629302304238080978e-03,-1.160364374518394470e-01,2.935355715453624725e-02,-1.359496712684631348e-01,-1.145309954881668091e-01,-1.142643392086029053e-01,6.639900058507919312e-02,-9.553799033164978027e-02,8.336883038282394409e-02,-5.732703581452369690e-02,-2.719653770327568054e-02,5.519031733274459839e-02,-8.506087213754653931e-02,2.251095324754714966e-02,7.879441976547241211e-02,-3.597180545330047607e-02,9.298497438430786133e-02,-1.265833433717489243e-02,1.369125694036483765e-01,-8.608589880168437958e-03,1.292289644479751587e-01,-1.103271991014480591e-01,-1.500805914402008057e-01,5.024241656064987183e-02,-5.880433693528175354e-02
1.653401106595993042e-01,6.921371072530746460e-02,-4.257347062230110168e-02,7.964563369750976562e-02,4.596356749534606934e-01,-1.402313113212585449e-01,-2.091225050389766693e-02,2.268759161233901978e-01,1.295444220304489136e-01,-6.885396689176559448e-02,1.953155845403671265e-01,-8.957564830780029297e-02,-8.121463656425476074e-02,1.121931523084640503e-01,2.888888716697692871e-01,7.995666563510894775e-02,-1.052741631865501404e-01,1.653898656368255615e-01,6.586645543575286865e-02,-2.088615857064723969e-02,9.548217803239822388e-02,5.381789058446884155e-02,-1.294005960226058960e-01,5.593843758106231689e-02,-2.403805218636989594e-02,4.846696928143501282e-02,2.508629858493804932e-01,-1.337842829525470734e-02,3.970455825328826904e-01,-6.587827205657958984e-02,-6.217070296406745911e-02,1.378869116306304932e-01,2.593210935592651367e-01,2.214482724666595459e-01,7.095573842525482178e-02,-2.149240255355834961e+00,-1.507199704647064209e-01,1.167926415801048279e-01,-4.150886088609695435e-02,4.408782124519348145e-01
-2.217141389846801758e-01,2.037785053253173828e-01,1.505640987306833267e-02,-2.951106131076812744e-01,5.043371021747589111e-02,2.572693228721618652e-01,1.317173242568969727e-01,-2.484777569770812988e-01,2.037464827299118042e-02,-2.560348510742187500e-01,1.014964431524276733e-01,2.245803922414779663e-01,1.027179416269063950e-02,-3.243850767612457275e-01,1.904547661542892456e-01,-3.749724477529525757e-02,-3.436267748475074768e-02,3.107999265193939209e-02,-2.059193849563598633e-01,6.813926994800567627e-02,1.492572426795959473e-01,-1.579275280237197876e-01,-8.756475895643234253e-02,-9.940580278635025024e-02,-1.177601050585508347e-02,-2.887474559247493744e-02,1.091419160366058350e-01,8.635694161057472229e-03,8.247821033000946045e-02,-6.460826843976974487e-02,9.219963103532791138e-02,-1.158726960420608521e-01,6.285702437162399292e-02,-7.780078798532485962e-02,-1.899778284132480621e-02,-6.843123435974121094e-01,-1.504019796848297119e-01,-4.887121915817260742e-02,1.306045055389404297e-01,4.469268023967742920e-02
-1.645755618810653687e-01,8.419898897409439087e-02,-6.256683170795440674e-02,-1.195961609482765198e-01,-6.604871898889541626e-02,-8.716102689504623413e-02,4.472581297159194946e-02,-7.249306887388229370e-02,-1.082146391272544861e-01,1.218292266130447388e-01,-7.403161376714706421e-02,-1.115580350160598755e-01,-6.742757558822631836e-02,-1.086752116680145264e-01,-8.048955351114273071e-02,-1.476149111986160278e-01,2.151086367666721344e-02,1.154732182621955872e-01,7.287699729204177856e-02,-1.406378149986267090e-01,-7.207202166318893433e-02,-5.046635866165161133e-02,5.420752987265586853e-02,4.387334734201431274e-02,4.295292869210243225e-02,2.157133072614669800e-02,3.683946654200553894e-02,-8.196192979812622070e-02,-7.048803567886352539e-02,1.379241198301315308e-01,-1.404978632926940918e-01,-6.179279088973999023e-02,6.647196412086486816e-02,3.331760317087173462e-02,-8.326458185911178589e-02,7.018844783306121826e-02,-2.270603738725185394e-02,-1.938556507229804993e-02,1.857113465666770935e-02,-1.382214128971099854e-01
2.201091498136520386e-01,9.683316200971603394e-02,-5.480473116040229797e-02,2.785641849040985107e-01,9.231162816286087036e-02,-1.848677694797515869e-01,-6.422673165798187256e-02,1.663209684193134308e-02,-1.847713720053434372e-03,-1.261014491319656372e-01,6.733683496713638306e-02,7.515818625688552856e-02,-1.045768707990646362e-01,1.716636717319488525e-01,3.105038404464721680e-02,-9.910871088504791260e-02,-2.109638229012489319e-02,2.529117763042449951e-01,6.362462788820266724e-02,8.069173246622085571e-02,1.833272129297256470e-01,1.162010580301284790e-01,-5.290478467941284180e-02,-1.165107190608978271e-01,-1.514962315559387207e-01,8.671902865171432495e-02,2.153158783912658691e-01,-3.208738565444946289e-02,-1.868419647216796875e-01,4.709348827600479126e-02,1.351113915443420410e-01,5.101247876882553101e-02,7.851337082684040070e-03,8.426994085311889648e-02,1.167061626911163330e-01,-1.886050224304199219e+00,-7.312221825122833252e-02,-1.001246497035026550e-01,1.402214467525482178e-01,-5.682140961289405823e-02
-8.876975625753402710e-03,-1.375117301940917969e-01,8.214744180440902710e-02,-7.743680477142333984e-02,-7.363053038716316223e-03,-1.076165735721588135e-01,-4.622194543480873108e-02,-1.420681625604629517e-01,-6.955886632204055786e-02,2.232949808239936829e-02,-1.054949313402175903e-01,-3.030754439532756805e-02,-4.620682820677757263e-02,-4.693385586142539978e-02,-4.862959310412406921e-02,3.253394737839698792e-02,-5.179733410477638245e-02,-4.604680091142654419e-02,-7.919600605964660645e-02,5.441601574420928955e-02,1.296251565217971802e-01,9.223940223455429077e-02,2.783492207527160645e-03,5.342344567179679871e-02,-5.913177505135536194e-03,-1.485186219215393066e-01,1.237151492387056351e-02,-5.750004667788743973e-03,-1.488702595233917236e-01,8.902315795421600342e-02,-1.081940978765487671e-01,-8.272945135831832886e-02,-1.124541535973548889e-01,-1.032077074050903320e-01,-2.275283820927143097e-02,-5.546115338802337646e-02,5.941484495997428894e-02,8.788621425628662109e-02,-9.976767748594284058e-02,1.234216317534446716e-01
-1.964646726846694946e-01,1.541740745306015015e-01,-3.900962322950363159e-02,-6.140175461769104004e-01,-9.589953348040580750e-03,-6.757970899343490601e-02,-1.209836155176162720e-01,-3.753083944320678711e-01,9.000083804130554199e-02,-7.781891822814941406e-01,2.739095389842987061e-01,1.647159755229949951e-01,-1.345745772123336792e-01,-1.541265994310379028e-01,-1.723453104496002197e-01,-8.469751104712486267e-03,1.150577738881111145e-01,1.313572973012924194e-01,-2.270303815603256226e-01,2.930193021893501282e-02,1.303355693817138672e-01,-6.936715543270111084e-02,-1.327301114797592163e-01,7.340321317315101624e-03,1.269431412220001221e-01,4.995559528470039368e-02,-3.806298673152923584e-01,6.627484411001205444e-02,-2.793459892272949219e-01,-1.437320709228515625e-01,1.943120360374450684e-01,1.283331960439682007e-01,4.909770488739013672e-01,-2.215077541768550873e-02,1.351351011544466019e-02,-7.228032350540161133e-01,-4.050254356116056442e-03,1.447028368711471558e-01,-1.065143048763275146e-01,3.707192242145538330e-01
1.272039413452148438e-01,6.004687864333391190e-03,-7.570840418338775635e-03,-5.701703205704689026e-02,1.486071199178695679e-01,1.197488233447074890e-02,-7.265445590019226074e-02,-1.484360825270414352e-02,-1.497437506914138794e-01,-5.329067632555961609e-02,-1.059651523828506470e-01,-1.312363892793655396e-01,1.517366170883178711e-01,9.338767826557159424e-02,-1.480254232883453369e-01,1.179504394531250000e-01,-5.578517913818359375e-02,-8.953350782394409180e-02,7.861839234828948975e-02,-5.991565436124801636e-02,-1.010209247469902039e-01,1.177431941032409668e-01,1.484808176755905151e-01,-7.506545633077621460e-02,-5.370587483048439026e-02,1.121123731136322021e-01,-8.434230834245681763e-02,5.122957751154899597e-02,-1.302663832902908325e-01,-1.463779211044311523e-01,-1.478476226329803467e-01,4.177818819880485535e-02,-1.116218343377113342e-01,5.174291785806417465e-03,9.302917867898941040e-02,-1.021064221858978271e-01,1.101444810628890991e-01,2.877758070826530457e-02,-1.420094817876815796e-01,2.387746237218379974e-02
5.648035556077957153e-02,2.397472038865089417e-03,1.359979361295700073e-01,4.108510538935661316e-02,8.382817357778549194e-02,-6.466969847679138184e-02,3.142144298180937767e-03,-5.675266310572624207e-02,-1.116247773170471191e-01,1.539040058851242065e-01,-1.251903474330902100e-01,1.221604123711585999e-01,1.045971363782882690e-01,-1.296474039554595947e-01,-1.147177442908287048e-01,-1.180183328688144684e-02,5.624578520655632019e-02,4.684453457593917847e-02,-7.011254131793975830e-02,9.497337788343429565e-02,-1.193071827292442322e-01,1.019333899021148682e-01,-5.069955438375473022e-02,-1.159863322973251343e-01,-1.431180834770202637e-01,1.030888259410858154e-01,7.665837556123733521e-02,1.230661869049072266e-01,-1.342748403549194336e-01,-6.379191577434539795e-02,-1.197664290666580200e-01,7.060229033231735229e-02,1.188468039035797119e-01,-1.309476494789123535e-01,-5.402013659477233887e-02,1.269964873790740967e-01,-6.814972311258316040e-02,1.164782643318176270e-01,6.646003574132919312e-02,1.140308082103729248e-01
1.161824166774749756e-01,2.001622691750526428e-02,-1.214773580431938171e-01,-8.666616678237915039e-02,4.013355374336242676e-01,-6.238408759236335754e-02,1.289531439542770386e-01,-1.792441010475158691e-01,1.151319444179534912e-01,-1.731320619583129883e-01,2.723381221294403076e-01,1.262907683849334717e-01,-1.159067898988723755e-01,-1.030796766281127930e-01,1.296904832124710083e-01,1.360082346946001053e-02,-1.545862108469009399e-01,1.703570932149887085e-01,7.490111887454986572e-02,1.217456310987472534e-01,1.051781922578811646e-01,1.982909254729747772e-02,-1.130420416593551636e-01,1.080890558660030365e-02,6.283621490001678467e-02,1.325557976961135864e-01,1.405831128358840942e-01,-5.275886133313179016e-02,1.942618936300277710e-02,3.979014605283737183e-02,6.118153035640716553e-02,1.457364708185195923e-01,1.934208273887634277e-01,6.378344446420669556e-02,1.355302184820175171e-01,-1.509163975715637207e+00,-1.272041946649551392e-01,3.411497920751571655e-02,-9.483455866575241089e-02,1.155037358403205872e-01
-5.851674452424049377e-02,-6.878612935543060303e-02,1.123379543423652649e-01,1.482655573636293411e-02,-1.543677896261215210e-01,3.210487365722656250e-01,-1.356951519846916199e-02,2.835910916328430176e-01,9.784008562564849854e-02,5.751079916954040527e-01,1.181975305080413818e-01,4.008745029568672180e-02,-1.573506742715835571e-01,-1.881562918424606323e-01,1.702852398157119751e-01,-3.935600444674491882e-02,1.129249036312103271e-01,3.831542432308197021e-01,-2.513538599014282227e-01,6.254054605960845947e-02,2.317016869783401489e-01,-1.039050333201885223e-02,-1.940881647169589996e-02,1.570991128683090210e-01,6.806256622076034546e-02,8.788557350635528564e-02,-1.411638855934143066e-01,-9.738045930862426758e-02,1.525282561779022217e-01,-1.082696616649627686e-01,1.782988905906677246e-01,9.193058311939239502e-02,-1.618782430887222290e-01,-1.798752248287200928e-01,1.160253956913948059e-01,4.689731448888778687e-02,-7.637391984462738037e-02,7.628273218870162964e-02,-1.215413305908441544e-02,1.139031648635864258e-01
-2.058497816324234009e-01,2.105055302381515503e-01,-4.432605206966400146e-02,-4.323058426380157471e-01,-1.974221318960189819e-01,1.300415545701980591e-01,9.354431182146072388e-03,-2.247935533523559570e-01,-8.222959935665130615e-02,-4.290154278278350830e-01,1.668610423803329468e-01,2.979525029659271240e-01,-2.327779121696949005e-02,-7.717064023017883301e-02,-5.005566775798797607e-02,-1.198507621884346008e-01,-1.111909002065658569e-01,-3.313323482871055603e-02,-7.508876919746398926e-02,-4.560079425573348999e-02,2.488476037979125977e-01,1.105316542088985443e-02,1.713809929788112640e-02,1.227655485272407532e-01,1.576293557882308960e-01,7.130458950996398926e-02,-9.387962520122528076e-02,1.632678881287574768e-02,1.930276118218898773e-02,5.317805334925651550e-03,2.017534077167510986e-01,-8.488469570875167847e-02,2.512044012546539307e-01,-1.476496905088424683e-01,5.354488641023635864e-02,-9.178036451339721680e-01,1.071567907929420471e-01,1.106275692582130432e-01,4.416131600737571716e-02,1.117928400635719299e-01
2.682365477085113525e-02,7.191115617752075195e-02,-1.037632152438163757e-01,-5.686722323298454285e-02,8.931565284729003906e-02,-1.549568325281143188e-01,4.123178496956825256e-02,5.481732077896595001e-03,5.672723427414894104e-02,-7.898316532373428345e-02,-9.873483330011367798e-02,1.707926392555236816e-02,-5.164434015750885010e-02,-5.095962435007095337e-02,-1.191829517483711243e-01,1.561097949743270874e-01,-1.402942538261413574e-01,-7.036937773227691650e-02,-6.759860366582870483e-02,-3.489425033330917358e-02,-1.476887334138154984e-02,8.994974195957183838e-02,1.340246498584747314e-01,1.314621567726135254e-01,2.403428312391042709e-03,1.572044044733047485e-01,-5.449286103248596191e-02,-6.045425310730934143e-02,-3.777588531374931335e-02,5.077225342392921448e-02,-8.152183145284652710e-02,-1.382433176040649414e-01,1.391022950410842896e-01,5.102467164397239685e-02,-2.006817050278186798e-02,-1.350761055946350098e-01,1.260616928339004517e-01,-1.225413084030151367e-01,1.274467110633850098e-01,-1.289872229099273682e-01
-2.721319794654846191e-01,8.154400438070297241e-02,4.284081980586051941e-02,-2.356015145778656006e-01,2.085189819335937500e-01,9.673867374658584595e-03,-5.764912441372871399e-02,-2.471774220466613770e-01,-6.506879627704620361e-02,-1.993440836668014526e-01,1.733514070510864258e-01,2.499087005853652954e-01,-2.181202638894319534e-03,-2.084853649139404297e-01,1.934417933225631714e-01,1.484801918268203735e-01,-8.769110590219497681e-02,-3.455144166946411133e-02,-3.416149914264678955e-01,-5.984125658869743347e-03,2.401542216539382935e-01,-3.599559515714645386e-02,1.276281028985977173e-01,1.035596281290054321e-01,4.934646561741828918e-02,-4.786298424005508423e-02,-7.572590559720993042e-02,-1.562965661287307739e-01,6.472426652908325195e-02,1.002651304006576538e-01,1.235736906528472900e-01,-7.193449139595031738e-02,-4.628761857748031616e-02,-6.111864745616912842e-02,1.602033376693725586e-01,-8.646652698516845703e-01,-3.072294639423489571e-03,-3.574829548597335815e-02,1.424234956502914429e-01,1.457128375768661499e-01
5.766974687576293945e-01,1.384123563766479492e-01,-3.562672436237335205e-02,-7.003074288368225098e-01,3.200021386146545410e-01,4.487850069999694824e-01,9.115426242351531982e-02,-1.425365328788757324e+00,1.328771263360977173e-01,-6.057769656181335449e-01,3.691481426358222961e-02,1.892894953489303589e-01,-5.831828713417053223e-02,-1.417883634567260742e-01,1.054327264428138733e-01,8.897893875837326050e-02,2.238783426582813263e-02,2.076859772205352783e-01,7.992935180664062500e-02,-2.764851450920104980e-01,2.055658996105194092e-01,4.074237868189811707e-02,9.980138391256332397e-02,1.365118026733398438e-01,-1.231481954455375671e-01,1.232108101248741150e-01,-2.025859832763671875e+00,4.575945436954498291e-02,-2.187486588954925537e-01,1.225258335471153259e-01,6.842581182718276978e-02,-9.170430712401866913e-03,-1.026515722274780273e+00,-1.300883054733276367e+00,7.769128307700157166e-03,-1.948120743036270142e-01,-9.240600466728210449e-02,-1.470459252595901489e-01,-1.292842179536819458e-01,-3.759920835494995117e+00
-1.217150464653968811e-01,8.007483929395675659e-02,-1.243219003081321716e-01,-9.459514170885086060e-02,-2.420269846916198730e-01,3.137059211730957031e-01,1.555256396532058716e-01,1.577994376420974731e-01,-1.487978994846343994e-01,6.801763772964477539e-01,1.294834315776824951e-01,4.243478551506996155e-02,-2.367512136697769165e-02,-2.518764138221740723e-02,2.554824650287628174e-01,-3.996981307864189148e-02,-1.222915276885032654e-01,1.915962398052215576e-01,-4.873897880315780640e-02,1.835387498140335083e-01,1.243378743529319763e-01,-1.290688812732696533e-01,-1.105607897043228149e-01,1.429807990789413452e-01,7.074857130646705627e-03,-2.981698885560035706e-02,-3.286615759134292603e-02,-7.741541415452957153e-02,-7.713704556226730347e-02,4.673276096582412720e-02,1.922020167112350464e-01,1.518117785453796387e-01,-7.514319568872451782e-02,-3.045896589756011963e-01,-1.504434794187545776e-01,7.705798000097274780e-02,-1.256539076566696167e-01,-3.077678382396697998e-02,-1.439382880926132202e-01,-2.334407530725002289e-02
5.182708054780960083e-02,9.411380439996719360e-02,-7.118646055459976196e-02,-1.096040531992912292e-01,1.192069798707962036e-01,-1.118745058774948120e-01,1.373866200447082520e-01,-3.962946310639381409e-02,-1.509772241115570068e-01,7.607736438512802124e-02,-6.091439351439476013e-02,8.986196666955947876e-02,9.611581265926361084e-02,-3.012588247656822205e-02,-1.575700193643569946e-01,1.953652501106262207e-02,1.939308643341064453e-02,1.730211195535957813e-03,8.281290531158447266e-02,-1.106752976775169373e-01,-1.127610504627227783e-01,1.183057352900505066e-01,-9.774094074964523315e-02,3.013807535171508789e-02,-1.187444925308227539e-01,-3.712392970919609070e-02,6.911354511976242065e-02,1.433675587177276611e-01,-1.675434410572052002e-01,1.871304586529731750e-02,-8.311489224433898926e-02,1.677548163570463657e-03,-5.054404959082603455e-02,-7.237760722637176514e-02,-1.409144252538681030e-01,4.580343887209892273e-02,6.038626655936241150e-02,1.270083934068679810e-01,1.460421532392501831e-01,-2.026941627264022827e-02
7.829308509826660156e-02,-1.837373822927474976e-01,1.346773803234100342e-01,-8.161752671003341675e-02,-1.608953624963760376e-01,1.271432545036077499e-02,3.192766010761260986e-02,2.380460351705551147e-01,-3.315962851047515869e-02,7.389726042747497559e-01,7.417643815279006958e-02,-4.803570732474327087e-02,-1.305212033912539482e-03,-1.129248365759849548e-01,2.416651695966720581e-01,2.664485760033130646e-02,1.532116085290908813e-01,2.098568826913833618e-01,-2.543616592884063721e-01,2.552921473979949951e-01,8.346218615770339966e-02,-1.561817433685064316e-02,7.642144709825515747e-02,3.290733695030212402e-02,-9.960173815488815308e-02,-6.495770532637834549e-03,-1.606595516204833984e-01,-8.167976886034011841e-02,1.072511076927185059e-01,-7.871199399232864380e-02,1.440408229827880859e-01,1.368829980492591858e-02,-2.861434407532215118e-02,-1.146583780646324158e-01,2.711905166506767273e-03,9.746123105287551880e-02,-1.295030266046524048e-01,1.502600684762001038e-02,-1.427214592695236206e-01,1.930711790919303894e-02
