-7.285000383853912354e-02,1.212277263402938843e-01,2.752907276153564453e-01,3.135418295860290527e-01,-1.115021109580993652e-01,6.721549481153488159e-02,-4.121845066547393799e-01,-2.671944200992584229e-01,2.462594658136367798e-01,-2.775057852268218994e-01,-3.014701902866363525e-01,-5.469088256359100342e-02,4.345787048339843750e+00,8.668368309736251831e-02,3.127003014087677002e-01,-2.273766249418258667e-01,-5.013642311096191406e-01,-7.341145724058151245e-02,6.757643818855285645e-02,-3.028458356857299805e-01,3.050292730331420898e-01,-3.467792272567749023e-01,-2.590808272361755371e-02,-8.245902061462402344e-01,-2.614611983299255371e-01,-9.373845160007476807e-02,-5.415330529212951660e-01,-2.566438913345336914e-02,-7.198732495307922363e-01,7.793800905346870422e-03,1.318429410457611084e-01,-2.871442437171936035e-01,2.958435416221618652e-01,-6.227346658706665039e-01,-1.355450004339218140e-01,-4.088684618473052979e-01,1.476456046104431152e+00,3.492442071437835693e-01,-3.203513473272323608e-02,3.272294998168945312e-01
