1.108488766476511955e-03
-4.428566247224807739e-02
4.550143331289291382e-02
-1.396462619304656982e-01
-8.924044668674468994e-02
-1.632760763168334961e-01
9.743081778287887573e-02
-8.057000115513801575e-03
-2.061603665351867676e-01
-6.357554346323013306e-02
-1.028295829892158508e-01
3.122691810131072998e-02
1.440111100673675537e-01
-7.937461137771606445e-02
5.435986071825027466e-02
-4.497207701206207275e-03
1.071923077106475830e-01
-8.147669583559036255e-02
-1.270339339971542358e-01
-1.440458148717880249e-01
-2.113334387540817261e-01
8.560000360012054443e-02
-1.455919146537780762e-01
2.044085226953029633e-02
-6.289973109960556030e-02
1.386573910713195801e-01
-1.493106782436370850e-01
-1.836723089218139648e-02
7.771667093038558960e-02
1.290132105350494385e-01
-8.295195549726486206e-02
-1.445543020963668823e-01
-5.021875258535146713e-03
-1.152014806866645813e-01
-1.236952766776084900e-01
1.431043893098831177e-01
-3.789635896682739258e-01
3.694554418325424194e-02
-1.187810674309730530e-01
-1.284939199686050415e-01
