2.215738892555236816e-01
4.367131367325782776e-02
-1.563857197761535645e-01
1.034749671816825867e-01
-2.598908841609954834e-01
-5.369463935494422913e-02
-1.298073977231979370e-01
-1.466392725706100464e-02
-1.540003903210163116e-02
-9.723972529172897339e-02
-1.060040518641471863e-01
6.795818358659744263e-02
-1.533523201942443848e-01
-1.748240180313587189e-02
-3.146827220916748047e-01
8.819092065095901489e-03
5.155699700117111206e-02
-2.538672983646392822e-01
2.075195610523223877e-01
-2.565391957759857178e-01
-1.108920425176620483e-01
1.528559774160385132e-01
-7.245641946792602539e-02
1.260538864880800247e-02
-1.024297103285789490e-01
-2.493328787386417389e-02
-4.407780766487121582e-01
-7.226185500621795654e-02
1.767891496419906616e-01
-1.517055332660675049e-01
-5.210907384753227234e-02
1.504889875650405884e-01
-2.534784078598022461e-01
2.349271923303604126e-01
-9.146987646818161011e-02
3.111635148525238037e-01
8.930332958698272705e-02
1.806137338280677795e-02
5.949902161955833435e-02
-3.196837604045867920e-01
