-3.184116259217262268e-02,6.579025089740753174e-02,1.037654578685760498e-01,1.037485674023628235e-01,6.093466654419898987e-02,3.607939556241035461e-02,-1.300123631954193115e-01,-3.449182957410812378e-02,-1.359957158565521240e-01,3.803766667842864990e-01,1.237570494413375854e-01,-1.357504427433013916e-01,1.071796417236328125e-01,1.606197208166122437e-01,9.419534355401992798e-02,2.782012522220611572e-01,-1.551504284143447876e-01,1.540443599224090576e-01,-1.693276762962341309e-01,-2.704352140426635742e-02,-1.114347204566001892e-02,4.384939372539520264e-02,1.398622035980224609e+00,2.052555680274963379e-01,8.833231031894683838e-02,1.686419546604156494e-01,1.116147711873054504e-01,3.349784016609191895e-02,2.394494414329528809e-01,6.691323518753051758e-01,1.742436140775680542e-01,-1.211499702185392380e-02,8.739855885505676270e-02,7.568237930536270142e-02,7.888054847717285156e-02,3.363901078701019287e-01,9.234874509274959564e-03,2.580326609313488007e-02,1.029271006584167480e+00,-1.130043491721153259e-01
-7.397932559251785278e-02,-1.398933082818984985e-01,-1.069691125303506851e-02,2.186496108770370483e-01,1.276546120643615723e-01,-1.137309446930885315e-01,-1.477125287055969238e-01,1.017837524414062500e-01,-1.287965327501296997e-01,2.513964772224426270e-01,1.383296996355056763e-01,4.767344519495964050e-02,6.527112424373626709e-02,2.414901405572891235e-01,-4.811943694949150085e-02,1.041092276573181152e-01,-2.423210442066192627e-01,1.529225707054138184e-01,-3.162080422043800354e-02,1.024947166442871094e-01,-1.875242888927459717e-01,3.369559347629547119e-02,2.129994332790374756e-01,2.580676078796386719e-01,1.822178810834884644e-02,7.901554554700851440e-02,-4.632438719272613525e-02,-6.799869984388351440e-02,-1.312481518834829330e-02,-1.672434993088245392e-02,2.530203461647033691e-01,9.933244436979293823e-02,1.088573485612869263e-01,2.722537219524383545e-01,-2.385599166154861450e-02,1.717711687088012695e-01,-2.462412044405937195e-02,-5.561360344290733337e-02,4.580119252204895020e-01,6.695647537708282471e-02
-1.081513091921806335e-01,-8.036358654499053955e-02,8.241858333349227905e-02,-3.873835876584053040e-02,-1.236149296164512634e-01,-9.597083926200866699e-02,-8.577323704957962036e-02,1.153980717062950134e-01,-1.152524501085281372e-01,9.167253039777278900e-03,-1.260502040386199951e-01,3.398817032575607300e-02,-1.390502750873565674e-01,1.726475805044174194e-01,3.258527070283889771e-02,1.845598071813583374e-01,-2.558196187019348145e-01,-7.833164185285568237e-02,2.918421663343906403e-02,-5.959976837038993835e-02,-1.711480617523193359e-01,8.747710287570953369e-02,7.214643806219100952e-02,2.274544984102249146e-01,1.754737459123134613e-02,2.077051848173141479e-01,5.920057371258735657e-02,3.096911683678627014e-02,2.834337651729583740e-01,6.353322416543960571e-02,1.026682704687118530e-01,1.849240213632583618e-01,-1.649160087108612061e-01,1.960514783859252930e-01,-6.655386835336685181e-02,1.691847890615463257e-01,1.679631322622299194e-01,8.961547166109085083e-02,6.259884834289550781e-01,-2.364875078201293945e-01
-2.372565492987632751e-02,-6.965638697147369385e-02,-1.490363776683807373e-01,-2.339923381805419922e-01,-7.943834364414215088e-02,-6.430459674447774887e-03,6.192853674292564392e-02,1.178975477814674377e-01,3.311499208211898804e-02,-5.357751995325088501e-02,-5.693962052464485168e-02,1.038664355874061584e-01,1.368989050388336182e-01,-5.804391205310821533e-02,1.026221960783004761e-01,-5.615865439176559448e-02,4.454392567276954651e-02,-6.385858356952667236e-02,8.744467794895172119e-02,-1.059603169560432434e-01,1.270218491554260254e-01,1.944455951452255249e-01,-3.721239864826202393e-01,8.686633408069610596e-02,1.246605962514877319e-01,-1.560684293508529663e-01,1.428029732778668404e-03,2.073143720626831055e-01,-1.555493026971817017e-01,-1.913122236728668213e-01,-1.105777323246002197e-01,-9.569411166012287140e-03,1.043305844068527222e-01,5.644697323441505432e-02,2.091905921697616577e-01,-3.851503506302833557e-02,7.158505171537399292e-02,-9.937824308872222900e-02,-6.602021455764770508e-01,6.880447268486022949e-02
-1.196190863847732544e-01,8.226317167282104492e-02,-1.483350545167922974e-01,2.717378735542297363e-01,-1.063526421785354614e-01,2.194735221564769745e-03,1.582385040819644928e-02,-1.458348929882049561e-01,-2.653984539210796356e-02,1.940721720457077026e-01,-9.929057955741882324e-02,-6.885189563035964966e-02,-1.261845137923955917e-02,9.304906427860260010e-02,-6.894773244857788086e-02,7.893838733434677124e-02,-2.147216722369194031e-02,1.033799499273300171e-01,-9.640692174434661865e-02,1.440661549568176270e-01,-2.198266685009002686e-01,-7.298032194375991821e-02,2.645496129989624023e-01,1.735571920871734619e-01,1.481535881757736206e-01,1.024968698620796204e-01,1.176424324512481689e-01,-1.097116470336914062e-01,2.417346388101577759e-01,7.692038267850875854e-02,2.431531697511672974e-01,4.920230805873870850e-02,7.001038175076246262e-03,2.278049886226654053e-01,1.260300576686859131e-01,-1.884705200791358948e-02,2.053489238023757935e-01,6.495161354541778564e-02,3.991855680942535400e-01,-6.628433614969253540e-02
3.253270313143730164e-02,1.051247641444206238e-01,-2.120724879205226898e-02,1.036462560296058655e-01,-1.083856374025344849e-01,1.326712816953659058e-01,1.418696939945220947e-01,-4.248723760247230530e-02,-9.213641285896301270e-02,8.004132658243179321e-02,6.240816041827201843e-02,7.604933530092239380e-02,-1.463932096958160400e-01,-1.542556434869766235e-01,4.989708960056304932e-02,-4.579095169901847839e-02,5.091497302055358887e-02,-5.283029749989509583e-03,-2.940769121050834656e-02,-5.288075655698776245e-02,-6.712401658296585083e-02,-5.825985595583915710e-02,1.254000514745712280e-01,1.162856668233871460e-01,-1.209222078323364258e-01,9.951273351907730103e-02,-1.561864316463470459e-01,1.189597249031066895e-01,-1.988908974453806877e-03,-1.260881870985031128e-01,-1.016245931386947632e-01,3.303699940443038940e-02,-9.448010474443435669e-02,-8.176537603139877319e-02,-8.932937635108828545e-04,1.193792968988418579e-01,-3.266125172376632690e-02,9.369990229606628418e-02,1.233566999435424805e-01,-3.533839806914329529e-02
1.460486799478530884e-01,-4.040889069437980652e-02,-3.614438325166702271e-02,1.238389015197753906e-01,-1.454489529132843018e-01,3.116932325065135956e-02,-5.932173132896423340e-02,-1.572864502668380737e-01,1.529842168092727661e-01,1.296369009651243687e-03,-1.294722780585289001e-02,-1.503273397684097290e-01,2.759791910648345947e-02,-9.858555346727371216e-02,-1.478683948516845703e-01,4.572227597236633301e-02,9.196822345256805420e-02,9.156467765569686890e-02,7.207137066870927811e-03,-4.240476340055465698e-02,-1.010081619024276733e-01,4.360711202025413513e-02,-6.981849670410156250e-02,1.102652326226234436e-01,-9.466126561164855957e-03,-3.068847581744194031e-02,-1.000678259879350662e-02,5.035936459898948669e-02,-9.061714261770248413e-02,-1.029383838176727295e-01,-1.081093400716781616e-01,5.472873337566852570e-03,7.231415808200836182e-02,9.913454204797744751e-02,-1.547028310596942902e-02,2.207083394750952721e-03,1.138150766491889954e-01,-1.822663843631744385e-02,8.188155293464660645e-02,8.175787515938282013e-04
-7.643115520477294922e-02,8.509521931409835815e-02,-6.818321347236633301e-02,-2.361364895477890968e-03,-1.138763427734375000e-01,9.655913710594177246e-02,9.776879847049713135e-02,2.709047682583332062e-02,-6.811538338661193848e-02,1.057574003934860229e-01,5.257399380207061768e-02,-1.371494382619857788e-01,-4.323404654860496521e-02,2.989009618759155273e-01,-1.515928208827972412e-01,2.851458489894866943e-01,-2.102643847465515137e-01,-1.178632974624633789e-01,-8.427700400352478027e-02,-5.919363722205162048e-02,-1.444462686777114868e-01,1.502308398485183716e-01,2.990825176239013672e-01,1.092429310083389282e-01,-2.545708790421485901e-02,2.092416137456893921e-01,7.307564467191696167e-02,5.421198904514312744e-02,2.332601249217987061e-01,2.602028846740722656e-01,2.710472345352172852e-01,3.745598345994949341e-02,1.216963082551956177e-01,1.854514777660369873e-01,1.147921085357666016e-01,2.405481487512588501e-01,1.235261484980583191e-01,1.604662835597991943e-02,4.970723986625671387e-01,-1.066219806671142578e-01
-2.209345623850822449e-02,-8.332891389727592468e-03,-1.193652376532554626e-01,-5.583740305155515671e-03,-7.664190232753753662e-02,-8.286152034997940063e-02,-1.334725618362426758e-01,1.141025424003601074e-01,7.513842079788446426e-03,6.282001733779907227e-02,1.066448315978050232e-01,1.190003305673599243e-01,-2.897387184202671051e-02,-1.064379811286926270e-01,1.270505487918853760e-01,-1.111592426896095276e-01,-1.648308485746383667e-01,6.276698410511016846e-02,-5.696155503392219543e-02,7.380995899438858032e-02,9.257954545319080353e-03,5.311975628137588501e-02,-1.238358691334724426e-01,-6.368922442197799683e-02,-8.861420303583145142e-02,9.915630333125591278e-03,2.790907397866249084e-02,-5.984679237008094788e-02,-1.369822472333908081e-01,-1.581199653446674347e-02,-1.418851464986801147e-01,1.237211376428604126e-01,-1.291430592536926270e-01,7.432142645120620728e-02,7.313014566898345947e-02,-1.042912006378173828e-01,3.265068680047988892e-02,-6.841550022363662720e-02,8.149468898773193359e-02,-4.184121266007423401e-02
-1.064470931887626648e-01,-1.529007405042648315e-01,-5.489635840058326721e-02,-3.547318652272224426e-02,1.555932164192199707e-01,-9.573349356651306152e-02,3.502202406525611877e-02,2.693472988903522491e-02,3.825785219669342041e-02,1.404623780399560928e-02,-1.369417607784271240e-01,-2.533957548439502716e-02,-2.634136565029621124e-02,1.216170415282249451e-01,1.368937939405441284e-01,2.824583053588867188e-01,-8.498379588127136230e-02,-5.715364962816238403e-02,-2.240503728389739990e-01,2.116065621376037598e-01,-1.119519248604774475e-01,-5.225938186049461365e-02,9.942135959863662720e-02,1.806082427501678467e-01,1.435571014881134033e-01,1.896794736385345459e-01,-1.209384351968765259e-01,-8.621516637504100800e-03,2.905944287776947021e-01,2.082431018352508545e-01,2.012423574924468994e-01,2.464041672646999359e-02,2.844250202178955078e-02,3.962893411517143250e-02,4.100990295410156250e-02,3.881432814523577690e-03,8.204130828380584717e-02,-1.835398375988006592e-01,3.777173459529876709e-01,-1.327870339155197144e-01
4.719856753945350647e-02,-1.236344724893569946e-01,1.293767839670181274e-01,6.332383304834365845e-02,-1.573289185762405396e-01,5.913322791457176208e-02,1.324720401316881180e-02,4.174252599477767944e-02,-1.542189419269561768e-01,-4.048668593168258667e-02,1.531425118446350098e-01,3.695774078369140625e-02,6.179112941026687622e-02,-1.201605275273323059e-01,1.065893024206161499e-01,-1.400815695524215698e-01,-3.257047012448310852e-02,1.476796269416809082e-01,2.538325637578964233e-02,1.105876788496971130e-01,-6.703974306583404541e-02,4.803296923637390137e-02,-5.521136522293090820e-02,1.038118749856948853e-01,-1.612938344478607178e-01,2.961900271475315094e-02,-1.306307129561901093e-02,5.084684491157531738e-02,-6.800141930580139160e-02,-8.637890219688415527e-02,-1.284040063619613647e-01,1.340788751840591431e-01,-7.441589236259460449e-02,-6.721544265747070312e-02,-2.786239841952919960e-03,-3.059790469706058502e-02,-5.532904714345932007e-02,5.346877500414848328e-02,1.439213603734970093e-01,-1.457956433296203613e-01
3.526922315359115601e-02,8.488575369119644165e-02,-7.585481554269790649e-02,2.247342616319656372e-01,-1.429807990789413452e-01,2.848468534648418427e-02,3.780297189950942993e-02,1.508573442697525024e-01,-7.332952227443456650e-03,1.693751960992813110e-01,1.101111397147178650e-01,6.487757712602615356e-02,-1.356960535049438477e-01,1.252924203872680664e-01,1.434409171342849731e-01,2.775438427925109863e-01,-1.623860150575637817e-01,-3.812929848209023476e-03,-2.114628404378890991e-01,1.168084144592285156e-01,6.302735209465026855e-02,3.915182501077651978e-02,2.878461182117462158e-01,-3.205406293272972107e-02,7.445635646581649780e-02,1.993349194526672363e-01,-6.253241002559661865e-02,-1.971185505390167236e-01,1.299145072698593140e-01,-4.507557302713394165e-02,1.542379558086395264e-01,2.239030897617340088e-01,-4.275325685739517212e-02,4.515363648533821106e-02,6.342333555221557617e-02,7.532872259616851807e-02,2.020262032747268677e-01,1.095739528536796570e-01,3.315535485744476318e-01,-2.167468145489692688e-02
-5.447386205196380615e-02,1.534124314785003662e-01,9.429524093866348267e-02,7.905633747577667236e-02,2.765591815114021301e-02,-9.432941675186157227e-02,-8.538829535245895386e-02,1.181278228759765625e-01,-9.938565641641616821e-02,2.446567118167877197e-01,3.522622864693403244e-04,-8.914818614721298218e-02,-2.215077914297580719e-02,1.029985994100570679e-01,-1.273379176855087280e-01,2.398814409971237183e-01,-7.884626975283026695e-04,-1.225743666291236877e-01,-6.671017408370971680e-02,2.126314938068389893e-01,2.198005095124244690e-02,-8.003898710012435913e-02,3.060898184776306152e-01,2.080938220024108887e-01,8.071298897266387939e-02,1.803886741399765015e-01,2.664936147630214691e-02,-8.135809004306793213e-02,1.283035874366760254e-01,1.075866967439651489e-01,1.116274297237396240e-01,2.157956957817077637e-01,-8.795101940631866455e-02,2.350591719150543213e-01,-1.813336089253425598e-02,2.525585889816284180e-01,2.406292036175727844e-02,-9.362855553627014160e-02,5.831617116928100586e-01,-1.714343428611755371e-01
1.207246035337448120e-01,7.220786809921264648e-02,-1.390807181596755981e-01,1.090797558426856995e-01,1.268599778413772583e-01,4.968352243304252625e-02,5.176039040088653564e-02,-6.127443164587020874e-02,5.629653856158256531e-02,1.089547127485275269e-01,-9.360802173614501953e-02,7.775516808032989502e-02,1.525812894105911255e-01,1.931242644786834717e-01,-1.111240591853857040e-03,2.934108078479766846e-01,5.033037438988685608e-02,-9.259558469057083130e-02,-2.393372505903244019e-01,2.096978724002838135e-01,-2.299652546644210815e-01,-4.413601756095886230e-02,1.942232698202133179e-01,2.206050753593444824e-01,1.799192726612091064e-01,2.498978748917579651e-03,1.125784963369369507e-01,-2.704496681690216064e-02,2.791503965854644775e-01,8.788035809993743896e-02,1.208701804280281067e-01,6.256462633609771729e-02,-1.949465088546276093e-02,1.727555543184280396e-01,-2.127790749073028564e-01,1.551707535982131958e-01,2.590591311454772949e-01,7.982306182384490967e-02,5.630154609680175781e-01,5.065504088997840881e-02
-3.311027958989143372e-02,9.960284829139709473e-02,-9.055096656084060669e-02,2.837151885032653809e-01,-9.012196213006973267e-03,-7.132127135992050171e-02,1.122762821614742279e-02,-1.527977287769317627e-01,4.078664258122444153e-02,2.205918580293655396e-01,-1.494767367839813232e-01,-3.116368129849433899e-02,5.786979943513870239e-02,2.701306045055389404e-01,-9.608215093612670898e-02,3.519340455532073975e-01,-2.607777714729309082e-02,3.258236870169639587e-02,-6.787763535976409912e-02,2.450779378414154053e-01,-1.378197129815816879e-02,-2.192187756299972534e-01,1.623210012912750244e-01,9.340179711580276489e-02,1.708057522773742676e-01,2.021272480487823486e-01,3.271681442856788635e-02,-1.608153618872165680e-02,7.264488935470581055e-02,-4.969106242060661316e-02,1.087222471833229065e-01,3.117850050330162048e-02,1.183134689927101135e-01,2.025191187858581543e-01,6.990717258304357529e-03,2.685232162475585938e-01,1.515777558088302612e-01,4.797165840864181519e-02,4.501902461051940918e-01,-3.568988060578703880e-03
2.049284800887107849e-02,-2.729247696697711945e-02,1.037657931447029114e-01,5.997356027364730835e-02,2.690794691443443298e-02,7.925169914960861206e-02,3.965108096599578857e-02,-2.096050232648849487e-02,-3.355406969785690308e-02,1.793849468231201172e-01,-1.063065007328987122e-01,-1.237721741199493408e-01,-7.717484235763549805e-02,7.732363045215606689e-02,1.982960291206836700e-02,2.797988653182983398e-01,-2.322311848402023315e-01,1.219659000635147095e-01,-1.601758450269699097e-01,2.369523793458938599e-01,3.827781602740287781e-02,-1.331799775362014771e-01,1.989456862211227417e-01,2.170866429805755615e-01,1.042132079601287842e-01,1.040206104516983032e-01,1.347877830266952515e-02,1.263072192668914795e-01,1.494313403964042664e-02,2.399562299251556396e-01,1.073581650853157043e-01,1.969599425792694092e-01,9.868647158145904541e-02,7.914286851882934570e-02,-3.851258754730224609e-02,9.254434704780578613e-02,1.577790975570678711e-01,-6.975798308849334717e-02,5.015033483505249023e-01,4.495918378233909607e-02
-4.277298226952552795e-02,9.609809517860412598e-02,-1.080868840217590332e-01,-2.704429626464843750e-01,-8.417745679616928101e-02,-1.912189647555351257e-02,-9.228716045618057251e-02,8.651928603649139404e-02,-9.635881334543228149e-02,-2.935324907302856445e-01,1.360586881637573242e-01,2.219402790069580078e-01,1.167927086353302002e-01,-6.553880870342254639e-02,-9.721536934375762939e-02,-1.268469691276550293e-01,8.859938383102416992e-02,-6.520850211381912231e-02,9.902740269899368286e-02,-2.691332697868347168e-01,3.575064614415168762e-02,2.484184056520462036e-01,-4.356381297111511230e-01,3.587866574525833130e-02,1.755816936492919922e-01,8.050666749477386475e-02,1.257277280092239380e-01,1.530736237764358521e-01,2.646964602172374725e-02,-1.337969303131103516e-01,-2.592646479606628418e-01,-4.908023402094841003e-02,-5.296148359775543213e-02,7.038325071334838867e-02,2.281909808516502380e-02,-1.156595796346664429e-01,-1.054896274581551552e-03,8.049330115318298340e-02,-8.028613924980163574e-01,4.317757673561573029e-03
3.376955166459083557e-02,-1.320309820584952831e-03,1.052720919251441956e-01,-1.836021691560745239e-01,2.267653867602348328e-02,-6.437528133392333984e-02,1.511503010988235474e-01,2.364366315305233002e-02,3.008008003234863281e-02,-1.356477737426757812e-01,-1.580633819103240967e-01,2.421810775995254517e-01,-8.782339096069335938e-02,-7.169306278228759766e-02,2.552375942468643188e-02,-5.735351517796516418e-02,1.536782383918762207e-01,-1.330290585756301880e-01,2.255138605833053589e-01,7.168308645486831665e-02,2.806430459022521973e-01,1.114775463938713074e-01,-3.002383708953857422e-01,2.397702075541019440e-02,1.538822203874588013e-01,9.162416309118270874e-02,-1.566529572010040283e-01,2.159008085727691650e-01,1.378281321376562119e-02,-1.763117611408233643e-01,-1.055218577384948730e-01,-2.172354608774185181e-01,-3.091637231409549713e-02,-1.654127985239028931e-01,1.478966772556304932e-01,-1.555838137865066528e-01,-3.924568369984626770e-02,-3.177192807197570801e-02,-6.507757306098937988e-01,1.611000597476959229e-01
8.045841008424758911e-02,1.223681420087814331e-01,1.520366221666336060e-01,1.128389313817024231e-01,1.971057243645191193e-02,-2.257447317242622375e-02,-1.195705160498619080e-01,2.382423356175422668e-02,4.001282528042793274e-02,-6.196171045303344727e-02,8.192101120948791504e-02,2.585864253342151642e-02,1.074654459953308105e-01,-8.189605921506881714e-02,-5.217391252517700195e-02,6.279883533716201782e-02,-1.511791255325078964e-02,6.924177706241607666e-02,3.748069703578948975e-02,-1.292911767959594727e-01,2.558756060898303986e-02,-1.023048758506774902e-01,1.127448584884405136e-02,8.202232420444488525e-02,-2.447583153843879700e-02,1.252330392599105835e-01,-1.405267715454101562e-01,4.992376267910003662e-02,-1.632545143365859985e-02,4.143823310732841492e-02,2.233153395354747772e-02,-9.707332402467727661e-02,4.275420680642127991e-02,-1.032138913869857788e-01,-9.410413354635238647e-02,1.522110868245363235e-02,8.618069440126419067e-02,-1.933011412620544434e-02,-5.620060488581657410e-02,4.645304754376411438e-02
1.150062233209609985e-01,6.263715028762817383e-02,1.343563050031661987e-01,-3.187041729688644409e-02,3.896792978048324585e-02,9.569869190454483032e-02,1.465690135955810547e-01,-1.220998913049697876e-01,-7.506506145000457764e-02,-1.538724303245544434e-01,9.072519093751907349e-02,-1.436800956726074219e-01,-7.858356088399887085e-02,-5.841782689094543457e-02,1.356793344020843506e-01,1.511941850185394287e-01,-3.456269949674606323e-02,7.937284559011459351e-02,4.309529438614845276e-02,6.373870372772216797e-02,-1.515567600727081299e-01,4.677633941173553467e-02,-2.051933109760284424e-02,-1.914409548044204712e-02,-9.617188572883605957e-02,-7.733238488435745239e-02,4.370693117380142212e-02,-1.461947113275527954e-01,-6.624152511358261108e-02,-3.263701125979423523e-02,-8.212557435035705566e-02,2.805228531360626221e-02,-1.089714169502258301e-01,-7.028655707836151123e-02,4.864028096199035645e-02,-8.238232880830764771e-02,-1.348189413547515869e-01,9.794190526008605957e-02,-1.172464415431022644e-01,-6.199616566300392151e-02
-5.769309774041175842e-02,1.529894620180130005e-01,1.498119980096817017e-01,-4.395987838506698608e-02,1.235360838472843170e-02,-3.284840378910303116e-03,1.191724324598908424e-03,-6.490145623683929443e-02,-2.233686856925487518e-02,2.762410342693328857e-01,1.937391795217990875e-02,-2.522440813481807709e-02,-1.493306946940720081e-03,2.703451812267303467e-01,1.063505858182907104e-01,8.127871155738830566e-02,7.118573784828186035e-02,9.203036874532699585e-02,-2.520478069782257080e-01,1.202081441879272461e-01,7.253630086779594421e-03,-1.786415651440620422e-02,3.218485116958618164e-01,1.664445698261260986e-01,2.432092279195785522e-02,8.727166801691055298e-02,-1.967114210128784180e-02,1.060994938015937805e-01,1.275136172771453857e-01,1.072563454508781433e-01,1.743270158767700195e-01,2.483352273702621460e-02,6.398678570985794067e-02,8.079472184181213379e-02,-1.439141035079956055e-01,1.116579771041870117e-01,6.252242624759674072e-02,5.451474338769912720e-02,3.366473615169525146e-01,-1.963002830743789673e-01
1.024772301316261292e-01,4.873126372694969177e-02,2.853468619287014008e-02,2.252536416053771973e-01,-2.157321572303771973e-02,-1.331972926855087280e-01,-6.454746425151824951e-02,1.260343790054321289e-01,-1.325111538171768188e-01,1.031048297882080078e-01,1.424609273672103882e-01,-2.153753861784934998e-02,-1.263290941715240479e-01,2.014811187982559204e-01,1.157328560948371887e-01,3.869059309363365173e-02,-1.000672206282615662e-01,-5.074047297239303589e-02,2.774771116673946381e-02,-1.236292347311973572e-02,-1.994916796684265137e-01,1.827093362808227539e-01,1.558858901262283325e-01,1.462522894144058228e-01,-1.268824416911229491e-04,-5.741089209914207458e-02,9.711688011884689331e-02,-1.498958766460418701e-01,5.271641165018081665e-02,5.779340863227844238e-02,2.574111819267272949e-01,2.093296200037002563e-01,1.623190380632877350e-02,2.704331874847412109e-01,-5.455589387565851212e-03,1.220852062106132507e-01,2.056792676448822021e-01,-3.668968379497528076e-02,3.690563142299652100e-01,-1.608438789844512939e-01
8.827781304717063904e-03,-2.468499355018138885e-02,-1.032322645187377930e-01,2.929569184780120850e-01,1.324618160724639893e-01,9.476515650749206543e-02,5.326366424560546875e-02,-2.206098102033138275e-02,-1.155082732439041138e-01,4.418706893920898438e-01,1.388982534408569336e-01,5.790954828262329102e-02,7.270498573780059814e-02,3.609678149223327637e-01,1.477038264274597168e-01,3.481477797031402588e-01,-3.128142654895782471e-02,-1.973162777721881866e-02,-1.149173751473426819e-01,1.805358529090881348e-01,2.906087785959243774e-02,-1.105327755212783813e-01,7.542130947113037109e-01,-5.324591882526874542e-03,7.534969598054885864e-02,7.857698202133178711e-02,1.119501963257789612e-01,1.628335379064083099e-02,1.306258887052536011e-01,4.940833747386932373e-01,3.020975291728973389e-01,-2.364149130880832672e-02,2.340609952807426453e-02,1.627791523933410645e-01,-1.565646529197692871e-01,3.724607229232788086e-01,2.933546602725982666e-01,-3.521230071783065796e-02,6.767680048942565918e-01,9.148129820823669434e-02
8.034901320934295654e-02,1.187515407800674438e-01,-1.249191612005233765e-01,6.590109318494796753e-02,1.453889757394790649e-01,-8.820605278015136719e-02,1.045210808515548706e-01,4.763348028063774109e-02,-3.261253703385591507e-03,-1.381172537803649902e-01,1.766417548060417175e-02,-9.057953208684921265e-02,-1.153370589017868042e-01,1.379160117357969284e-02,1.387448608875274658e-01,-1.153134629130363464e-01,1.201780661940574646e-01,-1.507308334112167358e-01,4.990148171782493591e-02,2.656480669975280762e-02,-9.758305549621582031e-02,-4.997046664357185364e-02,1.031958404928445816e-02,-2.547358162701129913e-02,4.202495515346527100e-02,-5.674574524164199829e-02,1.114892736077308655e-01,1.232276037335395813e-01,8.556149899959564209e-02,-9.773828834295272827e-02,-4.511504247784614563e-02,6.537880748510360718e-02,-1.219186335802078247e-01,2.348936721682548523e-02,-6.457785516977310181e-02,3.797856718301773071e-02,-5.089108273386955261e-02,-6.268022209405899048e-02,-2.731487713754177094e-02,-1.696127280592918396e-02
1.301036924123764038e-01,8.271206915378570557e-02,-1.382492929697036743e-01,1.063582748174667358e-01,-1.625850051641464233e-02,9.796565771102905273e-02,-1.470306366682052612e-01,-1.545303165912628174e-01,-1.886521093547344208e-02,4.216348007321357727e-02,-8.824624121189117432e-02,1.265165954828262329e-01,-2.250752411782741547e-02,1.167795956134796143e-01,-1.282560229301452637e-01,6.968527287244796753e-02,1.390792876482009888e-01,6.211632862687110901e-02,7.553271017968654633e-03,-1.237368956208229065e-02,-9.047823399305343628e-02,-8.610305935144424438e-02,7.152125239372253418e-02,6.799576431512832642e-02,1.607201760634779930e-03,-8.186763525009155273e-02,-6.644240766763687134e-02,-8.147759735584259033e-02,-1.007581725716590881e-01,-1.070321500301361084e-01,-1.405370682477951050e-01,3.586260974407196045e-02,-2.783239632844924927e-02,-1.454985588788986206e-01,-3.404697030782699585e-02,5.831095576286315918e-02,1.117328703403472900e-01,-3.025039471685886383e-02,6.636928021907806396e-02,-1.082467064261436462e-01
6.132918968796730042e-02,-1.351258009672164917e-01,8.166263252496719360e-02,3.233133554458618164e-01,1.341367512941360474e-02,-1.462034042924642563e-02,-6.884508579969406128e-02,-7.853730022907257080e-02,4.293515533208847046e-02,3.075472116470336914e-01,6.707161664962768555e-02,-5.259962752461433411e-02,-2.193090878427028656e-02,7.860340923070907593e-02,4.496653005480766296e-02,3.840484917163848877e-01,-2.093643546104431152e-01,-1.294198930263519287e-01,1.006356179714202881e-01,2.598447203636169434e-01,-2.478565573692321777e-01,-1.510588265955448151e-02,1.429929882287979126e-01,-1.022428646683692932e-01,1.318169236183166504e-01,-2.655418515205383301e-01,-5.490836128592491150e-02,-8.456433564424514771e-02,1.405618339776992798e-01,3.868220746517181396e-01,2.048727124929428101e-01,4.920841753482818604e-01,8.592141093686223030e-04,2.481306940317153931e-01,-1.221406981348991394e-01,1.662931889295578003e-01,-3.867737576365470886e-02,-6.627692282199859619e-02,-7.031854391098022461e-01,-1.833446472883224487e-01
1.101288199424743652e-01,-8.179038763046264648e-02,-8.937033265829086304e-02,-1.663058102130889893e-01,-1.375751197338104248e-01,2.045370452105998993e-02,-1.550124883651733398e-01,1.354192793369293213e-01,2.703661657869815826e-02,-5.476607382297515869e-02,3.521761670708656311e-02,5.025398731231689453e-02,7.423909381031990051e-03,-5.724795535206794739e-02,7.203783839941024780e-02,-2.477933019399642944e-01,5.758319422602653503e-02,-5.361434444785118103e-02,1.081602871417999268e-01,-4.924787580966949463e-02,2.907534539699554443e-01,1.592747867107391357e-01,-4.458939135074615479e-01,1.237364411354064941e-01,4.370881244540214539e-02,3.349689021706581116e-02,-5.529737845063209534e-02,1.097216606140136719e-01,-1.928256824612617493e-02,6.272483151406049728e-03,-2.972166240215301514e-01,-2.047705948352813721e-01,8.294720947742462158e-02,-1.577553600072860718e-01,2.988867759704589844e-01,-5.973249301314353943e-02,2.347974479198455811e-02,-5.941369011998176575e-02,-6.224432587623596191e-01,1.584603190422058105e-01
9.106680750846862793e-02,-6.871650111861526966e-04,-2.212900482118129730e-02,2.694027423858642578e-01,9.199074655771255493e-02,8.923707902431488037e-02,1.879984512925148010e-02,8.126470446586608887e-02,-2.720949612557888031e-02,4.589105024933815002e-02,6.228628568351268768e-03,-1.996870487928390503e-01,-2.245789580047130585e-02,2.133251540362834930e-02,8.996304869651794434e-02,3.233375549316406250e-01,-1.212372332811355591e-01,-2.230473095551133156e-03,-2.257938981056213379e-01,8.802679181098937988e-02,-6.005484238266944885e-02,1.630098223686218262e-01,3.253168761730194092e-01,2.645415365695953369e-01,2.144253253936767578e-01,2.607718110084533691e-02,-3.287755697965621948e-02,-1.639178991317749023e-01,2.023834735155105591e-01,-6.553275138139724731e-02,-1.110480353236198425e-02,5.882405117154121399e-02,1.036011800169944763e-01,2.083793878555297852e-01,7.594124972820281982e-02,1.476467102766036987e-01,1.306918561458587646e-01,1.065708100795745850e-01,3.692587614059448242e-01,-1.772021800279617310e-01
-9.912520647048950195e-02,-1.312602907419204712e-01,2.906860224902629852e-02,3.857826814055442810e-02,1.567950844764709473e-01,-8.034085482358932495e-02,1.342444866895675659e-01,1.291560381650924683e-01,-5.073356628417968750e-02,-1.169364005327224731e-01,-7.414973527193069458e-02,8.240012824535369873e-02,3.717141970992088318e-02,-4.990756511688232422e-02,-1.248270049691200256e-01,-1.750794798135757446e-01,1.327380090951919556e-01,9.836641699075698853e-02,1.209339573979377747e-01,-2.455995045602321625e-02,2.091753482818603516e-01,2.348866462707519531e-01,-1.164759099483489990e-01,-1.049416977912187576e-02,5.240263789892196655e-02,5.154223740100860596e-02,9.822880476713180542e-02,1.580887138843536377e-01,-5.548651143908500671e-02,4.576408769935369492e-03,-1.150389537215232849e-01,-7.955577969551086426e-02,1.167036220431327820e-02,2.521275728940963745e-02,2.096800208091735840e-01,-1.826168596744537354e-01,-2.013849318027496338e-01,-1.171229500323534012e-02,-6.055711507797241211e-01,1.909145712852478027e-01
-3.902319446206092834e-02,-8.451254665851593018e-02,-1.346475444734096527e-03,-3.285484015941619873e-02,-1.128930300474166870e-01,4.320140182971954346e-02,-1.197262853384017944e-01,-1.565039306879043579e-01,-1.128678768873214722e-01,-7.591591775417327881e-02,1.247153878211975098e-01,2.178620994091033936e-01,-1.462044417858123779e-01,-9.295868128538131714e-02,-1.300873048603534698e-02,-2.601292133331298828e-01,1.535258144140243530e-01,-1.269381344318389893e-01,1.494684964418411255e-01,-9.956750273704528809e-02,2.717316448688507080e-01,3.365517780184745789e-02,-3.774381279945373535e-01,1.870593130588531494e-01,4.090698435902595520e-02,9.600514918565750122e-02,2.082292549312114716e-02,-1.123984809964895248e-02,-8.234908431768417358e-02,-1.849582493305206299e-01,-1.961906105279922485e-01,3.335401043295860291e-02,5.381044000387191772e-02,-1.833609640598297119e-01,2.154822945594787598e-01,-1.738472729921340942e-01,-3.680941835045814514e-02,1.018438115715980530e-01,-7.043435573577880859e-01,5.637109279632568359e-02
-4.698427766561508179e-02,4.811059683561325073e-02,-1.355729401111602783e-01,-1.045853197574615479e-01,-3.843174502253532410e-02,-5.963942781090736389e-02,1.557740718126296997e-01,-8.739407360553741455e-02,1.252802461385726929e-01,1.487246751785278320e-01,-2.222187258303165436e-02,1.270594000816345215e-01,2.720404043793678284e-02,-1.042173951864242554e-01,-3.853842616081237793e-02,-1.696166768670082092e-02,-9.360383450984954834e-02,-7.998825609683990479e-02,5.085211247205734253e-02,1.731764152646064758e-02,6.578224152326583862e-02,1.179704349488019943e-02,-1.405798196792602539e-01,-1.629198640584945679e-01,-3.695529699325561523e-02,1.561572402715682983e-01,8.526734262704849243e-02,9.947767108678817749e-02,-1.514369547367095947e-01,-1.467500720173120499e-02,-3.688956424593925476e-02,-4.851414635777473450e-02,1.101939231157302856e-01,3.443510085344314575e-02,-4.733560234308242798e-02,1.291883289813995361e-01,3.983755037188529968e-02,-4.039528593420982361e-02,-8.997513353824615479e-02,-1.454322487115859985e-01
1.203951984643936157e-01,-4.420660808682441711e-02,-8.938671648502349854e-02,-3.031358681619167328e-02,-1.028371229767799377e-01,1.115626022219657898e-01,7.121302187442779541e-02,-6.315337866544723511e-02,8.356611430644989014e-02,2.703555822372436523e-01,1.222042590379714966e-01,-8.074541389942169189e-02,1.209513619542121887e-01,6.369859725236892700e-02,5.234456621110439301e-03,1.488142907619476318e-01,-1.612661033868789673e-01,-6.432233750820159912e-02,-9.375320374965667725e-02,1.906066089868545532e-01,-1.710228919982910156e-01,9.277440607547760010e-02,3.312183618545532227e-01,2.575011551380157471e-01,1.995631456375122070e-01,2.052549272775650024e-01,-8.423262834548950195e-02,-4.517616331577301025e-02,2.783887088298797607e-01,8.751219511032104492e-02,5.103268474340438843e-02,-2.343599498271942139e-02,8.485183119773864746e-02,6.315266340970993042e-02,-1.120378077030181885e-01,2.706654369831085205e-01,1.200851723551750183e-01,-9.675686806440353394e-02,5.978574752807617188e-01,-1.076287925243377686e-01
-1.252791881561279297e-01,-1.227670237421989441e-01,9.386862069368362427e-02,-2.252500057220458984e-01,-1.105210408568382263e-01,-3.937150165438652039e-02,-1.469243913888931274e-01,3.126613050699234009e-02,6.794472038745880127e-02,-2.655488550662994385e-01,-1.394539326429367065e-01,1.454894095659255981e-01,-1.407558321952819824e-01,-1.930569410324096680e-01,8.083514124155044556e-02,-2.953248918056488037e-01,9.622786194086074829e-02,-8.024463057518005371e-02,2.080579400062561035e-01,-1.077182125300168991e-03,2.129432111978530884e-01,2.052793651819229126e-01,-2.205073237419128418e-01,6.425602734088897705e-02,2.393534928560256958e-01,-1.350158303976058960e-01,4.207746684551239014e-02,2.059350460767745972e-01,-1.642791479825973511e-01,-1.227663531899452209e-01,-2.245933860540390015e-01,-1.396993100643157959e-01,-1.393444985151290894e-01,-3.845201432704925537e-02,1.004804745316505432e-01,-1.588650494813919067e-01,-6.254204362630844116e-02,8.146039396524429321e-02,-5.268816947937011719e-01,1.712073571979999542e-02
-1.445250213146209717e-01,-1.858887076377868652e-02,-2.730451989918947220e-03,-1.698722094297409058e-01,-1.266096532344818115e-01,-1.059829369187355042e-01,-5.261640250682830811e-02,-5.373442918062210083e-02,7.543310523033142090e-02,-2.064668089151382446e-01,-4.145508632063865662e-02,1.697864383459091187e-01,1.245219558477401733e-01,-5.740281194448471069e-02,1.144483238458633423e-01,-2.910119891166687012e-01,2.419602423906326294e-01,-8.144611865282058716e-02,9.231698513031005859e-02,-2.242769300937652588e-01,-3.432370722293853760e-02,2.076716870069503784e-01,-3.701117932796478271e-01,-1.157093644142150879e-01,1.787533760070800781e-01,-1.609930992126464844e-01,7.848086953163146973e-02,-3.146889805793762207e-02,-5.306838080286979675e-03,6.942480802536010742e-02,-7.369897514581680298e-02,-2.221020311117172241e-01,1.381743848323822021e-01,3.249032795429229736e-02,2.455015629529953003e-01,-3.648897260427474976e-02,6.370205432176589966e-02,-7.279673218727111816e-02,-4.195760190486907959e-01,8.337653428316116333e-02
-8.677604794502258301e-02,-1.109500154852867126e-01,1.088141426444053650e-01,5.098738893866539001e-02,1.087262481451034546e-01,4.257164150476455688e-02,5.757135152816772461e-02,-5.861447378993034363e-02,-1.011536195874214172e-01,-5.524054914712905884e-02,-4.187991470098495483e-02,-1.206281930208206177e-01,-1.455494165420532227e-01,-3.770130127668380737e-02,-3.911387547850608826e-02,7.374618202447891235e-02,2.479412779211997986e-02,-4.597971960902214050e-02,-4.015469923615455627e-02,-1.030196398496627808e-01,-2.661420963704586029e-02,-1.147434338927268982e-01,-5.879889056086540222e-02,-1.155869141221046448e-01,-9.292463958263397217e-02,7.395781576633453369e-02,-1.140865013003349304e-01,-7.414894551038742065e-02,-5.111618340015411377e-02,1.109880134463310242e-01,-1.415024548768997192e-01,1.497103869915008545e-01,-3.204184398055076599e-02,-9.584534913301467896e-03,-9.940077550709247589e-03,-5.882580578327178955e-02,5.200393497943878174e-02,9.879145026206970215e-02,-3.548415377736091614e-02,7.978101074695587158e-02
-9.995145350694656372e-02,1.357586681842803955e-01,-7.122706621885299683e-02,-6.840486824512481689e-02,-1.551076173782348633e-01,-2.208963967859745026e-03,1.031897440552711487e-01,9.077932685613632202e-02,-1.164492592215538025e-01,-6.833200901746749878e-02,1.460531502962112427e-01,-1.213194057345390320e-01,8.018865436315536499e-02,7.491120696067810059e-02,-1.622755080461502075e-03,-1.575529724359512329e-01,7.380374521017074585e-02,-9.139466285705566406e-02,2.092474885284900665e-02,9.347559511661529541e-02,1.195398494601249695e-01,-1.323450654745101929e-01,1.038929820060729980e-01,9.187765419483184814e-02,-1.305772215127944946e-01,-6.010824814438819885e-02,2.904794551432132721e-02,-1.152625381946563721e-01,4.411960765719413757e-02,-1.763680428266525269e-01,-6.285499036312103271e-02,2.888310700654983521e-02,4.339005425572395325e-02,1.175923049449920654e-01,-6.603407114744186401e-02,3.716661012731492519e-05,6.224145367741584778e-02,1.240151003003120422e-01,-9.518074244260787964e-02,4.438293725252151489e-02
1.527654230594635010e-01,1.136209219694137573e-01,1.282513141632080078e-01,-8.852367848157882690e-02,4.323528334498405457e-02,1.222082995809614658e-03,1.410442143678665161e-01,4.988072812557220459e-02,-1.338424980640411377e-01,-2.240523397922515869e-01,3.789370879530906677e-02,1.505142897367477417e-01,9.481618553400039673e-02,-2.935923635959625244e-02,-4.192166402935981750e-02,-2.768647968769073486e-01,1.908840537071228027e-01,-3.908848762512207031e-02,1.022386625409126282e-01,-1.425665766000747681e-01,8.921367116272449493e-03,2.516468465328216553e-01,-3.126223087310791016e-01,1.636496335268020630e-01,2.232394367456436157e-02,7.615143805742263794e-02,-5.245370324701070786e-03,2.075174748897552490e-01,-6.753827631473541260e-02,-9.574108570814132690e-02,-1.339281350374221802e-01,6.682170927524566650e-02,3.190493211150169373e-03,5.592690408229827881e-02,1.611624807119369507e-01,-2.592461407184600830e-01,-5.225174501538276672e-02,1.312255412340164185e-01,-6.433668732643127441e-01,1.568378508090972900e-01
9.821526706218719482e-02,1.218028590083122253e-01,2.572204731404781342e-02,3.199349856004118919e-03,-4.351205751299858093e-02,-1.517964899539947510e-01,-4.236553236842155457e-02,1.099340543150901794e-01,2.095631696283817291e-02,1.338630467653274536e-01,-9.902070462703704834e-02,-7.166891545057296753e-02,7.368157058954238892e-02,-7.637701928615570068e-02,1.365112662315368652e-01,-1.362031251192092896e-01,1.336455345153808594e-01,1.304932087659835815e-01,-1.524510383605957031e-01,1.398946275003254414e-03,1.633525267243385315e-02,8.027793467044830322e-02,-1.351564377546310425e-01,-1.243220940232276917e-01,-1.577886343002319336e-01,5.477841943502426147e-02,-7.756222784519195557e-02,-7.084607332944869995e-02,1.046867594122886658e-01,6.472703069448471069e-02,1.527648866176605225e-01,1.352388113737106323e-01,1.246082708239555359e-01,-1.280335336923599243e-01,-3.569075465202331543e-02,-1.264544725418090820e-01,-1.496152728796005249e-01,7.041709870100021362e-02,-1.433978974819183350e-01,1.409367751330137253e-02
1.046605780720710754e-01,1.071219667792320251e-01,9.737060219049453735e-02,-3.631827607750892639e-02,-5.753782019019126892e-02,9.972886741161346436e-02,-1.380964219570159912e-01,1.339815109968185425e-01,-6.254494190216064453e-02,-1.181823983788490295e-01,-9.628171473741531372e-02,1.760820895433425903e-01,3.209124878048896790e-02,-1.463943906128406525e-02,-3.472255542874336243e-02,-2.649843990802764893e-01,1.858322173357009888e-01,-9.376449882984161377e-02,2.816010117530822754e-01,-3.482260927557945251e-02,1.320143043994903564e-01,1.079678982496261597e-01,-1.476445496082305908e-01,-3.800936043262481689e-02,9.368878602981567383e-02,-1.306481212377548218e-01,1.551712900400161743e-01,1.474747061729431152e-01,-1.770030409097671509e-01,5.642945319414138794e-02,-1.137205734848976135e-01,-6.806044280529022217e-02,1.191691122949123383e-02,-5.288057029247283936e-02,1.496943980455398560e-01,-1.266882009804248810e-02,-9.940435737371444702e-02,-9.750336408615112305e-02,-5.039303302764892578e-01,7.788571715354919434e-02
-2.327854558825492859e-02,8.462551049888134003e-03,-1.558351982384920120e-02,1.805191338062286377e-01,-1.482449173927307129e-01,5.028514564037322998e-02,6.739965826272964478e-02,-3.914842382073402405e-02,4.938787594437599182e-02,-4.336006473749876022e-03,2.035250142216682434e-02,-6.036096811294555664e-02,1.189993247389793396e-01,2.768692076206207275e-01,-1.451634466648101807e-01,2.083948552608489990e-01,-1.011013612151145935e-01,4.137369617819786072e-02,-3.684150800108909607e-02,8.939537405967712402e-02,-1.389373838901519775e-01,-4.670664295554161072e-02,1.878396272659301758e-01,1.891679763793945312e-01,4.347448050975799561e-02,1.836034506559371948e-01,-8.379767835140228271e-02,-8.918931335210800171e-02,2.123610526323318481e-01,1.371289640665054321e-01,2.326896488666534424e-01,2.161558270454406738e-01,-8.484159409999847412e-02,2.233283072710037231e-01,6.102785700932145119e-04,2.636886835098266602e-01,2.016479894518852234e-02,-1.015480458736419678e-01,5.608783960342407227e-01,8.000691235065460205e-02
