-2.562984526157379150e-01
7.802413702011108398e-01
4.016207754611968994e-01
-4.340754449367523193e-02
-6.497439146041870117e-01
1.292127221822738647e-01
6.102061271667480469e-01
4.081168398261070251e-02
-3.248229622840881348e-01
-5.551819205284118652e-01
-3.424471914768218994e-01
-4.461868107318878174e-01
-4.306513369083404541e-01
-4.677122086286544800e-02
5.878428816795349121e-01
7.007148861885070801e-01
-1.007929220795631409e-01
-5.672302842140197754e-01
1.917023509740829468e-01
6.272769570350646973e-01
-6.377049684524536133e-01
-3.833852708339691162e-01
-4.070668220520019531e-01
-5.110246539115905762e-01
6.088989377021789551e-01
8.066967874765396118e-02
8.898750543594360352e-01
-4.358299672603607178e-01
2.231813222169876099e-01
2.880142629146575928e-01
3.416865170001983643e-01
3.854466378688812256e-01
-3.974152207374572754e-01
-1.110133528709411621e+00
5.563328862190246582e-01
8.053399324417114258e-01
2.713507115840911865e-01
4.434179663658142090e-01
-2.174902409315109253e-01
-6.922006607055664062e-01
