-8.884549140930175781e-02
-1.304133087396621704e-01
1.085403282195329666e-02
1.135041564702987671e-01
-1.404260545969009399e-01
8.760111033916473389e-02
-9.470293670892715454e-02
-1.483834236860275269e-01
4.971444979310035706e-02
1.071452274918556213e-01
1.457054819911718369e-02
1.644995063543319702e-01
4.976277425885200500e-02
1.442721337080001831e-01
-3.711657971143722534e-02
-2.087785303592681885e-02
1.829145103693008423e-01
7.456272840499877930e-02
1.534021049737930298e-01
1.315987408161163330e-01
7.844711095094680786e-02
1.513828039169311523e-01
1.284810006618499756e-01
-6.475536618381738663e-03
1.803890317678451538e-01
1.089324057102203369e-01
2.288225293159484863e-02
9.021288901567459106e-02
-1.988729089498519897e-02
1.608657687902450562e-01
1.696171462535858154e-01
2.058027088642120361e-01
-1.399138271808624268e-01
-6.331644952297210693e-02
8.583318442106246948e-02
1.099484041333198547e-01
-1.509094089269638062e-01
-1.493359208106994629e-01
1.780074536800384521e-01
6.244490295648574829e-02
