-2.387026138603687286e-02,7.771612703800201416e-02,1.401564180850982666e-01,-1.044338494539260864e-01,1.333020776510238647e-01,4.125496838241815567e-03,1.232933159917593002e-02,-1.563275605440139771e-01,1.193250864744186401e-01,1.492669284343719482e-01,-3.483877703547477722e-02,1.375254690647125244e-01,-7.488319277763366699e-02,6.099490821361541748e-02,5.106487870216369629e-02,-1.302397102117538452e-01,1.178495809435844421e-01,-8.292969316244125366e-03,-5.889324471354484558e-02,-2.769223786890506744e-02,1.066614612936973572e-01,1.873928308486938477e-02,-1.087522655725479126e-01,-6.355851143598556519e-02,-1.188834682106971741e-01,1.227457374334335327e-01,-1.371882557868957520e-01,-7.879143953323364258e-02,9.834549576044082642e-02,8.078960329294204712e-02,-7.222988456487655640e-02,-1.329082250595092773e-01,8.854685723781585693e-02,4.051155969500541687e-02,-8.906317502260208130e-02,7.636152952909469604e-02,4.408339783549308777e-02,1.079194918274879456e-01,1.501542180776596069e-01,3.647608449682593346e-03
7.800929248332977295e-02,3.617738932371139526e-02,-1.553912460803985596e-01,-7.963331043720245361e-02,1.062428131699562073e-01,-6.554570794105529785e-02,4.844376444816589355e-02,-1.458386331796646118e-01,1.544392853975296021e-01,-1.162398830056190491e-01,9.052336215972900391e-02,-8.025846630334854126e-02,-1.641586795449256897e-02,5.005311965942382812e-02,8.082386851310729980e-02,2.483755536377429962e-02,3.819481655955314636e-02,-2.623970620334148407e-02,7.255387306213378906e-02,-1.239588409662246704e-01,1.293644011020660400e-01,-5.460352078080177307e-02,-7.232049107551574707e-02,-8.907563239336013794e-02,-1.433732509613037109e-01,7.483318448066711426e-02,2.369010634720325470e-02,-1.427396088838577271e-01,-1.291389614343643188e-01,1.322761029005050659e-01,1.465495377779006958e-01,3.353954106569290161e-02,-3.238394856452941895e-02,1.403409689664840698e-01,2.489057555794715881e-02,-1.302080303430557251e-01,1.078595146536827087e-01,-1.943332841619849205e-03,-4.065435752272605896e-02,-1.248568445444107056e-01
-4.635254293680191040e-02,1.645202934741973877e-02,-9.207096695899963379e-02,-3.515038266777992249e-02,1.285134106874465942e-01,-1.888887211680412292e-02,9.576376527547836304e-02,1.412893980741500854e-01,-4.505502432584762573e-02,5.892415717244148254e-02,-9.420071542263031006e-02,-3.690906241536140442e-02,6.289684772491455078e-02,-2.353592310100793839e-03,-2.786502428352832794e-02,-8.607806265354156494e-02,1.233974695205688477e-01,-8.005539327859878540e-02,-1.144499033689498901e-01,-7.670609652996063232e-02,6.400124728679656982e-02,-8.483865857124328613e-02,7.149896770715713501e-02,4.864342883229255676e-02,-8.265091478824615479e-02,-4.713521897792816162e-02,9.716401249170303345e-02,-1.694738864898681641e-02,1.164867058396339417e-01,-1.440049521625041962e-02,-1.289221197366714478e-01,-1.907656900584697723e-02,-1.157294437289237976e-01,-1.171373799443244934e-01,-2.356970869004726410e-02,-7.235862314701080322e-02,-1.206499710679054260e-01,-4.483981430530548096e-02,1.509290486574172974e-01,2.282572537660598755e-02
-5.796202272176742554e-02,1.085024699568748474e-01,8.771575987339019775e-02,-1.266705393791198730e-01,-4.107356071472167969e-02,1.707862317562103271e-01,8.478082716464996338e-02,-6.566049158573150635e-02,-1.562484502792358398e-01,5.357145518064498901e-02,-1.436590254306793213e-01,-1.511089056730270386e-01,-1.298638731241226196e-01,1.432083547115325928e-01,1.751411408185958862e-01,-3.702618479728698730e-01,9.098993986845016479e-02,-8.587810397148132324e-02,-1.080315858125686646e-01,2.103869616985321045e-01,-1.090604960918426514e-01,-1.228178218007087708e-01,8.907756209373474121e-02,1.170017868280410767e-01,9.587269276380538940e-02,1.478148996829986572e-01,1.184602826833724976e-01,6.074813753366470337e-02,9.771632403135299683e-02,1.882467418909072876e-01,9.338258951902389526e-02,-2.077793143689632416e-02,2.226488590240478516e-01,-1.099300503730773926e+00,-1.131977587938308716e-01,-1.423723697662353516e-01,6.468795239925384521e-02,2.577711455523967743e-02,8.783177286386489868e-02,-1.716085672378540039e-01
1.436220109462738037e-01,1.364506781101226807e-01,-2.577698975801467896e-02,-9.515634179115295410e-02,-7.975073903799057007e-02,-2.496896684169769287e-02,4.920585453510284424e-02,-1.289387047290802002e-01,3.755586594343185425e-02,-1.074119955301284790e-01,-2.615720592439174652e-02,7.395798712968826294e-02,1.494963020086288452e-01,3.191316500306129456e-02,-6.158705800771713257e-02,1.135391741991043091e-01,-1.244222745299339294e-01,-9.240063279867172241e-02,-1.476120203733444214e-01,-8.529078960418701172e-02,-1.274042278528213501e-01,9.876050055027008057e-02,7.976350188255310059e-02,-3.747871890664100647e-02,-1.324603110551834106e-01,1.163597628474235535e-01,4.791687056422233582e-02,1.440739929676055908e-01,9.133902192115783691e-02,-1.085984557867050171e-01,-3.823912888765335083e-02,-8.368904888629913330e-02,-3.661839058622717857e-03,-9.755569696426391602e-02,-7.152758538722991943e-03,1.245904192328453064e-01,-2.614879794418811798e-02,-1.385973691940307617e-01,1.110560745000839233e-01,-2.183223329484462738e-02
-1.410309672355651855e-01,5.114207416772842407e-02,1.148320212960243225e-01,1.194244623184204102e-01,8.853053301572799683e-02,9.548986330628395081e-03,6.061903759837150574e-02,-4.028736799955368042e-02,1.336669772863388062e-01,9.502198547124862671e-02,1.058992594480514526e-01,-1.422264873981475830e-01,-6.281910091638565063e-02,-8.264990895986557007e-02,7.789853215217590332e-02,1.446040719747543335e-01,-8.334353566169738770e-02,-4.338821396231651306e-02,2.731193229556083679e-02,-2.805173024535179138e-02,-4.333893209695816040e-02,1.683840900659561157e-02,-8.786351233720779419e-02,2.724075689911842346e-02,6.497401744127273560e-02,-9.805428236722946167e-02,1.236256957054138184e-01,3.298103436827659607e-02,-9.868474304676055908e-02,1.281539350748062134e-01,-5.927987024188041687e-02,-1.090475469827651978e-01,3.337828442454338074e-02,6.303067505359649658e-02,-1.588149219751358032e-01,-2.123221941292285919e-02,-1.332900822162628174e-01,-3.161947801709175110e-02,5.329872295260429382e-02,-4.586421698331832886e-02
-8.393125981092453003e-02,1.172592937946319580e-01,-7.970900833606719971e-02,-2.719550207257270813e-02,1.419668197631835938e-01,-1.383998245000839233e-01,-3.654733300209045410e-02,-6.657793186604976654e-03,-2.977953664958477020e-02,-1.227106824517250061e-01,6.083757802844047546e-02,-1.429213490337133408e-02,-1.444216221570968628e-01,3.451295942068099976e-02,-8.824557997286319733e-03,8.554796129465103149e-02,5.436633154749870300e-02,5.133032426238059998e-02,2.444846183061599731e-02,-1.020946800708770752e-01,2.458652853965759277e-02,1.195074468851089478e-01,7.350894063711166382e-02,3.214148059487342834e-02,-6.969302892684936523e-02,1.004907116293907166e-01,5.247818678617477417e-02,-8.042022585868835449e-02,7.740659266710281372e-02,-5.729776620864868164e-02,5.847384408116340637e-02,-8.010986447334289551e-02,-4.193408414721488953e-03,-1.298171877861022949e-01,-1.473458260297775269e-01,3.088286146521568298e-02,1.122290492057800293e-01,-6.775480508804321289e-02,9.333194047212600708e-02,1.575666666030883789e-01
-4.417971149086952209e-02,4.646554589271545410e-02,-1.094030886888504028e-01,-1.090005710721015930e-01,-3.208216279745101929e-02,-9.432992339134216309e-02,-8.233294822275638580e-03,-7.881683111190795898e-02,-1.373638957738876343e-01,-1.203469485044479370e-01,9.083218127489089966e-02,-8.333665877580642700e-02,-1.088574379682540894e-01,-3.488936647772789001e-02,-1.353145688772201538e-01,3.738513588905334473e-02,1.070053726434707642e-01,-7.853490859270095825e-02,-1.031804922968149185e-02,-1.398806273937225342e-01,4.681824147701263428e-02,3.212704136967658997e-02,-6.472680717706680298e-03,1.464287191629409790e-01,4.083307832479476929e-02,1.570779085159301758e-01,6.864996254444122314e-02,1.224504038691520691e-02,5.273002386093139648e-02,1.212437078356742859e-01,4.475649818778038025e-02,-1.416120082139968872e-01,1.013285890221595764e-01,2.195301494793966413e-04,-6.899847649037837982e-03,6.100862845778465271e-02,-8.347971737384796143e-02,-1.094619706273078918e-01,1.325100511312484741e-01,9.898610413074493408e-02
5.270448327064514160e-02,-3.674912452697753906e-02,-5.893247202038764954e-02,-8.913160115480422974e-02,-1.438273489475250244e-01,-1.261755675077438354e-01,-3.441579639911651611e-02,-2.812516875565052032e-02,-1.387687325477600098e-01,9.962936490774154663e-02,-7.641191035509109497e-02,-3.915225341916084290e-02,1.270482242107391357e-01,3.222514316439628601e-02,-1.727528721094131470e-01,-7.117777317762374878e-02,-4.344024136662483215e-02,3.445558249950408936e-02,1.369030922651290894e-01,-1.313324458897113800e-02,-7.239106297492980957e-02,-1.656771749258041382e-01,-1.882040291093289852e-03,-1.235626190900802612e-01,-1.373056974261999130e-02,-1.445053666830062866e-01,1.261995285749435425e-01,-8.186267316341400146e-02,-9.005291014909744263e-02,1.223210915923118591e-01,-6.367863621562719345e-03,-1.668847650289535522e-01,-7.561182975769042969e-02,-1.223195940256118774e-01,-6.437917798757553101e-02,9.550316259264945984e-03,1.628788560628890991e-02,9.031697362661361694e-02,-1.250783801078796387e-01,-2.151540666818618774e-02
-7.411593943834304810e-02,-9.706256538629531860e-02,1.457978188991546631e-01,7.050751894712448120e-02,-4.236311838030815125e-02,-2.516479790210723877e-02,2.028207033872604370e-01,-1.007463634014129639e-01,8.170738071203231812e-02,7.318252325057983398e-02,-1.569419652223587036e-01,1.574559509754180908e-01,3.394686058163642883e-02,-1.274665445089340210e-01,-5.648795980960130692e-03,-4.086219668388366699e-01,1.329413652420043945e-01,-1.109739467501640320e-01,-5.975403636693954468e-02,1.614015847444534302e-01,1.388549655675888062e-01,-8.387820422649383545e-02,1.254950463771820068e-01,-8.451545238494873047e-02,3.885892778635025024e-02,-9.749689139425754547e-03,7.622718811035156250e-02,-5.806994065642356873e-02,1.333201825618743896e-01,1.270881742238998413e-01,1.498497873544692993e-01,6.778766959905624390e-02,3.334387242794036865e-01,-1.490981221199035645e+00,-4.269544035196304321e-02,-4.270784184336662292e-02,-4.089393094182014465e-02,3.646827116608619690e-02,1.910641640424728394e-01,-1.389730125665664673e-01
-4.849735274910926819e-02,-2.820446901023387909e-02,-2.737115137279033661e-02,1.173815876245498657e-01,7.164591550827026367e-02,-4.537580907344818115e-02,4.987563937902450562e-02,-9.958154708147048950e-02,-1.063382998108863831e-01,5.779863148927688599e-02,-4.679656401276588440e-02,-4.151206463575363159e-03,-9.164229035377502441e-03,9.940452128648757935e-02,1.122606173157691956e-01,-9.612393565475940704e-03,1.546957045793533325e-01,-4.915256798267364502e-02,-3.830038756132125854e-02,-8.386734127998352051e-02,-8.621510863304138184e-02,1.025261580944061279e-01,-9.372403472661972046e-02,-1.469965428113937378e-01,-1.235916838049888611e-02,-4.584719613194465637e-02,-2.190706133842468262e-02,7.928457856178283691e-02,-1.395978629589080811e-01,-5.887192860245704651e-02,1.369627267122268677e-01,3.700635209679603577e-02,3.634723275899887085e-02,3.552494198083877563e-02,-1.292500942945480347e-01,-6.455992162227630615e-02,-1.198651175945997238e-02,-8.537380024790763855e-03,-1.300791651010513306e-01,-1.033001393079757690e-01
1.205228790640830994e-01,-1.119339466094970703e-01,-1.305715888738632202e-01,-2.053486183285713196e-02,1.288630962371826172e-01,9.227076917886734009e-02,7.597731798887252808e-02,-3.075303137302398682e-02,-8.037418127059936523e-02,-3.129554912447929382e-02,1.382587999105453491e-01,5.509296897798776627e-03,9.678616374731063843e-02,-4.634574800729751587e-02,-1.166498437523841858e-01,4.183115363121032715e-01,-7.631806284189224243e-02,-4.867937043309211731e-02,-3.921203687787055969e-02,-8.594422042369842529e-02,-9.252177178859710693e-02,1.750804334878921509e-01,4.874891415238380432e-02,1.807613112032413483e-02,2.125068157911300659e-01,1.764244586229324341e-01,-1.147854253649711609e-01,6.313734501600265503e-02,3.015348315238952637e-02,-1.621115952730178833e-01,1.028204634785652161e-01,2.319736033678054810e-01,-2.727228999137878418e-01,9.471783638000488281e-01,1.575694233179092407e-01,2.458360940217971802e-01,9.270402789115905762e-02,1.418684571981430054e-01,1.387227624654769897e-01,-9.410163760185241699e-02
-3.451187908649444580e-02,1.048391684889793396e-01,-1.230999603867530823e-01,-4.565769061446189880e-02,-3.141473606228828430e-02,-9.064237028360366821e-02,-1.575141847133636475e-01,-3.715046867728233337e-02,7.724473625421524048e-02,1.397331953048706055e-01,-1.226775869727134705e-01,-1.259589791297912598e-01,3.664679452776908875e-02,-8.355895429849624634e-02,1.478298567235469818e-02,4.607608541846275330e-02,1.053076162934303284e-01,1.070588231086730957e-01,1.623604446649551392e-02,-1.183245256543159485e-01,-3.078765794634819031e-02,5.695321783423423767e-02,-9.738487005233764648e-02,6.062645465135574341e-02,8.741534501314163208e-02,-1.433873027563095093e-01,9.948456287384033203e-02,-9.664012491703033447e-02,7.400555163621902466e-02,-8.816148340702056885e-02,1.453599780797958374e-01,1.009355187416076660e-01,3.307056054472923279e-02,1.121222525835037231e-01,-1.424869745969772339e-01,-6.473727524280548096e-02,-1.669155061244964600e-01,6.558049470186233521e-02,1.249657124280929565e-01,-3.115502186119556427e-02
1.128807589411735535e-01,1.607339233160018921e-01,2.493336331099271774e-03,-3.341664746403694153e-02,-3.574415668845176697e-02,-1.697439327836036682e-02,-6.028717756271362305e-02,1.531190872192382812e-01,1.251537352800369263e-01,-9.032781422138214111e-02,3.380613401532173157e-02,5.263371393084526062e-02,9.881791472434997559e-02,-5.712891370058059692e-02,1.580760180950164795e-01,-3.555690944194793701e-01,1.743299700319766998e-02,-9.078353643417358398e-02,-6.880584359169006348e-02,-7.966507226228713989e-02,1.388900578022003174e-01,-1.495375633239746094e-01,2.652994124218821526e-03,-1.332446467131376266e-02,-1.065398007631301880e-01,1.417857408523559570e-01,-1.108734607696533203e-01,-9.400201588869094849e-02,1.201397851109504700e-01,1.588959246873855591e-01,7.881535589694976807e-02,1.593536138534545898e-01,1.996218115091323853e-01,-1.632297992706298828e+00,8.741020224988460541e-03,-4.468266293406486511e-02,-9.967546910047531128e-02,9.681571274995803833e-03,1.085186824202537537e-01,-1.352930516004562378e-01
1.012037545442581177e-01,4.367686808109283447e-02,1.149446819908916950e-03,1.536000967025756836e-01,5.218512564897537231e-02,4.288009833544492722e-03,-7.319482415914535522e-02,1.356821507215499878e-02,-7.798793911933898926e-02,1.287235468626022339e-01,-1.085162982344627380e-01,-4.231686517596244812e-02,-1.406726539134979248e-01,-9.944255650043487549e-02,-5.299218744039535522e-02,1.012154072523117065e-01,-1.260835677385330200e-01,9.105788916349411011e-02,7.072765147313475609e-04,2.397343888878822327e-02,5.907293036580085754e-02,1.271730363368988037e-01,-8.622232824563980103e-02,1.404779404401779175e-01,-3.095299750566482544e-02,6.656943261623382568e-02,-1.053958684206008911e-01,-1.999041810631752014e-02,1.208497732877731323e-01,-5.461967363953590393e-02,1.389030069112777710e-01,1.311482638120651245e-01,2.124423161149024963e-02,1.377630978822708130e-01,-1.054204851388931274e-01,1.573441475629806519e-01,-1.515567600727081299e-01,-2.960414998233318329e-02,-9.493909031152725220e-02,8.707121759653091431e-02
-6.716486811637878418e-02,-4.344852268695831299e-02,6.057049147784709930e-03,7.728445529937744141e-02,-1.366412788629531860e-01,-3.971087560057640076e-02,1.833703219890594482e-01,-4.678859561681747437e-02,-1.521183550357818604e-02,1.809850633144378662e-01,1.233164966106414795e-02,1.031594537198543549e-02,-4.023633152246475220e-02,1.380774527788162231e-01,-5.912089347839355469e-02,-5.294232368469238281e-01,1.311060041189193726e-01,-2.568683959543704987e-02,1.026894897222518921e-01,1.915877452120184898e-03,-1.505038887262344360e-01,2.387484163045883179e-02,-1.105118095874786377e-01,1.190133485943078995e-02,7.680931687355041504e-02,1.485988032072782516e-02,6.722659803926944733e-03,-4.224111139774322510e-02,2.444296516478061676e-02,-3.040819801390171051e-02,1.251186728477478027e-01,-1.029245629906654358e-01,1.060626432299613953e-01,-1.557779550552368164e+00,1.845890432596206665e-01,-8.208285272121429443e-02,3.480187803506851196e-02,7.133971899747848511e-02,-7.589761167764663696e-02,-2.026298828423023224e-02
1.228483840823173523e-01,-9.725266136229038239e-03,1.421784311532974243e-01,5.586604028940200806e-02,-1.369345486164093018e-01,8.689463138580322266e-02,1.514499336481094360e-01,-1.684900932013988495e-02,-4.760259017348289490e-02,-1.244720146059989929e-01,-7.893966138362884521e-02,1.073884442448616028e-01,6.323593854904174805e-02,-5.871008336544036865e-02,-1.751839667558670044e-01,4.967823326587677002e-01,-1.573224812746047974e-01,-3.230772214010357857e-03,5.525469779968261719e-02,-2.255218029022216797e-01,9.419093281030654907e-02,1.549515426158905029e-01,9.001749008893966675e-02,-1.568811386823654175e-01,-5.725430697202682495e-02,2.242774516344070435e-01,6.170512177050113678e-03,1.223310083150863647e-01,1.344715338200330734e-02,-1.834807358682155609e-02,-8.095021359622478485e-03,9.044532477855682373e-02,-5.798071250319480896e-02,1.244450688362121582e+00,1.260388344526290894e-01,7.983803004026412964e-02,2.233155257999897003e-02,5.908938124775886536e-02,-1.396592557430267334e-01,6.722214818000793457e-02
1.239704489707946777e-01,-1.187917441129684448e-01,1.556071043014526367e-01,9.145022369921207428e-03,1.160068586468696594e-01,-5.637789517641067505e-02,-1.277659237384796143e-01,9.648043662309646606e-02,-4.392661154270172119e-02,3.194813057780265808e-02,-1.259834170341491699e-01,-8.594975620508193970e-02,1.294045150279998779e-01,-1.400686651468276978e-01,1.930251903831958771e-02,1.563995629549026489e-01,1.352067738771438599e-01,-8.241682313382625580e-03,-9.365279972553253174e-02,5.199454724788665771e-02,-9.415294975042343140e-02,-4.201419185847043991e-03,1.343154013156890869e-01,1.104719191789627075e-01,-3.966237232089042664e-02,-9.152743220329284668e-02,2.861271239817142487e-02,1.055088639259338379e-02,-6.495953351259231567e-02,-1.619313284754753113e-02,-1.417046692222356796e-02,-1.424846500158309937e-01,3.082427941262722015e-02,1.072208508849143982e-01,-1.491226255893707275e-01,-1.381033360958099365e-01,3.106269612908363342e-02,6.145967915654182434e-02,-1.868886314332485199e-02,-2.821069024503231049e-02
3.494398295879364014e-02,5.715552833862602711e-04,-9.862858057022094727e-02,6.155940517783164978e-02,-1.009034216403961182e-01,-1.321725696325302124e-01,-8.811379224061965942e-02,2.053222209215164185e-01,9.872448444366455078e-02,-1.497048288583755493e-01,1.535812318325042725e-01,3.865683823823928833e-02,7.293348759412765503e-02,-9.626349806785583496e-02,-2.842660993337631226e-02,3.464723527431488037e-01,1.553510129451751709e-01,3.930706158280372620e-02,1.084804534912109375e-02,-1.345628947019577026e-01,-1.218718811869621277e-01,1.753376424312591553e-01,7.090620696544647217e-02,-5.554504692554473877e-02,3.066682629287242889e-02,1.420480292290449142e-02,1.605178713798522949e-01,1.679622530937194824e-01,-6.750116497278213501e-02,-6.925598531961441040e-02,8.930892497301101685e-02,1.751002371311187744e-01,-9.965160489082336426e-02,1.204118490219116211e+00,-5.833476781845092773e-02,1.762188971042633057e-01,9.331052005290985107e-02,5.133423581719398499e-02,3.493870422244071960e-02,1.611682623624801636e-01
1.550227701663970947e-01,1.776295155286788940e-01,1.180650759488344193e-02,-1.433002203702926636e-01,-9.009735286235809326e-02,-1.545788138173520565e-03,1.008863300085067749e-01,3.610033541917800903e-02,1.514983475208282471e-01,-3.636725991964340210e-02,6.131247058510780334e-02,-5.121142044663429260e-02,-9.297875314950942993e-02,-1.319319456815719604e-01,-1.029357612133026123e-01,-4.272590577602386475e-01,1.188341975212097168e-01,1.453038156032562256e-01,-1.217039749026298523e-01,1.851537823677062988e-01,-7.863337546586990356e-02,8.182214200496673584e-02,-1.457982659339904785e-01,-5.844747647643089294e-02,5.010377499274909496e-04,-1.239023804664611816e-01,-1.057207584381103516e-01,1.058853492140769958e-01,-8.207206428050994873e-02,-1.584970578551292419e-02,-9.979830682277679443e-02,1.042815744876861572e-01,1.184237897396087646e-01,-1.048102498054504395e+00,1.823691427707672119e-01,5.583374947309494019e-02,-1.267763972282409668e-02,4.693993180990219116e-02,-5.633904784917831421e-02,-2.217893451452255249e-01
7.639621943235397339e-02,7.023628056049346924e-02,-9.779933840036392212e-02,1.040304899215698242e-01,-2.723345533013343811e-02,8.184086531400680542e-02,5.890768766403198242e-02,5.130141228437423706e-02,1.044977307319641113e-01,1.263364255428314209e-01,-8.369708061218261719e-02,1.534217149019241333e-01,-1.553046554327011108e-01,-1.167169958353042603e-01,-5.678111314773559570e-02,4.607941508293151855e-01,-1.508123874664306641e-01,9.855234995484352112e-03,1.233624592423439026e-01,-1.568097323179244995e-01,1.669637300074100494e-02,1.348841935396194458e-01,1.291151493787765503e-01,-6.229974329471588135e-02,4.413888230919837952e-02,7.143674045801162720e-02,1.776438951492309570e-01,-6.632716208696365356e-02,8.022301644086837769e-02,-1.653941720724105835e-01,-9.842039644718170166e-02,1.349609494209289551e-01,-2.285676896572113037e-01,1.197633266448974609e+00,-3.068319708108901978e-02,1.112621426582336426e-01,1.316516995429992676e-01,-4.095211625099182129e-02,1.759902834892272949e-01,7.257274538278579712e-02
1.165145412087440491e-01,1.443890780210494995e-01,-3.112783655524253845e-02,-5.242509022355079651e-02,-8.275772631168365479e-02,-2.216232381761074066e-02,4.200039058923721313e-02,1.066558659076690674e-01,-1.545461565256118774e-01,-2.581879124045372009e-02,-4.317764192819595337e-02,1.970559358596801758e-01,3.901673108339309692e-02,6.122292578220367432e-02,3.068228811025619507e-02,2.277103811502456665e-01,7.294443901628255844e-03,1.192510277032852173e-01,1.706949062645435333e-02,-1.029940135776996613e-02,4.453274887055158615e-03,-4.617576301097869873e-02,2.994952164590358734e-02,-1.110289543867111206e-01,1.491639763116836548e-01,2.310430407524108887e-01,-1.359567493200302124e-01,4.620185866951942444e-02,1.696039438247680664e-01,9.345862269401550293e-02,1.271988153457641602e-01,2.483322024345397949e-01,-5.600635334849357605e-02,6.826846599578857422e-01,8.053340762853622437e-02,1.576555371284484863e-01,1.453951001167297363e-01,1.871329545974731445e-01,6.876400671899318695e-03,2.080891467630863190e-02
-9.101997315883636475e-02,2.464641332626342773e-01,1.396177262067794800e-01,4.212460666894912720e-02,6.593901664018630981e-02,-2.235491387546062469e-02,-3.520537540316581726e-02,-1.182690560817718506e-01,1.725762966088950634e-03,1.225364208221435547e-01,-4.017085209488868713e-02,-1.670939102768898010e-02,-6.505115330219268799e-02,-9.309752285480499268e-02,1.432804763317108154e-01,1.121078152209520340e-02,1.483216881752014160e-01,1.448809802532196045e-01,1.995209045708179474e-02,1.725277751684188843e-01,1.530303210020065308e-01,-1.967177353799343109e-02,3.600431978702545166e-02,3.000300750136375427e-02,-9.261335432529449463e-02,5.248614773154258728e-02,2.747135460376739502e-01,-2.833105437457561493e-02,-2.200428843498229980e-01,1.098474860191345215e-01,9.052302688360214233e-02,-5.765538662672042847e-02,-5.311996936798095703e-01,-7.683430612087249756e-02,3.373475372791290283e-02,1.518234461545944214e-01,-2.507439851760864258e-01,1.020561009645462036e-01,-6.837752461433410645e-02,-3.803356587886810303e-01
1.652623862028121948e-01,-6.748690456151962280e-02,-5.755742266774177551e-02,-9.172302484512329102e-02,-1.119059473276138306e-01,8.346588164567947388e-02,1.694059818983078003e-01,1.173665225505828857e-01,-2.604317106306552887e-02,2.158423960208892822e-01,3.488282486796379089e-02,1.566988378763198853e-01,3.835469111800193787e-02,1.234634816646575928e-01,-8.384275250136852264e-03,-5.051592588424682617e-01,9.153078496456146240e-02,2.823231182992458344e-02,1.804870665073394775e-01,1.373150497674942017e-01,-3.174390643835067749e-02,-1.347711589187383652e-02,-9.383817017078399658e-02,-6.365492194890975952e-02,1.340425312519073486e-01,2.896734140813350677e-02,1.681158393621444702e-01,-7.639584690332412720e-02,2.568867430090904236e-02,7.488355785608291626e-02,1.354348957538604736e-01,-7.782999426126480103e-02,2.075729668140411377e-01,-1.013503313064575195e+00,1.645887047052383423e-01,-2.565723657608032227e-01,1.263055503368377686e-01,1.711934804916381836e-01,2.375646680593490601e-01,-1.420018672943115234e-01
2.371819876134395599e-02,1.777508109807968140e-01,-3.763380646705627441e-02,-7.353523373603820801e-02,-1.173368617892265320e-01,1.879613697528839111e-01,1.454862356185913086e-01,9.711305797100067139e-02,-1.045306771993637085e-01,-4.130448773503303528e-02,-9.045797586441040039e-02,-1.850580982863903046e-02,-1.552504301071166992e-02,1.406074017286300659e-01,1.504059508442878723e-02,-4.476270973682403564e-01,5.547446012496948242e-02,-1.825301349163055420e-02,1.633823961019515991e-01,1.397498548030853271e-01,8.641313016414642334e-02,4.770625010132789612e-02,2.945616655051708221e-02,1.238392293453216553e-01,6.644089519977569580e-02,6.154257431626319885e-02,2.166038304567337036e-01,9.067182242870330811e-02,-7.353232055902481079e-02,3.374880552291870117e-01,-5.563861504197120667e-02,1.707496643066406250e-01,1.250455826520919800e-01,-2.453578263521194458e-01,2.028843611478805542e-01,-1.301810145378112793e-02,2.300549447536468506e-01,9.896555542945861816e-02,2.108440399169921875e-01,-1.337631493806838989e-01
1.000067405402660370e-02,-8.505577594041824341e-02,1.587719283998012543e-02,-1.268651932477951050e-01,3.423088788986206055e-02,-7.563511840999126434e-03,7.875621318817138672e-02,7.414571940898895264e-02,6.928849965333938599e-02,8.987301588058471680e-02,-4.847343266010284424e-02,-7.620213925838470459e-02,1.044073514640331268e-02,1.879985444247722626e-02,2.395479083061218262e-01,-6.173870339989662170e-02,3.381623700261116028e-02,1.441838592290878296e-01,-7.274971902370452881e-02,1.636497825384140015e-01,1.110444813966751099e-01,-3.250043839216232300e-02,7.602921873331069946e-02,1.100155934691429138e-01,2.429962344467639923e-02,-7.370165735483169556e-02,7.994797080755233765e-02,1.122200712561607361e-01,6.063086446374654770e-03,-9.468734264373779297e-02,9.663245081901550293e-02,-8.922842890024185181e-02,-1.132236868143081665e-01,-5.167387798428535461e-02,-8.680008351802825928e-02,1.420672088861465454e-01,-1.617089807987213135e-01,-6.043952330946922302e-02,-1.109155789017677307e-01,9.249841794371604919e-03
-4.702380299568176270e-02,-9.145544469356536865e-02,-3.855069726705551147e-02,-5.043733119964599609e-02,-3.263953700661659241e-02,1.305155456066131592e-01,-5.282765999436378479e-02,-7.068476825952529907e-02,9.614506363868713379e-02,-1.361165493726730347e-01,-8.806442469358444214e-02,1.295659504830837250e-02,-4.940438643097877502e-02,-1.474186331033706665e-01,8.077026158571243286e-02,8.762645721435546875e-02,-2.430984936654567719e-02,1.540514528751373291e-01,-7.791296392679214478e-02,2.591443434357643127e-02,-1.210762411355972290e-01,1.152688753791153431e-03,2.634746395051479340e-02,6.302658468484878540e-02,-7.908553630113601685e-02,-7.982679456472396851e-02,-6.118062511086463928e-02,7.457188516855239868e-02,7.723097503185272217e-02,-1.557022333145141602e-01,1.170279085636138916e-01,8.160293847322463989e-02,3.166702017188072205e-02,9.190775454044342041e-02,1.711890334263443947e-03,-6.169325113296508789e-02,-1.076125577092170715e-01,1.090012565255165100e-01,-7.374054938554763794e-02,-9.923087060451507568e-02
1.337804347276687622e-01,4.986055940389633179e-02,-8.760001510381698608e-03,-5.735170841217041016e-02,2.248894236981868744e-02,-4.718142095953226089e-03,1.770195513963699341e-01,-2.376365102827548981e-02,8.429226465523242950e-03,-4.423611983656883240e-02,-5.084063392132520676e-03,1.412184983491897583e-01,-2.450095675885677338e-02,-9.896121919155120850e-02,6.282230466604232788e-02,2.707429826259613037e-01,7.494275271892547607e-02,-1.113019585609436035e-01,1.275770831853151321e-02,-7.817577570676803589e-02,-7.412172388285398483e-03,1.201333776116371155e-01,1.858855970203876495e-02,-1.436005830764770508e-01,8.746983110904693604e-02,1.347928792238235474e-01,4.702086374163627625e-02,-5.540329217910766602e-02,1.440628319978713989e-01,2.410696260631084442e-02,-5.982540547847747803e-03,3.996669501066207886e-02,-2.417432963848114014e-01,9.129821062088012695e-01,1.369905620813369751e-01,1.872722357511520386e-01,1.742748022079467773e-01,-4.880686476826667786e-02,1.752088218927383423e-01,-5.455829575657844543e-02
4.928122088313102722e-02,-1.914373226463794708e-02,-1.430171430110931396e-01,1.363151818513870239e-01,-5.710773169994354248e-02,1.051577702164649963e-01,-9.952529519796371460e-02,3.053334075957536697e-03,-1.270743012428283691e-01,2.058778405189514160e-01,-9.373468346893787384e-03,-8.751990646123886108e-02,7.105854153633117676e-02,4.245262965559959412e-02,1.067245751619338989e-01,-4.718393385410308838e-01,-5.981170386075973511e-02,-2.684575319290161133e-02,1.315438300371170044e-01,1.793785542249679565e-01,1.100132167339324951e-01,-1.370845586061477661e-01,-1.452130675315856934e-01,-2.865446265786886215e-03,1.278710216283798218e-01,1.217335388064384460e-01,8.883236348628997803e-02,-5.804859101772308350e-02,-8.820723742246627808e-02,9.495516866445541382e-02,-3.281358629465103149e-02,1.398290842771530151e-01,2.223818749189376831e-01,-1.531342029571533203e+00,1.562150716781616211e-01,-2.256725132465362549e-01,-1.394040286540985107e-01,-5.925690755248069763e-02,9.431393444538116455e-02,-9.326861053705215454e-02
-3.372575640678405762e-01,3.503106534481048584e-01,-1.470818072557449341e-01,-2.003627829253673553e-02,1.253700554370880127e-01,-2.403612583875656128e-01,3.726581484079360962e-02,5.033211410045623779e-02,-1.576725393533706665e-01,1.020263284444808960e-01,-1.374224275350570679e-01,-2.503833770751953125e-01,3.449230268597602844e-02,-1.395649090409278870e-02,2.043012231588363647e-01,-5.696799755096435547e-01,-1.522710472345352173e-01,1.887399703264236450e-01,-2.152848094701766968e-01,2.254247069358825684e-01,6.865222472697496414e-03,-8.472696691751480103e-02,3.339122235774993896e-02,1.373321563005447388e-02,1.176652982831001282e-01,-5.548268184065818787e-02,1.184670701622962952e-01,-8.800671249628067017e-02,-6.749796122312545776e-02,1.546673029661178589e-01,-1.045546159148216248e-01,3.028636611998081207e-02,1.794484853744506836e-01,6.248779594898223877e-02,1.337050180882215500e-02,4.515594244003295898e-01,-1.233669221401214600e-01,1.143662109971046448e-01,-1.831925511360168457e-01,-5.479416251182556152e-02
-1.764971762895584106e-02,1.315835714340209961e-01,-3.447264060378074646e-02,2.487272582948207855e-02,7.885283976793289185e-02,1.720370948314666748e-01,-5.308501049876213074e-02,7.992830872535705566e-02,7.566557824611663818e-02,-8.852156996726989746e-02,7.881677150726318359e-02,8.751532435417175293e-02,1.380390226840972900e-01,1.274651736021041870e-01,2.608414739370346069e-02,-4.479300975799560547e-01,1.369909197092056274e-01,4.344167187809944153e-02,3.037262335419654846e-02,1.361617296934127808e-01,-1.555112600326538086e-01,9.576625376939773560e-02,-5.864412337541580200e-02,8.147173374891281128e-02,-3.749524056911468506e-02,-9.341174364089965820e-02,-2.148583158850669861e-02,-5.413943156599998474e-02,-3.285182267427444458e-02,-1.176004949957132339e-02,1.489034742116928101e-01,2.619322203099727631e-02,1.104468628764152527e-01,-1.532284379005432129e+00,7.502906024456024170e-02,-1.697321981191635132e-01,-1.007328554987907410e-01,2.026756294071674347e-02,9.754373878240585327e-02,-1.000437811017036438e-01
1.249348297715187073e-01,1.083645746111869812e-01,-1.017459779977798462e-01,-3.885070979595184326e-02,1.215568333864212036e-01,1.017966195940971375e-01,3.449169918894767761e-02,4.019244015216827393e-02,2.624820545315742493e-02,1.269075572490692139e-01,6.555946171283721924e-02,-1.407307833433151245e-01,1.104934439063072205e-01,1.646576672792434692e-01,1.414040625095367432e-01,-2.669793665409088135e-01,-1.095570400357246399e-01,6.127081811428070068e-02,5.365107674151659012e-03,7.061926275491714478e-02,9.974588640034198761e-03,2.840849570930004120e-02,-3.656036034226417542e-02,-7.035687565803527832e-02,-1.032522842288017273e-01,3.565520793199539185e-02,7.995793968439102173e-02,-1.159515380859375000e-01,6.418824940919876099e-02,1.667014509439468384e-01,1.508753001689910889e-01,-1.482472196221351624e-02,3.068023361265659332e-02,-1.042348146438598633e+00,1.338348686695098877e-01,-1.457781493663787842e-01,-5.898016691207885742e-02,-2.609190531075000763e-02,-1.396856009960174561e-01,-1.327286362648010254e-01
1.026135459542274475e-01,-1.153239309787750244e-01,-2.544523589313030243e-02,-1.336924135684967041e-01,-1.041805967688560486e-01,1.331566721200942993e-01,-7.287753373384475708e-02,-1.069485321640968323e-01,-1.085094362497329712e-01,8.895473927259445190e-02,1.176113486289978027e-01,9.765610843896865845e-02,5.270964652299880981e-02,-8.537919074296951294e-02,7.148755341768264771e-02,-1.280735731124877930e-01,-9.449239820241928101e-02,-1.082495898008346558e-01,1.201073005795478821e-01,1.016957610845565796e-01,-6.162092555314302444e-03,9.694891422986984253e-02,-8.939409255981445312e-02,-9.048754721879959106e-02,2.737340517342090607e-02,-9.446863830089569092e-02,-1.281328350305557251e-01,-6.308563798666000366e-02,-9.133143723011016846e-02,1.125398948788642883e-01,-1.363744586706161499e-01,8.970100432634353638e-02,-9.508665651082992554e-02,-1.422506868839263916e-01,-9.643848985433578491e-02,-3.953461349010467529e-02,-4.497521743178367615e-02,7.524022459983825684e-02,7.405181974172592163e-02,1.391999125480651855e-01
9.706559032201766968e-02,2.060192078351974487e-01,8.545332401990890503e-02,-1.301267743110656738e-01,1.571840196847915649e-01,-1.234639137983322144e-01,2.208766490221023560e-01,8.522995561361312866e-02,6.547530740499496460e-02,-6.364479660987854004e-02,1.441101357340812683e-02,1.189668849110603333e-02,-6.383392959833145142e-02,1.430846601724624634e-01,-3.131631016731262207e-02,-3.563855886459350586e-01,4.679575189948081970e-02,2.554151043295860291e-02,6.136213894933462143e-03,1.862999349832534790e-01,1.087055727839469910e-01,-1.140719130635261536e-01,8.547867089509963989e-02,1.124269589781761169e-01,7.601931691169738770e-02,-9.534339606761932373e-02,1.350072324275970459e-01,-6.306886672973632812e-02,1.254346370697021484e-01,2.140423804521560669e-01,-6.318700313568115234e-02,-1.461206190288066864e-02,1.654555648565292358e-01,-1.504723787307739258e+00,4.856004565954208374e-02,-7.100035250186920166e-02,8.959451317787170410e-02,1.849443763494491577e-01,-8.205099403858184814e-02,-4.254772141575813293e-02
1.530601531267166138e-01,3.786695003509521484e-02,-1.014816835522651672e-01,1.105357557535171509e-01,-9.467478841543197632e-02,-1.200606748461723328e-01,1.755580902099609375e-01,3.575031831860542297e-02,-1.006357520818710327e-01,-8.486205339431762695e-02,-1.393108367919921875e-01,-5.944988131523132324e-02,9.422116912901401520e-03,-4.059311002492904663e-02,8.716055005788803101e-02,4.809759855270385742e-01,7.551409304141998291e-02,2.451089955866336823e-02,-6.771431863307952881e-02,-2.875166479498147964e-03,-4.895386844873428345e-02,2.314222604036331177e-01,2.285720556974411011e-01,1.332691609859466553e-01,1.052457764744758606e-01,1.029919385910034180e-01,2.188520133495330811e-02,-5.412247992353513837e-05,8.955441415309906006e-02,-5.691017955541610718e-02,-2.766438014805316925e-02,1.189764961600303650e-02,-3.044486045837402344e-01,8.144187331199645996e-01,2.609350085258483887e-01,1.716958880424499512e-01,3.895646333694458008e-02,2.289862036705017090e-01,1.301778852939605713e-01,1.361171603202819824e-01
-5.642392486333847046e-02,-9.405843913555145264e-02,2.736794762313365936e-02,-1.472556293010711670e-01,1.015845611691474915e-01,8.058438450098037720e-02,1.374655961990356445e-01,-7.315508089959621429e-03,1.349882334470748901e-01,1.658854037523269653e-01,-9.041798114776611328e-02,2.532886713743209839e-02,7.577545195817947388e-02,-3.210745379328727722e-02,1.146551519632339478e-01,-4.629343748092651367e-01,-9.545034170150756836e-02,1.485635638236999512e-01,-9.465377032756805420e-02,1.831370294094085693e-01,-6.403956562280654907e-02,-1.263919174671173096e-01,9.790312498807907104e-02,-5.320691317319869995e-02,9.191171079874038696e-02,9.613332152366638184e-02,7.266948372125625610e-02,6.094935908913612366e-02,2.470551044098101556e-05,-1.001636777073144913e-02,8.248414844274520874e-02,2.780684642493724823e-02,6.531047821044921875e-02,-1.278480648994445801e+00,-9.909794479608535767e-02,-7.669735699892044067e-02,7.884328067302703857e-02,1.372054517269134521e-01,-9.635536000132560730e-03,-8.822364360094070435e-02
-1.045294292271137238e-02,-8.516356348991394043e-02,-1.458540093153715134e-02,1.219427883625030518e-01,1.133389994502067566e-01,-1.238419264554977417e-01,1.831133514642715454e-01,5.500987917184829712e-02,7.669034600257873535e-02,3.713379846885800362e-03,-1.402961313724517822e-01,2.376199327409267426e-02,1.169595122337341309e-01,-9.905745089054107666e-02,1.158300861716270447e-01,-1.767752468585968018e-01,8.256909996271133423e-02,1.848612278699874878e-01,1.269603222608566284e-01,6.858730316162109375e-02,-3.302668780088424683e-02,-5.479142442345619202e-02,-6.578773260116577148e-02,-3.874417766928672791e-02,1.060510613024234772e-02,8.588177710771560669e-02,1.445841193199157715e-01,-1.053070127964019775e-01,-1.242935806512832642e-01,1.128059551119804382e-01,-2.230239287018775940e-02,8.284483104944229126e-02,1.160559281706809998e-01,-1.550487399101257324e+00,1.675463318824768066e-01,-1.845925748348236084e-01,-5.113144963979721069e-02,9.737061709165573120e-02,5.231646075844764709e-02,-2.370735704898834229e-01
-1.487146019935607910e-01,-1.001615263521671295e-02,-9.714362770318984985e-02,-3.123497217893600464e-02,4.648705944418907166e-02,-4.182539507746696472e-02,-1.549635380506515503e-01,1.154595762491226196e-01,9.265358000993728638e-02,1.030996814370155334e-01,3.246822208166122437e-02,-1.490706950426101685e-01,1.496066749095916748e-01,-1.215055659413337708e-01,-6.445071101188659668e-02,1.296929270029067993e-01,8.008317649364471436e-02,-9.455814957618713379e-02,-1.029936447739601135e-01,-3.355873003602027893e-02,6.577698141336441040e-02,-1.890182757051661611e-04,-2.217067033052444458e-02,-4.288503527641296387e-02,1.028636395931243896e-01,6.389500200748443604e-02,1.127574965357780457e-01,1.422373503446578979e-01,1.143464446067810059e-01,1.511513628065586090e-02,-1.058735251426696777e-01,-1.614389866590499878e-01,5.313675105571746826e-02,1.129117459058761597e-01,-1.501275002956390381e-01,1.743597537279129028e-02,1.208992525935173035e-01,1.194347143173217773e-01,1.376758217811584473e-01,1.274352520704269409e-01
1.180990599095821381e-02,4.028488993644714355e-01,4.083049483597278595e-03,7.556278258562088013e-02,6.371504813432693481e-02,1.812954992055892944e-01,6.860710680484771729e-02,8.066091686487197876e-02,-4.993980005383491516e-02,-5.554038658738136292e-02,-1.346713751554489136e-01,-3.264281153678894043e-01,9.649120271205902100e-02,1.818721443414688110e-01,6.982605159282684326e-02,1.741104722023010254e-01,-1.324381977319717407e-01,2.961787953972816467e-02,1.285456586629152298e-02,5.273325834423303604e-03,-5.276115983724594116e-02,-2.534664273262023926e-01,-3.012278974056243896e-01,-1.082527711987495422e-01,2.041737139225006104e-01,-7.113736122846603394e-02,4.944421947002410889e-01,3.029762804508209229e-01,4.534424096345901489e-02,2.442959137260913849e-02,3.136280551552772522e-02,3.395457193255424500e-02,4.165555238723754883e-01,1.684194445610046387e+00,2.431403286755084991e-02,-4.404979050159454346e-01,2.165472693741321564e-02,7.729104161262512207e-02,-1.378998905420303345e-01,-9.133014678955078125e-01
-5.530636757612228394e-02,1.470835413783788681e-02,-9.996519237756729126e-02,7.960216142237186432e-03,3.982941806316375732e-02,-3.212506696581840515e-02,7.542730867862701416e-02,-5.775110796093940735e-02,1.082258597016334534e-01,1.657446920871734619e-01,-1.571875810623168945e-01,8.778221160173416138e-02,6.340274959802627563e-02,-4.520325735211372375e-02,7.219072431325912476e-02,2.560702562332153320e-01,2.586716227233409882e-02,1.621763855218887329e-01,5.947590991854667664e-02,-1.080616936087608337e-01,-4.093267396092414856e-02,1.993742585182189941e-01,-7.040940225124359131e-02,-4.190656822174787521e-03,2.086747139692306519e-01,-4.426557943224906921e-02,-2.967373467981815338e-02,-3.431977704167366028e-02,1.480766832828521729e-01,-7.088372949510812759e-03,-4.483630508184432983e-02,4.532413557171821594e-02,-1.801107525825500488e-01,1.299811601638793945e+00,6.795169413089752197e-02,3.160125613212585449e-01,2.191554754972457886e-02,3.213335201144218445e-02,7.775031030178070068e-02,1.852865517139434814e-01
