1.420991271734237671e-01,-1.563512086868286133e-01,1.879080086946487427e-01,-3.809292316436767578e-01,-3.984196782112121582e-01,1.377638429403305054e-01,1.690324246883392334e-01,1.981570571660995483e-01,2.768006362020969391e-02,-9.687405824661254883e-02,-1.731137931346893311e-01,1.367953419685363770e-01,-1.546618789434432983e-01,2.261763811111450195e-01,-5.970630794763565063e-02,3.725062608718872070e-01,-2.105262577533721924e-01,-2.150704264640808105e-01,3.219423890113830566e-01,1.577745527029037476e-01,6.723181903362274170e-02,4.625133275985717773e-01,-1.035962160676717758e-02,2.054581642150878906e-01,3.088444173336029053e-01
1.125408411026000977e-01,-1.843283325433731079e-01,-4.771151766180992126e-02,-4.313598871231079102e-01,-9.329404681921005249e-02,5.908575281500816345e-02,2.913171947002410889e-01,1.842077672481536865e-01,-1.744518242776393890e-02,-1.213885769248008728e-01,-1.914986073970794678e-01,2.221178263425827026e-01,-6.061557307839393616e-02,-4.747517034411430359e-02,3.262400627136230469e-03,4.026142656803131104e-01,-3.464119434356689453e-01,-3.113760948181152344e-01,2.875554189085960388e-02,6.069521978497505188e-02,1.222855076193809509e-01,4.141605496406555176e-01,-1.634812355041503906e-02,9.333640336990356445e-02,3.353101909160614014e-01
-1.740743368864059448e-01,1.998215168714523315e-01,6.681523472070693970e-02,-1.708549112081527710e-01,-2.264560610055923462e-01,-1.955037415027618408e-01,2.760513722896575928e-01,9.293639659881591797e-02,1.113694235682487488e-01,3.924867138266563416e-02,-1.072635129094123840e-01,2.620691359043121338e-01,-9.092246741056442261e-02,2.086380124092102051e-02,-1.132784411311149597e-01,1.842756271362304688e-01,-2.723525464534759521e-01,-1.685268878936767578e-01,2.960052788257598877e-01,5.395306274294853210e-03,2.493137270212173462e-01,2.266980707645416260e-01,1.095739379525184631e-01,4.560316354036331177e-02,4.098572731018066406e-01
1.466429084539413452e-01,-6.731436122208833694e-03,1.879761070013046265e-01,-3.964501023292541504e-01,-2.493421584367752075e-01,-7.533142715692520142e-02,2.170719653367996216e-01,3.053677976131439209e-01,-1.249112114310264587e-01,2.256089597940444946e-01,-4.392518401145935059e-01,3.447387516498565674e-01,-6.100809201598167419e-02,1.611946225166320801e-01,9.932227432727813721e-02,1.325007528066635132e-01,-7.664922624826431274e-02,-2.665848731994628906e-01,2.085056751966476440e-01,9.658184647560119629e-02,2.152429819107055664e-01,3.679921329021453857e-01,-1.029729843139648438e-03,2.230985760688781738e-01,4.513141810894012451e-01
1.480164527893066406e-01,8.934000134468078613e-02,-2.048714272677898407e-02,-1.189730390906333923e-01,-1.865281313657760620e-01,6.593227735720574856e-04,7.276515662670135498e-02,1.246455758810043335e-01,6.699705123901367188e-02,1.619017124176025391e-01,-1.991902440786361694e-01,-3.462002053856849670e-02,-5.615952238440513611e-02,-9.363169968128204346e-02,2.015676535665988922e-02,1.091433838009834290e-01,-1.265441030263900757e-01,-1.506031304597854614e-01,-8.083977550268173218e-02,-7.175241410732269287e-02,1.550604850053787231e-01,8.383855223655700684e-02,-7.156711071729660034e-02,-7.162063568830490112e-02,1.398044973611831665e-01
1.589574664831161499e-01,-2.016364634037017822e-01,1.336165666580200195e-01,-7.213478535413742065e-02,1.712778806686401367e-01,-1.906687766313552856e-01,-3.593473508954048157e-02,1.667689681053161621e-01,-9.771599620580673218e-02,-5.075516179203987122e-02,1.326457262039184570e-01,-9.787558019161224365e-02,-1.592853814363479614e-01,1.788388341665267944e-01,5.069956928491592407e-02,-3.409933997318148613e-03,-5.379961803555488586e-02,4.065365716814994812e-02,-3.099614009261131287e-02,-1.413487792015075684e-01,-7.855362445116043091e-02,-5.572233721613883972e-02,9.852685779333114624e-02,-1.487576067447662354e-01,8.419445715844631195e-03
1.903729438781738281e-01,2.106701880693435669e-01,5.934126302599906921e-02,-3.626066744327545166e-01,-3.339036107063293457e-01,-1.863474696874618530e-01,2.505290508270263672e-01,4.008105397224426270e-02,5.727846547961235046e-02,4.848849400877952576e-02,-9.246563911437988281e-02,3.131954073905944824e-01,-1.713795214891433716e-01,1.099094897508621216e-01,-1.157408952713012695e-01,2.288307249546051025e-01,-3.480286896228790283e-01,-1.948037743568420410e-01,3.228325545787811279e-01,3.053910732269287109e-01,2.262340188026428223e-01,2.561809718608856201e-01,-2.881732024252414703e-02,2.580811269581317902e-02,1.330469846725463867e-01
1.584574729204177856e-01,-5.543043091893196106e-02,-3.276371955871582031e-02,-1.049165502190589905e-01,-2.976009845733642578e-01,1.015162691473960876e-01,1.232086122035980225e-01,1.338350772857666016e-01,-1.422149240970611572e-01,-1.009322851896286011e-01,-2.333025038242340088e-01,6.472513824701309204e-02,-2.897011348977684975e-03,2.285947054624557495e-01,1.812690943479537964e-01,3.172172904014587402e-01,-5.490644276142120361e-02,-1.794574260711669922e-01,2.545862495899200439e-01,4.551453515887260437e-02,3.934029042720794678e-01,5.326610803604125977e-01,-7.616116851568222046e-02,1.355165522545576096e-02,4.537976384162902832e-01
8.887212723493576050e-02,-7.678325474262237549e-02,-1.340349465608596802e-01,8.275826275348663330e-02,1.593415811657905579e-02,-9.246247261762619019e-02,-7.646965980529785156e-02,-9.894561767578125000e-02,-5.648071691393852234e-02,1.724564880132675171e-01,5.228925030678510666e-03,-1.254626959562301636e-01,-1.721168756484985352e-01,1.720352619886398315e-01,-1.515405178070068359e-01,-1.793790310621261597e-01,-1.941317170858383179e-01,-5.882286932319402695e-03,1.827881187200546265e-01,2.897858619689941406e-03,-1.982872784137725830e-01,-1.576038897037506104e-01,-1.412992328405380249e-01,-1.377774775028228760e-01,-6.867828220129013062e-02
9.255030006170272827e-02,4.904962331056594849e-02,1.661506444215774536e-01,-3.088120520114898682e-01,-2.899989485740661621e-01,-1.831906139850616455e-01,2.194491177797317505e-01,4.145465195178985596e-01,-1.580045074224472046e-01,2.870755642652511597e-02,-2.377942949533462524e-01,3.144423365592956543e-01,4.720806702971458435e-02,2.545208334922790527e-01,-1.656350195407867432e-01,4.370636045932769775e-01,-1.027703434228897095e-01,-4.959568977355957031e-01,1.581415385007858276e-01,3.262441605329513550e-02,3.783985376358032227e-01,3.928388357162475586e-01,-1.931272596120834351e-01,-8.830068260431289673e-02,2.361042499542236328e-01
-1.551187336444854736e-01,1.090463437139987946e-02,-1.251266300678253174e-01,-1.270236819982528687e-01,-3.343003988265991211e-01,-1.573893986642360687e-02,2.039007395505905151e-01,2.489923387765884399e-01,1.311824619770050049e-01,4.386993870139122009e-02,-2.685247957706451416e-01,5.413900315761566162e-02,1.004235148429870605e-01,-5.200912803411483765e-02,8.761246502399444580e-02,2.093211710453033447e-01,-1.650431752204895020e-01,-2.865867614746093750e-01,3.206720650196075439e-01,1.881728917360305786e-01,2.751722931861877441e-01,4.140997529029846191e-01,-4.604673478752374649e-03,3.998336195945739746e-02,1.455879062414169312e-01
1.062248498201370239e-01,-6.019503623247146606e-02,-9.749855846166610718e-02,6.087110638618469238e-01,4.992357194423675537e-01,1.752642691135406494e-01,8.818058669567108154e-02,-3.022226393222808838e-01,-4.846389219164848328e-02,-1.371798068284988403e-01,5.375644564628601074e-01,1.863220632076263428e-01,1.021004989743232727e-01,1.441704183816909790e-01,-1.748351305723190308e-01,-2.035708539187908173e-02,4.439269006252288818e-01,3.045655786991119385e-01,-3.567390739917755127e-01,-2.019673436880111694e-01,-1.685999929904937744e-01,-6.185204982757568359e-01,-6.818258762359619141e-02,1.072199195623397827e-01,-2.516062855720520020e-01
7.672517746686935425e-02,-1.637272909283638000e-02,8.009352535009384155e-02,-7.973853498697280884e-02,-1.650919467210769653e-01,9.271152317523956299e-02,1.951532363891601562e-01,8.869821578264236450e-02,8.638925850391387939e-02,-1.139361783862113953e-01,-1.536036580801010132e-01,2.341675199568271637e-02,-5.292166024446487427e-02,2.312896251678466797e-01,1.686629056930541992e-01,3.332709968090057373e-01,-3.199064731597900391e-01,-2.487878799438476562e-01,-1.798052154481410980e-02,3.936677798628807068e-02,2.898311913013458252e-01,2.126076519489288330e-01,-1.926482766866683960e-01,-5.742866918444633484e-02,4.180734753608703613e-01
4.235267639160156250e-03,7.149455696344375610e-02,1.422146409749984741e-01,4.651933014392852783e-01,3.866081535816192627e-01,-3.534081205725669861e-02,1.279030088335275650e-02,-4.160616099834442139e-01,8.639778941869735718e-02,-1.765832901000976562e-01,4.399298131465911865e-01,5.216579511761665344e-02,-1.834004223346710205e-01,-1.202220693230628967e-01,4.892747476696968079e-02,-1.161268353462219238e-01,4.669264853000640869e-01,3.317865431308746338e-01,-1.961082220077514648e-01,-1.970294862985610962e-01,-1.110258549451828003e-01,-3.908957242965698242e-01,1.441936474293470383e-02,1.774001121520996094e-01,-5.086584687232971191e-01
-6.610860675573348999e-02,1.185437813401222229e-01,1.027794629335403442e-01,-2.357590496540069580e-01,-3.250606656074523926e-01,-1.926117688417434692e-01,2.811545729637145996e-01,3.974187076091766357e-01,-1.963432580232620239e-01,1.351552456617355347e-01,-3.233989775180816650e-01,3.006778061389923096e-01,-4.632764682173728943e-02,-1.677378825843334198e-02,1.379672288894653320e-01,1.290830373764038086e-01,-3.077301084995269775e-01,-2.227612286806106567e-01,3.353212177753448486e-01,1.585621237754821777e-01,1.411794722080230713e-01,6.299065351486206055e-01,9.949453175067901611e-02,6.068728491663932800e-02,5.619998574256896973e-01
-1.478006094694137573e-01,-6.481032818555831909e-02,2.563424222171306610e-02,-1.638240069150924683e-01,3.645958378911018372e-02,-1.841087453067302704e-02,-1.327714622020721436e-01,5.178080871701240540e-03,6.556635349988937378e-02,1.436050981283187866e-01,5.623762309551239014e-02,-3.274247422814369202e-02,-3.902381658554077148e-02,2.041401341557502747e-02,-1.075531020760536194e-01,-1.266593188047409058e-01,-2.014181949198246002e-02,-2.096219509840011597e-01,3.736369311809539795e-02,-2.060395032167434692e-01,7.033590227365493774e-02,8.749784529209136963e-02,5.628395359963178635e-03,-2.158540040254592896e-01,1.616784334182739258e-01
-1.527116298675537109e-01,1.456061452627182007e-01,4.751751571893692017e-02,8.176403492689132690e-02,-8.464916050434112549e-02,-3.278012201189994812e-02,-4.450543969869613647e-02,1.833182424306869507e-01,-9.371063858270645142e-02,1.058747544884681702e-01,2.000269293785095215e-01,1.331975031644105911e-02,1.279024034738540649e-01,-1.631849408149719238e-01,-1.158385798335075378e-01,-5.846700165420770645e-03,-1.972241997718811035e-01,9.398479759693145752e-02,-1.807593852281570435e-01,-1.275378558784723282e-02,-1.629876196384429932e-01,-1.163457706570625305e-01,-3.530845791101455688e-02,-4.007670283317565918e-02,1.574645340442657471e-01
-1.319933235645294189e-01,4.833609238266944885e-02,-1.039025112986564636e-01,-1.476629823446273804e-01,2.275632768869400024e-01,9.035182185471057892e-03,-6.880741566419601440e-02,-3.148810565471649170e-02,9.054441750049591064e-02,-5.174367502331733704e-02,-1.212638467550277710e-01,7.455275952816009521e-02,-2.160945236682891846e-01,-2.272577881813049316e-01,-1.541647166013717651e-01,-1.835576891899108887e-01,-5.806538835167884827e-02,7.104329764842987061e-02,7.584943622350692749e-02,1.320935785770416260e-01,1.132542937994003296e-01,6.407184153795242310e-02,-9.736257046461105347e-02,-2.086882889270782471e-01,-1.128552109003067017e-01
4.622051864862442017e-02,-1.360659599304199219e-01,1.889845132827758789e-01,-1.221618950366973877e-01,-4.760599732398986816e-01,1.174331679940223694e-01,-9.771022945642471313e-02,1.498303115367889404e-01,-4.316763952374458313e-02,-5.965649336576461792e-02,-1.678877621889114380e-01,1.039831787347793579e-01,6.626926362514495850e-02,5.181758105754852295e-02,1.974002867937088013e-01,2.834492325782775879e-01,-1.365846395492553711e-01,-2.151583135128021240e-02,7.985799759626388550e-02,8.062179386615753174e-02,3.311775922775268555e-01,2.248366326093673706e-01,-2.678115479648113251e-02,1.264245361089706421e-01,1.854035258293151855e-01
-1.733381003141403198e-01,1.594607383012771606e-01,-5.962686613202095032e-02,-1.734278053045272827e-01,1.748093664646148682e-01,-1.487731486558914185e-01,4.711170122027397156e-02,-6.047248840332031250e-03,-1.077001616358757019e-01,-1.502371132373809814e-01,9.831118583679199219e-02,3.684043884277343750e-03,-9.072137065231800079e-03,-9.539192169904708862e-02,1.470226496458053589e-01,-1.613916903734207153e-01,-1.992636919021606445e-01,3.644912317395210266e-02,-5.607769638299942017e-02,-1.924109756946563721e-01,-1.564844399690628052e-01,1.004739329218864441e-01,-1.299388408660888672e-01,-7.261567562818527222e-02,-1.386820822954177856e-01
4.337415844202041626e-02,-1.912281811237335205e-01,9.206026047468185425e-02,4.972458779811859131e-01,4.188466370105743408e-01,1.227515488862991333e-01,-1.136965900659561157e-01,-1.789969503879547119e-01,5.426574032753705978e-03,-5.982570722699165344e-02,5.919606089591979980e-01,1.089222133159637451e-01,-8.862616866827011108e-02,-1.710777729749679565e-01,4.186337068676948547e-02,-1.703344732522964478e-01,2.258549630641937256e-01,3.671935200691223145e-01,-1.953499466180801392e-01,-8.021214604377746582e-02,-2.733556032180786133e-01,-5.247820615768432617e-01,-3.073828294873237610e-02,4.190363287925720215e-01,-4.669016301631927490e-01
1.083525195717811584e-01,7.132742553949356079e-02,2.999992482364177704e-02,-1.082836166024208069e-01,3.573565557599067688e-02,1.238490119576454163e-01,-6.983878463506698608e-02,7.490067929029464722e-02,-1.282972842454910278e-01,1.148973703384399414e-01,8.496160805225372314e-02,-1.958075314760208130e-01,-5.546398088335990906e-02,-1.942338049411773682e-01,1.703439503908157349e-01,9.488101303577423096e-02,6.122446060180664062e-02,1.499472856521606445e-01,1.711833029985427856e-01,-3.721404075622558594e-02,1.714292764663696289e-01,-5.777440220117568970e-02,-5.865747854113578796e-02,-2.203896082937717438e-02,-7.721138186752796173e-03
-1.387981176376342773e-01,8.471658080816268921e-02,1.415995359420776367e-01,-2.851228713989257812e-01,-2.721163332462310791e-01,-1.448827087879180908e-01,2.490694634616374969e-02,2.451302260160446167e-01,-1.388895362615585327e-01,1.888707727193832397e-01,-1.192769408226013184e-01,2.367027550935745239e-01,-1.119927763938903809e-01,2.319388389587402344e-01,-9.135816246271133423e-02,1.662728339433670044e-01,-7.049819827079772949e-02,-3.188038468360900879e-01,2.678149938583374023e-01,3.063156604766845703e-01,1.487960517406463623e-01,2.179868817329406738e-01,6.830277293920516968e-02,-1.071563437581062317e-01,2.494726777076721191e-01
-1.470186747610569000e-02,1.142559107393026352e-02,1.491463929414749146e-01,5.327967405319213867e-01,2.839666604995727539e-01,-1.440948098897933960e-01,4.499280452728271484e-02,-4.129897356033325195e-01,-1.378571987152099609e-01,1.266007404774427414e-02,4.422360360622406006e-01,2.768609523773193359e-01,1.776348352432250977e-01,-1.956847161054611206e-01,1.989383995532989502e-01,-1.850523427128791809e-02,4.982515871524810791e-01,5.050351619720458984e-01,-1.691571176052093506e-01,-1.401032954454421997e-01,-3.486695587635040283e-01,-4.670360386371612549e-01,6.446712464094161987e-02,3.865341246128082275e-01,-5.781707763671875000e-01
-1.534483432769775391e-01,-1.584012210369110107e-01,5.890379101037979126e-02,-2.374213337898254395e-01,-4.839611053466796875e-01,1.116834878921508789e-01,1.116359308362007141e-01,9.320220351219177246e-02,-6.863057613372802734e-02,-1.314815580844879150e-01,-7.560070604085922241e-02,-3.615371137857437134e-02,-6.110941991209983826e-03,3.173356056213378906e-01,-1.224824413657188416e-01,4.619758427143096924e-01,-3.863294422626495361e-01,-1.113235801458358765e-01,-3.740151971578598022e-02,-4.457399249076843262e-02,1.740435063838958740e-01,3.643883168697357178e-01,4.755535349249839783e-02,2.488340884447097778e-01,4.314018189907073975e-01
