3.802191466093063354e-02,1.297448575496673584e-01,-1.663264930248260498e-01,-1.819924712181091309e-01,2.540008127689361572e-01,4.661952331662178040e-02,2.815128564834594727e-01,1.158152222633361816e-01,1.506751775741577148e-01,5.293308943510055542e-02,-8.916158229112625122e-02,-4.685361683368682861e-02,-4.259700700640678406e-02,8.825767785310745239e-02,1.266955398023128510e-02,-4.131312295794487000e-02,-2.799466811120510101e-02,5.476554483175277710e-02,3.253217414021492004e-02,2.383270412683486938e-01,4.831762984395027161e-02,-8.313205093145370483e-03,-9.115913510322570801e-02,6.016942858695983887e-02,1.131625398993492126e-01,4.250853136181831360e-02,6.369877606630325317e-02,1.358997821807861328e-01,1.048415303230285645e-01,-8.837900124490261078e-03,2.810873389244079590e-01,-1.309470683336257935e-01,-6.865873932838439941e-02,-1.395945996046066284e-01,3.326062113046646118e-02,-3.612306341528892517e-02,-6.475219503045082092e-03,-1.525190472602844238e-01,-1.159448847174644470e-01,5.298918113112449646e-02,1.570798084139823914e-02,-9.005048125982284546e-02,2.908769994974136353e-02,9.220054745674133301e-02,-1.272294819355010986e-01
8.738631010055541992e-02,-5.633825063705444336e-02,-2.604024857282638550e-02,-1.120987385511398315e-01,1.724152266979217529e-01,-1.156683266162872314e-02,1.769966185092926025e-01,-8.158785849809646606e-02,8.147887140512466431e-02,1.576803773641586304e-01,-2.447457313537597656e-01,5.497083440423011780e-02,-1.560166105628013611e-02,2.747519128024578094e-02,-1.084005236625671387e-01,-4.756898269988596439e-04,-3.317797929048538208e-02,-4.481996968388557434e-02,-8.093556016683578491e-02,-8.859539777040481567e-02,2.433442510664463043e-02,5.312529951333999634e-02,1.358464956283569336e-01,-2.317080943612381816e-04,1.449631750583648682e-01,4.728700965642929077e-02,-8.183269947767257690e-02,-4.133053869009017944e-02,-7.530184090137481689e-02,-1.647241860628128052e-01,-5.402006208896636963e-02,-2.962868101894855499e-02,6.852032989263534546e-02,-4.411675781011581421e-02,-1.215533912181854248e-01,6.890904158353805542e-02,2.429645210504531860e-01,5.206104367971420288e-02,-1.450862884521484375e-01,-2.222168818116188049e-02,1.672995835542678833e-01,2.291392087936401367e-01,1.146957427263259888e-01,1.520172040909528732e-02,3.584305942058563232e-02
-2.396126240491867065e-01,9.928117692470550537e-02,-9.159629791975021362e-02,9.097955375909805298e-02,-2.764761634171009064e-02,8.939904719591140747e-02,-4.530697166919708252e-01,1.156497970223426819e-01,9.490791708230972290e-02,-8.562038093805313110e-02,-1.172580271959304810e-01,1.068129688501358032e-01,5.362184345722198486e-02,-1.632021963596343994e-01,8.251946419477462769e-02,2.068820297718048096e-01,-2.210485190153121948e-02,6.225208565592765808e-02,-1.618519872426986694e-01,-4.912665579468011856e-03,3.934207931160926819e-02,-3.640278801321983337e-02,4.519909620285034180e-02,-3.516385555267333984e-01,4.268755763769149780e-02,1.578256338834762573e-01,6.335421651601791382e-02,5.330459028482437134e-02,1.940543577075004578e-02,-1.611735112965106964e-02,-2.569822669029235840e-01,-1.499008238315582275e-01,-3.953830525279045105e-02,2.207178771495819092e-01,4.725155234336853027e-02,-7.627296447753906250e-02,5.499777197837829590e-02,1.517437100410461426e-01,7.609456777572631836e-02,-1.006296649575233459e-01,-1.001802757382392883e-01,2.052229195833206177e-01,-1.035631895065307617e-01,-3.212658762931823730e-01,1.358627434819936752e-02
1.367569807916879654e-02,8.054110407829284668e-02,-1.154223307967185974e-01,4.161188006401062012e-02,-1.286275386810302734e-01,1.074694842100143433e-02,-4.640607833862304688e-01,-1.642981730401515961e-02,3.109859488904476166e-02,1.233956217765808105e-01,7.249189913272857666e-02,-3.088597208261489868e-02,-1.457135528326034546e-01,-1.847498491406440735e-02,-2.503659389913082123e-02,2.756506502628326416e-01,1.124177128076553345e-01,6.454571336507797241e-02,-4.809414222836494446e-02,-7.406540960073471069e-02,-7.999977469444274902e-02,-4.548551887273788452e-02,-5.621170252561569214e-02,-3.511724770069122314e-01,-1.294563561677932739e-01,1.299527734518051147e-01,1.437916010618209839e-01,3.162154182791709900e-02,-3.805999085307121277e-02,-8.757533878087997437e-02,-2.896386384963989258e-01,3.886937722563743591e-02,2.982237190008163452e-02,4.807482287287712097e-02,4.156395047903060913e-02,-2.262273244559764862e-02,-6.732997950166463852e-03,2.102096974849700928e-01,-7.680130749940872192e-02,-8.141227811574935913e-02,-1.160736605525016785e-01,2.051760256290435791e-02,1.111399531364440918e-01,-3.719500601291656494e-01,1.933784186840057373e-01
2.376966178417205811e-01,1.375363916158676147e-01,-4.688944667577743530e-02,-7.708970457315444946e-02,1.580996364355087280e-01,1.673906892538070679e-01,2.888630330562591553e-01,1.277270168066024780e-01,2.328265085816383362e-02,1.776879280805587769e-01,7.927414029836654663e-02,-6.809137761592864990e-02,-7.492700219154357910e-02,1.280827671289443970e-01,-2.819772623479366302e-02,-2.703308463096618652e-01,2.106645256280899048e-01,-7.834552973508834839e-02,-3.291885927319526672e-02,8.032843470573425293e-02,2.439939379692077637e-01,-6.439987570047378540e-02,1.272237300872802734e-01,-2.696243673563003540e-02,4.192439839243888855e-02,-1.103035956621170044e-01,1.239537298679351807e-01,-1.012748703360557556e-01,1.033369377255439758e-01,2.076810300350189209e-01,-2.805467247962951660e-01,-1.089383810758590698e-01,-1.386194080114364624e-01,-3.534459769725799561e-01,-2.485743165016174316e-02,-9.407536685466766357e-02,-3.344504237174987793e-01,1.106601133942604065e-01,6.998302787542343140e-02,-1.944187730550765991e-01,-2.002844028174877167e-02,-2.646588487550616264e-03,1.242471560835838318e-01,1.752061843872070312e-01,-3.398622274398803711e-01
-4.368017613887786865e-01,-2.182339876890182495e-01,5.299956072121858597e-03,-2.767428457736968994e-01,-4.304904937744140625e-01,1.383949369192123413e-01,3.056792318820953369e-01,4.986622929573059082e-02,1.605081744492053986e-02,3.875313699245452881e-02,-7.108077406883239746e-02,-1.441994458436965942e-01,-8.820910006761550903e-02,1.338342279195785522e-01,-2.158913016319274902e-01,1.400070339441299438e-01,-1.423565596342086792e-01,-9.528458118438720703e-02,-1.624338775873184204e-01,1.182267665863037109e-01,-1.113043725490570068e-01,1.023778244853019714e-01,-5.818147957324981689e-02,-5.731859058141708374e-02,-3.710655570030212402e-01,5.800126791000366211e-01,-5.841946005821228027e-01,-1.901124566793441772e-01,-1.725537329912185669e-01,-8.279810100793838501e-02,1.892177611589431763e-01,-1.253465097397565842e-02,-6.127605959773063660e-02,-2.184575349092483521e-01,-4.146178718656301498e-03,-3.514397144317626953e-02,1.012257561087608337e-01,-2.894634902477264404e-01,5.897575244307518005e-02,-1.368279457092285156e-01,-4.371778294444084167e-02,1.892111003398895264e-01,-1.159219145774841309e-01,-3.503288924694061279e-01,2.712889015674591064e-02
-2.506436705589294434e-01,-9.983193874359130859e-02,-1.003060787916183472e-01,-1.502725034952163696e-01,-1.983015090227127075e-01,-1.828176341950893402e-02,-1.135064437985420227e-01,-1.237622722983360291e-01,-1.680498719215393066e-01,-1.893982589244842529e-01,1.387839317321777344e-01,-1.696077175438404083e-02,-4.019885882735252380e-02,-1.948997192084789276e-02,3.349216282367706299e-02,-1.477420777082443237e-01,-8.293505012989044189e-02,-5.733009800314903259e-02,1.603402011096477509e-02,-5.292833447456359863e-01,5.479426309466362000e-02,9.122566878795623779e-02,-1.808849573135375977e-01,6.680639833211898804e-02,-1.329929530620574951e-01,-7.403524965047836304e-02,8.675267919898033142e-03,1.269943565130233765e-01,1.180036738514900208e-01,6.432187557220458984e-02,-7.682066410779953003e-02,1.398343592882156372e-01,1.420372426509857178e-01,6.970249861478805542e-02,2.509852312505245209e-02,-5.456991028040647507e-03,-1.236718073487281799e-01,-2.561609745025634766e-01,4.870055243372917175e-02,1.462455838918685913e-01,-1.060193628072738647e-01,-3.840797767043113708e-02,1.104136183857917786e-01,-4.859609156847000122e-02,-2.100907564163208008e-01
-1.959653347730636597e-01,-1.234372705221176147e-01,-2.537024766206741333e-02,-2.730087339878082275e-01,-1.921871900558471680e-01,1.489996314048767090e-01,3.298037052154541016e-01,2.671344205737113953e-02,-8.348508924245834351e-02,-7.799100875854492188e-02,8.172626793384552002e-02,1.409664899110794067e-01,7.603415870107710361e-04,1.259713023900985718e-01,-9.657474607229232788e-02,9.149567037820816040e-02,4.880060255527496338e-02,-8.320794999599456787e-02,1.572752892971038818e-01,-4.671293199062347412e-01,-8.983138948678970337e-03,1.231614965945482254e-02,-4.671945050358772278e-02,1.704117059707641602e-01,-4.727484285831451416e-02,1.283488273620605469e-01,-1.704134643077850342e-01,-4.704714193940162659e-02,-1.026069968938827515e-01,-1.255831271409988403e-01,6.398999691009521484e-02,-6.779170781373977661e-02,8.644721657037734985e-02,-1.329694092273712158e-01,2.253002673387527466e-02,1.442509591579437256e-01,3.383312001824378967e-02,-1.665965169668197632e-01,1.248428970575332642e-01,-8.595000207424163818e-02,8.590489625930786133e-02,-7.620259374380111694e-02,7.199777662754058838e-02,1.415979713201522827e-01,9.090414643287658691e-02
-5.631241574883460999e-02,-1.566908508539199829e-02,1.521486192941665649e-01,-1.329108774662017822e-01,8.446309366263449192e-04,-1.467041373252868652e-01,-2.311096787452697754e-01,7.805433124303817749e-02,-3.489095717668533325e-02,-2.127676643431186676e-02,1.305768936872482300e-01,1.098642796277999878e-01,-5.859713628888130188e-02,-5.241840146481990814e-03,1.257814615964889526e-01,1.846625208854675293e-01,8.226298540830612183e-02,-1.510483026504516602e-01,-1.008686870336532593e-01,-3.384574353694915771e-01,3.453625366091728210e-02,-1.308011710643768311e-01,-2.277832925319671631e-01,-2.156759351491928101e-01,1.199605967849493027e-02,1.418494284152984619e-01,-1.324276067316532135e-02,7.530935108661651611e-02,-4.717205092310905457e-02,-5.126063525676727295e-02,-1.054622828960418701e-01,1.483134031295776367e-01,2.472054446116089821e-03,2.070749551057815552e-01,6.222353130578994751e-02,5.839571356773376465e-02,-7.624806463718414307e-02,2.027619481086730957e-01,-1.971502415835857391e-02,2.218553610146045685e-02,-1.562698334455490112e-01,7.749460637569427490e-02,8.409474790096282959e-02,-1.889014542102813721e-01,1.603267043828964233e-01
6.476236879825592041e-02,7.800742238759994507e-02,1.301058530807495117e-01,-6.200478225946426392e-02,2.147945202887058258e-02,-8.813531696796417236e-02,1.863201856613159180e-01,1.533755511045455933e-01,2.276679277420043945e-01,-4.898245632648468018e-02,7.050218433141708374e-02,5.484823510050773621e-02,-7.424995303153991699e-02,-1.272304505109786987e-01,1.274056136608123779e-01,-5.983061715960502625e-02,3.769509866833686829e-02,-2.644240111112594604e-02,3.086882084608078003e-02,2.359235882759094238e-01,1.455138325691223145e-01,-1.452216655015945435e-01,1.391433328390121460e-01,3.983554616570472717e-02,1.056151837110519409e-01,-4.888711124658584595e-02,-7.315269112586975098e-02,8.120390772819519043e-02,7.744755595922470093e-02,-1.242482066154479980e-01,1.055437326431274414e-01,-1.720591336488723755e-01,1.298328340053558350e-01,-2.021763324737548828e-01,-5.234074220061302185e-02,-8.399670571088790894e-02,-4.147423058748245239e-02,-1.271549314260482788e-01,-1.295647025108337402e-02,-1.116572991013526917e-01,8.089046180248260498e-02,5.786232277750968933e-02,4.573162272572517395e-02,2.027442008256912231e-01,1.332944724708795547e-02
2.048117220401763916e-01,1.209476217627525330e-01,2.529647573828697205e-02,-1.150436028838157654e-01,1.293746680021286011e-01,1.417199373245239258e-01,2.067253887653350830e-01,9.635554999113082886e-02,2.171742320060729980e-01,-7.327312137931585312e-03,7.618877291679382324e-02,3.955588489770889282e-02,1.058971509337425232e-01,3.245470672845840454e-02,-6.322038173675537109e-02,1.663236506283283234e-02,-1.169708222150802612e-01,6.731522083282470703e-02,1.377152837812900543e-02,1.200058013200759888e-01,1.824984513223171234e-02,-4.007211700081825256e-02,1.746465712785720825e-01,6.354314833879470825e-02,7.182414829730987549e-02,1.921371556818485260e-02,-4.448479413986206055e-02,-2.547345589846372604e-03,1.646694839000701904e-01,-8.249957859516143799e-02,1.119056809693574905e-02,9.636037051677703857e-02,-1.198105607181787491e-02,-2.020566165447235107e-01,-1.160499751567840576e-01,-1.111831218004226685e-01,-1.768985837697982788e-01,-1.158713325858116150e-01,8.315016329288482666e-02,4.436666518449783325e-02,1.361145675182342529e-01,5.647443607449531555e-02,-6.399375945329666138e-02,1.762634068727493286e-01,-5.429919809103012085e-02
-4.042582586407661438e-03,1.237595751881599426e-01,6.513339467346668243e-03,5.173765122890472412e-02,-2.123191207647323608e-01,1.242509782314300537e-01,-4.305974841117858887e-01,-4.405523464083671570e-02,-2.246187180280685425e-01,-1.019564792513847351e-01,-1.381612196564674377e-02,-1.289740651845932007e-01,-1.511583775281906128e-01,5.646501202136278152e-03,9.600510448217391968e-02,2.394677698612213135e-01,1.229304298758506775e-01,4.508319310843944550e-03,-7.623884826898574829e-02,-4.512534663081169128e-02,4.719746485352516174e-02,1.301794499158859253e-01,-3.336649388074874878e-02,-3.159248530864715576e-01,1.836409978568553925e-02,6.896533071994781494e-02,3.614203259348869324e-02,-1.387183219194412231e-01,-1.301098018884658813e-01,1.795807331800460815e-01,-1.990448236465454102e-01,-5.094939470291137695e-02,1.282466351985931396e-01,-2.990138158202171326e-02,-3.117981180548667908e-02,1.340932697057723999e-01,2.114740014076232910e-01,1.544537693262100220e-01,-1.449637860059738159e-01,1.581335626542568207e-02,2.822168916463851929e-02,1.637051999568939209e-01,1.092163473367691040e-02,-1.595466285943984985e-01,1.038367673754692078e-01
-2.402748763561248779e-01,1.331598758697509766e-01,-4.263139143586158752e-02,-1.055492311716079712e-01,-1.810663491487503052e-01,-1.435111165046691895e-01,-3.483155369758605957e-01,-8.115688711404800415e-02,-2.123604714870452881e-01,-8.417178690433502197e-02,1.490093767642974854e-01,-4.427077248692512512e-02,-1.055595278739929199e-01,1.086572557687759399e-01,7.564500719308853149e-02,1.671891212463378906e-01,-1.025234758853912354e-01,3.249622881412506104e-02,4.982751235365867615e-02,-9.169419109821319580e-02,-9.711783379316329956e-03,1.034261882305145264e-01,-5.341488867998123169e-02,-3.063802979886531830e-02,-6.499221920967102051e-02,1.060095131397247314e-01,3.969465941190719604e-02,1.312371641397476196e-01,-1.505418419837951660e-01,-8.909614384174346924e-02,-1.332963258028030396e-01,-4.722368717193603516e-02,1.597470487467944622e-03,1.065855845808982849e-01,7.309633493423461914e-02,1.150121837854385376e-01,4.314863309264183044e-02,1.418239623308181763e-01,9.658866561949253082e-03,1.831809803843498230e-02,9.357502311468124390e-02,9.297268837690353394e-02,-1.254224479198455811e-01,-1.984985172748565674e-02,-1.293169520795345306e-02
1.370437145233154297e-01,-1.254719942808151245e-01,-3.289876580238342285e-01,8.276275545358657837e-02,-9.470439702272415161e-02,1.221858561038970947e-01,2.252447009086608887e-01,-1.928083449602127075e-01,2.446183115243911743e-01,-1.336332410573959351e-01,-2.070722728967666626e-01,7.015688717365264893e-02,1.217328384518623352e-01,-5.124704539775848389e-02,-9.941463172435760498e-02,3.417874574661254883e-01,-1.352127045392990112e-01,-1.067882925271987915e-01,7.434900104999542236e-02,1.014582991600036621e+00,-2.412968575954437256e-01,-2.182847112417221069e-01,-1.239273250102996826e-01,1.325323153287172318e-02,4.526402428746223450e-02,1.056508719921112061e-01,-4.771701991558074951e-02,1.302687451243400574e-02,-9.421999752521514893e-02,-2.684842348098754883e-01,5.762681961059570312e-01,1.983827054500579834e-01,-1.087647005915641785e-01,3.645039200782775879e-01,-1.664252430200576782e-01,-1.251695305109024048e-02,2.150631994009017944e-01,1.005168333649635315e-01,-9.038838744163513184e-02,1.766757667064666748e-01,1.980953849852085114e-03,6.885161250829696655e-02,-3.075448870658874512e-01,-7.691952586174011230e-02,4.873293936252593994e-01
-3.569037839770317078e-02,8.270063251256942749e-02,-1.148854643106460571e-01,1.599209755659103394e-01,-2.188122868537902832e-01,5.840939469635486603e-03,-2.153859883546829224e-01,-1.304127424955368042e-01,-3.852289542555809021e-02,-3.497786074876785278e-02,2.023887634277343750e-02,2.843923307955265045e-02,7.152708619832992554e-02,-1.552223563194274902e-01,-1.778711192309856415e-02,1.372708231210708618e-01,6.032786145806312561e-02,3.451001644134521484e-02,-5.140387266874313354e-02,7.599993795156478882e-02,-1.598877608776092529e-01,4.999659955501556396e-02,-7.258196920156478882e-02,-2.541906833648681641e-01,-5.776363611221313477e-02,2.055217325687408447e-01,1.568121165037155151e-01,-1.339609175920486450e-01,4.352375864982604980e-02,4.624482989311218262e-02,-2.094127386808395386e-01,6.092600896954536438e-02,2.110050059854984283e-02,1.724511384963989258e-01,-1.206688806414604187e-01,-1.152345314621925354e-01,1.758054941892623901e-01,1.957121342420578003e-01,9.957120567560195923e-02,7.023691385984420776e-02,-2.004410326480865479e-01,-4.892215505242347717e-02,5.210251733660697937e-02,-2.408691495656967163e-01,3.025912120938301086e-02
-1.469590961933135986e-01,-3.868785127997398376e-02,2.534725666046142578e-01,-4.424287751317024231e-02,-3.561891242861747742e-02,-2.884216904640197754e-01,-6.193394213914871216e-02,-1.611128300428390503e-01,2.972278594970703125e-01,-5.865210294723510742e-02,-7.850831747055053711e-02,4.153990000486373901e-02,-1.960256248712539673e-01,-1.477940082550048828e-01,7.467617094516754150e-02,-1.316796988248825073e-01,1.481149066239595413e-02,1.943401694297790527e-01,2.072653174400329590e-01,6.176658719778060913e-02,-1.291290670633316040e-01,-5.291922688484191895e-01,1.236828044056892395e-01,-3.425569087266921997e-02,-7.408775389194488525e-02,-1.648990213871002197e-01,-1.620500981807708740e-01,-9.686910361051559448e-02,-4.731562733650207520e-02,-5.615028738975524902e-02,1.617062985897064209e-01,-2.487666010856628418e-01,1.060322001576423645e-01,-5.672501027584075928e-02,2.215803563594818115e-01,1.271996349096298218e-01,-1.611782759428024292e-01,-2.669167220592498779e-01,-1.036879196763038635e-01,1.919438987970352173e-01,-1.216963529586791992e-01,2.386516183614730835e-01,2.322438657283782959e-01,-3.090126439929008484e-02,7.868577539920806885e-02
2.614436149597167969e-01,-5.805383622646331787e-02,-1.601499468088150024e-01,-2.985398173332214355e-01,3.937181234359741211e-01,5.542533472180366516e-02,4.842776358127593994e-01,6.509673595428466797e-02,1.395928263664245605e-01,1.369132101535797119e-01,-5.333300679922103882e-02,7.002734392881393433e-02,1.409563869237899780e-01,1.065486520528793335e-01,-8.168150484561920166e-02,-7.897631078958511353e-02,-1.192091032862663269e-02,1.309576183557510376e-01,-6.378902494907379150e-02,2.141999900341033936e-01,3.172246739268302917e-02,-8.274363726377487183e-02,2.116913050413131714e-01,2.493271976709365845e-01,1.775632053613662720e-01,-5.693510756827890873e-04,-4.326950386166572571e-02,7.982882857322692871e-02,2.012580633163452148e-01,-1.185191329568624496e-02,-1.662334799766540527e-01,-2.144443243741989136e-01,-3.283082321286201477e-02,-1.362480670213699341e-01,2.511087805032730103e-02,1.108776852488517761e-01,4.792223125696182251e-02,1.955620758235454559e-02,1.306871026754379272e-01,-8.178754150867462158e-02,-5.430160835385322571e-02,4.910591244697570801e-02,1.368213444948196411e-01,1.249865815043449402e-01,-8.063379675149917603e-02
-1.306925266981124878e-01,4.577321186661720276e-02,-6.051899492740631104e-02,-9.879359602928161621e-02,-1.667652875185012817e-01,7.339950650930404663e-02,-7.940825819969177246e-02,-7.343587279319763184e-02,-1.599868386983871460e-01,-3.038054108619689941e-01,-3.329757973551750183e-02,-6.595631688833236694e-02,-7.123729586601257324e-02,-1.167154982686042786e-01,-6.446029990911483765e-02,1.947324275970458984e-01,8.164696395397186279e-02,5.581595748662948608e-02,-4.005062207579612732e-02,-7.796273566782474518e-03,-2.141182422637939453e-01,1.223011538386344910e-01,-1.509523540735244751e-01,1.650485210120677948e-02,-2.242519520223140717e-02,1.261075139045715332e-01,1.772250533103942871e-01,-9.297166834585368633e-04,-2.949107438325881958e-02,5.873905122280120850e-02,-7.397542707622051239e-03,-4.601060599088668823e-02,4.077196121215820312e-02,8.727506548166275024e-02,-1.487356722354888916e-01,7.036362588405609131e-02,1.162768006324768066e-01,6.862453371286392212e-02,-1.808226406574249268e-01,-9.087137877941131592e-02,-1.101061180233955383e-01,-9.162050485610961914e-02,-1.842589825391769409e-01,-1.059237271547317505e-01,1.080421730875968933e-02
1.523799821734428406e-02,-1.046763062477111816e-01,1.080343872308731079e-02,-4.949362482875585556e-03,1.531399786472320557e-01,1.070417985320091248e-01,-1.841501705348491669e-02,1.867945492267608643e-02,5.906090885400772095e-02,-6.179441884160041809e-02,1.281827390193939209e-01,-4.921812936663627625e-02,6.553017348051071167e-02,5.362568423151969910e-02,-1.119578629732131958e-02,-2.674915492534637451e-01,-9.710856527090072632e-02,1.297644688747823238e-03,7.885983586311340332e-02,1.086744517087936401e-01,1.571571640670299530e-02,-1.783463731408119202e-02,-1.008317172527313232e-01,1.983429193496704102e-01,-1.017359420657157898e-01,2.377754263579845428e-02,1.510159461759030819e-03,-1.732376404106616974e-04,-4.498041793704032898e-02,5.680764839053153992e-02,3.566468879580497742e-02,2.671739831566810608e-02,5.877240374684333801e-02,-2.071683704853057861e-01,-3.723443672060966492e-02,4.997564852237701416e-02,1.330431364476680756e-02,-1.186969573609530926e-03,1.529769897460937500e-01,-5.089427903294563293e-02,-8.507934957742691040e-02,-5.142820999026298523e-02,-9.858020395040512085e-02,-3.539457172155380249e-02,2.266684547066688538e-02
-7.046991586685180664e-02,-6.531210988759994507e-02,6.719542667269706726e-03,-1.477149426937103271e-01,-1.134830489754676819e-01,4.255019873380661011e-02,-2.365988790988922119e-01,-1.486988514661788940e-01,-3.440314233303070068e-01,-2.589111626148223877e-01,1.380806267261505127e-01,2.267411351203918457e-01,-1.232595294713973999e-01,-3.740134462714195251e-02,-3.363849595189094543e-02,3.406293317675590515e-02,-2.946079149842262268e-02,-8.074469119310379028e-02,-6.433138251304626465e-02,-4.287312924861907959e-01,5.455188080668449402e-02,-1.463838517665863037e-01,-3.562530130147933960e-02,2.272734418511390686e-02,6.434525549411773682e-02,1.182480752468109131e-01,-1.198052614927291870e-01,1.104216650128364563e-01,1.385015547275543213e-01,3.044883534312248230e-02,-4.491769149899482727e-02,1.879668235778808594e-01,-7.879938930273056030e-02,1.254948228597640991e-01,-1.414255350828170776e-01,1.403359472751617432e-01,-3.285380452871322632e-02,6.525027006864547729e-02,5.493516474962234497e-02,1.590337306261062622e-01,1.239635571837425232e-01,-1.366580277681350708e-01,-5.765107274055480957e-02,-1.349838525056838989e-01,7.861944288015365601e-02
6.725140661001205444e-02,7.919093221426010132e-02,1.011187676340341568e-02,4.573171213269233704e-02,-1.305321753025054932e-01,2.893602661788463593e-02,3.822783008217811584e-02,-1.366613805294036865e-01,-6.047859415411949158e-02,-3.913904074579477310e-03,-2.159252949059009552e-02,1.154265478253364563e-01,1.383738592267036438e-02,7.672411855310201645e-03,9.903831779956817627e-02,-1.083412859588861465e-02,-4.639169946312904358e-02,1.062131207436323166e-02,1.402871310710906982e-01,7.793127000331878662e-02,-1.159800663590431213e-01,-1.992603838443756104e-01,4.859344288706779480e-02,1.339743137359619141e-01,-3.838908672332763672e-02,1.328621208667755127e-01,-1.716386526823043823e-01,-1.341200619935989380e-01,-5.556751042604446411e-02,-3.899749740958213806e-02,1.594900488853454590e-01,-8.094585500657558441e-03,1.403811275959014893e-01,-1.531448098830878735e-03,-1.848429590463638306e-01,-6.753223389387130737e-02,3.291849419474601746e-02,-1.293410062789916992e-01,6.757645308971405029e-02,1.220100820064544678e-01,-2.716133929789066315e-02,-5.375477299094200134e-02,6.866164505481719971e-02,-8.487351238727569580e-02,-2.312067002058029175e-01
9.479356557130813599e-02,-9.789819829165935516e-03,1.220685765147209167e-01,-1.267456263303756714e-01,1.049604453146457672e-02,6.906836479902267456e-02,4.498698189854621887e-02,1.518144160509109497e-01,-1.227410435676574707e-01,2.720297314226627350e-02,1.084839925169944763e-01,1.764398515224456787e-01,-9.339312463998794556e-02,1.337003856897354126e-01,1.229325961321592331e-02,2.810028567910194397e-02,-6.804306176491081715e-04,6.676881015300750732e-02,-3.178689163178205490e-03,-2.152057588100433350e-01,-1.342170089483261108e-01,1.532855182886123657e-01,-7.982552051544189453e-02,1.600859872996807098e-02,9.690823405981063843e-02,1.069406792521476746e-01,-1.011791452765464783e-01,-1.098012402653694153e-01,-1.017780378460884094e-01,-9.990148246288299561e-02,-5.789156630635261536e-02,7.815138250589370728e-02,-7.518141716718673706e-02,7.066117227077484131e-02,-1.131587922573089600e-01,6.607192009687423706e-02,1.806160435080528259e-02,1.717942953109741211e-01,3.974839672446250916e-02,2.968407049775123596e-02,4.524209722876548767e-02,6.292521208524703979e-02,4.368665441870689392e-02,6.719111651182174683e-02,6.879374384880065918e-02
-1.287250518798828125e-01,3.096499480307102203e-02,1.021898612380027771e-01,1.081471666693687439e-01,-2.610531449317932129e-01,-1.638633012771606445e-02,-3.686918616294860840e-01,4.160453751683235168e-02,8.625285327434539795e-02,7.437959313392639160e-02,-1.721574962139129639e-01,-3.227856382727622986e-02,1.352560520172119141e-01,5.574050545692443848e-02,7.710130512714385986e-02,5.886641144752502441e-02,-4.996758885681629181e-03,-8.271680027246475220e-02,1.111823096871376038e-01,3.881042301654815674e-01,-7.719378918409347534e-02,-1.020775288343429565e-01,2.266595810651779175e-01,-3.927379846572875977e-01,-4.221402108669281006e-02,-1.131314486265182495e-01,3.435513004660606384e-02,-1.578780449926853180e-02,-6.683722883462905884e-02,-2.178530581295490265e-02,-1.340963989496231079e-01,-1.429727077484130859e-01,-8.158106356859207153e-02,-7.589765638113021851e-02,4.502630978822708130e-02,8.613889664411544800e-02,-4.813522100448608398e-02,1.346570067107677460e-02,-3.437057882547378540e-02,-5.570689216256141663e-02,-1.538995504379272461e-01,-5.186755955219268799e-02,-7.822472602128982544e-02,-1.784551143646240234e-01,2.176332287490367889e-02
-2.297635525465011597e-01,-3.317067772150039673e-02,3.614490851759910583e-02,6.519687920808792114e-02,-2.695174217224121094e-01,7.645614445209503174e-02,-4.350168108940124512e-01,9.480947256088256836e-02,-1.968200951814651489e-01,-1.820148378610610962e-01,1.859793066978454590e-02,9.651070833206176758e-02,1.139339432120323181e-01,-1.174967139959335327e-01,-2.345580421388149261e-02,2.662935554981231689e-01,8.900091052055358887e-02,6.061132252216339111e-02,-1.255627274513244629e-01,5.563807487487792969e-02,-1.773062944412231445e-01,6.230924651026725769e-02,1.043335720896720886e-01,-3.921354413032531738e-01,6.750711798667907715e-02,-3.886042162775993347e-02,1.429498791694641113e-01,-1.397528797388076782e-01,-1.640527248382568359e-01,-7.082720287144184113e-03,-2.223437279462814331e-01,7.609121501445770264e-02,-4.301260411739349365e-02,1.182081848382949829e-01,-2.849666215479373932e-02,3.359765931963920593e-02,1.152133047580718994e-01,2.871983349323272705e-01,-1.286811977624893188e-01,-8.290360867977142334e-02,-6.168582662940025330e-02,9.950671344995498657e-02,3.197613358497619629e-02,-1.655069887638092041e-01,4.527999088168144226e-03
7.893414050340652466e-02,-1.628462523221969604e-01,-4.628805443644523621e-02,2.423054352402687073e-02,-4.876407608389854431e-02,1.198048368096351624e-01,-4.056102037429809570e-02,-9.618725627660751343e-02,4.307684674859046936e-02,2.069365419447422028e-02,-1.306529492139816284e-01,1.243991032242774963e-01,1.607033908367156982e-01,-4.988283291459083557e-02,-1.559402793645858765e-01,3.594809398055076599e-02,-3.159308806061744690e-02,1.066205203533172607e-01,1.000789105892181396e-01,2.147900611162185669e-01,-9.175559505820274353e-03,-5.485760048031806946e-02,5.754210799932479858e-02,-7.548579573631286621e-02,5.066013336181640625e-02,-1.072867661714553833e-01,1.167569532990455627e-01,-1.086781099438667297e-01,1.138615980744361877e-01,1.191917620599269867e-02,-3.593791974708437920e-03,-8.879004977643489838e-03,-2.980555780231952667e-02,-1.421207040548324585e-01,1.236028149724006653e-01,8.202960342168807983e-02,-7.726681232452392578e-02,-1.323703527450561523e-01,-1.014651283621788025e-01,6.237446144223213196e-02,-9.440873563289642334e-02,6.000276654958724976e-03,-5.873281136155128479e-02,1.378442049026489258e-01,1.868315190076828003e-01
4.433571100234985352e-01,1.549151986837387085e-01,-8.808968216180801392e-02,-3.070484101772308350e-01,3.447273969650268555e-01,1.527362763881683350e-01,2.365914285182952881e-01,1.623052209615707397e-01,8.770518749952316284e-02,2.085872143507003784e-01,2.733207866549491882e-02,3.175756707787513733e-02,-3.657303377985954285e-02,1.363999545574188232e-01,8.573025465011596680e-02,-1.701360046863555908e-01,1.024225875735282898e-01,1.061221957206726074e-01,3.472604975104331970e-02,2.880012989044189453e-01,1.936496347188949585e-01,-8.823272585868835449e-02,1.632176637649536133e-01,2.868178188800811768e-01,2.340011000633239746e-01,5.197617039084434509e-02,5.201894417405128479e-02,-2.817508950829505920e-02,1.655010879039764404e-01,-1.745135523378849030e-02,-2.193148732185363770e-01,-2.767000533640384674e-02,-3.580969944596290588e-02,-2.285892814397811890e-01,5.172613635659217834e-02,-5.624134093523025513e-02,-7.007158547639846802e-02,-1.181362271308898926e-01,-2.229235600680112839e-03,-1.018934417515993118e-02,1.355152875185012817e-01,-6.369429081678390503e-02,7.398583739995956421e-02,4.180060327053070068e-01,-3.184052407741546631e-01
-4.760273173451423645e-02,1.065670996904373169e-01,8.266754448413848877e-02,-8.806952089071273804e-02,7.992500066757202148e-02,-1.019500270485877991e-01,3.433385491371154785e-01,1.585893332958221436e-01,1.914978325366973877e-01,8.117609471082687378e-02,-1.568209566175937653e-02,2.168832346796989441e-02,-2.197714708745479584e-02,1.001252681016921997e-01,-4.093196615576744080e-02,-1.494626402854919434e-01,-9.150558710098266602e-02,4.582979530096054077e-02,1.376711577177047729e-01,5.068862810730934143e-02,1.635705530643463135e-01,-1.616539508104324341e-01,4.279470071196556091e-02,2.125591188669204712e-01,3.121986053884029388e-02,1.903259311802685261e-03,-7.842833548784255981e-02,9.002269059419631958e-02,3.708764910697937012e-02,-8.433521538972854614e-02,2.027184963226318359e-01,1.393880229443311691e-02,2.420356729999184608e-03,-1.232050061225891113e-01,1.836486309766769409e-01,1.204269193112850189e-02,-1.803289055824279785e-01,-2.596274018287658691e-01,1.703800261020660400e-01,1.840202212333679199e-01,1.727939099073410034e-01,-1.130256801843643188e-01,1.148326024413108826e-01,9.541841223835945129e-03,-7.036551088094711304e-02
-5.543973669409751892e-02,-8.358034491539001465e-02,9.241916984319686890e-02,1.428780108690261841e-01,-2.686883509159088135e-01,2.507374249398708344e-02,-3.509954512119293213e-01,-9.112887829542160034e-02,-1.349839717149734497e-01,-1.414238959550857544e-01,5.388856679201126099e-02,-8.992990851402282715e-02,4.680827260017395020e-02,-5.932234600186347961e-02,5.918170884251594543e-02,2.001212537288665771e-01,7.696360349655151367e-03,-1.376358568668365479e-01,6.683181226253509521e-02,-1.382453739643096924e-01,-8.952896296977996826e-02,1.336786430329084396e-02,-1.296137273311614990e-01,-2.705590724945068359e-01,1.154120713472366333e-01,1.906012445688247681e-01,-5.036231502890586853e-02,1.363944560289382935e-01,9.405747801065444946e-02,-7.567900419235229492e-02,-2.368883639574050903e-01,-1.325744576752185822e-02,5.394081026315689087e-02,2.082654535770416260e-01,2.658566460013389587e-03,1.067559607326984406e-02,1.912825554609298706e-01,1.985308229923248291e-01,-1.055843383073806763e-01,-1.471929252147674561e-01,7.023334503173828125e-02,-1.194766610860824585e-01,-1.364892572164535522e-01,-2.845055460929870605e-01,7.648372650146484375e-02
1.468708515167236328e-01,9.037651866674423218e-02,1.134120523929595947e-01,1.132272630929946899e-01,1.558570563793182373e-01,1.536741945892572403e-02,6.009831652045249939e-02,1.100815683603286743e-01,2.636271119117736816e-01,-4.422015324234962463e-02,-4.146714136004447937e-02,6.117260083556175232e-02,2.564206533133983612e-02,7.473787292838096619e-03,-7.058712840080261230e-02,7.192122749984264374e-03,1.239443570375442505e-01,1.504132151603698730e-01,-1.048602759838104248e-01,2.719302177429199219e-01,2.823806367814540863e-02,-4.897071048617362976e-02,2.107039541006088257e-01,-9.011939167976379395e-02,7.017537206411361694e-02,-2.325632609426975250e-02,1.408734619617462158e-01,-1.268946379423141479e-01,2.953651361167430878e-02,1.595492810010910034e-01,1.065258160233497620e-01,-1.824022531509399414e-01,1.087375879287719727e-01,7.269964367151260376e-02,-1.083505339920520782e-02,8.904638886451721191e-02,1.208575144410133362e-01,-6.751633435487747192e-02,-8.170999586582183838e-03,2.899987250566482544e-02,-1.306224912405014038e-01,-4.750158637762069702e-03,9.691960364580154419e-02,-2.011729329824447632e-01,-1.719914190471172333e-02
-1.392824947834014893e-01,3.310298919677734375e-02,1.661279946565628052e-01,-1.993557065725326538e-01,-2.919607162475585938e-01,1.206199228763580322e-01,-2.880590260028839111e-01,3.385470947250723839e-03,-1.091116294264793396e-01,-1.693784296512603760e-01,3.732593730092048645e-02,1.633097976446151733e-01,9.470801055431365967e-02,-5.321381613612174988e-02,-6.361746788024902344e-02,2.270224690437316895e-02,-3.763318806886672974e-02,1.226501688361167908e-01,-1.320934109389781952e-02,-4.062834382057189941e-01,-9.883214533329010010e-02,5.178058147430419922e-02,-2.301108539104461670e-01,1.828336738981306553e-03,1.006439607590436935e-02,-7.216118276119232178e-02,9.230820089578628540e-02,1.085167825222015381e-01,4.579923674464225769e-02,-1.176345050334930420e-01,3.451748937368392944e-02,-8.140126615762710571e-02,6.658785510808229446e-03,3.499865904450416565e-02,-5.604578182101249695e-02,-4.487738758325576782e-02,7.214841246604919434e-02,1.572376489639282227e-01,1.198050454258918762e-01,1.194132789969444275e-01,9.643405675888061523e-02,-4.891785234212875366e-02,9.420492500066757202e-02,-1.255056560039520264e-01,1.053831353783607483e-01
2.664108760654926300e-02,-1.270472258329391479e-01,-7.948316633701324463e-02,-4.993164539337158203e-02,-1.383079737424850464e-01,-1.152449939399957657e-02,-2.015922665596008301e-01,-9.304956346750259399e-02,-5.180671066045761108e-02,-1.451287567615509033e-01,-2.589236013591289520e-02,9.001110494136810303e-02,-1.330925617367029190e-02,1.073841378092765808e-01,1.482192426919937134e-01,6.140602752566337585e-03,1.568330973386764526e-01,-4.409336298704147339e-02,-7.993565499782562256e-02,-2.105174958705902100e-01,-2.040887326002120972e-01,-8.915836364030838013e-02,-1.381233334541320801e-01,-5.255052819848060608e-02,1.653580344282090664e-03,5.006930977106094360e-02,8.000334352254867554e-02,1.540210563689470291e-02,9.230946004390716553e-02,-1.428327243775129318e-02,-6.241862475872039795e-02,3.787600621581077576e-02,7.639672607183456421e-02,1.441766619682312012e-01,-1.037494372576475143e-02,-5.738054215908050537e-02,3.319806186482310295e-03,2.399248629808425903e-01,-1.492040157318115234e-01,-5.123037844896316528e-02,9.729989618062973022e-02,1.743385381996631622e-02,-1.526132971048355103e-01,-2.736075222492218018e-01,4.360415786504745483e-02
-1.187738329172134399e-01,-3.655752167105674744e-02,-1.178525462746620178e-01,9.352453052997589111e-02,-1.074703633785247803e-01,7.451384514570236206e-02,4.372414574027061462e-02,-9.491547942161560059e-02,-2.372876182198524475e-02,7.677190005779266357e-02,-5.917098745703697205e-02,-6.171993911266326904e-02,2.764290198683738708e-02,-1.753243734128773212e-03,-2.172161042690277100e-01,-1.774168163537979126e-01,-1.164883151650428772e-01,-2.120193652808666229e-02,-1.619968116283416748e-01,4.779995232820510864e-02,-1.345359385013580322e-01,-1.972454786300659180e-01,1.580163836479187012e-01,-1.606067568063735962e-01,-2.287343144416809082e-01,-4.377779737114906311e-02,-2.776350975036621094e-01,3.017495013773441315e-02,-6.945103872567415237e-03,-1.296266913414001465e-01,8.805863559246063232e-02,9.215222299098968506e-02,-1.727585345506668091e-01,-8.297963440418243408e-02,-3.143270313739776611e-02,-9.903226047754287720e-02,-2.264035493135452271e-01,-1.879203915596008301e-01,2.477979660034179688e-02,-1.148588955402374268e-01,-6.639518588781356812e-02,1.165949255228042603e-01,-1.949475333094596863e-02,-2.404699623584747314e-01,6.121372058987617493e-02
-1.560363024473190308e-01,-3.641017898917198181e-02,-6.407485157251358032e-02,2.835856750607490540e-02,-2.283892631530761719e-01,-1.040704697370529175e-01,-4.486421048641204834e-01,1.753338873386383057e-01,-5.694685876369476318e-02,1.589868068695068359e-01,-1.130356192588806152e-01,-1.046408340334892273e-01,2.052898146212100983e-02,6.040392443537712097e-02,1.201898455619812012e-01,9.800361096858978271e-02,-4.065949842333793640e-02,-2.718815021216869354e-02,-1.446756273508071899e-01,2.287517786026000977e-01,9.229467809200286865e-02,-6.203959137201309204e-02,1.347993910312652588e-01,-2.646577656269073486e-01,-8.390507847070693970e-02,1.614909470081329346e-01,2.323047816753387451e-01,3.230933472514152527e-02,8.660628646612167358e-02,1.254380941390991211e-01,-1.064719036221504211e-01,5.553897935897111893e-04,4.843400418758392334e-02,-8.143874257802963257e-02,-1.507453769445419312e-01,8.966327644884586334e-03,6.362566258758306503e-03,1.433163434267044067e-01,-1.297888457775115967e-01,-1.042936518788337708e-01,-1.356244683265686035e-01,-4.853479191660881042e-02,-1.143830418586730957e-01,-3.994570374488830566e-01,-3.504764661192893982e-02
1.925109140574932098e-02,-4.288573563098907471e-02,3.658772259950637817e-02,-7.254143059253692627e-02,1.501050144433975220e-01,1.479883193969726562e-01,1.761564314365386963e-01,-1.166033148765563965e-01,2.227529734373092651e-01,-7.812841236591339111e-02,3.587881103157997131e-02,-3.937868028879165649e-02,-9.021501056849956512e-03,-8.870062418282032013e-03,1.695679277181625366e-01,-1.415598765015602112e-02,2.925719833001494408e-03,-6.076407805085182190e-02,2.131918072700500488e-01,-9.438081830739974976e-02,-6.296280771493911743e-03,-2.709819376468658447e-01,7.531718909740447998e-02,-1.810583658516407013e-02,-2.950043976306915283e-02,2.302605956792831421e-01,-1.658079028129577637e-01,-4.518275707960128784e-02,5.934253800660371780e-03,-1.489488631486892700e-01,2.075956314802169800e-01,2.222114242613315582e-02,7.533807307481765747e-02,-9.917189180850982666e-02,-5.035455524921417236e-02,-8.874065428972244263e-02,1.679373681545257568e-01,1.285677999258041382e-01,-4.941906314343214035e-03,9.433070570230484009e-02,-1.605570912361145020e-01,7.618261873722076416e-02,-3.818751499056816101e-02,1.611771881580352783e-01,-1.919297426939010620e-01
-1.545412987470626831e-01,3.914457559585571289e-02,-2.684810757637023926e-02,-1.087063625454902649e-01,-5.528982356190681458e-02,-1.615931540727615356e-01,7.730934023857116699e-02,-1.290466785430908203e-01,4.101297557353973389e-01,1.188728958368301392e-02,-2.576378583908081055e-01,-3.849821910262107849e-02,-1.187615469098091125e-01,-5.432837456464767456e-02,4.367849614936858416e-04,-1.159721761941909790e-01,1.670116633176803589e-01,4.751922562718391418e-02,2.018876820802688599e-01,-7.822860032320022583e-03,-1.726822704076766968e-01,-4.958062767982482910e-01,-7.748304051347076893e-04,-1.335571855306625366e-01,3.801577165722846985e-02,-4.152395762503147125e-03,-1.287392973899841309e-01,-9.690891206264495850e-02,-1.131463423371315002e-01,1.365877538919448853e-01,2.095548957586288452e-01,-1.926999655552208424e-03,1.102701872587203979e-01,-1.233404129743576050e-02,4.186188280582427979e-01,9.920727461576461792e-02,-3.145641684532165527e-01,-1.973811537027359009e-01,2.206992916762828827e-02,1.219673454761505127e-01,1.196162328124046326e-01,2.184676229953765869e-01,2.148452103137969971e-01,-1.357153654098510742e-01,1.135452240705490112e-01
-9.155870229005813599e-02,-1.061790511012077332e-01,-8.468912541866302490e-02,-5.616571381688117981e-02,-1.609755493700504303e-02,2.233876846730709076e-02,-1.657820940017700195e-01,8.978015743196010590e-03,-4.411599412560462952e-02,7.207618094980716705e-03,-5.252959579229354858e-02,9.265530109405517578e-02,-8.835639059543609619e-02,1.044369190931320190e-01,1.356386393308639526e-01,-3.887386992573738098e-02,-1.054651811718940735e-01,-5.764981731772422791e-02,1.704099178314208984e-01,-6.585539877414703369e-02,-1.045792028307914734e-01,-4.889525473117828369e-02,-9.005159139633178711e-02,-1.775880455970764160e-01,8.764167875051498413e-02,7.754521816968917847e-02,9.060613811016082764e-02,1.601837575435638428e-01,8.580651879310607910e-02,-1.493000537157058716e-01,-1.909086704254150391e-01,2.545104362070560455e-03,-8.927665650844573975e-02,-3.578843548893928528e-02,-1.055707186460494995e-01,1.370000690221786499e-01,5.463897436857223511e-02,2.294187843799591064e-01,-1.450176686048507690e-01,-6.091223657131195068e-02,1.380205992609262466e-02,1.253948211669921875e-01,-2.186073735356330872e-02,-1.792244762182235718e-01,7.002712041139602661e-02
-1.644393950700759888e-01,6.858783215284347534e-02,-2.700902894139289856e-02,5.571706965565681458e-02,-1.389908790588378906e-01,-5.488312616944313049e-02,4.440098628401756287e-02,-1.861114948987960815e-01,-2.266255915164947510e-01,-1.592946052551269531e-01,1.853937059640884399e-01,1.324135959148406982e-01,8.801817148923873901e-02,3.991702944040298462e-02,-1.047937273979187012e-01,-9.441789984703063965e-02,3.923539444804191589e-02,-9.315395355224609375e-02,-7.296533882617950439e-02,-3.688220083713531494e-01,-6.943774223327636719e-02,5.101733654737472534e-02,8.109769783914089203e-03,1.499707624316215515e-02,-6.774751842021942139e-02,3.746733069419860840e-02,1.394661050289869308e-02,-8.768212795257568359e-02,1.179896667599678040e-01,-8.113004267215728760e-02,5.377415195107460022e-02,4.780527204275131226e-02,-8.003707975149154663e-02,-1.171369552612304688e-01,-1.708747074007987976e-02,7.966882735490798950e-02,1.016354262828826904e-01,-2.921490930020809174e-02,1.621394604444503784e-02,1.034576371312141418e-01,-1.083952412009239197e-01,-2.295869030058383942e-02,1.021984964609146118e-02,1.226957589387893677e-01,-2.101336419582366943e-02
-8.702319860458374023e-02,-2.039553597569465637e-02,1.733668847009539604e-03,1.993602141737937927e-02,-1.304516047239303589e-01,-1.928850561380386353e-01,1.086585252778604627e-04,-1.221859008073806763e-01,2.483369559049606323e-01,-1.445683538913726807e-01,-7.788886874914169312e-02,5.521009862422943115e-02,-7.437942922115325928e-02,4.732966423034667969e-02,-9.360502660274505615e-02,-6.662476807832717896e-02,-1.093884930014610291e-01,1.811869733501225710e-04,7.352121174335479736e-02,9.341876953840255737e-02,9.360953420400619507e-02,-3.127841651439666748e-01,2.862159349024295807e-02,-2.924995310604572296e-02,-9.181839972734451294e-02,-4.339191317558288574e-02,-2.033012211322784424e-01,-9.500233083963394165e-02,9.420072287321090698e-02,1.422818750143051147e-01,2.131001055240631104e-01,-9.523256123065948486e-02,1.126801222562789917e-01,-1.452952176332473755e-01,2.303342819213867188e-01,2.065187878906726837e-02,-1.384954899549484253e-02,-1.040329486131668091e-01,-1.189393252134323120e-01,2.363614290952682495e-01,6.987030804157257080e-02,3.014449477195739746e-01,3.547647595405578613e-02,-3.126698732376098633e-02,5.963719636201858521e-02
-2.443722039461135864e-01,-2.262771278619766235e-01,-7.256032526493072510e-02,-2.106646075844764709e-02,-2.126844376325607300e-01,1.510947644710540771e-01,2.906244695186614990e-01,-4.917353391647338867e-02,2.112862318754196167e-01,-1.594645380973815918e-01,-6.318500638008117676e-02,5.995126441121101379e-02,-1.804051920771598816e-02,-1.785663366317749023e-01,-1.867577582597732544e-01,1.372076869010925293e-01,-1.345024065813049674e-04,6.506494712084531784e-03,2.609127573668956757e-02,3.713114559650421143e-01,-1.604205071926116943e-01,1.006566286087036133e-01,-1.703215204179286957e-02,-2.658406496047973633e-01,-2.179315537214279175e-01,1.730373799800872803e-01,-3.351440429687500000e-01,5.432053282856941223e-02,-1.905230134725570679e-01,9.710713475942611694e-02,4.516964852809906006e-01,-3.553752601146697998e-02,1.124308817088603973e-02,2.172086685895919800e-01,5.100766196846961975e-02,-1.702939867973327637e-01,-3.037230484187602997e-02,-1.525700986385345459e-01,-3.673272207379341125e-02,-2.288524210453033447e-01,-4.700626432895660400e-02,2.358145713806152344e-01,-8.547183126211166382e-02,-1.188080608844757080e-01,3.308467268943786621e-01
1.555425375699996948e-01,1.445292681455612183e-01,-1.344002187252044678e-01,-5.766368508338928223e-01,2.956605553627014160e-01,9.000256657600402832e-02,-9.813359379768371582e-02,1.297246217727661133e-01,-7.587445378303527832e-01,4.257266223430633545e-02,1.305520832538604736e-01,-1.958080083131790161e-01,1.598612666130065918e-01,7.386771030724048615e-03,-1.760488599538803101e-01,-1.328258514404296875e-01,-1.040097996592521667e-01,4.158419370651245117e-02,-1.986482888460159302e-01,-3.978329002857208252e-01,4.194171633571386337e-03,5.244838073849678040e-02,-6.011208146810531616e-02,7.847040146589279175e-02,-1.068403646349906921e-01,-6.836714595556259155e-02,-2.388070523738861084e-01,3.979144617915153503e-03,9.984953701496124268e-02,9.771081805229187012e-02,-5.936400890350341797e-01,7.988663017749786377e-02,1.165904197841882706e-02,5.708901882171630859e-01,-2.522375881671905518e-01,-1.331828385591506958e-01,1.452445685863494873e-01,-1.917263269424438477e-01,3.376690298318862915e-02,-4.197140038013458252e-02,-6.775087863206863403e-02,-1.966514289379119873e-01,-6.130796670913696289e-02,2.062116712331771851e-01,-1.041311472654342651e-01
-1.907778531312942505e-01,6.318691372871398926e-02,1.265885382890701294e-01,-1.133106574416160583e-01,-2.150362730026245117e-01,1.258404999971389771e-01,-3.891713619232177734e-01,-7.629599422216415405e-02,-2.355046868324279785e-01,1.096167135983705521e-02,-5.057656019926071167e-02,-1.808618428185582161e-03,-6.723752617835998535e-02,1.374620646238327026e-01,-1.290020644664764404e-01,1.360679268836975098e-01,-8.824592828750610352e-02,-5.927639827132225037e-02,5.629756674170494080e-02,-3.538884222507476807e-01,-1.816428303718566895e-01,-1.508563384413719177e-02,-2.357442826032638550e-01,-1.363499760627746582e-01,2.507561258971691132e-02,-1.086981743574142456e-01,-1.920873671770095825e-02,-1.318340189754962921e-02,-1.340084802359342575e-02,-2.100385539233684540e-02,-1.689765453338623047e-01,5.993840843439102173e-02,-5.153071135282516479e-03,2.207846939563751221e-01,-1.194993630051612854e-01,7.458736747503280640e-02,1.165552660822868347e-01,7.595182210206985474e-02,-6.836861371994018555e-02,-5.591306090354919434e-02,-9.239330887794494629e-02,-1.439523100852966309e-01,1.328404899686574936e-02,-1.362196952104568481e-01,8.309392631053924561e-02
1.501238346099853516e-01,1.524657458066940308e-01,9.777405299246311188e-03,1.657461002469062805e-02,7.103821635246276855e-02,1.449130009859800339e-02,2.048159241676330566e-01,1.593490988016128540e-01,6.192190572619438171e-02,2.027488797903060913e-01,1.271790415048599243e-01,1.442318558692932129e-01,4.436801373958587646e-02,9.816256165504455566e-02,3.447435796260833740e-02,-2.220808900892734528e-02,6.014147028326988220e-02,2.037186920642852783e-02,-7.772279530763626099e-02,1.287108063697814941e-01,1.258996576070785522e-01,1.240624934434890747e-01,-7.786560058593750000e-02,1.941708326339721680e-01,2.604075334966182709e-02,4.178768396377563477e-02,-6.268541514873504639e-02,-8.827409707009792328e-03,-5.627712234854698181e-02,8.612296730279922485e-02,7.640979439020156860e-02,-1.098046526312828064e-01,3.934355825185775757e-02,-3.772886097431182861e-02,1.530789881944656372e-01,1.590332947671413422e-02,2.242407295852899551e-03,-2.549136281013488770e-01,1.100218072533607483e-01,1.349424570798873901e-01,1.285677850246429443e-01,-7.470212876796722412e-02,-1.016715541481971741e-01,2.425977438688278198e-01,-1.218970865011215210e-01
-8.401586115360260010e-02,-7.267209887504577637e-02,7.894591987133026123e-02,-1.009127348661422729e-01,-1.996485143899917603e-01,-1.343602389097213745e-01,-2.798962593078613281e-01,-2.948681265115737915e-02,-8.582986891269683838e-02,-1.696581095457077026e-01,-1.529922783374786377e-01,-1.229447796940803528e-01,-6.191340833902359009e-02,8.961012959480285645e-02,1.392726749181747437e-01,1.582570523023605347e-01,9.878581762313842773e-02,7.516979426145553589e-02,6.215375289320945740e-02,-9.134496748447418213e-02,8.159663528203964233e-02,1.085495948791503906e-01,4.101594910025596619e-02,-2.117190510034561157e-01,-6.556035019457340240e-03,1.312092393636703491e-01,-4.025332629680633545e-02,9.495168924331665039e-02,3.056839667260646820e-02,1.565845012664794922e-01,-2.591091096401214600e-01,8.661375194787979126e-02,-1.100694984197616577e-01,1.934238672256469727e-01,-1.022233441472053528e-01,-1.483546942472457886e-01,-7.791301701217889786e-03,2.996805012226104736e-01,1.717602834105491638e-02,-1.394771486520767212e-01,-1.143479123711585999e-01,1.393312662839889526e-01,-1.248731091618537903e-01,-3.540479242801666260e-01,-1.415907591581344604e-02
-4.501040652394294739e-02,-1.202726829797029495e-02,-2.320338226854801178e-02,1.513845007866621017e-02,2.068280614912509918e-02,-2.300819009542465210e-02,-2.300334721803665161e-01,1.662250906229019165e-01,4.412226006388664246e-02,9.388126432895660400e-02,-1.085561066865921021e-01,2.074611745774745941e-02,2.868935698643326759e-03,-3.047270467504858971e-03,2.215899340808391571e-02,1.320398449897766113e-01,1.011496111750602722e-01,1.262933760881423950e-01,4.049043729901313782e-02,-8.142928034067153931e-02,-2.514521218836307526e-02,1.453255563974380493e-01,1.419100910425186157e-02,-2.992996275424957275e-01,-8.352152258157730103e-02,1.278150528669357300e-01,1.779934167861938477e-01,-4.358555004000663757e-02,-9.307090193033218384e-02,1.496905088424682617e-01,-2.270600497722625732e-01,2.006400749087333679e-02,-2.636643312871456146e-02,7.431621104478836060e-02,-1.342373043298721313e-01,-8.866522461175918579e-02,2.580913249403238297e-03,2.154149711132049561e-01,-7.410773634910583496e-02,-1.584444195032119751e-01,-3.276861459016799927e-02,-4.496466368436813354e-02,8.573576062917709351e-02,-3.068794310092926025e-01,6.938913464546203613e-02
7.570111751556396484e-01,2.675819396972656250e-01,1.123196184635162354e-01,-2.473509013652801514e-01,7.395288348197937012e-01,9.910050034523010254e-02,4.127134084701538086e-01,-6.618560105562210083e-02,-1.395943462848663330e-01,3.329430148005485535e-02,9.220995754003524780e-02,-5.506501719355583191e-02,1.283878982067108154e-01,2.087403088808059692e-01,-1.043429300189018250e-01,-2.430617511272430420e-01,1.456851214170455933e-01,1.046954467892646790e-01,1.159014645963907242e-02,2.207976728677749634e-01,-5.057825893163681030e-02,-1.251902282238006592e-01,1.510553210973739624e-01,3.912169635295867920e-01,1.244294270873069763e-01,-2.902209162712097168e-01,2.003582566976547241e-01,1.644223034381866455e-01,4.466339051723480225e-01,-2.445937842130661011e-01,-4.199651479721069336e-01,1.066488847136497498e-01,-4.860872402787208557e-02,-2.929895520210266113e-01,-2.564994804561138153e-02,4.568216949701309204e-02,-2.888498008251190186e-01,-6.289376318454742432e-02,-1.533379498869180679e-02,-5.448834970593452454e-02,-1.497527351602911949e-03,-2.393824309110641479e-01,2.061454355716705322e-01,6.396383643150329590e-01,-3.464762270450592041e-01
