-1.255016475915908813e-01
-4.632728174328804016e-03
4.545140266418457031e-02
3.043627180159091949e-02
-2.078007347881793976e-02
-5.064172297716140747e-02
9.951686859130859375e-02
8.769412338733673096e-02
-1.064322236925363541e-02
-5.126380547881126404e-02
-5.750627815723419189e-02
3.179199993610382080e-02
5.639837682247161865e-02
1.338077336549758911e-01
1.349245011806488037e-01
-6.580596417188644409e-02
1.856134682893753052e-01
9.990237653255462646e-02
9.616842865943908691e-02
4.956696927547454834e-02
-5.910211428999900818e-02
-1.393634229898452759e-01
9.663929790258407593e-02
-6.287255138158798218e-02
-1.303039398044347763e-02
1.197579652070999146e-01
-1.434576660394668579e-01
3.190305456519126892e-02
1.973578482866287231e-01
3.867050632834434509e-02
-1.627664417028427124e-01
1.667483150959014893e-01
1.878477074205875397e-02
3.292287886142730713e-02
2.220275998115539551e-02
2.942302823066711426e-02
1.389157176017761230e-01
-1.337690502405166626e-01
1.601205766201019287e-01
8.122551441192626953e-02
