6.137866154313087463e-02,-1.516324430704116821e-01,-1.351395845413208008e-01,-1.259559416212141514e-03,9.242776036262512207e-02,-1.617103964090347290e-01,-9.657783061265945435e-02,3.997267782688140869e-02,-7.817376405000686646e-02,-8.217162638902664185e-02,-5.751674994826316833e-02,6.898207589983940125e-03,-1.916409470140933990e-02,-6.835783272981643677e-02,-1.550784707069396973e-01,8.227568119764328003e-02,4.436005651950836182e-02,8.702526800334453583e-03,3.344098106026649475e-02,-5.648541450500488281e-02,1.280609071254730225e-01,-5.981691926717758179e-02,4.694565385580062866e-02,-1.407337188720703125e-01,1.058811694383621216e-01,2.338826470077037811e-02,1.216396093368530273e-01,-6.110220775008201599e-02,7.367711514234542847e-02,-4.920452833175659180e-02,9.039762616157531738e-02,-1.161298453807830811e-01,5.752587318420410156e-02,5.599369481205940247e-02,-1.158681288361549377e-01,8.020054548978805542e-02,-9.316202998161315918e-02,4.720586538314819336e-02,-1.444011926651000977e-01,9.189753234386444092e-02
9.457475692033767700e-02,-8.373732119798660278e-02,1.327329576015472412e-01,-2.941593527793884277e-02,1.463147997856140137e-01,-3.583540320396423340e-01,-1.332498490810394287e-01,1.474152952432632446e-01,1.700540930032730103e-01,2.080691792070865631e-02,1.546273231506347656e-01,6.423402577638626099e-02,-7.152143865823745728e-02,7.336572557687759399e-02,1.228133887052536011e-01,-2.419855631887912750e-02,1.197051554918289185e-01,-9.161726385354995728e-02,1.533759236335754395e-01,-5.627962946891784668e-02,-6.512760370969772339e-02,1.611504852771759033e-01,-1.064435467123985291e-01,-2.165690809488296509e-01,-5.258741974830627441e-02,-3.118879348039627075e-02,2.546212635934352875e-02,-7.817269116640090942e-02,3.382717818021774292e-02,1.553575098514556885e-01,-6.067530252039432526e-03,3.486358374357223511e-02,-7.474239170551300049e-02,-7.534665614366531372e-02,2.725262381136417389e-02,4.294341504573822021e-01,-8.845488727092742920e-02,-1.659384518861770630e-01,1.370572950690984726e-02,1.728255599737167358e-01
4.767254739999771118e-02,-5.876803398132324219e-02,-8.287970721721649170e-02,9.045802056789398193e-02,2.980895899236202240e-02,-3.520671650767326355e-02,-1.152353510260581970e-01,2.083836309611797333e-02,-4.725947603583335876e-02,2.287894189357757568e-01,1.090385913848876953e-01,-8.174530416727066040e-02,8.148061111569404602e-03,1.949071139097213745e-01,4.818262159824371338e-02,1.175416111946105957e-01,-2.258817665278911591e-02,1.961908936500549316e-01,1.559038460254669189e-01,-2.816530317068099976e-02,-4.265403002500534058e-02,1.774426996707916260e-01,1.916636228561401367e-01,-3.553226590156555176e-01,-1.454245895147323608e-01,-8.203346282243728638e-03,-5.060839466750621796e-03,2.726375497877597809e-02,2.402857691049575806e-02,7.747835665941238403e-02,-1.601971685886383057e-01,-1.953971013426780701e-02,3.882645443081855774e-02,-1.541296243667602539e-01,-1.480841487646102905e-01,2.253275066614151001e-01,-2.640090510249137878e-02,-2.717625796794891357e-01,1.154410317540168762e-01,-3.242963552474975586e-02
5.521207302808761597e-02,-6.119506061077117920e-02,5.855059623718261719e-02,4.348279163241386414e-02,-1.221335306763648987e-01,4.014146625995635986e-01,2.654548734426498413e-02,1.502269804477691650e-01,-1.336613595485687256e-01,-1.346575319766998291e-01,-1.056793853640556335e-01,-6.747720297425985336e-03,-1.167425066232681274e-01,6.622120738029479980e-02,1.592968255281448364e-01,6.901824474334716797e-02,1.188787519931793213e-01,-1.839835047721862793e-01,8.601473271846771240e-02,-1.504580825567245483e-01,4.939413070678710938e-02,2.192293405532836914e-01,7.634671404957771301e-03,7.369869947433471680e-01,-1.149000320583581924e-02,-2.274940349161624908e-02,-7.584413886070251465e-02,1.025889813899993896e-02,2.245199680328369141e-01,3.155731409788131714e-02,8.631311357021331787e-02,1.921051926910877228e-02,6.954116374254226685e-02,2.311193048954010010e-01,2.085945308208465576e-01,-8.924282789230346680e-01,2.841521203517913818e-01,3.237404227256774902e-01,1.696362495422363281e-01,1.433535516262054443e-01
2.038728296756744385e-01,-5.270834546536207199e-03,-1.248714923858642578e-01,1.059031412005424500e-01,-7.550013065338134766e-02,-3.910485804080963135e-01,8.192866295576095581e-02,-1.211419254541397095e-01,9.114581160247325897e-03,-4.781769122928380966e-03,5.184672027826309204e-02,-1.348348986357450485e-02,-8.321776241064071655e-02,-9.963390231132507324e-02,9.010939300060272217e-02,-6.209342181682586670e-02,-1.434686779975891113e-01,1.767397075891494751e-01,1.107885837554931641e-01,1.613217294216156006e-01,3.368344157934188843e-02,7.488571852445602417e-02,1.825728416442871094e-01,-3.374122083187103271e-01,2.364666387438774109e-02,7.004190236330032349e-02,-3.351716324687004089e-02,3.523928672075271606e-02,-2.496127597987651825e-02,1.294608861207962036e-01,-6.167313084006309509e-02,-1.100519672036170959e-01,7.522137463092803955e-02,-8.166010677814483643e-02,-6.330765783786773682e-02,7.989690303802490234e-01,-2.146837301552295685e-02,-5.771251395344734192e-02,7.166756689548492432e-02,6.360050290822982788e-03
4.789069667458534241e-02,-1.394724240526556969e-03,1.067244336009025574e-01,1.863494813442230225e-01,1.596264988183975220e-01,-1.517552882432937622e-01,1.383326482027769089e-02,5.395527929067611694e-02,-1.123786196112632751e-01,3.580867126584053040e-02,5.115663260221481323e-02,1.235498636960983276e-01,1.841883733868598938e-02,3.834301605820655823e-02,-2.242899127304553986e-02,-7.206191122531890869e-02,1.282550245523452759e-01,1.843221783638000488e-01,-3.458579257130622864e-02,-8.524814248085021973e-02,1.587911248207092285e-01,5.465771630406379700e-02,2.165894955396652222e-02,-2.361607104539871216e-01,4.148393869400024414e-02,-1.302214413881301880e-01,-8.660130947828292847e-02,-1.526485104113817215e-02,6.307732313871383667e-02,1.139268800616264343e-01,-5.847723223268985748e-03,4.985505715012550354e-02,-5.156988845556043088e-05,-1.405781209468841553e-01,9.223710745573043823e-02,4.879876673221588135e-01,5.192540585994720459e-02,-1.874508708715438843e-01,7.274077087640762329e-02,-2.778159687295556068e-03
5.031830444931983948e-02,1.227079331874847412e-01,1.368264704942703247e-01,-6.568981707096099854e-02,7.457697391510009766e-02,-8.870126307010650635e-02,7.560043781995773315e-02,-4.067116975784301758e-02,1.641751825809478760e-01,9.962017089128494263e-02,5.386522039771080017e-02,-1.319233775138854980e-01,1.950847730040550232e-02,2.056165188550949097e-01,9.925033897161483765e-03,1.136525496840476990e-01,-8.988737314939498901e-02,1.752868890762329102e-01,1.578261554241180420e-01,1.523885428905487061e-01,2.024395614862442017e-01,-1.707703690044581890e-03,5.879411101341247559e-02,-4.155553281307220459e-01,-7.216624170541763306e-02,1.341478228569030762e-01,4.257648438215255737e-02,1.832604780793190002e-02,1.258514225482940674e-01,1.709358990192413330e-01,-8.644408732652664185e-02,-2.819966338574886322e-02,1.255663633346557617e-01,-1.519222706556320190e-01,-1.601245254278182983e-01,6.962378025054931641e-01,-4.579603672027587891e-02,-1.379247456789016724e-01,-3.988067805767059326e-02,-1.908951997756958008e-02
9.735061228275299072e-02,7.726172357797622681e-02,1.155593022704124451e-01,1.725057065486907959e-01,1.622926630079746246e-02,-3.906723260879516602e-01,-1.473399251699447632e-01,4.402973502874374390e-02,1.215765923261642456e-01,1.509068012237548828e-01,1.776207610964775085e-02,-2.338892407715320587e-02,-3.617667406797409058e-02,-4.611601307988166809e-02,-3.316547349095344543e-02,-3.365997597575187683e-02,7.369859516620635986e-02,-6.718138605356216431e-02,1.516894400119781494e-01,-2.928858809173107147e-02,4.584644362330436707e-02,-4.536633193492889404e-02,1.779858767986297607e-01,-4.275234639644622803e-01,-1.538784205913543701e-01,-1.251302808523178101e-01,-8.444121479988098145e-02,6.246390985324978828e-04,7.729419320821762085e-02,7.780034840106964111e-02,-7.291209697723388672e-02,-5.879713594913482666e-02,-3.318332135677337646e-02,-2.202903330326080322e-01,1.244382485747337341e-01,7.221722602844238281e-01,1.258654743432998657e-01,1.740318723022937775e-03,-1.128438487648963928e-02,2.124708741903305054e-01
-1.108754500746726990e-01,-1.092675104737281799e-01,8.571456372737884521e-02,-1.623454391956329346e-01,3.322187811136245728e-02,5.972249805927276611e-02,8.385966718196868896e-02,1.534300297498703003e-01,-4.389123618602752686e-02,2.287991531193256378e-02,-2.828938327729701996e-02,4.600424319505691528e-02,-1.319446116685867310e-01,-2.465081959962844849e-02,1.068319752812385559e-01,-9.865620732307434082e-02,1.563687622547149658e-01,3.353502601385116577e-02,1.185830309987068176e-01,-1.498015969991683960e-01,8.114308118820190430e-03,-3.169469535350799561e-02,2.904062159359455109e-02,6.329323351383209229e-02,-9.844411164522171021e-02,1.488908082246780396e-01,-1.277751624584197998e-01,5.567234382033348083e-02,-8.504601567983627319e-02,1.021246090531349182e-01,-1.538418680429458618e-01,7.323815673589706421e-02,-1.467619240283966064e-01,-1.507319957017898560e-01,-1.268229335546493530e-01,5.440416187047958374e-02,-4.122995585203170776e-02,1.430736184120178223e-01,5.703439190983772278e-02,-1.106014549732208252e-01
-2.092205174267292023e-02,-9.661380946636199951e-02,-1.044367533177137375e-02,-1.341589391231536865e-01,-3.722776845097541809e-02,4.899260029196739197e-02,-9.876866638660430908e-02,2.373920753598213196e-02,1.449321210384368896e-01,-2.950197272002696991e-02,1.518390141427516937e-03,1.523514688014984131e-01,-1.400184184312820435e-01,-1.475197076797485352e-01,-1.257663518190383911e-01,-1.318845245987176895e-02,-1.077735647559165955e-01,-1.381271630525588989e-01,1.013709828257560730e-01,-1.171182319521903992e-01,-1.119678393006324768e-01,-1.997526548802852631e-02,1.031596809625625610e-01,-1.472144424915313721e-01,-1.198807060718536377e-01,-1.488491743803024292e-01,-7.834919542074203491e-02,-1.663436181843280792e-02,1.121560633182525635e-01,-1.227521896362304688e-01,-1.344552189111709595e-01,-1.304877251386642456e-01,4.809928685426712036e-02,1.089198812842369080e-01,-1.511661708354949951e-01,1.233564168214797974e-01,-5.330385267734527588e-02,-1.202443391084671021e-01,-2.686768583953380585e-02,2.720192819833755493e-02
-1.089529544115066528e-01,-4.896227270364761353e-02,2.408366650342941284e-02,-1.006027609109878540e-01,1.467896103858947754e-01,2.236954718828201294e-01,-8.829961717128753662e-02,-9.546136856079101562e-02,1.755665056407451630e-02,-1.730241626501083374e-02,-4.118590801954269409e-02,3.978038206696510315e-02,-3.501723706722259521e-02,5.591085553169250488e-02,2.351854555308818817e-02,-8.302181959152221680e-02,7.732606679201126099e-02,1.744692176580429077e-01,-7.714784145355224609e-02,-8.741521090269088745e-02,-1.316086798906326294e-01,2.212179303169250488e-01,-3.861108049750328064e-02,6.536957025527954102e-01,2.391794025897979736e-01,1.484952270984649658e-01,7.048951834440231323e-02,2.225392013788223267e-01,4.029415547847747803e-02,2.835283800959587097e-02,1.775696426630020142e-01,5.358914379030466080e-03,-1.095168963074684143e-01,2.316489666700363159e-01,1.922175735235214233e-01,-1.063597917556762695e+00,1.564682573080062866e-01,3.180736899375915527e-01,1.409155726432800293e-01,-1.595333777368068695e-02
1.118945702910423279e-01,4.731299728155136108e-02,1.573599725961685181e-01,1.932557225227355957e-01,-8.288254961371421814e-03,-4.288327693939208984e-02,-1.103612557053565979e-01,-2.794637531042098999e-02,1.753658056259155273e-01,2.240614444017410278e-01,-1.390219628810882568e-01,-1.381505429744720459e-01,-5.316374823451042175e-02,1.242008879780769348e-01,-4.180926084518432617e-02,-1.790183410048484802e-02,-1.535693276673555374e-02,1.027835458517074585e-01,2.207965357229113579e-03,1.327558606863021851e-02,8.844684809446334839e-02,1.765311658382415771e-01,-5.781336873769760132e-02,-3.193842172622680664e-01,-9.485527127981185913e-02,1.182700917124748230e-01,-8.878320455551147461e-02,1.331261843442916870e-01,-6.425806134939193726e-02,-4.506716877222061157e-02,-1.538106799125671387e-01,-2.024178393185138702e-02,1.484825611114501953e-01,-1.948584914207458496e-01,-7.521591335535049438e-02,3.228018283843994141e-01,1.212487444281578064e-01,-2.894197404384613037e-01,4.787341505289077759e-02,2.690762653946876526e-02
1.485402733087539673e-01,1.353826969861984253e-01,-1.427007168531417847e-01,1.916200816631317139e-01,-2.512718178331851959e-02,-7.824015617370605469e-02,-1.308734416961669922e-01,1.282610446214675903e-01,1.044769883155822754e-01,-3.162578120827674866e-02,1.336752772331237793e-01,9.917168319225311279e-02,-1.417393535375595093e-01,9.724470973014831543e-02,9.665176272392272949e-02,1.873304694890975952e-01,-9.209699928760528564e-02,1.615684181451797485e-01,1.486963629722595215e-01,1.094583868980407715e-01,-8.262472599744796753e-02,-4.945726692676544189e-02,1.284098178148269653e-01,-3.496031165122985840e-01,1.176833361387252808e-01,9.457948058843612671e-02,-8.334837853908538818e-02,4.155162349343299866e-02,-6.072662398219108582e-02,-8.860929310321807861e-02,-7.220165431499481201e-02,-1.488405764102935791e-01,2.046084403991699219e-02,-6.678424775600433350e-02,1.056580394506454468e-01,5.114213228225708008e-01,-1.394328325986862183e-01,-2.041513770818710327e-01,-1.863983087241649628e-02,7.730516791343688965e-02
-1.149129495024681091e-01,-1.738316193222999573e-02,1.559195071458816528e-01,1.253463476896286011e-01,3.464269451797008514e-03,1.897507905960083008e-01,-5.009499937295913696e-02,5.730602145195007324e-02,-1.763900965452194214e-01,5.118073150515556335e-02,1.351470202207565308e-01,-5.273456498980522156e-02,-3.122343681752681732e-02,4.532025009393692017e-02,1.574872881174087524e-01,-9.666235418990254402e-04,-1.457444578409194946e-01,7.143125683069229126e-02,-5.777626857161521912e-02,-8.886988461017608643e-02,-8.016683161258697510e-02,1.477571427822113037e-01,4.664587229490280151e-02,5.940796732902526855e-01,2.181538194417953491e-01,-3.461243584752082825e-02,-1.020386219024658203e-01,4.460815712809562683e-02,1.098501011729240417e-01,1.859261468052864075e-02,6.038552895188331604e-02,1.322273816913366318e-02,1.057109609246253967e-01,2.329085916280746460e-01,-2.321374230086803436e-02,-3.281009495258331299e-01,1.560972183942794800e-01,3.872865438461303711e-01,2.534352242946624756e-01,-2.359154447913169861e-02
2.192116379737854004e-01,-1.675821654498577118e-02,5.589708313345909119e-02,1.652780324220657349e-01,4.412365704774856567e-02,-2.787075005471706390e-02,2.923187054693698883e-02,4.495767131447792053e-02,4.993207287043333054e-03,1.147956699132919312e-01,-6.690698862075805664e-02,1.227497011423110962e-01,1.328368335962295532e-01,-5.409143865108489990e-02,1.005712971091270447e-01,1.847378164529800415e-01,9.991207718849182129e-02,1.911205053329467773e-01,2.085467278957366943e-01,1.427444070577621460e-01,1.061770543456077576e-01,-8.990431576967239380e-02,-1.944600790739059448e-02,-3.078407347202301025e-01,-1.239927709102630615e-01,7.189797610044479370e-02,8.684906363487243652e-02,1.054639741778373718e-01,1.740422397851943970e-01,-7.391785085201263428e-02,-2.386964857578277588e-01,-1.366843134164810181e-01,-3.085992299020290375e-02,-2.202742695808410645e-01,2.455690316855907440e-02,4.582603275775909424e-01,-1.492200493812561035e-01,-2.003069370985031128e-01,-5.133116245269775391e-02,1.292244940996170044e-01
1.285247504711151123e-01,-1.491501480340957642e-01,-1.320416033267974854e-01,1.716474145650863647e-01,-1.879992894828319550e-02,-1.251620948314666748e-01,-1.524839997291564941e-01,-8.192879706621170044e-02,1.612135022878646851e-01,2.042491436004638672e-01,-9.574557095766067505e-02,-1.448152959346771240e-01,-9.860406070947647095e-02,1.638153791427612305e-01,1.351245399564504623e-02,8.431708812713623047e-02,-6.611857563257217407e-02,9.734156727790832520e-02,2.119409739971160889e-01,-5.131878703832626343e-02,4.378043860197067261e-02,3.984981775283813477e-02,1.544670574367046356e-02,-3.323792517185211182e-01,-7.566769421100616455e-02,1.982095092535018921e-02,-7.025218009948730469e-02,-6.295304745435714722e-02,1.134129613637924194e-01,1.565202921628952026e-01,-7.135451585054397583e-02,-9.297787398099899292e-02,3.454013960435986519e-03,-1.104037463665008545e-01,2.337139844894409180e-02,5.270044207572937012e-01,8.427388966083526611e-02,-1.035417392849922180e-01,-1.287777721881866455e-01,-7.471447438001632690e-02
1.385166123509407043e-02,9.284760802984237671e-02,-3.991616889834403992e-02,-1.330785602331161499e-01,-9.071103483438491821e-02,3.213513195514678955e-01,-8.662819862365722656e-02,-2.555612241849303246e-03,1.059629693627357483e-01,-1.435500532388687134e-01,-9.937589056789875031e-03,1.469459105283021927e-02,-1.974478363990783691e-02,2.218250185251235962e-02,-2.024918980896472931e-02,-1.414347589015960693e-01,1.089398413896560669e-01,-5.817208439111709595e-02,5.584924295544624329e-02,-1.836560964584350586e-01,1.055612638592720032e-01,1.948403567075729370e-01,4.097250849008560181e-02,8.074505925178527832e-01,-3.674158453941345215e-02,1.300377100706100464e-01,6.196084246039390564e-02,2.070667147636413574e-01,5.979226529598236084e-02,1.158952191472053528e-01,9.699066728353500366e-02,-9.655519574880599976e-02,3.050530515611171722e-02,2.591631412506103516e-01,9.292170405387878418e-02,-6.023032069206237793e-01,2.127864807844161987e-01,2.369903773069381714e-01,-1.778399199247360229e-02,3.811819246038794518e-03
1.148667931556701660e-01,7.907628081738948822e-03,-1.565145552158355713e-01,-8.317090570926666260e-02,1.585530936717987061e-01,-1.279265582561492920e-01,-6.056219805032014847e-03,7.469902187585830688e-02,6.431447714567184448e-02,1.451712101697921753e-02,-1.037222594022750854e-01,9.630631655454635620e-02,-6.010798364877700806e-02,1.451053917407989502e-01,8.977232873439788818e-02,1.515813469886779785e-01,7.083829492330551147e-02,-5.224725231528282166e-02,1.488452553749084473e-01,1.073060277849435806e-02,-6.115921586751937866e-02,1.167580708861351013e-01,3.829367924481630325e-03,-1.643022000789642334e-01,-3.034890070557594299e-02,4.385697469115257263e-02,-3.595351800322532654e-02,1.142953038215637207e-01,-1.246598586440086365e-01,-2.331436425447463989e-02,1.979593187570571899e-03,1.061931252479553223e-01,-6.047432869672775269e-02,-2.032676488161087036e-01,-5.524469912052154541e-02,6.277133226394653320e-01,-1.429225355386734009e-01,-1.942896693944931030e-01,1.055084541440010071e-01,-4.664820805191993713e-02
-1.261842101812362671e-01,-6.331802159547805786e-02,-2.015195228159427643e-02,9.744535200297832489e-03,-1.027156338095664978e-01,6.317299604415893555e-02,1.360996216535568237e-01,-1.069791316986083984e-01,8.936001360416412354e-02,-6.069327890872955322e-02,1.323188096284866333e-01,-5.321840941905975342e-02,-3.551859036087989807e-02,-1.266246736049652100e-01,-1.521353870630264282e-01,2.213845215737819672e-02,1.548556089401245117e-01,-1.158423721790313721e-01,1.084063425660133362e-01,-1.488618552684783936e-01,3.551030904054641724e-02,-1.611972004175186157e-01,-1.028649583458900452e-01,-6.352275609970092773e-02,1.067970842123031616e-01,1.304095536470413208e-01,-2.650220505893230438e-02,-9.178190678358078003e-02,-1.441821157932281494e-01,1.203088685870170593e-01,-5.825235508382320404e-03,-2.049119025468826294e-02,1.471835225820541382e-01,-6.122460216283798218e-02,8.768884837627410889e-02,-3.299536183476448059e-02,1.818808913230895996e-02,4.904896020889282227e-02,6.561411917209625244e-02,-6.465698033571243286e-02
2.152897119522094727e-01,-4.519744589924812317e-02,-9.371469914913177490e-02,-1.235725451260805130e-02,5.150007456541061401e-02,-3.036685585975646973e-01,1.122475937008857727e-01,9.831812232732772827e-02,1.293378621339797974e-01,1.988736689090728760e-01,-1.216326728463172913e-01,8.025328069925308228e-02,-1.328917443752288818e-01,4.742447286844253540e-02,1.263111978769302368e-01,-7.317805290222167969e-02,1.521537154912948608e-01,1.490745395421981812e-01,-5.891833081841468811e-02,-5.580421164631843567e-02,-2.196136116981506348e-02,1.857005804777145386e-02,1.609684675931930542e-01,-3.881289362907409668e-01,2.579161152243614197e-02,6.424543261528015137e-02,-5.459858477115631104e-02,6.638502329587936401e-02,5.774466320872306824e-02,1.777508296072483063e-02,-5.937654897570610046e-02,-6.893113255500793457e-02,4.517060518264770508e-02,-1.051056459546089172e-01,-1.308075785636901855e-01,8.070076107978820801e-01,4.943728446960449219e-02,-2.652959227561950684e-01,-1.351142227649688721e-01,2.215382754802703857e-01
8.255735039710998535e-02,-6.503969430923461914e-02,-9.917622804641723633e-02,9.214416146278381348e-03,-1.668776012957096100e-02,1.084211021661758423e-01,-1.220788899809122086e-02,-2.052236534655094147e-02,1.157235279679298401e-01,8.208031952381134033e-02,-1.040794923901557922e-01,1.276592463254928589e-01,-6.380103528499603271e-02,-1.298488825559616089e-01,-1.024793013930320740e-01,-1.007464677095413208e-01,9.827098250389099121e-02,-6.828324496746063232e-02,-1.258916854858398438e-01,-6.432003527879714966e-02,-3.604377061128616333e-02,3.506837040185928345e-02,9.688916802406311035e-02,-1.162889525294303894e-01,1.094237491488456726e-01,1.267166584730148315e-01,-6.483637541532516479e-02,4.954789578914642334e-02,-4.264971986413002014e-02,-1.149775385856628418e-01,-1.574392467737197876e-01,1.652799919247627258e-02,-1.009894311428070068e-01,-3.242531791329383850e-02,-6.644890457391738892e-02,-4.405476525425910950e-02,4.112825542688369751e-02,4.547215253114700317e-02,9.047430753707885742e-02,-1.496004462242126465e-01
-8.215722441673278809e-02,-3.036109358072280884e-02,6.867974530905485153e-03,1.492967009544372559e-01,-1.270411461591720581e-01,1.066608354449272156e-01,-7.241626083850860596e-02,-2.874088287353515625e-02,-1.501895040273666382e-01,-5.511473491787910461e-02,1.559515446424484253e-01,-1.718216016888618469e-02,-1.448932290077209473e-01,-4.985376074910163879e-02,6.666535139083862305e-02,-6.167735904455184937e-02,-1.262049823999404907e-01,-1.170040071010589600e-01,-5.815480370074510574e-03,1.490021646022796631e-01,-5.700625106692314148e-02,-3.956659883260726929e-02,-3.820750862360000610e-03,-1.055302172899246216e-01,7.653252780437469482e-02,-1.387853473424911499e-01,-5.831595137715339661e-02,1.090984642505645752e-01,-1.185986623167991638e-01,-1.183095425367355347e-01,5.390520021319389343e-02,7.810381799936294556e-02,-2.857916243374347687e-02,-1.459598988294601440e-01,1.212868839502334595e-01,3.162348270416259766e-02,-9.637545794248580933e-02,-1.250791698694229126e-01,6.822173297405242920e-02,-6.532969325780868530e-02
-6.851536035537719727e-02,9.820039570331573486e-02,7.691808789968490601e-02,6.223681941628456116e-02,1.202541440725326538e-01,-2.527180016040802002e-01,-1.428780853748321533e-01,1.532148420810699463e-01,1.852409690618515015e-01,1.904023289680480957e-01,3.039954416453838348e-02,5.546454712748527527e-02,-6.284265965223312378e-02,-5.114063993096351624e-02,7.389594614505767822e-02,1.029524132609367371e-01,-2.800480648875236511e-02,-9.325812011957168579e-02,2.080141156911849976e-01,6.096558272838592529e-02,9.704294800758361816e-02,1.283776909112930298e-01,6.400477141141891479e-02,-3.809686601161956787e-01,-1.041531637310981750e-01,3.344599530100822449e-02,-6.968462467193603516e-02,2.817055024206638336e-02,-7.208688557147979736e-02,1.597090959548950195e-01,-2.036551833152770996e-01,-4.865202307701110840e-02,-7.133337110280990601e-02,1.949793100357055664e-02,-1.030179411172866821e-01,5.895204544067382812e-01,-9.826750308275222778e-02,-1.762575507164001465e-01,3.567131981253623962e-02,1.659827083349227905e-01
9.921703487634658813e-03,2.746709063649177551e-02,3.529391437768936157e-02,7.655541598796844482e-02,-6.633970886468887329e-02,4.416113197803497314e-01,1.036326885223388672e-01,1.034261062741279602e-01,1.137856692075729370e-01,-1.086913049221038818e-01,3.089383058249950409e-02,8.439698815345764160e-02,-4.475510492920875549e-02,2.034416198730468750e-01,7.865437120199203491e-02,-1.844653338193893433e-01,-7.957778871059417725e-02,-1.520465761423110962e-01,1.139143109321594238e-01,9.220667928457260132e-02,-2.096764743328094482e-01,2.421085350215435028e-02,-9.886869229376316071e-03,8.141033649444580078e-01,-3.973998595029115677e-03,-6.865980476140975952e-02,6.927441805601119995e-02,9.009987860918045044e-02,1.837950348854064941e-01,1.571787744760513306e-01,4.187645018100738525e-01,-1.159961894154548645e-01,7.552696764469146729e-02,2.595932483673095703e-01,4.607100039720535278e-02,-1.066585183143615723e+00,2.260317057371139526e-01,2.035694420337677002e-01,1.877042502164840698e-01,1.555479913949966431e-01
-1.105894893407821655e-01,-3.734325245022773743e-02,-9.320399910211563110e-02,-6.436802446842193604e-02,1.084066331386566162e-01,-3.520141541957855225e-01,1.313165277242660522e-01,1.997630111873149872e-02,-7.436353713274002075e-02,2.283482402563095093e-01,-1.542636454105377197e-01,1.472804695367813110e-01,-4.561414942145347595e-02,1.043547615408897400e-01,1.601093411445617676e-01,1.773414760828018188e-01,1.175644528120756149e-02,-2.272545534651726484e-04,2.274469286203384399e-01,5.977161601185798645e-02,1.559972316026687622e-01,7.907177321612834930e-03,1.681649237871170044e-01,-3.112289309501647949e-01,-8.503691107034683228e-02,-1.176456958055496216e-01,-1.061500161886215210e-01,1.687334328889846802e-01,-7.522097975015640259e-02,1.533593833446502686e-01,-2.063187509775161743e-01,-6.544465571641921997e-02,8.748447522521018982e-03,-1.590989083051681519e-01,-6.268700957298278809e-02,6.232877969741821289e-01,6.312675774097442627e-03,-1.392226070165634155e-01,-1.426979433745145798e-02,-4.754475504159927368e-02
2.116678506135940552e-01,-9.799965471029281616e-02,-1.156150698661804199e-01,1.058618053793907166e-01,7.682608067989349365e-02,-1.685778796672821045e-01,-1.900584064424037933e-02,1.207683831453323364e-01,1.371990144252777100e-01,2.073735594749450684e-01,-3.182444721460342407e-02,-8.972974121570587158e-02,-1.265064626932144165e-01,-8.537719398736953735e-02,1.157193034887313843e-01,-9.639658778905868530e-02,-1.551933437585830688e-01,3.686620667576789856e-02,2.335763424634933472e-01,1.411105841398239136e-01,-3.883324796333909035e-03,9.558941237628459930e-03,7.673936337232589722e-02,-3.341625332832336426e-01,-8.719100803136825562e-02,1.345922797918319702e-01,1.352624129503965378e-02,1.588963270187377930e-01,5.944791063666343689e-02,3.323220834136009216e-02,-1.819564700126647949e-01,-1.074810549616813660e-01,-7.105083018541336060e-02,-9.394071251153945923e-02,-1.659554988145828247e-01,3.220421969890594482e-01,-1.103836968541145325e-01,-3.840945428237318993e-04,-8.353424817323684692e-02,-8.278463035821914673e-02
6.094393879175186157e-02,5.982957035303115845e-02,8.816392719745635986e-02,-3.947711363434791565e-02,7.805760949850082397e-02,3.263591229915618896e-01,-9.839813411235809326e-02,-1.286131143569946289e-01,1.077760905027389526e-01,-6.870854645967483521e-02,1.545989662408828735e-01,-6.492041796445846558e-02,-4.489794000983238220e-02,-2.101655490696430206e-02,8.715386688709259033e-02,-2.134067565202713013e-02,-8.905378729104995728e-02,5.124029144644737244e-02,-2.104136198759078979e-01,-2.005246877670288086e-01,1.595952548086643219e-02,8.424733579158782959e-02,4.316734895110130310e-02,6.763496994972229004e-01,-1.107923388481140137e-01,1.957354322075843811e-02,7.584644854068756104e-02,1.234173849225044250e-01,1.204456388950347900e-01,-9.358561038970947266e-02,3.271042406558990479e-01,1.800701394677162170e-02,-1.833554543554782867e-02,1.342066228389739990e-01,1.219051331281661987e-01,-2.098709195852279663e-01,9.355384856462478638e-02,2.711175084114074707e-01,5.632409453392028809e-02,7.461031526327133179e-02
-1.228337883949279785e-01,9.264905750751495361e-02,9.756340645253658295e-03,-1.650656312704086304e-01,6.806326657533645630e-02,3.688048422336578369e-01,-1.333227157592773438e-01,8.668715506792068481e-02,-5.548384785652160645e-02,-1.430321931838989258e-01,-1.867184299044311047e-03,-1.204053014516830444e-01,-1.131342500448226929e-01,-4.488538205623626709e-02,1.387609988451004028e-01,5.408451333642005920e-02,4.639414697885513306e-02,-9.805302321910858154e-02,3.544228896498680115e-02,-4.945820569992065430e-02,6.171304360032081604e-02,1.653559505939483643e-01,-8.571807295083999634e-02,7.541521787643432617e-01,2.304623425006866455e-01,1.645136773586273193e-01,-7.323803752660751343e-02,1.465072780847549438e-01,9.463116526603698730e-02,1.111287102103233337e-01,1.279472112655639648e-01,-6.186795979738235474e-02,-7.380190491676330566e-02,1.763331592082977295e-01,1.669202744960784912e-01,-8.774891495704650879e-01,1.088190153241157532e-01,1.587901860475540161e-01,1.536805480718612671e-01,1.596400439739227295e-01
-1.096872761845588684e-01,-7.748072594404220581e-02,-4.753397777676582336e-02,-3.372035920619964600e-02,-1.464223712682723999e-01,2.023796737194061279e-01,-4.795773420482873917e-03,-1.479468643665313721e-01,-5.804151669144630432e-02,2.602537535130977631e-02,-7.608272135257720947e-02,-1.063399538397789001e-01,-1.381941586732864380e-01,6.823466718196868896e-02,1.937689334154129028e-01,-1.238916590809822083e-01,8.913913369178771973e-02,3.828318323940038681e-03,7.472826540470123291e-02,1.997366175055503845e-02,-4.225978162139654160e-03,1.115214079618453979e-01,1.331408601254224777e-02,7.038800120353698730e-01,1.741844266653060913e-01,1.011146381497383118e-01,-1.742172241210937500e-01,2.481633424758911133e-01,1.198998466134071350e-01,-6.865119189023971558e-02,9.375309199094772339e-02,9.500653296709060669e-02,-7.157223671674728394e-02,1.786976903676986694e-01,1.126426383852958679e-01,-4.812129735946655273e-01,1.035040989518165588e-01,3.156352043151855469e-01,1.399566326290369034e-02,1.532559096813201904e-01
-1.255947500467300415e-01,-1.408215016126632690e-01,1.179513409733772278e-01,-3.736767917871475220e-02,-2.558991685509681702e-02,9.682901948690414429e-02,-7.727604359388351440e-02,9.439042769372463226e-03,-3.296810761094093323e-02,-1.472921576350927353e-02,1.388801038265228271e-01,8.527107536792755127e-02,5.646488070487976074e-02,-1.454697847366333008e-01,-1.690780967473983765e-01,-6.698340177536010742e-02,8.737765252590179443e-02,1.288306415081024170e-01,-6.312165874987840652e-03,1.548850089311599731e-01,7.856589555740356445e-02,-1.566276550292968750e-01,5.350772291421890259e-02,1.259490847587585449e-02,8.873356878757476807e-02,1.914582587778568268e-02,-1.408277302980422974e-01,-2.629856392741203308e-02,-8.980692178010940552e-02,-1.433430016040802002e-01,7.685495167970657349e-02,1.162965036928653717e-02,9.030345827341079712e-02,1.066446229815483093e-01,7.156921923160552979e-02,1.039659455418586731e-01,-1.110183671116828918e-01,-5.969742313027381897e-02,-1.080058813095092773e-01,-9.441174566745758057e-02
1.262071281671524048e-01,-2.699630893766880035e-02,-7.347793132066726685e-02,1.278627067804336548e-01,-3.371801599860191345e-02,1.567994207143783569e-01,-3.216379508376121521e-02,8.587234653532505035e-03,1.254134327173233032e-01,-1.707678660750389099e-02,-8.984827995300292969e-02,-8.083602786064147949e-02,-3.285318613052368164e-02,1.119374856352806091e-01,-1.046883165836334229e-01,6.907945126295089722e-02,1.487310677766799927e-01,8.601188659667968750e-02,3.842768818140029907e-02,-5.241699889302253723e-02,4.862481355667114258e-02,-8.867292106151580811e-02,-1.556915938854217529e-01,-3.506773337721824646e-02,-5.934341624379158020e-02,1.186505556106567383e-01,-7.649681717157363892e-02,-1.137666255235671997e-01,3.900424391031265259e-02,-1.089350357651710510e-01,-3.829586505889892578e-02,9.433806687593460083e-02,-7.179614156484603882e-02,2.941261231899261475e-02,1.048986017704010010e-01,-1.253826916217803955e-01,1.176303401589393616e-01,-1.509226560592651367e-01,-9.453325718641281128e-02,-1.578162908554077148e-01
1.033031642436981201e-01,7.136809080839157104e-02,9.542349725961685181e-02,6.899528205394744873e-03,1.358387768268585205e-01,2.628400921821594238e-01,-3.698925673961639404e-02,5.892048403620719910e-02,-1.260381340980529785e-01,-1.803930550813674927e-01,1.453787535429000854e-01,-1.435419917106628418e-01,-4.584992676973342896e-02,5.621349811553955078e-02,2.202372252941131592e-01,-9.445149451494216919e-02,-1.221122741699218750e-01,-6.313259899616241455e-02,-1.491950303316116333e-01,1.268511563539505005e-01,-5.354366078972816467e-02,-1.696150377392768860e-02,-4.530894383788108826e-02,8.015794754028320312e-01,2.067046016454696655e-01,-1.098692193627357483e-01,-8.516982197761535645e-02,5.305081605911254883e-03,1.567603796720504761e-01,1.521845161914825439e-01,3.177177906036376953e-01,9.337024390697479248e-02,-5.338354408740997314e-02,2.230949103832244873e-01,9.113598614931106567e-02,-8.764104247093200684e-01,2.518124580383300781e-01,1.480240076780319214e-01,8.410862646996974945e-03,-1.389144081622362137e-02
-3.127826144918799400e-03,-6.185144558548927307e-02,-1.268889605998992920e-01,1.878385990858078003e-01,1.877923011779785156e-01,-2.997517287731170654e-01,1.404855400323867798e-02,-8.596482127904891968e-02,1.652056723833084106e-01,-5.255846306681632996e-02,-8.703713864088058472e-02,-8.258570916950702667e-03,-6.676331162452697754e-02,8.127512782812118530e-02,-4.824493080377578735e-02,-2.621917985379695892e-02,-6.638023257255554199e-02,1.328466981649398804e-01,2.215583473443984985e-01,4.383135586977005005e-02,1.412181407213211060e-01,5.800919607281684875e-02,-2.621457166969776154e-02,-3.587262928485870361e-01,9.897397458553314209e-02,-6.620775908231735229e-03,1.784381419420242310e-01,1.130510047078132629e-01,-1.990740001201629639e-02,1.251286547631025314e-02,-1.396283954381942749e-01,1.356720775365829468e-01,1.075865328311920166e-01,3.172691166400909424e-02,-9.536930173635482788e-02,3.256321549415588379e-01,-4.607485234737396240e-02,-1.065861582756042480e-01,-3.529711626470088959e-03,1.611991822719573975e-01
-8.303049206733703613e-02,-1.527709364891052246e-01,1.201137155294418335e-01,-1.002560406923294067e-01,1.143759815022349358e-03,2.314626127481460571e-01,3.121844306588172913e-02,-3.852057829499244690e-02,4.955226927995681763e-02,-4.470889107324182987e-04,-6.270698737353086472e-03,1.572256982326507568e-01,1.246878877282142639e-01,2.442173473536968231e-02,5.863723903894424438e-02,8.203282207250595093e-02,-1.517716646194458008e-01,-1.864683628082275391e-02,-1.221688911318778992e-01,-1.161681562662124634e-01,-3.255676478147506714e-02,1.305889636278152466e-01,-2.613575570285320282e-02,7.609238624572753906e-01,2.356881350278854370e-01,6.748595088720321655e-02,-1.357693076133728027e-01,2.504941821098327637e-01,3.718410059809684753e-02,-4.903098195791244507e-02,1.489485353231430054e-01,-2.008573710918426514e-02,-6.341539323329925537e-02,2.260470688343048096e-01,2.192292064428329468e-01,-4.647647142410278320e-01,2.509041428565979004e-01,3.142565488815307617e-01,1.429250091314315796e-01,1.531916409730911255e-01
-8.549260348081588745e-02,1.106455177068710327e-01,-3.340460360050201416e-02,-1.558051556348800659e-01,-3.835270926356315613e-02,5.149716883897781372e-02,-1.052231937646865845e-01,2.093833684921264648e-02,4.370519891381263733e-02,1.469002813100814819e-01,-2.363169379532337189e-02,2.482387050986289978e-02,5.119768530130386353e-02,1.473997980356216431e-01,-1.443532258272171021e-01,-1.346483975648880005e-01,1.293646991252899170e-01,-3.432541713118553162e-02,2.920497395098209381e-02,-1.151719614863395691e-01,8.847449719905853271e-02,-9.370654076337814331e-02,1.177184283733367920e-01,2.469030953943729401e-02,-1.476099435240030289e-02,-7.975105941295623779e-02,9.356074780225753784e-02,1.829406060278415680e-02,-8.868445456027984619e-02,-5.819109827280044556e-02,-9.772184491157531738e-02,-4.013166576623916626e-02,-9.689377248287200928e-02,-2.343127690255641937e-02,4.622899368405342102e-02,1.366520673036575317e-01,-1.151291728019714355e-01,2.001007832586765289e-02,-1.614757627248764038e-02,3.717798739671707153e-02
1.579673886299133301e-01,3.395161032676696777e-02,-1.424722820520401001e-01,-4.353976622223854065e-02,1.400316804647445679e-01,-2.469967305660247803e-01,-1.359023749828338623e-01,1.202800720930099487e-01,2.716748509556055069e-03,-1.498084515333175659e-02,-1.303884834051132202e-01,-8.551327884197235107e-02,7.494503259658813477e-02,-7.314054667949676514e-02,-3.323223069310188293e-02,1.203735470771789551e-01,-1.190351396799087524e-01,1.666505187749862671e-01,1.713642328977584839e-01,6.325279362499713898e-03,7.552393246442079544e-03,5.375860631465911865e-02,1.248501539230346680e-01,-3.121033012866973877e-01,7.282866165041923523e-03,-1.404390037059783936e-01,1.128509119153022766e-01,1.853057593107223511e-01,3.764775395393371582e-02,1.448160558938980103e-01,-1.840489953756332397e-01,-4.257286712527275085e-02,8.214271068572998047e-02,-2.428634315729141235e-01,-5.572929233312606812e-02,7.036314010620117188e-01,-5.132294073700904846e-02,-1.582856178283691406e-01,5.703094601631164551e-02,8.045526593923568726e-02
2.007014453411102295e-01,5.968046025373041630e-04,-7.072819769382476807e-02,-2.775282412767410278e-02,-3.963456675410270691e-02,-1.567845940589904785e-01,1.209488585591316223e-01,1.226980909705162048e-01,4.840802028775215149e-02,2.399200759828090668e-02,-1.927275769412517548e-02,1.296932548284530640e-01,1.108399778604507446e-01,1.629864871501922607e-01,-1.183943897485733032e-01,1.398583948612213135e-01,-1.255505383014678955e-01,-4.687670990824699402e-02,9.436830133199691772e-02,7.802239805459976196e-02,1.119579225778579712e-01,1.519285887479782104e-01,1.194950863718986511e-01,-2.799474298954010010e-01,2.161222137510776520e-02,-1.323508173227310181e-01,1.499051810242235661e-03,5.815693736076354980e-02,-1.327740699052810669e-01,2.609520778059959412e-02,-4.403636977076530457e-02,4.599223658442497253e-02,1.720709539949893951e-02,-2.197609394788742065e-01,-3.891178965568542480e-02,2.067878395318984985e-01,6.510628014802932739e-02,-2.315666377544403076e-01,1.290359348058700562e-01,3.743349388241767883e-02
-6.767126917839050293e-02,-1.569916456937789917e-01,1.353945210576057434e-02,-7.803469896316528320e-02,7.219143956899642944e-02,-1.020609885454177856e-01,3.871404007077217102e-02,-8.374504745006561279e-02,1.219089478254318237e-01,1.080139055848121643e-01,-6.149558350443840027e-03,4.081021621823310852e-02,1.431966871023178101e-01,-8.094488829374313354e-02,9.602623432874679565e-02,-1.628640890121459961e-01,-6.452914327383041382e-02,5.274328216910362244e-02,-1.377424299716949463e-01,1.045271381735801697e-01,5.746745318174362183e-02,-1.254532188177108765e-01,2.558630704879760742e-02,-1.150863096117973328e-01,-1.378297209739685059e-01,-1.014837920665740967e-01,8.173334598541259766e-02,-1.731557771563529968e-02,-1.250641345977783203e-01,-1.268163695931434631e-02,1.054552644491195679e-01,-1.242190673947334290e-01,6.154295057058334351e-02,-1.240199506282806396e-01,-1.638139635324478149e-01,-1.802449114620685577e-02,6.681209895759820938e-03,-2.757358737289905548e-02,1.150947883725166321e-01,1.090023741126060486e-01
-7.021248340606689453e-02,2.986358292400836945e-02,9.061855077743530273e-02,3.128422796726226807e-02,-1.432925164699554443e-01,1.717966645956039429e-01,-8.284872025251388550e-02,-1.260597258806228638e-01,7.449756562709808350e-02,-3.650487214326858521e-02,1.205322667956352234e-01,-1.572225615382194519e-02,-6.058615446090698242e-02,1.806818246841430664e-01,9.961906820535659790e-02,-1.286324262619018555e-01,1.219972223043441772e-01,-1.588962674140930176e-01,-9.179823100566864014e-02,-1.403684467077255249e-01,-1.497759521007537842e-01,1.295780241489410400e-01,1.960178278386592865e-02,7.651824355125427246e-01,3.065852820873260498e-02,-6.857399642467498779e-02,6.295068562030792236e-02,2.404143065214157104e-01,7.744737714529037476e-02,2.168440371751785278e-01,1.153965741395950317e-01,1.306651085615158081e-01,-1.022323668003082275e-01,2.526104077696800232e-02,-2.228948473930358887e-02,-3.040148317813873291e-01,2.898791804909706116e-03,3.795254826545715332e-01,1.874374449253082275e-01,-3.470448777079582214e-02
1.013898104429244995e-01,-7.106114178895950317e-02,-5.716623738408088684e-03,1.899503320455551147e-01,9.412304311990737915e-02,-2.193525284528732300e-01,-7.538420613855123520e-03,5.486655235290527344e-02,8.878536522388458252e-02,-3.159819543361663818e-02,7.759421132504940033e-04,1.096786335110664368e-01,-1.267616748809814453e-01,5.367745831608772278e-02,1.623699627816677094e-02,1.526134759187698364e-01,-1.680582761764526367e-02,-3.522789850831031799e-02,6.464534997940063477e-02,-2.611368522047996521e-02,-2.009654417634010315e-02,-7.095176726579666138e-02,1.134398579597473145e-01,-2.785079181194305420e-01,-1.211429387331008911e-01,1.078233718872070312e-01,-1.815688423812389374e-02,1.029329895973205566e-01,-3.000914119184017181e-02,-5.976586416363716125e-02,-1.681053191423416138e-01,4.109682887792587280e-02,-9.675310552120208740e-02,5.984950065612792969e-02,7.230530492961406708e-03,5.037559270858764648e-01,7.705035805702209473e-02,-2.012747153639793396e-02,-1.119082048535346985e-01,7.418033480644226074e-02
