-1.969560384750366211e-01,6.751179695129394531e-02,-2.266980111598968506e-01,-1.101548746228218079e-01,-1.668394654989242554e-01,-1.603275984525680542e-01,-2.417287528514862061e-01,-2.523765712976455688e-02,3.631390333175659180e-01,2.561900317668914795e-01,2.080790549516677856e-01,1.940667480230331421e-01,-2.001542448997497559e-01,-6.422846764326095581e-02,-1.415829658508300781e-01,7.179872393608093262e-01,1.970274448394775391e-01,1.504507381469011307e-02,1.495660655200481415e-02,-3.012027442455291748e-01,1.874089688062667847e-01,-8.650866150856018066e-02,-1.903303898870944977e-02,3.296540379524230957e-01,-4.714623093605041504e-01
1.700083315372467041e-01,8.668508380651473999e-02,1.442338973283767700e-01,5.302023887634277344e-02,1.850666254758834839e-01,-1.465531438589096069e-01,3.649494946002960205e-01,2.200074046850204468e-01,1.150074079632759094e-01,2.018581181764602661e-01,-1.558183133602142334e-01,5.159354303032159805e-03,2.524202167987823486e-01,-1.764439642429351807e-01,-1.603877395391464233e-01,-1.920432209968566895e+00,2.043116390705108643e-01,-1.389782279729843140e-01,2.286197990179061890e-01,3.097064197063446045e-01,2.474257908761501312e-02,3.258126676082611084e-01,-3.284305706620216370e-02,7.107770442962646484e-02,1.069840416312217712e-01
-2.148143500089645386e-01,-5.879328399896621704e-02,-1.639979928731918335e-01,3.235196471214294434e-01,-2.213516272604465485e-02,4.934775829315185547e-02,-3.539184108376502991e-02,-1.794701069593429565e-01,3.174330890178680420e-01,3.542860969901084900e-02,2.488950490951538086e-01,4.362800344824790955e-02,-9.011211246252059937e-02,1.379468291997909546e-01,3.920919820666313171e-02,6.387265324592590332e-01,3.380484282970428467e-01,1.273929774761199951e-01,2.473348230123519897e-01,-5.269954204559326172e-01,-1.445891112089157104e-01,-9.421925991773605347e-02,1.950486600399017334e-01,2.898117303848266602e-01,-4.446330070495605469e-01
-1.214381307363510132e-01,9.210431575775146484e-02,2.107186615467071533e-01,5.873651430010795593e-02,-1.452775746583938599e-01,7.507455348968505859e-02,3.934901207685470581e-02,-2.530777156352996826e-01,4.179407656192779541e-01,8.672384172677993774e-02,2.548997700214385986e-01,8.045005798339843750e-02,-1.463595926761627197e-01,-2.156444489955902100e-01,1.663646660745143890e-02,-1.845650434494018555e+00,-1.853969693183898926e-01,3.398401662707328796e-02,-9.164723008871078491e-02,-1.431483507156372070e+00,3.198075294494628906e-02,5.370284616947174072e-02,4.784590005874633789e-02,-6.339316070079803467e-02,-3.960273563861846924e-01
3.095178306102752686e-01,1.052272319793701172e-02,-6.366501003503799438e-02,2.636705636978149414e-01,-1.372042894363403320e-01,-7.599081844091415405e-02,3.298415839672088623e-01,-6.718232482671737671e-02,-3.349551856517791748e-01,6.937556713819503784e-02,-1.572964489459991455e-01,-1.743300408124923706e-01,9.059151262044906616e-02,1.728524565696716309e-01,1.347861140966415405e-01,-1.303780555725097656e+00,-7.227802276611328125e-02,2.691625850275158882e-03,1.585956960916519165e-01,3.986451029777526855e-01,1.417393535375595093e-01,8.839752525091171265e-02,-1.177669167518615723e-01,5.841392278671264648e-02,2.943883240222930908e-01
1.311057060956954956e-01,1.226953268051147461e-01,6.377766281366348267e-02,-1.078165322542190552e-01,1.017589792609214783e-01,1.911637745797634125e-02,-1.912415027618408203e-01,4.312367364764213562e-02,6.436821073293685913e-02,5.598002579063177109e-03,-1.109008584171533585e-02,-1.033542156219482422e-01,5.175175890326499939e-02,1.360967457294464111e-01,1.708750575780868530e-01,-3.870290517807006836e-02,-1.013983488082885742e-01,-5.715210363268852234e-02,-3.682944923639297485e-02,-1.311050951480865479e-01,4.324460029602050781e-02,-1.597417443990707397e-01,-2.061254829168319702e-01,6.661645323038101196e-02,9.611177258193492889e-03
1.329505592584609985e-01,-3.117475472390651703e-02,-2.133959680795669556e-01,-1.936285346746444702e-01,-1.204448938369750977e-01,7.208867371082305908e-02,-1.850359141826629639e-01,-1.280101686716079712e-01,6.262899935245513916e-02,3.121723234653472900e-02,1.666015386581420898e-01,1.277915686368942261e-01,-1.953647881746292114e-01,-9.922756999731063843e-02,8.341289125382900238e-03,-2.194159775972366333e-01,1.235272064805030823e-01,-1.389210075139999390e-01,1.572738774120807648e-02,2.474141865968704224e-02,1.730723381042480469e-01,3.539203479886054993e-02,-6.552197039127349854e-02,-2.066480070352554321e-01,9.465305134654045105e-03
1.183236390352249146e-01,-1.747033447027206421e-01,2.783477008342742920e-01,-1.926229894161224365e-01,1.138300895690917969e-01,-4.425661638379096985e-02,3.753019869327545166e-01,5.960410460829734802e-02,-1.307342499494552612e-01,2.366978228092193604e-01,-8.614150434732437134e-02,-1.309246867895126343e-01,3.505936861038208008e-01,-1.082727219909429550e-02,-4.549935087561607361e-02,-1.550759911537170410e+00,6.692791357636451721e-03,-4.427471011877059937e-02,2.412841171026229858e-01,3.452583551406860352e-01,-1.314825117588043213e-01,1.397392451763153076e-01,-1.273750513792037964e-01,2.045746296644210815e-01,5.366769433021545410e-02
-3.521675169467926025e-01,-6.849332153797149658e-02,-2.363570407032966614e-02,-1.345112621784210205e-01,1.524247974157333374e-01,-9.850313514471054077e-02,-3.201609477400779724e-02,-2.497165650129318237e-01,6.312111616134643555e-01,3.764899075031280518e-01,5.576698184013366699e-01,4.871449619531631470e-02,-4.601925984025001526e-02,-1.919320672750473022e-01,-1.958117447793483734e-02,1.587387442588806152e+00,-1.660668402910232544e-01,6.521018594503402710e-02,-1.144426390528678894e-01,-3.312995731830596924e-01,1.016305238008499146e-01,-1.299764029681682587e-02,1.294084489345550537e-01,7.995392382144927979e-02,-2.780431210994720459e-01
4.161314070224761963e-01,-4.903650283813476562e-02,2.474688738584518433e-01,8.132956922054290771e-02,-1.665207147598266602e-01,1.497860699892044067e-01,2.389661595225334167e-02,2.390185557305812836e-02,-2.232811599969863892e-01,1.854917258024215698e-01,-2.132289111614227295e-01,1.101846694946289062e-01,2.014725655317306519e-01,2.158176526427268982e-02,1.639968901872634888e-01,-2.018124341964721680e+00,1.247592568397521973e-01,-2.682314999401569366e-02,2.909475862979888916e-01,9.291228652000427246e-02,6.340663880109786987e-02,3.468575775623321533e-01,2.446594834327697754e-01,5.418631806969642639e-02,2.903822660446166992e-01
-4.478017985820770264e-01,-1.071279272437095642e-01,2.802584767341613770e-01,-6.308261752128601074e-01,1.554328501224517822e-01,1.415585130453109741e-01,1.124986819922924042e-02,-3.495500683784484863e-01,9.273219108581542969e-01,3.407398760318756104e-01,7.311548590660095215e-01,8.678295463323593140e-02,-1.211972832679748535e-01,-7.474491745233535767e-02,-3.856868669390678406e-02,1.564851403236389160e+00,-1.233901605010032654e-01,5.591080710291862488e-02,-2.792550623416900635e-02,-5.330088138580322266e-01,1.024054810404777527e-01,-1.299393773078918457e-01,-2.133980952203273773e-02,2.088420465588569641e-02,-3.720517158508300781e-01
-3.345544636249542236e-01,-1.665958911180496216e-01,1.044498682022094727e-01,-2.781027853488922119e-01,9.956598281860351562e-02,-1.953092068433761597e-01,-2.090054899454116821e-01,-1.367415189743041992e-01,7.393062710762023926e-01,4.217917099595069885e-02,8.521096110343933105e-01,-8.152971416711807251e-02,-2.850643396377563477e-01,3.489961847662925720e-02,9.097750484943389893e-02,1.180942058563232422e+00,1.007809117436408997e-01,8.788412064313888550e-02,9.358088672161102295e-02,-1.190559625625610352e+00,-3.780007362365722656e-02,7.268200069665908813e-02,2.694750130176544189e-01,-3.470616787672042847e-02,-9.281136989593505859e-01
5.275243893265724182e-02,1.468783617019653320e-01,-1.156217679381370544e-01,3.514878079295158386e-02,1.469308882951736450e-01,-3.801393555477261543e-03,-4.784225672483444214e-02,8.038157224655151367e-02,6.818509846925735474e-02,-1.346444040536880493e-01,1.485153585672378540e-01,5.386507511138916016e-02,4.223315045237541199e-02,-4.065458849072456360e-02,3.645470365881919861e-02,6.423237174749374390e-02,-5.314427614212036133e-02,8.767175488173961639e-03,1.805788874626159668e-01,-1.193747296929359436e-01,6.916427519172430038e-03,-1.371729373931884766e-01,5.333385244011878967e-02,-5.245406553149223328e-02,1.244661863893270493e-02
-2.273278832435607910e-01,7.499852031469345093e-02,-7.556251436471939087e-02,-1.940302252769470215e-01,-8.043797314167022705e-02,-1.652433872222900391e-01,-3.227683305740356445e-01,-1.114189177751541138e-01,3.568279445171356201e-01,1.395081281661987305e-01,4.783016443252563477e-01,1.153832226991653442e-01,-2.449626177549362183e-01,-1.073610559105873108e-01,-1.274069100618362427e-01,5.251794457435607910e-01,3.044088780879974365e-01,1.040406599640846252e-01,5.980392917990684509e-02,-2.355746626853942871e-01,1.022417563945055008e-02,-1.314557790756225586e-01,3.212079405784606934e-01,1.832759976387023926e-01,-3.822271227836608887e-01
-6.778542697429656982e-02,8.790753036737442017e-02,3.003917820751667023e-02,1.390726119279861450e-01,-9.373240917921066284e-02,-4.262585565447807312e-02,-1.784934401512145996e-01,-1.834263056516647339e-01,-1.227917671203613281e-01,1.243227273225784302e-01,-1.739217936992645264e-01,-8.465733379125595093e-02,-3.380069136619567871e-02,-7.927589118480682373e-02,4.942879825830459595e-02,-1.481547951698303223e-01,-8.673907816410064697e-02,1.355200558900833130e-01,5.482218414545059204e-02,2.076041698455810547e-02,5.217657238245010376e-02,-5.465302988886833191e-02,8.980251103639602661e-02,-1.369206160306930542e-01,-4.908377677202224731e-02
3.358158469200134277e-01,1.567214280366897583e-01,1.505113542079925537e-01,2.530854344367980957e-01,-1.360602397471666336e-02,6.265234947204589844e-02,1.639524251222610474e-01,-2.813103795051574707e-02,-9.684925526380538940e-02,1.472677588462829590e-01,1.615988910198211670e-01,1.561882533133029938e-02,-1.356123015284538269e-03,-1.728208549320697784e-02,-5.975789949297904968e-02,-4.355843544006347656e+00,3.688399791717529297e-01,-1.099960207939147949e-01,2.809172570705413818e-01,-1.253469940274953842e-02,1.157337427139282227e-01,1.294659227132797241e-01,1.480993330478668213e-01,-4.183699190616607666e-02,-1.226440966129302979e-01
-1.776920445263385773e-02,4.231908544898033142e-02,1.189685240387916565e-01,-5.743908882141113281e-02,1.851754933595657349e-01,-1.294183582067489624e-01,1.702084541320800781e-01,-1.116513162851333618e-01,-4.515397548675537109e-02,-1.427223682403564453e-01,-8.868343196809291840e-03,-1.617392748594284058e-01,4.703508317470550537e-02,1.323533505201339722e-01,-1.215290799736976624e-01,1.507454067468643188e-01,-2.411972731351852417e-02,1.921724528074264526e-01,-1.687369123101234436e-02,1.025233864784240723e-01,-1.256068497896194458e-01,-1.995917558670043945e-01,-1.946064382791519165e-01,-5.781544372439384460e-03,-1.110701709985733032e-01
5.426931753754615784e-02,1.956332474946975708e-01,-1.338468044996261597e-01,1.712077856063842773e-01,1.207961812615394592e-01,-1.175065264105796814e-01,-1.803962290287017822e-01,-1.402450799942016602e-01,-6.194143369793891907e-02,-7.337624579668045044e-02,6.845847517251968384e-02,1.728854626417160034e-01,1.818290948867797852e-01,-5.226075649261474609e-02,-8.525469154119491577e-02,-1.555258333683013916e-01,1.294755041599273682e-01,6.048884615302085876e-02,6.906484812498092651e-02,-2.606147155165672302e-02,4.816184192895889282e-02,6.117247045040130615e-02,-6.995447725057601929e-02,-1.816557049751281738e-01,1.594556123018264771e-01
-1.246197372674942017e-01,-1.566043198108673096e-01,-2.211889028549194336e-01,-2.352825552225112915e-01,-1.206303834915161133e-01,-1.386613845825195312e-01,-5.236735939979553223e-02,-1.855159997940063477e-01,2.765151262283325195e-01,4.876870289444923401e-02,4.016151428222656250e-01,-1.384898871183395386e-01,-4.279287755489349365e-01,-6.175122782588005066e-02,-2.781293354928493500e-02,5.018123984336853027e-01,9.912726283073425293e-02,-1.478061228990554810e-01,-5.102567840367555618e-03,-5.571407079696655273e-01,5.962505564093589783e-02,2.394186407327651978e-01,3.887534141540527344e-01,1.024486050009727478e-01,-2.036773264408111572e-01
-9.146492183208465576e-02,-3.049385547637939453e-02,-3.020399510860443115e-01,6.487344503402709961e-01,4.419999197125434875e-02,1.229793056845664978e-01,-2.162711471319198608e-01,-2.241013944149017334e-02,5.936194583773612976e-02,-7.155578583478927612e-02,1.248985156416893005e-01,5.799906328320503235e-02,-1.478665620088577271e-01,-1.335553172975778580e-02,6.498203426599502563e-02,-5.876668095588684082e-01,1.167257577180862427e-01,-1.827811598777770996e-01,2.788878083229064941e-01,-2.242645919322967529e-01,-9.633193165063858032e-02,-5.801276303827762604e-03,5.066524147987365723e-01,4.189546704292297363e-01,-2.230645865201950073e-01
1.315581798553466797e-02,1.146160587668418884e-01,-1.807856606319546700e-03,-1.385101079940795898e-01,-1.610391214489936829e-02,1.689819097518920898e-01,8.096123114228248596e-03,-6.559105217456817627e-02,1.133538261055946350e-01,-6.506257504224777222e-02,-1.391210556030273438e-01,2.138757705688476562e-02,1.256863623857498169e-01,1.923203468322753906e-01,1.419164389371871948e-01,2.210619486868381500e-02,5.063169077038764954e-02,-7.398913055658340454e-02,-1.016426132991909981e-03,-5.055556446313858032e-02,-8.423971943557262421e-03,-1.572424173355102539e-01,-8.652558177709579468e-02,-1.470029354095458984e-02,1.431293506175279617e-02
4.172665476799011230e-01,-1.665094643831253052e-01,1.733838468790054321e-01,5.944439768791198730e-01,1.569178849458694458e-01,-8.227546513080596924e-02,1.811295747756958008e-01,3.175925910472869873e-01,-7.670224308967590332e-01,-3.222302496433258057e-01,-4.804437458515167236e-01,1.973218172788619995e-01,1.525851041078567505e-01,-4.494893178343772888e-02,1.905866712331771851e-01,1.733730733394622803e-01,1.019062567502260208e-02,-2.782925590872764587e-02,3.057821094989776611e-01,5.206908583641052246e-01,1.633695214986801147e-01,2.092175483703613281e-01,-7.755375653505325317e-02,-1.688001453876495361e-01,2.988322675228118896e-01
-3.670057281851768494e-03,8.246097713708877563e-02,-2.211992025375366211e+00,2.728545367717742920e-01,1.477466076612472534e-01,1.211957260966300964e-01,3.591829910874366760e-02,5.122046917676925659e-02,-5.603190883994102478e-02,-2.034925669431686401e-01,-9.517168253660202026e-02,-4.328653961420059204e-02,-1.242799609899520874e-01,-1.637176275253295898e-01,-1.264631301164627075e-01,1.905884295701980591e-01,-6.718339771032333374e-02,1.173519864678382874e-01,1.250443607568740845e-01,-3.055409193038940430e+00,7.153969258069992065e-02,6.968447566032409668e-02,2.798538506031036377e-01,5.182153731584548950e-02,-1.134112328290939331e-01
-4.951468110084533691e-02,1.265462636947631836e-01,4.573729634284973145e-01,-8.025974035263061523e-02,1.951733380556106567e-01,-7.268011569976806641e-02,3.716237545013427734e-01,4.902636259794235229e-02,4.964476078748703003e-02,-2.578572370111942291e-02,-1.561205238103866577e-01,-1.103740930557250977e-01,4.768497347831726074e-01,1.443657577037811279e-01,-4.602205753326416016e-02,-6.469844374805688858e-03,6.082098186016082764e-02,1.750247776508331299e-01,-7.659414410591125488e-02,2.048395425081253052e-01,5.208401754498481750e-02,2.422983199357986450e-01,-1.568279415369033813e-01,-2.545790970325469971e-01,3.654258847236633301e-01
-2.861149422824382782e-02,9.598970413208007812e-02,-1.553603410720825195e-01,-1.567148417234420776e-01,-8.319415897130966187e-02,-1.339123696088790894e-01,1.658185273408889771e-01,9.791319817304611206e-02,5.028901249170303345e-02,-7.310862839221954346e-02,-1.214391738176345825e-01,2.388579957187175751e-02,-1.773333102464675903e-01,1.327047348022460938e-01,1.905059367418289185e-01,4.331815242767333984e-02,4.906699806451797485e-02,1.628034189343452454e-02,-1.390464324504137039e-02,-1.462209671735763550e-01,2.809426747262477875e-02,-1.672290414571762085e-01,-1.728820651769638062e-01,9.332411736249923706e-02,-2.273664437234401703e-02
