1.906157732009887695e-01
-6.082191467285156250e-01
3.842214047908782959e-01
6.055750846862792969e-01
2.706120610237121582e-01
-6.236904263496398926e-01
-1.811808794736862183e-01
-4.932030141353607178e-01
1.959235370159149170e-01
-3.997286856174468994e-01
5.122892856597900391e-01
5.160086750984191895e-01
8.032776117324829102e-01
-2.661513686180114746e-01
4.715833961963653564e-01
-5.488689541816711426e-01
-3.260705173015594482e-01
2.487605959177017212e-01
-9.247705340385437012e-01
5.231952667236328125e-01
2.443129420280456543e-01
-3.357886672019958496e-01
3.129211021587252617e-03
4.429648816585540771e-01
-3.946930766105651855e-01
5.212553739547729492e-01
8.298866450786590576e-02
-1.450548022985458374e-01
4.955932199954986572e-01
6.994488835334777832e-01
-5.533357858657836914e-01
7.016216516494750977e-01
3.471547961235046387e-01
4.451684057712554932e-01
-3.961694836616516113e-01
-8.446103930473327637e-01
5.386151075363159180e-01
5.877877399325370789e-02
2.380220890045166016e-01
7.855048775672912598e-01
