6.559265404939651489e-02,-1.356202661991119385e-01,-1.226641535758972168e-01,8.362074941396713257e-02,1.895263977348804474e-02,4.824984446167945862e-02,2.875487133860588074e-02,5.245083570480346680e-02,-8.394327759742736816e-01,8.424708992242813110e-02,1.757443398237228394e-01,1.454936712980270386e-01,4.536451771855354309e-02,-1.715195924043655396e-01,1.405777186155319214e-01,6.368445605039596558e-02,-4.560763016343116760e-02,2.083658427000045776e-01,4.184816777706146240e-01,-2.282961970195174217e-03,-1.554993446916341782e-02,5.285530909895896912e-02,-7.564934343099594116e-02,1.597344689071178436e-02,8.407927304506301880e-02,-7.809687405824661255e-02,1.154783368110656738e-01,8.382738381624221802e-02,1.983261853456497192e-01,-2.282782942056655884e-01,-1.119525730609893799e-01,-2.137138545513153076e-01,-5.746778845787048340e-02,-3.225412070751190186e-01,1.270690560340881348e-01,2.772880494594573975e-01,1.719435304403305054e-01,-7.315700501203536987e-02,-7.466243207454681396e-02,-3.511047363281250000e-02
1.099903509020805359e-01,-7.295227795839309692e-02,9.686383605003356934e-02,2.633331120014190674e-01,9.604873135685920715e-03,-4.044847935438156128e-02,1.332296282052993774e-01,9.316565841436386108e-02,4.961905181407928467e-01,6.156528741121292114e-02,-7.078386843204498291e-02,6.441254168748855591e-02,-1.322851050645112991e-02,8.526126295328140259e-02,-1.421030312776565552e-01,4.369454830884933472e-02,-3.459970280528068542e-02,-2.908333390951156616e-02,-1.512348502874374390e-01,1.352289319038391113e-01,6.684792786836624146e-02,6.379918754100799561e-02,1.162238717079162598e-01,2.550344169139862061e-01,9.492713958024978638e-02,1.124115064740180969e-01,-1.440178304910659790e-01,-4.549501463770866394e-03,-1.070187240839004517e-01,2.292075939476490021e-02,-8.981755375862121582e-02,2.851167321205139160e-01,1.097796633839607239e-01,2.337537109851837158e-01,-3.345979005098342896e-02,9.965977072715759277e-02,-9.162423759698867798e-02,3.016911912709474564e-03,1.596125662326812744e-01,1.285172551870346069e-01
-7.105284929275512695e-02,-3.840837255120277405e-02,2.578969597816467285e-01,9.036945551633834839e-02,-2.878865785896778107e-02,1.329035609960556030e-01,1.310986578464508057e-01,7.308147102594375610e-02,3.902785778045654297e-01,1.378093212842941284e-01,1.872225552797317505e-01,-2.397668734192848206e-02,-1.560781523585319519e-02,1.754458397626876831e-01,1.517731994390487671e-01,8.844565600156784058e-02,5.969964712858200073e-02,-2.812901139259338379e-01,-3.011697232723236084e-01,3.032873868942260742e-01,-6.864802446216344833e-03,-7.795612514019012451e-02,-6.092616822570562363e-03,2.645386755466461182e-01,1.058332505635917187e-03,2.071061730384826660e-02,1.035004705190658569e-01,-1.240856498479843140e-01,7.111554592847824097e-02,1.143096908926963806e-01,-2.096751332283020020e-02,1.908074617385864258e-01,2.184372246265411377e-01,3.653602600097656250e-01,-1.082458766177296638e-03,-1.166949644684791565e-01,9.353630244731903076e-02,1.514604538679122925e-01,1.255048215389251709e-01,4.956589639186859131e-02
6.739477813243865967e-02,-1.319442540407180786e-01,2.703189849853515625e-01,-2.430114708840847015e-02,-9.723196923732757568e-02,4.269557073712348938e-02,1.834051497280597687e-02,4.460105672478675842e-02,7.139844298362731934e-01,2.729808911681175232e-02,-8.363035321235656738e-02,1.521138753741979599e-02,1.402220726013183594e-01,1.686738580465316772e-01,-7.410568650811910629e-04,4.355169460177421570e-02,-4.958521947264671326e-02,-3.462409377098083496e-01,-6.600357294082641602e-01,-1.066519320011138916e-02,7.250333670526742935e-03,8.050349541008472443e-03,-6.248207017779350281e-02,5.738972127437591553e-02,-1.018573939800262451e-01,1.694702059030532837e-01,-3.704192116856575012e-02,1.043878048658370972e-01,4.985451232641935349e-03,3.371681645512580872e-02,1.032697930932044983e-01,5.983425676822662354e-02,2.418741583824157715e-02,3.736167252063751221e-01,-5.957106128334999084e-02,-1.044228792190551758e+00,1.595696061849594116e-01,-7.098165899515151978e-02,1.898379027843475342e-01,7.674498856067657471e-02
-2.620589174330234528e-02,-8.558496087789535522e-02,-1.134141534566879272e-02,-1.360215544700622559e-01,-2.256186306476593018e-02,1.140921860933303833e-01,-1.069117039442062378e-01,3.598462417721748352e-02,-6.596618890762329102e-01,1.386031359434127808e-01,-7.188786566257476807e-02,-6.547453254461288452e-02,1.039312407374382019e-01,-1.510981321334838867e-01,1.010086983442306519e-01,-1.279961764812469482e-01,1.210078224539756775e-01,1.305774301290512085e-01,1.575314998626708984e-01,-2.024790942668914795e-01,1.045451313257217407e-01,1.444975882768630981e-01,7.527088373899459839e-02,-1.200642362236976624e-01,-1.490684300661087036e-01,-8.929255604743957520e-02,7.979996502399444580e-03,-1.041539683938026428e-01,-5.815927684307098389e-02,5.775860045105218887e-03,1.177865862846374512e-01,-1.632526069879531860e-01,-6.743307411670684814e-02,-3.923887610435485840e-01,-3.277477575466036797e-03,2.800287604331970215e-01,9.799308329820632935e-02,-5.301569402217864990e-02,1.681571640074253082e-02,1.731334775686264038e-01
4.601349681615829468e-02,1.466318871825933456e-02,7.030775398015975952e-02,2.987710535526275635e-01,-1.887550763785839081e-02,-1.983824074268341064e-01,1.461367756128311157e-01,-1.252957582473754883e-01,6.620069742202758789e-01,-1.767285913228988647e-01,-8.383909612894058228e-02,-1.688347570598125458e-02,1.511927098035812378e-01,1.843317747116088867e-01,1.439020782709121704e-01,-8.929906785488128662e-02,-6.425956636667251587e-02,1.709026545286178589e-01,-3.741706311702728271e-01,7.058078795671463013e-02,7.484765350818634033e-02,-9.505880065262317657e-03,4.668973013758659363e-02,2.030269205570220947e-01,2.271225675940513611e-02,8.264724165201187134e-02,8.078052662312984467e-03,-1.373477131128311157e-01,3.282284364104270935e-02,2.053695172071456909e-01,-1.521507352590560913e-01,2.383931875228881836e-01,-5.686131492257118225e-02,7.749418914318084717e-02,-8.181913755834102631e-03,4.309822320938110352e-01,-1.865259744226932526e-02,7.256609201431274414e-02,-6.741886585950851440e-02,6.705383956432342529e-02
-8.311446756124496460e-02,-2.118521556258201599e-02,-5.755046755075454712e-02,2.597442595288157463e-03,4.385401681065559387e-02,6.122942641377449036e-02,3.210608288645744324e-02,-4.032322391867637634e-02,-5.398003458976745605e-01,2.582894824445247650e-02,-1.084658578038215637e-01,-1.009645685553550720e-01,1.082136854529380798e-01,6.122999638319015503e-02,1.875434517860412598e-01,-7.105147000402212143e-03,-5.591497197747230530e-02,1.057507395744323730e-01,4.111876189708709717e-01,-1.891413927078247070e-01,1.733898222446441650e-01,-4.029366746544837952e-02,-9.255254268646240234e-02,1.060321405529975891e-01,-7.012494653463363647e-02,-1.835294663906097412e-01,1.466226875782012939e-01,-6.398575752973556519e-02,-8.326043933629989624e-02,-4.886538907885551453e-02,1.055149137973785400e-01,-4.111911728978157043e-02,-1.677143201231956482e-02,-7.061392813920974731e-02,-3.067465964704751968e-03,1.773915886878967285e-01,1.054399386048316956e-01,-8.845213800668716431e-02,1.379459351301193237e-01,-5.471203848719596863e-02
-6.540347635746002197e-02,-1.452619284391403198e-01,-1.677289903163909912e-01,2.708861790597438812e-02,3.284183144569396973e-02,-1.613902896642684937e-01,-2.084392309188842773e-01,1.044168099761009216e-01,-6.968564391136169434e-01,1.183049678802490234e-01,8.069396018981933594e-02,1.391555815935134888e-01,-1.933878362178802490e-01,3.151685744524002075e-02,5.460454896092414856e-02,3.411246463656425476e-02,5.831796675920486450e-02,2.569577991962432861e-01,6.855762004852294922e-02,-4.079371318221092224e-02,1.167625114321708679e-01,5.547785386443138123e-02,7.029933482408523560e-02,-4.300557821989059448e-02,3.941177949309349060e-02,-1.397045403718948364e-01,1.166938468813896179e-01,4.285515099763870239e-02,1.802779287099838257e-01,-2.122780531644821167e-01,1.122792996466159821e-02,-9.476160258054733276e-02,1.513157039880752563e-02,-4.927570223808288574e-01,-4.491122905164957047e-03,-1.199139729142189026e-01,3.492285311222076416e-02,-2.525080740451812744e-02,-6.320808827877044678e-02,1.486779302358627319e-01
1.177224293351173401e-01,-1.972908340394496918e-02,-2.353926189243793488e-03,-1.635332964360713959e-02,-1.878477260470390320e-02,1.398846060037612915e-01,1.389231234788894653e-01,-1.336119025945663452e-01,6.973033547401428223e-01,2.853362448513507843e-02,1.659982055425643921e-01,-1.300842612981796265e-01,1.390010416507720947e-01,2.708209156990051270e-01,4.781597480177879333e-02,-3.196226805448532104e-02,-6.334422528743743896e-02,-2.319209128618240356e-01,-4.749624431133270264e-01,3.396065905690193176e-02,1.859569400548934937e-01,-9.606714546680450439e-02,2.030722051858901978e-01,1.389075219631195068e-01,-1.068209558725357056e-01,1.453498303890228271e-01,-2.534326910972595215e-02,2.124246805906295776e-01,1.674717105925083160e-02,2.594618797302246094e-01,-1.495712399482727051e-01,-2.368266694247722626e-02,-1.361333765089511871e-02,3.278127610683441162e-01,2.467999979853630066e-02,-1.893030554056167603e-01,3.728717193007469177e-02,2.101782709360122681e-01,1.306372135877609253e-01,1.239351332187652588e-01
1.982560567557811737e-02,-1.567014455795288086e-01,-1.124685049057006836e+00,-2.535022199153900146e-01,-1.661727949976921082e-02,5.287512019276618958e-02,1.300731450319290161e-01,5.999459326267242432e-02,1.244237273931503296e-01,-2.056782007217407227e+00,-1.198175456374883652e-02,-4.370079934597015381e-02,-1.500353962182998657e-01,3.598508834838867188e-01,-2.253155224025249481e-02,5.196421965956687927e-02,-1.258044242858886719e-01,1.170804426074028015e-01,-8.160049319267272949e-01,9.734292328357696533e-02,1.001673787832260132e-01,-1.523367762565612793e-01,1.690151989459991455e-01,-1.185232520103454590e+00,-2.520751580595970154e-02,-8.113630115985870361e-02,1.357302218675613403e-01,1.608247011899948120e-01,-1.555694788694381714e-01,-1.646563857793807983e-01,-9.750252217054367065e-02,1.570506393909454346e-01,1.501674018800258636e-02,-1.537203431129455566e+00,1.071755960583686829e-01,7.557260990142822266e-01,-5.370170623064041138e-02,3.584650158882141113e-01,1.885092258453369141e-01,-8.183053880929946899e-02
1.467478275299072266e-01,8.647917956113815308e-02,-1.438553184270858765e-01,-7.769318670034408569e-02,6.745305657386779785e-02,-1.490888092666864395e-02,-9.744220972061157227e-02,6.238071713596582413e-03,-9.995326399803161621e-02,-1.453566700220108032e-01,-1.566046774387359619e-01,-9.850393235683441162e-02,8.860065042972564697e-02,1.115035042166709900e-01,-3.898078575730323792e-02,2.217196114361286163e-02,5.985839292407035828e-03,-1.301614344120025635e-01,-1.204043626785278320e-01,-1.722984574735164642e-02,6.497669965028762817e-02,-7.206518948078155518e-02,-4.954701289534568787e-02,-8.703742176294326782e-02,7.459388673305511475e-02,1.399460732936859131e-01,-8.472569286823272705e-02,-4.344876110553741455e-02,7.386480271816253662e-02,-3.239137679338455200e-02,-1.518558114767074585e-01,3.196420893073081970e-02,9.401005692780017853e-03,-1.192795708775520325e-01,9.218306280672550201e-03,7.350179366767406464e-03,6.430994719266891479e-02,-8.350507169961929321e-02,4.389941319823265076e-02,-2.330261655151844025e-02
-1.693201996386051178e-02,-1.895217970013618469e-02,1.964124441146850586e-01,2.702612876892089844e-01,-1.466906815767288208e-01,1.315772384405136108e-01,2.232660949230194092e-01,-1.498515605926513672e-01,4.271067976951599121e-01,-7.974771410226821899e-02,1.241139918565750122e-01,4.548698198050260544e-03,3.440596628934144974e-03,8.168020099401473999e-02,1.246313452720642090e-01,-1.397383809089660645e-01,-1.008255258202552795e-01,-8.659815043210983276e-02,-3.166294693946838379e-01,1.313612461090087891e-01,9.586963057518005371e-02,7.596085965633392334e-02,7.900957763195037842e-02,2.694918215274810791e-01,-8.523645251989364624e-02,9.519501775503158569e-02,-1.011470481753349304e-01,-1.368203852325677872e-02,2.875293791294097900e-02,5.160916596651077271e-03,9.873191267251968384e-02,2.389659881591796875e-01,1.648383587598800659e-01,2.560274899005889893e-01,1.452911347150802612e-01,1.203084960579872131e-01,1.804807931184768677e-01,1.053525656461715698e-01,-1.127239130437374115e-02,1.426719315350055695e-02
1.430902928113937378e-01,-6.294500827789306641e-02,-7.021006662398576736e-03,3.322282806038856506e-02,5.197394639253616333e-02,-1.074599027633666992e-01,5.922532081604003906e-02,1.084188148379325867e-01,-3.626867383718490601e-02,-5.215702578425407410e-03,-8.669292181730270386e-02,-1.203605383634567261e-01,5.942104756832122803e-02,-4.865415394306182861e-02,-1.261848658323287964e-01,-7.050880044698715210e-02,-2.373151667416095734e-02,-7.089374214410781860e-02,5.474788323044776917e-02,7.523675262928009033e-02,-1.056135147809982300e-01,1.092839092016220093e-01,6.953916698694229126e-02,1.304202079772949219e-01,9.259533882141113281e-02,1.142157316207885742e-01,5.067891255021095276e-02,1.502431035041809082e-01,1.566717475652694702e-01,-1.329230815172195435e-01,1.309822797775268555e-01,-7.034174352884292603e-02,1.368134468793869019e-02,2.658676588907837868e-03,5.680133029818534851e-02,1.420826911926269531e-01,-1.238902881741523743e-01,1.447705924510955811e-01,-4.790318757295608521e-02,-5.202210694551467896e-02
1.151058971881866455e-01,1.335259526968002319e-01,-1.088666766881942749e-01,2.977776154875755310e-02,-1.092539876699447632e-01,-7.721459865570068359e-02,-1.253533065319061279e-01,-6.535020470619201660e-02,-2.839685790240764618e-02,-1.693147234618663788e-02,-1.146308481693267822e-01,6.429948657751083374e-02,-6.287360191345214844e-02,8.973725885152816772e-02,-1.446774750947952271e-01,1.573032736778259277e-01,-7.415832579135894775e-02,1.426532268524169922e-01,1.341587901115417480e-01,-3.345355391502380371e-02,-1.477638036012649536e-01,1.168864667415618896e-01,1.480294913053512573e-01,-4.068881273269653320e-02,-6.739223003387451172e-02,1.089636329561471939e-02,-1.374269127845764160e-01,-4.048474598675966263e-03,1.190329268574714661e-01,-8.331799507141113281e-02,5.304251611232757568e-02,1.417142748832702637e-01,-4.350676015019416809e-02,3.717851638793945312e-02,4.725302010774612427e-02,-5.302784964442253113e-02,5.718367174267768860e-03,-5.741617176681756973e-03,-2.308254130184650421e-02,2.042366564273834229e-02
-8.155220001935958862e-02,6.085951626300811768e-02,-7.980153709650039673e-02,-1.043341457843780518e-01,-3.483380749821662903e-02,-1.346791684627532959e-01,-1.386509984731674194e-01,-3.413636237382888794e-02,-2.462015002965927124e-01,-4.602711182087659836e-03,6.569118052721023560e-02,-8.488260954618453979e-02,-8.512237109243869781e-03,1.927863210439682007e-01,4.363460838794708252e-02,6.750074028968811035e-02,7.341094315052032471e-02,1.911697387695312500e-01,2.418659776449203491e-01,1.508841365575790405e-01,1.117639914155006409e-01,-2.214146405458450317e-02,-4.034464806318283081e-02,2.271735370159149170e-01,-3.365753218531608582e-02,1.435455828905105591e-01,-8.076459914445877075e-02,1.397906243801116943e-01,1.359072029590606689e-01,3.802067786455154419e-02,-1.042194068431854248e-01,-3.212316334247589111e-02,1.291732937097549438e-01,3.796929493546485901e-02,4.462322220206260681e-03,-2.583920359611511230e-01,2.177907228469848633e-01,-2.597999759018421173e-02,1.825360086513683200e-04,1.192869469523429871e-01
8.357085287570953369e-02,1.236427128314971924e-01,-1.950453370809555054e-01,-1.547848880290985107e-01,8.929600007832050323e-03,-1.203290522098541260e-01,-9.472690522670745850e-03,-4.328590817749500275e-03,-9.758407473564147949e-01,-9.645584225654602051e-02,1.346326768398284912e-01,-4.533656686544418335e-02,-6.700576096773147583e-02,-1.625843346118927002e-01,2.071868181228637695e-01,-1.488157957792282104e-01,6.237708032131195068e-02,2.559399604797363281e-01,2.654809951782226562e-01,-6.487300246953964233e-02,9.471362829208374023e-02,1.276613473892211914e-01,-1.449933624826371670e-03,4.807294905185699463e-02,-1.257984340190887451e-01,1.052582040429115295e-01,1.631774455308914185e-01,4.762595519423484802e-03,-8.731745928525924683e-02,-2.156389802694320679e-01,6.199245527386665344e-02,-2.119939476251602173e-01,-2.729069208726286888e-03,-3.995850384235382080e-01,-7.515713572502136230e-02,2.485284209251403809e-01,1.646429747343063354e-01,-1.007688865065574646e-01,-1.247550477273762226e-03,2.091153711080551147e-01
-9.969355165958404541e-02,-3.031382150948047638e-02,2.159086167812347412e-01,9.599989652633666992e-02,1.322658956050872803e-01,-1.887562870979309082e-02,1.934513896703720093e-01,1.444613635540008545e-01,6.158615350723266602e-01,-6.093456968665122986e-02,-2.461036853492259979e-02,1.056502163410186768e-01,2.731261588633060455e-02,-1.986127644777297974e-01,-3.140180930495262146e-02,1.315170675516128540e-01,4.258040338754653931e-02,-1.375588029623031616e-01,7.312534749507904053e-02,1.933910697698593140e-01,-1.927959769964218140e-01,-1.577819883823394775e-01,-2.388027161359786987e-01,1.345782727003097534e-01,-2.161204256117343903e-02,2.367061525583267212e-01,-1.907556951045989990e-01,9.621826757211238146e-05,5.771371722221374512e-02,2.818685770034790039e-01,4.405608400702476501e-02,-1.099341437220573425e-01,1.794634386897087097e-02,3.326936662197113037e-01,6.358227878808975220e-02,-8.199247717857360840e-02,8.694735169410705566e-02,1.228322163224220276e-01,3.818326815962791443e-02,7.117968797683715820e-02
-1.940422691404819489e-02,-1.024242416024208069e-01,4.180926829576492310e-02,1.483930945396423340e-01,-3.484075516462326050e-02,1.517095714807510376e-01,1.380340307950973511e-01,1.198334023356437683e-01,-1.660640933550894260e-03,-1.506372690200805664e-01,-1.293073524720966816e-03,1.325962245464324951e-01,1.350469291210174561e-01,-1.193108409643173218e-01,-4.008567333221435547e-02,7.452502846717834473e-02,-6.843772530555725098e-02,-3.057551570236682892e-03,3.776286169886589050e-02,-7.446055114269256592e-02,-2.635234594345092773e-02,-1.620921120047569275e-02,-1.734832860529422760e-02,-1.333004087209701538e-01,9.553005546331405640e-02,1.222367733716964722e-01,-5.822833999991416931e-02,8.057097904384136200e-03,9.045819938182830811e-02,-1.481078863143920898e-01,7.959612645208835602e-03,-1.220007464289665222e-01,-1.102651283144950867e-01,-4.286179691553115845e-02,-1.325592547655105591e-01,5.108689144253730774e-02,-6.766041368246078491e-02,-1.629386097192764282e-02,-1.437511146068572998e-01,2.465713582932949066e-02
1.016872227191925049e-01,-2.470864914357662201e-02,1.746409535408020020e-01,1.903611570596694946e-01,9.061548858880996704e-03,-4.239471629261970520e-02,1.089037209749221802e-01,-4.900117591023445129e-02,3.497135341167449951e-01,-1.062922328710556030e-01,1.751673370599746704e-01,1.744146794080734253e-01,9.289016574621200562e-02,1.667132824659347534e-01,-3.105505928397178650e-02,6.313411891460418701e-02,2.596809715032577515e-02,-7.236389815807342529e-02,-4.903619587421417236e-01,2.440563887357711792e-01,1.033783610910177231e-02,-1.341678500175476074e-01,5.220153182744979858e-02,2.488680183887481689e-01,1.514528989791870117e-01,1.922375112771987915e-01,3.773741796612739563e-02,-5.105152353644371033e-02,3.180962428450584412e-02,2.188956141471862793e-01,4.457979276776313782e-02,3.392276912927627563e-02,2.581878378987312317e-02,4.362597465515136719e-01,-1.147358044981956482e-01,-4.696290791034698486e-01,4.049669951200485229e-03,8.783714845776557922e-03,1.342290937900543213e-01,9.122274070978164673e-02
1.198018267750740051e-01,1.276845633983612061e-01,1.230586543679237366e-01,2.151641249656677246e-01,9.162834286689758301e-02,1.028405595570802689e-02,6.896503269672393799e-02,1.005324274301528931e-01,4.767059087753295898e-01,-4.825253784656524658e-02,1.987552046775817871e-01,-8.668325841426849365e-02,2.187501788139343262e-01,-6.321831047534942627e-02,5.850549787282943726e-02,-1.087040081620216370e-01,-1.272353231906890869e-01,-2.013443857431411743e-01,-3.291804492473602295e-01,2.879566252231597900e-01,2.247640676796436310e-02,7.620792835950851440e-02,-4.017292708158493042e-02,1.677152067422866821e-01,3.017060831189155579e-02,1.756582409143447876e-02,1.198844015598297119e-01,6.897159852087497711e-03,-1.635230705142021179e-02,1.646806597709655762e-01,-9.963028877973556519e-02,9.141460806131362915e-02,1.502167135477066040e-01,3.630263805389404297e-01,-1.087249293923377991e-01,-6.120013073086738586e-02,-3.400019928812980652e-02,1.305551975965499878e-01,1.474915891885757446e-01,-6.821206212043762207e-02
1.399980485439300537e-01,1.242481693625450134e-01,5.143675208091735840e-02,-8.711093664169311523e-02,1.872202754020690918e-01,1.468501687049865723e-01,-1.156100630760192871e-01,-3.544977307319641113e-02,-2.870321869850158691e-01,-8.687943220138549805e-02,-4.924509301781654358e-02,-5.929312109947204590e-02,8.479711599647998810e-03,-3.466800600290298462e-02,1.849125921726226807e-01,6.520400196313858032e-02,1.339306384325027466e-01,2.036834061145782471e-01,2.852403186261653900e-02,3.656590357422828674e-02,1.719776242971420288e-01,-7.389987818896770477e-03,1.338723003864288330e-01,1.801450252532958984e-01,1.048076525330543518e-01,-4.336030781269073486e-02,1.936059892177581787e-01,1.503445953130722046e-01,1.331865042448043823e-01,-9.227392077445983887e-02,-1.160762235522270203e-01,1.275297161191701889e-02,-1.230863854289054871e-02,-8.089445531368255615e-02,2.669037692248821259e-02,1.151671707630157471e-01,1.641522943973541260e-01,-4.891990870237350464e-02,1.717587858438491821e-01,2.245929688215255737e-01
2.364202402532100677e-02,-1.767111197113990784e-02,1.522330790758132935e-01,2.197511196136474609e-01,-8.041877299547195435e-03,1.354440487921237946e-02,1.557234674692153931e-01,-4.435279965400695801e-02,3.566058874130249023e-01,7.296116650104522705e-02,1.396272629499435425e-01,-1.195706985890865326e-02,-7.808339595794677734e-02,-6.421426660381257534e-04,2.826143242418766022e-02,-1.420284062623977661e-01,5.764178931713104248e-03,-2.817835807800292969e-01,-5.258785486221313477e-01,2.075727730989456177e-01,-4.742741212248802185e-02,-2.557930536568164825e-02,1.862249225378036499e-01,2.845100685954093933e-02,-5.285102874040603638e-03,6.121019646525382996e-02,1.882522702217102051e-01,-7.504033390432596207e-03,-9.303145855665206909e-02,2.019051313400268555e-01,-1.152101308107376099e-01,2.360627353191375732e-01,-2.067781984806060791e-02,3.358175456523895264e-01,3.102680854499340057e-02,-1.138117983937263489e-01,1.216895878314971924e-01,-3.644880279898643494e-02,1.747747361660003662e-01,7.552476227283477783e-02
9.271091967821121216e-02,-1.313520520925521851e-01,1.132757663726806641e-01,4.527777805924415588e-02,-1.757794246077537537e-02,-1.291638612747192383e-01,-4.281754046678543091e-02,4.982031881809234619e-02,-6.376691907644271851e-02,1.409960091114044189e-01,-5.319256801158189774e-03,5.188059061765670776e-02,9.513383358716964722e-02,1.261379476636648178e-02,-2.263198047876358032e-02,-9.599480032920837402e-02,-7.955637574195861816e-02,9.793359786272048950e-03,-1.083400025963783264e-01,1.325993984937667847e-01,-1.159952133893966675e-01,1.213060244917869568e-01,-7.039770483970642090e-02,-8.492970466613769531e-02,4.172714427113533020e-02,-4.023130051791667938e-03,-1.354469358921051025e-01,6.176259368658065796e-02,-5.091472715139389038e-02,-6.634965538978576660e-02,5.860488116741180420e-02,-9.901360422372817993e-02,5.032022483646869659e-03,1.416615098714828491e-01,1.568796932697296143e-01,-1.223768144845962524e-01,-1.526519805192947388e-01,-4.915618896484375000e-02,-1.130597963929176331e-01,-1.453272104263305664e-01
7.000467181205749512e-02,5.680542066693305969e-02,2.381096482276916504e-01,1.995986998081207275e-01,5.634566396474838257e-02,1.682811230421066284e-01,-3.176235407590866089e-02,9.902979433536529541e-02,3.202461302280426025e-01,5.853687413036823273e-03,-1.041881218552589417e-01,-1.398277878761291504e-01,-1.974565349519252777e-02,3.257136419415473938e-02,-1.000776514410972595e-01,2.882932126522064209e-02,-1.116956844925880432e-01,-1.636694669723510742e-01,-3.986358046531677246e-01,2.145229727029800415e-01,9.572235494852066040e-02,-5.161542817950248718e-02,-1.043349429965019226e-01,-8.891902118921279907e-02,1.388524770736694336e-01,1.648247241973876953e-01,-1.082465350627899170e-01,-8.780461549758911133e-02,-2.883704379200935364e-02,1.590072214603424072e-01,2.667882293462753296e-02,2.298702299594879150e-01,9.168671816587448120e-02,3.615155220031738281e-01,7.079704850912094116e-02,-2.598458528518676758e-01,1.419587135314941406e-01,5.833186674863100052e-03,-6.491914391517639160e-02,5.824590474367141724e-02
-1.087396517395973206e-01,-8.701623231172561646e-02,1.608148813247680664e-01,-9.719149768352508545e-02,3.818731755018234253e-02,-1.172450184822082520e-01,1.339668184518814087e-01,1.869346201419830322e-02,1.943692266941070557e-01,1.333246082067489624e-01,3.627225011587142944e-02,-9.850119799375534058e-02,-6.518780440092086792e-02,2.158658504486083984e-01,5.562583357095718384e-02,-1.192131862044334412e-01,-5.377357825636863708e-02,6.928641349077224731e-02,2.046845555305480957e-01,4.979545623064041138e-02,2.028492391109466553e-01,-1.345985531806945801e-01,1.221255511045455933e-01,3.137771189212799072e-01,-3.787785768508911133e-02,1.153219267725944519e-01,1.699902713298797607e-01,1.893175393342971802e-01,2.573309540748596191e-01,-7.343684136867523193e-02,-6.499660760164260864e-02,-2.890401147305965424e-02,1.837082952260971069e-01,1.360917836427688599e-01,7.315371185541152954e-02,3.484467789530754089e-02,5.449343100190162659e-02,1.140522733330726624e-01,-6.035813689231872559e-02,1.500632315874099731e-01
-7.461076974868774414e-02,1.433016806840896606e-01,2.564367465674877167e-02,6.620553880929946899e-02,1.255612969398498535e-01,1.439345777034759521e-01,9.127753973007202148e-02,-1.440642476081848145e-01,1.908799409866333008e-01,1.526508778333663940e-01,2.031551599502563477e-01,9.096304886043071747e-03,2.287843972444534302e-01,2.756534516811370850e-02,-2.403367683291435242e-02,-8.355588465929031372e-02,1.210824400186538696e-01,-9.978778660297393799e-02,-1.575518101453781128e-01,2.586662471294403076e-01,9.692930430173873901e-02,-9.894129633903503418e-02,-6.346335262060165405e-02,4.966175928711891174e-02,1.305052936077117920e-01,1.947650760412216187e-01,-1.626430749893188477e-01,2.781493589282035828e-02,9.968057274818420410e-02,2.277746647596359253e-01,7.067031413316726685e-02,7.855682075023651123e-02,9.184718877077102661e-02,2.161303460597991943e-01,5.025338754057884216e-02,-1.973107308149337769e-01,3.157466277480125427e-02,-5.280065909028053284e-02,1.377775222063064575e-01,1.314834505319595337e-01
-1.231187731027603149e-01,-1.036412045359611511e-01,-5.843221023678779602e-02,-2.618610858917236328e-02,-6.645245850086212158e-02,1.130839884281158447e-01,-1.699085235595703125e-01,1.062345728278160095e-01,-3.563850224018096924e-01,1.044359896332025528e-02,-3.078751498833298683e-03,-1.445251852273941040e-01,1.181253418326377869e-01,9.790688008069992065e-02,-2.457043342292308807e-02,-1.518352422863245010e-03,6.428717821836471558e-02,2.086921185255050659e-01,3.984304368495941162e-01,1.094912644475698471e-02,1.582390218973159790e-01,7.935806363821029663e-02,-8.902923017740249634e-02,3.201784938573837280e-02,7.352346926927566528e-02,-1.814516484737396240e-01,-1.914248429238796234e-02,-9.061223268508911133e-02,1.852684319019317627e-01,-1.898254603147506714e-01,6.769958138465881348e-02,-2.195459008216857910e-01,-3.086719103157520294e-02,-1.272799372673034668e-01,-1.025372594594955444e-01,1.861304789781570435e-01,2.875602990388870239e-02,-6.752890348434448242e-02,-3.858380392193794250e-02,1.615608781576156616e-01
1.346183717250823975e-01,-5.788983777165412903e-03,1.998734325170516968e-01,1.090937852859497070e-01,2.359362505376338959e-02,1.066373959183692932e-01,2.356670051813125610e-01,8.339878171682357788e-02,5.042530298233032227e-01,1.132187470793724060e-01,2.062465436756610870e-02,7.965648919343948364e-02,3.330700844526290894e-02,2.055458724498748779e-02,1.111579164862632751e-01,1.489936858415603638e-01,-2.419807715341448784e-03,-3.466067612171173096e-01,-2.822261154651641846e-01,2.678933739662170410e-01,-8.436776697635650635e-02,-1.053235828876495361e-01,-4.903404414653778076e-02,9.257066994905471802e-03,-1.069554965943098068e-02,2.567144632339477539e-01,8.597891032695770264e-02,-1.724330522119998932e-02,-1.393384635448455811e-01,2.364727258682250977e-01,6.919158250093460083e-02,1.691931784152984619e-01,1.315620541572570801e-01,3.559317886829376221e-01,4.330189526081085205e-02,-1.875465810298919678e-01,1.177129149436950684e-01,-2.416588924825191498e-02,1.150016207247972488e-03,1.446741223335266113e-01
4.719394817948341370e-02,1.811482757329940796e-02,2.014651000499725342e-01,1.371658146381378174e-01,4.069907218217849731e-02,1.574055254459381104e-01,1.780589073896408081e-01,-1.008880212903022766e-01,3.809256553649902344e-01,7.840095460414886475e-02,1.209919224493205547e-03,-6.592499464750289917e-02,9.250149875879287720e-02,5.270230397582054138e-02,1.333401203155517578e-01,-3.485046327114105225e-02,-4.462459683418273926e-02,-6.151027511805295944e-03,-3.452477455139160156e-01,2.525918418541550636e-03,-3.571384772658348083e-02,1.409777998924255371e-01,-1.445036828517913818e-01,-1.882690377533435822e-02,5.437969416379928589e-02,1.655585616827011108e-01,-6.849458906799554825e-03,-2.656675875186920166e-02,1.062683239579200745e-01,2.314741462469100952e-01,-1.413691192865371704e-01,2.009539455175399780e-01,7.088575512170791626e-02,1.413444727659225464e-01,1.433216929435729980e-01,-2.024898864328861237e-02,-4.449298605322837830e-02,1.529755890369415283e-01,1.638895720243453979e-01,7.377547770738601685e-02
-1.118351072072982788e-01,1.334025897085666656e-02,1.648686975240707397e-01,2.293106019496917725e-01,4.500104486942291260e-02,1.629609614610671997e-02,1.166230365633964539e-01,-2.730188332498073578e-02,4.741883277893066406e-01,4.240932688117027283e-02,-6.245389580726623535e-02,-7.556194812059402466e-02,9.879662096500396729e-02,-4.574418440461158752e-02,1.000529825687408447e-01,1.354643851518630981e-01,-1.204448863863945007e-01,-2.215923368930816650e-01,-1.835279017686843872e-01,1.647587269544601440e-01,1.189285367727279663e-01,8.098242431879043579e-02,-1.650802195072174072e-01,-1.483608689159154892e-02,1.160401850938796997e-01,4.042210802435874939e-02,5.047708377242088318e-02,-5.511971563100814819e-02,9.400210529565811157e-02,8.987285941839218140e-02,-3.288232535123825073e-02,4.200727492570877075e-02,1.594444215297698975e-01,9.332171082496643066e-02,-3.925175219774246216e-02,-3.319849073886871338e-01,2.769486047327518463e-02,1.412798911333084106e-01,-3.319143503904342651e-02,-8.884713053703308105e-02
6.929896026849746704e-02,1.085727140307426453e-01,5.342453345656394958e-02,2.505958825349807739e-02,-7.856141775846481323e-02,2.151000201702117920e-01,1.363681852817535400e-01,1.093032862991094589e-02,3.113946318626403809e-01,2.373364120721817017e-01,1.664209812879562378e-01,2.003091014921665192e-02,2.409158945083618164e-01,1.807890683412551880e-01,-2.695439755916595459e-02,-9.785373508930206299e-02,6.926968693733215332e-02,-5.725807510316371918e-03,2.891100011765956879e-02,2.254703491926193237e-01,1.093857809901237488e-01,1.556319296360015869e-01,9.180060029029846191e-02,3.451582193374633789e-01,-1.005913242697715759e-01,3.718151152133941650e-02,3.837934136390686035e-02,1.032908186316490173e-01,-1.223738491535186768e-01,2.801069617271423340e-01,1.141477972269058228e-01,2.461047619581222534e-01,2.115565985441207886e-01,2.574010491371154785e-01,-3.900855034589767456e-02,2.955888807773590088e-01,1.337337046861648560e-01,4.147491976618766785e-02,-4.885560274124145508e-02,-5.171164870262145996e-03
-4.527740180492401123e-02,5.143193528056144714e-02,-1.070146784186363220e-01,1.478167176246643066e-01,-8.761454373598098755e-02,1.548928171396255493e-01,-8.875694125890731812e-02,1.508196294307708740e-01,-1.247773393988609314e-01,-6.867393851280212402e-02,1.176041662693023682e-01,1.174340248107910156e-01,5.657491832971572876e-02,1.018046885728836060e-01,-1.404243707656860352e-01,-5.223976820707321167e-02,1.236313059926033020e-01,1.195004023611545563e-02,1.215359941124916077e-01,-1.338570415973663330e-01,9.073482453823089600e-02,-1.181636378169059753e-01,4.371710866689682007e-02,4.756087809801101685e-02,-1.260034888982772827e-01,-6.270457059144973755e-02,-1.070706844329833984e-01,9.990527480840682983e-02,6.553160399198532104e-02,1.107455417513847351e-01,-2.836747281253337860e-02,7.300198078155517578e-02,-1.077096462249755859e-01,1.168883144855499268e-01,-2.847862243652343750e-02,-1.550082117319107056e-01,-8.505953848361968994e-02,6.319115310907363892e-02,-1.368549093604087830e-02,-5.335359275341033936e-02
-1.579424142837524414e-01,-1.808810047805309296e-02,-1.622277349233627319e-01,-6.901470571756362915e-02,-6.586201488971710205e-02,2.130910754203796387e-02,-2.101376950740814209e-01,8.597394078969955444e-02,-5.974384546279907227e-01,-1.363033428788185120e-02,2.270263619720935822e-02,-5.689323693513870239e-02,-1.056767329573631287e-01,-1.601668596267700195e-01,1.395394057035446167e-01,1.512360274791717529e-01,9.914590418338775635e-02,1.677948683500289917e-01,1.700404286384582520e-01,-1.991081237792968750e-01,1.566520333290100098e-01,-4.756858572363853455e-02,9.293691813945770264e-02,-2.015151828527450562e-01,1.438091397285461426e-01,-1.109877601265907288e-01,3.990550339221954346e-02,-1.129899024963378906e-01,1.430699974298477173e-01,-1.591249853372573853e-01,1.157456338405609131e-01,-1.946460157632827759e-01,1.809272915124893188e-01,-2.790140211582183838e-01,1.367216557264328003e-01,2.260177880525588989e-01,-9.511732310056686401e-02,1.012139096856117249e-01,-3.653025254607200623e-02,1.792739033699035645e-01
-8.148687332868576050e-02,-8.657042682170867920e-02,-1.728814691305160522e-01,-1.836498528718948364e-01,1.557981874793767929e-02,1.267511993646621704e-01,-2.464435994625091553e-02,8.089429140090942383e-02,-1.012567758560180664e+00,8.056455105543136597e-02,1.864570975303649902e-01,-2.315065823495388031e-02,6.018919125199317932e-02,4.379217326641082764e-02,1.681231409311294556e-01,-6.288877874612808228e-02,3.510022535920143127e-02,4.468733817338943481e-02,3.114966154098510742e-01,-7.948344200849533081e-02,6.753484159708023071e-02,8.400702476501464844e-02,-5.259246006608009338e-02,-1.608321517705917358e-01,8.685003034770488739e-03,-4.387072101235389709e-02,1.897716149687767029e-02,1.091355606913566589e-01,4.414610192179679871e-02,-1.724031418561935425e-01,-6.272038817405700684e-02,-8.021242171525955200e-02,2.448428422212600708e-02,-6.008943319320678711e-01,-7.953577488660812378e-02,5.524427890777587891e-01,6.273595988750457764e-02,1.273830980062484741e-01,1.097084023058414459e-02,1.787053048610687256e-02
-6.644480675458908081e-02,1.288826465606689453e-01,-1.085315272212028503e-02,-1.129384860396385193e-01,-1.216604858636856079e-01,1.158679500222206116e-01,1.142878457903862000e-02,-1.379323601722717285e-01,-8.396881818771362305e-02,1.053957194089889526e-01,7.253115624189376831e-02,1.973241940140724182e-02,-4.261687770485877991e-02,4.938546195626258850e-02,-1.537111401557922363e-01,7.335488498210906982e-02,-8.393255621194839478e-02,-9.047207981348037720e-02,1.401576697826385498e-01,-1.624583750963211060e-01,-1.146545782685279846e-01,1.107494086027145386e-01,1.397250741720199585e-01,1.335894167423248291e-01,7.577162235975265503e-02,-7.183699309825897217e-02,6.307360250502824783e-03,-6.038958579301834106e-02,5.280683189630508423e-02,2.677253820002079010e-02,3.106718324124813080e-02,8.614597469568252563e-02,9.177798777818679810e-02,-1.552386134862899780e-01,-1.214178949594497681e-01,3.509565815329551697e-02,8.908081799745559692e-02,-5.113594979047775269e-02,-3.379709273576736450e-02,-1.191150248050689697e-01
8.384136855602264404e-02,1.277915835380554199e-01,-1.401548087596893311e-01,-2.366128265857696533e-01,1.811462044715881348e-01,6.650330871343612671e-02,-1.018448323011398315e-01,-1.231194138526916504e-01,-4.407920837402343750e-01,-1.307960450649261475e-01,6.805714964866638184e-02,8.927916735410690308e-02,8.661154657602310181e-02,-7.165791094303131104e-02,1.631604582071304321e-01,2.862831950187683105e-02,1.157411858439445496e-01,3.767873942852020264e-01,2.885545194149017334e-01,-9.238859266042709351e-02,1.879874430596828461e-02,-1.634262129664421082e-02,-1.344417780637741089e-02,7.585235685110092163e-02,1.211440563201904297e-01,-2.511638998985290527e-01,-4.509235918521881104e-02,-5.322573706507682800e-02,1.722023487091064453e-01,-2.156080305576324463e-01,7.199043035507202148e-02,-2.946802675724029541e-01,2.725428203120827675e-03,-2.595826387405395508e-01,7.486147433519363403e-02,2.131609022617340088e-01,3.541415557265281677e-02,-1.394921094179153442e-01,5.274592433124780655e-03,1.632063239812850952e-01
1.013135351240634918e-02,-9.140534698963165283e-02,1.106583476066589355e-01,-1.292088031768798828e+00,-1.458240598440170288e-01,1.997251212596893311e-01,-3.322700560092926025e-01,9.443275630474090576e-02,-1.073860526084899902e+00,1.080317497253417969e-01,9.301076084375381470e-02,3.327770531177520752e-02,-1.025034308433532715e+00,-3.311049461364746094e+00,-8.608136326074600220e-02,8.680424094200134277e-02,3.950300440192222595e-02,1.332343220710754395e+00,1.365223407745361328e+00,1.445526957511901855e+00,3.845350816845893860e-02,8.463238924741744995e-02,-2.451051920652389526e-01,9.914644956588745117e-01,-1.902110874652862549e-02,-3.289097547531127930e-02,-3.509375825524330139e-02,6.556327641010284424e-02,-7.316481322050094604e-03,2.254178673028945923e-01,-1.392961442470550537e-01,-1.145578980445861816e+00,1.241760402917861938e-01,2.666575610637664795e-01,-4.400898143649101257e-02,2.536080121994018555e+00,-1.640426516532897949e-01,-1.672925204038619995e-01,1.173272356390953064e-01,-2.121455594897270203e-02
-1.432510316371917725e-01,-8.611615747213363647e-02,-2.161919325590133667e-02,-1.400593817234039307e-01,1.227030605077743530e-01,1.208934187889099121e-01,-1.748572885990142822e-01,-2.693821676075458527e-02,-9.939929246902465820e-01,-2.202882990241050720e-02,-4.129100963473320007e-02,-2.733705565333366394e-02,1.142326369881629944e-01,-1.678514331579208374e-01,1.812712401151657104e-01,2.897228859364986420e-02,5.083411186933517456e-02,2.084083706140518188e-01,3.804580271244049072e-01,-1.802124679088592529e-01,1.005181223154067993e-01,3.108474984765052795e-02,6.066023185849189758e-02,5.766510218381881714e-02,4.004401713609695435e-02,-8.966311812400817871e-02,5.507076159119606018e-02,2.968924678862094879e-02,1.890406757593154907e-01,-6.295624375343322754e-02,-3.186994791030883789e-02,-1.726834177970886230e-01,5.258156359195709229e-02,-5.296511054039001465e-01,-2.909544482827186584e-02,1.014459580183029175e-01,-6.606783717870712280e-02,-1.179417520761489868e-01,7.541368156671524048e-02,1.608036607503890991e-01
-9.161456674337387085e-02,1.170606538653373718e-01,-1.164547577500343323e-01,-1.430302411317825317e-01,-1.011084839701652527e-01,-1.198414266109466553e-01,6.356536597013473511e-02,-9.576322883367538452e-02,-9.006630182266235352e-01,1.218867078423500061e-01,5.046081915497779846e-02,-1.244208961725234985e-01,1.089252829551696777e-01,-1.693778187036514282e-01,1.330973356962203979e-01,-6.548830866813659668e-02,6.551846861839294434e-02,1.486600190401077271e-01,3.714869618415832520e-01,5.346221849322319031e-02,1.426230464130640030e-02,1.356718242168426514e-01,8.557298034429550171e-02,-7.036004215478897095e-02,4.576190561056137085e-02,6.250344216823577881e-02,1.562756747007369995e-01,8.676988072693347931e-03,-2.586705237627029419e-02,-2.647838592529296875e-01,1.150229796767234802e-01,-5.361013114452362061e-02,1.280117779970169067e-01,-4.553461074829101562e-01,-1.447315663099288940e-01,1.830630898475646973e-01,4.892691224813461304e-02,2.013191021978855133e-02,-6.496893614530563354e-02,8.239269256591796875e-02
1.052570044994354248e-01,3.940044902265071869e-03,-1.096897646784782410e-01,-1.287627369165420532e-01,8.852840960025787354e-02,1.480578035116195679e-01,-1.059008389711380005e-01,-6.766949594020843506e-02,-1.043688431382179260e-01,-1.073686555027961731e-01,1.332083791494369507e-01,-1.156000606715679169e-02,-1.573683172464370728e-01,1.119722723960876465e-01,2.132714986801147461e-01,-1.399851292371749878e-01,5.089145153760910034e-02,-3.510366007685661316e-02,1.674907952547073364e-01,-4.764777421951293945e-02,7.789102196693420410e-02,1.165462359786033630e-01,1.230745539069175720e-01,-7.436918467283248901e-02,1.430874168872833252e-01,6.874843686819076538e-02,-8.573181182146072388e-02,1.458599790930747986e-02,1.462630033493041992e-01,-1.883874386548995972e-01,-2.931580506265163422e-02,-6.106717512011528015e-02,4.519968479871749878e-02,-6.662470847368240356e-02,5.135878548026084900e-02,-6.753865629434585571e-02,6.236048042774200439e-02,-1.277535557746887207e-01,-1.171564608812332153e-01,1.984978318214416504e-01
