1.375847309827804565e-01
1.192976757884025574e-01
1.167325526475906372e-01
1.463972181081771851e-01
9.228283911943435669e-02
1.397721767425537109e-01
8.743278682231903076e-02
1.536869853734970093e-01
-1.036157682538032532e-01
1.132014915347099304e-01
-4.992785304784774780e-02
-1.307640075683593750e-01
-1.316047906875610352e-01
1.356661766767501831e-01
2.610976099967956543e-01
-3.445632755756378174e-02
2.202980369329452515e-01
-9.329422563314437866e-02
-7.884265482425689697e-02
1.265532150864601135e-02
1.464730352163314819e-01
5.945243313908576965e-02
-7.850101590156555176e-02
1.659928262233734131e-01
2.097973525524139404e-01
8.701245486736297607e-02
5.183618888258934021e-02
9.000731259584426880e-02
-1.987461728276684880e-04
1.499902755022048950e-01
-1.177958585321903229e-02
6.503415107727050781e-02
-4.279998317360877991e-02
5.474076420068740845e-02
-3.305733576416969299e-02
5.563397705554962158e-02
5.290345754474401474e-03
-6.326451152563095093e-02
1.310507655143737793e-01
1.692881584167480469e-01
