-2.951718866825103760e-03
-1.287984549999237061e-01
1.358425170183181763e-01
-6.588125973939895630e-02
-5.707870796322822571e-02
-1.127433776855468750e-01
3.716183081269264221e-02
5.656220763921737671e-02
4.280917719006538391e-02
5.041063576936721802e-02
-1.394590083509683609e-02
2.293373644351959229e-01
-7.977534085512161255e-02
-4.727685824036598206e-02
-1.239136233925819397e-01
9.065243601799011230e-02
1.590108004165813327e-04
6.867840141057968140e-02
8.591620624065399170e-02
1.624204367399215698e-01
-3.572290018200874329e-02
8.642927743494510651e-03
8.146490156650543213e-02
1.725590080022811890e-01
2.008019573986530304e-02
9.834755212068557739e-03
7.951624691486358643e-02
-5.597864463925361633e-02
1.765703260898590088e-01
6.579808890819549561e-02
1.838907152414321899e-01
-5.199847277253866196e-03
-5.802557244896888733e-02
8.077394962310791016e-02
-5.413047969341278076e-03
1.966742798686027527e-02
-1.957305334508419037e-02
1.979332566261291504e-01
8.820804953575134277e-02
-4.460254311561584473e-02
