1.145989745855331421e-01,-1.588668487966060638e-02,7.634380459785461426e-02,9.806704521179199219e-02,-8.137463033199310303e-02,1.882627904415130615e-01,1.549501121044158936e-01,-4.155801981687545776e-02,8.795376121997833252e-02,1.438594423234462738e-02,-3.313285410404205322e-01,2.790674380958080292e-02,1.926390826702117920e-01,9.584752470254898071e-02,-7.109664380550384521e-02,1.079964190721511841e-01,-1.158980205655097961e-01,1.170291677117347717e-01,1.086902856826782227e+00,1.462218612432479858e-01,6.134816259145736694e-02,1.896782666444778442e-01,1.902488619089126587e-01,-1.409903168678283691e-01,-1.591140031814575195e-02,-3.232419490814208984e-01,-1.991549730300903320e-01,1.525016874074935913e-01,9.067599475383758545e-02,-3.091830387711524963e-02,-4.690423235297203064e-02,7.925174385309219360e-02,6.451132148504257202e-02,1.372279822826385498e-01,1.396902054548263550e-01,-9.035283327102661133e-02,1.149112880229949951e-01,-1.468569189310073853e-01,-2.795229256153106689e-01,6.418066471815109253e-02
-5.548109486699104309e-02,2.055754065513610840e-01,-1.583210587501525879e+00,-4.149274528026580811e-02,-2.727955766022205353e-02,1.499034184962511063e-02,1.127145141363143921e-01,-1.208666563034057617e+00,8.554929494857788086e-02,4.578759521245956421e-02,2.775467336177825928e-01,2.285933941602706909e-01,-3.483562171459197998e-01,-4.705632328987121582e-01,1.054114401340484619e-01,-9.297102093696594238e-01,-6.690437905490398407e-03,-1.400146931409835815e-01,-6.936544086784124374e-03,1.039617285132408142e-01,-5.682416558265686035e-01,-3.409816622734069824e-01,-1.048464626073837280e-01,-1.993055641651153564e-02,3.839004039764404297e-01,4.569391012191772461e-01,6.137461960315704346e-02,6.920961663126945496e-03,-2.148184031248092651e-01,2.688028151169419289e-03,1.269839406013488770e-01,2.010582480579614639e-03,4.740171507000923157e-02,-4.331998527050018311e-01,-4.274759441614151001e-03,5.092141404747962952e-02,-2.831668853759765625e-01,-6.741666048765182495e-02,6.762919574975967407e-02,-1.570819616317749023e-01
1.122804656624794006e-01,-3.254282474517822266e-02,-3.998340070247650146e-01,1.135739684104919434e-01,9.525590389966964722e-02,1.326061338186264038e-01,2.952366694808006287e-02,-4.087932705879211426e-01,3.384897708892822266e-01,-1.102706119418144226e-01,1.632456108927726746e-02,7.401190698146820068e-02,-1.709215692244470119e-03,1.045014485716819763e-01,-1.417950242757797241e-01,-1.913076341152191162e-01,1.223014593124389648e-01,-2.237070053815841675e-01,6.152769923210144043e-01,-1.879650726914405823e-02,4.405979439616203308e-02,-1.805440485477447510e-01,-2.767553627490997314e-01,-7.458391040563583374e-02,6.130908429622650146e-02,-3.473675996065139771e-02,-1.612398177385330200e-01,2.246103584766387939e-01,1.149414554238319397e-01,7.538983970880508423e-02,5.527802556753158569e-02,2.782377302646636963e-01,1.375955045223236084e-01,-2.060311287641525269e-01,3.480453044176101685e-02,-6.906200945377349854e-02,-2.471515387296676636e-01,9.375090897083282471e-02,3.312998414039611816e-01,6.518249213695526123e-02
-1.260923594236373901e-01,-2.652192674577236176e-02,6.174666807055473328e-02,-1.355722844600677490e-01,-1.201657578349113464e-02,-1.042087599635124207e-01,-1.381450593471527100e-01,2.794334106147289276e-02,-1.298934668302536011e-01,-7.778768986463546753e-02,-8.972738683223724365e-02,-8.018942177295684814e-02,-7.577244937419891357e-02,-3.800600767135620117e-02,8.330360054969787598e-02,1.133550256490707397e-01,9.811194241046905518e-02,-1.059633642435073853e-01,4.926211759448051453e-02,-5.481176078319549561e-02,-1.128465831279754639e-01,1.414914894849061966e-02,-3.535903617739677429e-02,1.433863192796707153e-01,8.640453964471817017e-02,-1.309387236833572388e-01,1.423454135656356812e-01,-8.956852555274963379e-02,2.201368845999240875e-02,8.316153287887573242e-02,1.334150321781635284e-02,-2.148074284195899963e-02,-1.191658750176429749e-01,1.464883536100387573e-01,-1.161549389362335205e-01,-2.710987254977226257e-02,-9.926538169384002686e-02,4.627283662557601929e-02,1.224441602826118469e-01,-1.109708026051521301e-01
-9.764575213193893433e-02,6.255785226821899414e-01,-1.143177866935729980e+00,-7.244034856557846069e-02,6.087756156921386719e-02,1.668888330459594727e-02,9.852992743253707886e-02,-2.964805066585540771e-01,-5.690038576722145081e-02,2.874178811907768250e-02,1.964188516139984131e-01,2.373774498701095581e-01,-1.973578929901123047e+00,-9.116023778915405273e-01,5.599113702774047852e-01,-5.284082293510437012e-01,1.300503760576248169e-01,-3.034333288669586182e-01,9.828884154558181763e-02,3.700139373540878296e-02,-1.236838459968566895e+00,-4.593464732170104980e-01,-7.685952782630920410e-01,8.846797794103622437e-02,4.240988492965698242e-01,6.136137843132019043e-01,5.379745736718177795e-03,-6.887819617986679077e-02,-8.572497963905334473e-02,1.701867207884788513e-02,-2.199816703796386719e-01,-2.225103229284286499e-01,1.388266980648040771e-01,-1.494600892066955566e+00,-7.174810022115707397e-02,-4.735822975635528564e-02,-2.791713178157806396e-01,1.427036076784133911e-01,3.591083526611328125e+00,1.022269353270530701e-01
1.675493665970861912e-03,2.909184433519840240e-02,1.295586526393890381e-01,-5.160358920693397522e-02,-3.088486008346080780e-02,-3.709283098578453064e-02,-1.217221096158027649e-01,-1.541239321231842041e-01,9.639720618724822998e-02,-3.797200694680213928e-02,-1.276795566082000732e-01,-1.463849693536758423e-01,1.331399530172348022e-01,-1.452623307704925537e-01,-1.443884372711181641e-01,-6.912608444690704346e-02,-6.564925890415906906e-03,8.938547223806381226e-02,-1.235392317175865173e-01,-1.016096621751785278e-01,-1.501228362321853638e-01,-1.299991458654403687e-01,1.271524578332901001e-01,1.106248199939727783e-01,1.304324567317962646e-01,2.142197266221046448e-02,-5.491903051733970642e-02,-9.167902916669845581e-02,-8.967624604701995850e-02,1.369037926197052002e-01,-2.946410514414310455e-02,-1.015484631061553955e-01,2.723342552781105042e-02,6.541231274604797363e-02,-3.515818715095520020e-02,4.359031468629837036e-02,-1.095929294824600220e-01,-1.543885469436645508e-01,1.645805127918720245e-02,-1.473516225814819336e-01
-1.407738327980041504e-01,-3.820094093680381775e-02,7.429651170969009399e-02,-4.260228946805000305e-02,-1.538803218863904476e-03,-1.299782842397689819e-01,-2.481118589639663696e-02,-8.215790241956710815e-02,4.448869824409484863e-02,6.306731700897216797e-02,-9.963745623826980591e-02,-7.482847571372985840e-02,1.354184560477733612e-02,3.794405236840248108e-02,-2.630411088466644287e-02,1.046848744153976440e-01,-2.646136470139026642e-02,-7.312019914388656616e-02,-1.568150073289871216e-01,-1.467062532901763916e-01,-2.342466078698635101e-02,6.146525591611862183e-02,3.741146624088287354e-02,1.274668574333190918e-01,-2.538917958736419678e-02,8.042552322149276733e-02,2.011242695152759552e-02,3.224154561758041382e-02,-6.831707805395126343e-02,-5.050367861986160278e-02,1.301328986883163452e-01,4.492606222629547119e-02,-1.048901751637458801e-01,-4.638027399778366089e-02,-1.033956259489059448e-01,-1.432136893272399902e-01,-6.828133761882781982e-02,-1.374467555433511734e-02,7.007648795843124390e-02,-1.184125319123268127e-01
4.399890452623367310e-02,2.248418331146240234e-01,-1.354940980672836304e-01,1.069162711501121521e-01,1.629773974418640137e-01,-1.187475919723510742e-01,-1.158529072999954224e-01,-2.564957737922668457e-01,-1.617259532213211060e-01,-7.623898983001708984e-02,1.949662566184997559e-01,-8.291473984718322754e-02,-4.003586769104003906e-01,-1.815742552280426025e-01,2.304782569408416748e-01,1.238515973091125488e-02,4.278298467397689819e-02,-1.371438950300216675e-01,7.251917719841003418e-01,-1.119675561785697937e-01,-1.541654914617538452e-01,-1.272661536931991577e-01,-5.984430387616157532e-02,-2.800335362553596497e-02,1.127835661172866821e-01,7.058369368314743042e-02,7.494831830263137817e-02,1.322149038314819336e-01,1.681372076272964478e-01,9.800131618976593018e-02,9.677583724260330200e-02,1.258394718170166016e-01,1.426848322153091431e-01,-3.042914271354675293e-01,-4.800285771489143372e-02,1.228846758604049683e-01,-6.973106414079666138e-02,-1.370903998613357544e-01,-3.583639264106750488e-01,9.241450577974319458e-02
7.013551890850067139e-02,2.874356806278228760e-01,1.893429830670356750e-02,5.690254736691713333e-03,2.120494395494461060e-01,2.866770140826702118e-02,-1.478174328804016113e-01,-1.121114715933799744e-01,1.574683934450149536e-02,3.753611072897911072e-02,5.020462274551391602e-01,1.641592979431152344e-01,-2.238750457763671875e-01,9.120678901672363281e-02,1.304884701967239380e-01,-2.680457830429077148e-01,1.367854028940200806e-01,2.935285866260528564e-02,1.229379698634147644e-01,-6.726973503828048706e-02,3.263531252741813660e-04,-1.430363953113555908e-01,-7.852210663259029388e-03,-1.405100524425506592e-01,9.798821061849594116e-02,6.554073840379714966e-02,7.287770509719848633e-02,3.531670896336436272e-03,-9.175962954759597778e-02,2.149319350719451904e-01,5.275998730212450027e-03,4.326297715306282043e-02,1.675337255001068115e-01,-3.106179833412170410e-01,-8.271084725856781006e-02,2.690285742282867432e-01,-1.736462349072098732e-03,4.643657431006431580e-02,-4.377651512622833252e-01,1.210674569010734558e-01
-1.313714385032653809e-01,-1.187970265746116638e-01,-2.007105387747287750e-02,-4.450055584311485291e-02,1.323364228010177612e-01,1.192896366119384766e-01,-1.491369903087615967e-01,-1.141191110946238041e-03,-1.002419888973236084e-01,5.310056731104850769e-02,4.027163609862327576e-03,5.533398315310478210e-02,1.540854722261428833e-01,1.576837301254272461e-01,-1.263270825147628784e-01,-2.962186932563781738e-02,2.915257588028907776e-02,-4.244750365614891052e-02,5.235455930233001709e-03,7.722555100917816162e-02,1.224094629287719727e-01,-1.379740238189697266e-01,-1.009491682052612305e-01,-1.261704266071319580e-01,-2.574670128524303436e-02,4.129634052515029907e-02,-8.119707554578781128e-02,-1.709869690239429474e-02,-8.595839142799377441e-02,-2.264798432588577271e-02,-1.508933007717132568e-01,3.101515956223011017e-02,-1.156650185585021973e-01,-6.707893311977386475e-02,-6.618946045637130737e-02,1.044877022504806519e-01,-9.674220532178878784e-02,-9.750553965568542480e-02,-1.190969645977020264e-01,-1.538471281528472900e-01
2.109878957271575928e-01,-4.783260226249694824e-01,5.888124555349349976e-02,5.554601084440946579e-03,8.735566586256027222e-02,2.916022017598152161e-02,2.578654699027538300e-02,5.314981564879417419e-02,1.783606857061386108e-01,-4.541857913136482239e-02,-1.620741039514541626e-01,-5.812055245041847229e-02,2.407550811767578125e-01,3.800057806074619293e-03,-6.951006054878234863e-01,2.159785181283950806e-01,-1.025315374135971069e-02,4.598392918705940247e-02,-6.086613982915878296e-02,1.097532212734222412e-01,3.823339343070983887e-01,1.475841701030731201e-01,3.028906136751174927e-02,1.542123109102249146e-01,-4.533576667308807373e-01,-2.929116785526275635e-01,1.370532512664794922e-01,2.466733455657958984e-01,1.536526829004287720e-01,-7.762973755598068237e-02,5.515347421169281006e-02,2.499717026948928833e-01,-1.432796418666839600e-01,2.581389844417572021e-01,1.468940731137990952e-02,1.283235996961593628e-01,8.193460106849670410e-02,-3.148170188069343567e-02,7.916828393936157227e-01,-5.276261270046234131e-02
-1.043082848191261292e-01,-1.993005350232124329e-02,2.793482840061187744e-01,-1.000909730792045593e-01,-3.321262449026107788e-02,2.039941102266311646e-01,6.830067932605743408e-02,1.782689839601516724e-01,2.893057465553283691e-01,2.701159566640853882e-02,5.672370642423629761e-02,-8.395208418369293213e-02,2.364488691091537476e-01,7.538057118654251099e-02,-2.727213129401206970e-02,2.207219600677490234e-01,-2.554188854992389679e-02,2.941875159740447998e-01,-1.602430492639541626e-01,-1.093519106507301331e-01,7.144373059272766113e-01,3.323489725589752197e-01,4.473729431629180908e-02,-6.334495544433593750e-02,-1.396457403898239136e-01,-2.232898920774459839e-01,4.997070133686065674e-02,1.141580641269683838e-01,-6.714574247598648071e-02,1.097145527601242065e-01,-3.739329427480697632e-02,-9.669288247823715210e-02,-1.045770347118377686e-01,2.475229352712631226e-01,-1.346681714057922363e-01,1.394500285387039185e-01,1.985918134450912476e-01,-1.310592740774154663e-01,-4.826902449131011963e-01,7.054115831851959229e-02
1.804711967706680298e-01,-1.123471278697252274e-02,-4.493439570069313049e-02,-1.558619141578674316e-01,1.934758871793746948e-01,7.762093096971511841e-02,1.045692786574363708e-01,-2.514992356300354004e-01,1.625938564538955688e-01,-1.457542777061462402e-01,2.823497951030731201e-01,2.120122760534286499e-01,-1.459040492773056030e-01,9.858995676040649414e-03,1.900035142898559570e-02,-2.680295109748840332e-01,2.540547549724578857e-01,-1.120408773422241211e-01,1.423410892486572266e+00,1.666785567067563534e-03,-8.561284840106964111e-02,-1.497758030891418457e-01,-2.045099139213562012e-01,-8.911617845296859741e-02,4.296458885073661804e-02,8.963038027286529541e-02,5.697405338287353516e-02,-7.183498889207839966e-02,1.766277551651000977e-01,1.152316555380821228e-01,7.953459769487380981e-02,1.001744344830513000e-01,-6.396647542715072632e-02,-1.425042748451232910e-01,-1.258877962827682495e-01,2.116021215915679932e-01,-1.211896464228630066e-01,4.830669984221458435e-02,-2.183462120592594147e-02,1.109285056591033936e-01
1.326810866594314575e-01,1.907057464122772217e-01,-1.036774460226297379e-02,6.255076825618743896e-02,4.573496803641319275e-02,-3.206522762775421143e-01,2.267056331038475037e-02,2.281114272773265839e-02,-1.568892896175384521e-01,8.088655769824981689e-02,2.333171814680099487e-01,1.342991441488265991e-01,-2.510280907154083252e-01,-4.532070830464363098e-02,1.798049360513687134e-01,-2.356429994106292725e-01,1.622779220342636108e-01,-1.989187449216842651e-01,2.884983122348785400e-01,1.897479780018329620e-02,-3.839457631111145020e-01,2.022901177406311035e-02,-2.702934741973876953e-01,1.284313797950744629e-01,3.673074766993522644e-02,3.195550739765167236e-01,1.381025761365890503e-01,1.467524766921997070e-01,-7.617206126451492310e-02,1.363346278667449951e-01,1.479054614901542664e-02,9.877875447273254395e-02,1.771555840969085693e-01,-3.748164176940917969e-01,-3.961404412984848022e-02,4.554350972175598145e-01,3.187748044729232788e-02,3.617054782807826996e-03,-5.612148046493530273e-01,-1.351887732744216919e-01
6.794837117195129395e-02,4.441455602645874023e-01,-1.345824003219604492e-01,-1.290358006954193115e-01,1.275331974029541016e-01,-5.456352606415748596e-02,3.931606560945510864e-02,-3.852191939949989319e-02,3.110663034021854401e-02,-6.428637355566024780e-02,8.337968587875366211e-02,1.685472279787063599e-01,-1.589986681938171387e-01,-3.578735888004302979e-02,5.891516208648681641e-01,-1.161512956023216248e-01,7.746773213148117065e-02,-2.377044260501861572e-01,-6.688732504844665527e-01,1.520672887563705444e-01,-3.823948800563812256e-01,-2.937356531620025635e-01,-3.383870124816894531e-01,7.757973670959472656e-02,1.327060610055923462e-01,2.110944241285324097e-01,-1.759067475795745850e-01,-2.989465184509754181e-02,-8.891963958740234375e-02,-1.655949205160140991e-01,1.891921311616897583e-01,-1.184086576104164124e-01,1.403029710054397583e-01,2.691811323165893555e-01,-3.443353250622749329e-02,1.776053607463836670e-01,9.412660449743270874e-02,8.313640952110290527e-02,-1.988413482904434204e-01,1.372610032558441162e-01
6.917917728424072266e-02,-3.773312270641326904e-02,1.454268991947174072e-01,1.491129696369171143e-01,-9.555786103010177612e-02,2.246489375829696655e-01,1.300622373819351196e-01,1.854432933032512665e-02,3.153217434883117676e-01,-5.182977393269538879e-02,1.052770018577575684e-02,-1.643586158752441406e-01,3.060923516750335693e-01,1.852785348892211914e-01,2.304835431277751923e-02,9.862699359655380249e-02,-2.012024819850921631e-02,2.717033028602600098e-01,3.307311832904815674e-01,-8.852103352546691895e-02,1.330623269081115723e+00,1.596364080905914307e-01,2.286882251501083374e-01,4.415279626846313477e-02,1.045885607600212097e-01,1.621726155281066895e-02,5.217562615871429443e-02,-5.479301512241363525e-02,1.434927433729171753e-01,-7.786462455987930298e-02,-1.426675170660018921e-01,1.189047545194625854e-01,-1.813276261091232300e-01,3.057264685630798340e-01,-6.593345850706100464e-02,-1.387400478124618530e-01,8.123718202114105225e-02,-7.136471569538116455e-02,-3.789503276348114014e-01,1.533588171005249023e-01
1.680475026369094849e-01,2.292687296867370605e-01,-9.866534918546676636e-02,6.079622358083724976e-02,8.960963040590286255e-02,-1.769547015428543091e-01,2.147527784109115601e-02,4.621050134301185608e-02,-5.085907410830259323e-03,-9.277205914258956909e-02,4.757662415504455566e-01,1.380696296691894531e-01,-2.629953324794769287e-01,5.741749424487352371e-03,-3.026507096365094185e-03,-6.347191333770751953e-02,1.516429483890533447e-01,-2.751913964748382568e-01,-4.121587753295898438e+00,1.332218386232852936e-02,-2.363016158342361450e-01,-2.327792942523956299e-01,-1.442782282829284668e-01,2.704237587749958038e-02,2.159132808446884155e-01,1.291172355413436890e-01,1.697998195886611938e-01,1.699258014559745789e-02,-9.929668158292770386e-03,-2.023430075496435165e-03,6.864021532237529755e-03,1.937155276536941528e-01,-7.804044336080551147e-02,-8.895669132471084595e-02,-5.601230636239051819e-02,1.841508597135543823e-01,-1.232596486806869507e-01,-1.360661834478378296e-01,-1.329148113727569580e-01,-9.572660783305764198e-04
-2.810317650437355042e-02,1.183039620518684387e-01,4.710526764392852783e-02,8.922291547060012817e-02,1.268480569124221802e-01,-1.175171658396720886e-01,-7.076404988765716553e-02,1.271039545536041260e-01,-7.425311952829360962e-02,4.996926337480545044e-02,-6.449276208877563477e-02,1.310564130544662476e-01,1.171398311853408813e-01,4.906360432505607605e-02,-6.598614156246185303e-02,-1.058754920959472656e-01,-1.538110375404357910e-01,-4.779925569891929626e-02,-1.517792642116546631e-01,-1.523959916085004807e-02,5.382173694670200348e-03,-1.012748703360557556e-01,-3.293189778923988342e-02,4.831274971365928650e-02,-9.724207222461700439e-02,-1.113653276115655899e-02,-1.221697404980659485e-02,-1.225130707025527954e-01,7.033465430140495300e-03,-7.164267450571060181e-02,-1.412203758955001831e-01,6.958947330713272095e-02,2.868480747565627098e-03,-1.390073895454406738e-01,-1.859492249786853790e-02,1.104560866951942444e-01,-1.056751236319541931e-01,1.250637471675872803e-01,6.959198415279388428e-02,-1.045868098735809326e-01
1.923467814922332764e-01,-5.360977351665496826e-02,-2.874931395053863525e-01,8.248957991600036621e-02,1.330273598432540894e-02,1.342736333608627319e-01,-1.103182658553123474e-01,4.513401985168457031e-01,7.536231875419616699e-01,8.280565589666366577e-02,-2.943498492240905762e-01,-7.850412279367446899e-02,2.834471166133880615e-01,6.139738857746124268e-02,-3.144353255629539490e-02,1.401832103729248047e-01,-1.914140433073043823e-01,1.393921375274658203e-01,3.564010858535766602e-01,1.492295563220977783e-01,-3.577365353703498840e-02,-9.236028790473937988e-02,1.344514638185501099e-01,-7.080943137407302856e-02,-2.252287417650222778e-01,-5.868815183639526367e-01,-2.282538414001464844e-01,8.018829673528671265e-02,-1.537213381379842758e-02,-2.788786292076110840e-01,3.048553466796875000e-01,2.569930851459503174e-01,-1.608050763607025146e-01,6.748389601707458496e-01,-9.044512361288070679e-02,-1.125192418694496155e-01,1.357170343399047852e-01,1.542237251996994019e-01,-9.018507003784179688e-01,9.956364333629608154e-02
-1.280153095722198486e-01,-1.207364909350872040e-02,1.416346430778503418e-01,-5.850166548043489456e-03,-1.549186855554580688e-01,1.138252019882202148e-01,-3.469173982739448547e-02,7.943102717399597168e-02,1.115007549524307251e-01,-2.909960970282554626e-02,-4.698461666703224182e-02,3.254244849085807800e-02,1.571182161569595337e-01,4.476119205355644226e-02,7.858332991600036621e-02,-6.466604024171829224e-02,-1.354847103357315063e-01,-1.481704115867614746e-01,-1.560739874839782715e-01,1.680362224578857422e-02,1.304375529289245605e-01,-5.715611949563026428e-02,-1.576972752809524536e-01,-9.465914964675903320e-02,-1.411994844675064087e-01,-3.797912970185279846e-02,9.305776655673980713e-02,-1.468955725431442261e-01,-1.198003962635993958e-01,2.317657507956027985e-02,4.967102035880088806e-02,-1.554416865110397339e-01,1.363252662122249603e-02,1.424631383270025253e-02,-1.515672206878662109e-01,-1.226466521620750427e-01,-1.116840764880180359e-01,5.364561453461647034e-02,4.722327739000320435e-02,-1.062163859605789185e-01
8.267725259065628052e-02,3.719578683376312256e-02,1.931439042091369629e-01,8.432432264089584351e-02,1.607970148324966431e-01,3.316031098365783691e-01,-5.432348698377609253e-02,2.499939650297164917e-01,1.934226751327514648e-01,2.700237743556499481e-02,-6.386724710464477539e-01,2.368543446063995361e-01,-8.126426935195922852e-01,1.414906084537506104e-01,2.459473535418510437e-02,2.298012971878051758e-01,4.680701717734336853e-02,1.624666154384613037e-01,-4.844514131546020508e-01,-6.145004555583000183e-02,4.518912136554718018e-01,4.109020531177520752e-01,1.471378207206726074e-01,7.616771012544631958e-02,-5.826248228549957275e-02,-1.952913850545883179e-01,1.242317482829093933e-01,-3.952100500464439392e-02,8.849567919969558716e-02,3.468157351016998291e-01,-2.045435309410095215e-01,3.400396183133125305e-02,8.138877898454666138e-02,-8.993915319442749023e-01,1.425105184316635132e-01,-3.889264166355133057e-01,-1.015326455235481262e-01,1.350912451744079590e-02,4.246184527873992920e-01,-7.536769658327102661e-02
-4.462755750864744186e-03,1.490361690521240234e-01,1.311408877372741699e-01,-4.069470986723899841e-02,-9.145761281251907349e-02,-6.196934357285499573e-02,5.990095064043998718e-02,1.102916300296783447e-01,-1.048668995499610901e-01,-1.061696559190750122e-01,-1.314101368188858032e-01,-5.919804796576499939e-02,-1.298680752515792847e-01,3.117299824953079224e-02,1.188476756215095520e-02,6.227101664990186691e-03,-1.295947581529617310e-01,1.181159466505050659e-01,1.248325482010841370e-01,-9.463210403919219971e-02,1.607387885451316833e-02,1.309775859117507935e-01,-3.335533291101455688e-02,5.357661098241806030e-02,5.928516760468482971e-02,1.054572910070419312e-01,-1.205261796712875366e-01,-1.004317328333854675e-01,-1.825817115604877472e-02,-5.193673819303512573e-02,7.982745766639709473e-02,1.258239895105361938e-01,-1.396015379577875137e-02,-1.463911961764097214e-02,-9.403084963560104370e-02,-1.539696753025054932e-01,-1.462410986423492432e-01,1.393939107656478882e-01,-9.498979151248931885e-02,1.060134023427963257e-01
1.555386781692504883e-01,-2.598213553428649902e-01,-5.397016406059265137e-01,-1.174993887543678284e-01,-1.229177461937069893e-03,3.354188799858093262e-01,1.950346492230892181e-02,-2.572254240512847900e-01,7.001668214797973633e-01,-1.313480883836746216e-01,5.201023221015930176e-01,1.086319759488105774e-01,7.745068287476897240e-04,-2.053996026515960693e-01,-4.094489216804504395e-01,-1.214382350444793701e-01,1.359739154577255249e-01,-1.007382795214653015e-01,7.991000413894653320e-01,6.502480246126651764e-03,5.449951887130737305e-01,5.004830192774534225e-03,-1.142742931842803955e-01,-2.261145412921905518e-02,-3.087215423583984375e-01,-1.619610339403152466e-01,1.378667652606964111e-01,1.220396682620048523e-01,9.746123850345611572e-02,-5.487215146422386169e-02,-8.429535478353500366e-02,2.691486179828643799e-01,7.196582108736038208e-02,3.356986045837402344e-01,-1.635587215423583984e-02,-2.249149978160858154e-01,-2.614323794841766357e-01,-1.054765954613685608e-01,4.652658700942993164e-01,1.419882029294967651e-01
1.146880816668272018e-02,2.770563662052154541e-01,3.236289918422698975e-01,1.309087872505187988e-01,-1.083691269159317017e-01,1.074081584811210632e-01,6.740648299455642700e-02,1.782917529344558716e-01,1.583394259214401245e-01,-1.383835524320602417e-01,-8.226568996906280518e-02,-1.240799874067306519e-01,4.229850471019744873e-01,1.307284086942672729e-01,5.134471654891967773e-01,1.871010363101959229e-01,-1.643440723419189453e-01,4.285135492682456970e-02,5.340971946716308594e-01,1.266073882579803467e-01,2.590537667274475098e-01,1.270538717508316040e-01,-6.968741863965988159e-02,1.295704692602157593e-01,2.707797288894653320e-01,1.431171596050262451e-01,-2.435979396104812622e-01,-9.772719442844390869e-02,-3.403974696993827820e-02,-1.395474374294281006e-01,1.449747942388057709e-02,1.156730800867080688e-01,7.975334674119949341e-02,5.156076550483703613e-01,-6.902524270117282867e-03,4.829031229019165039e-02,7.769886404275894165e-02,-7.180125266313552856e-02,-7.550512552261352539e-01,1.236742436885833740e-01
-9.004621952772140503e-02,-1.850500851869583130e-01,-4.760026633739471436e-01,-1.193837262690067291e-02,-1.006458178162574768e-01,1.161199435591697693e-01,5.794463306665420532e-02,5.028278231620788574e-01,5.891364812850952148e-01,4.503449890762567520e-03,-1.700405031442642212e-01,-1.733356863260269165e-01,2.025068104267120361e-01,-2.100131474435329437e-02,-8.938521146774291992e-02,3.806492686271667480e-02,-1.966998279094696045e-01,8.562717586755752563e-02,1.973707526922225952e-01,4.051402956247329712e-02,6.879694461822509766e-01,4.454415664076805115e-02,1.152026280760765076e-01,-9.340401738882064819e-02,-1.953586786985397339e-01,-4.826539158821105957e-01,-2.808575928211212158e-01,-1.925783790647983551e-02,1.692245155572891235e-01,-3.813274800777435303e-01,2.968570590019226074e-01,1.843602210283279419e-01,-5.190048366785049438e-02,4.750348627567291260e-01,-3.546651080250740051e-02,1.013067066669464111e-01,1.296101808547973633e-01,-1.452805399894714355e-01,-2.159549593925476074e-01,1.379638314247131348e-01
1.198580265045166016e-01,-6.803274899721145630e-02,-4.808783903717994690e-02,-1.554446667432785034e-01,-9.009594470262527466e-02,1.401696503162384033e-01,7.752277702093124390e-02,-1.493778228759765625e-01,3.461178019642829895e-02,1.081854850053787231e-01,-1.107002720236778259e-01,2.086690515279769897e-01,-9.617618918418884277e-01,-1.370041847229003906e+00,-1.049806643277406693e-02,-1.650515049695968628e-01,3.101324290037155151e-02,-4.297823011875152588e-01,1.052675247192382812e-01,1.464623063802719116e-01,-2.768638432025909424e-01,-6.787528395652770996e-01,-1.852650493383407593e-01,-3.238688781857490540e-02,2.493946552276611328e-01,2.422484457492828369e-01,8.288254588842391968e-02,3.688696399331092834e-02,-1.729134172201156616e-01,-4.244787618517875671e-02,4.217817783355712891e-01,-1.363937556743621826e-01,3.377637267112731934e-02,-1.893589794635772705e-01,9.272137656807899475e-03,-7.736533880233764648e-02,-3.608705103397369385e-01,-3.950675600208342075e-04,1.008351683616638184e+00,-9.032251313328742981e-03
8.135537616908550262e-03,2.791406400501728058e-02,-1.842052489519119263e-01,8.928915113210678101e-02,1.384710073471069336e-01,-2.733065560460090637e-02,-5.455462634563446045e-02,-1.318693906068801880e-01,-2.200712263584136963e-01,1.575079709291458130e-01,2.947325706481933594e-01,8.932020515203475952e-02,-3.472728133201599121e-01,-8.434400707483291626e-02,1.093575730919837952e-01,-3.980323672294616699e-02,1.115547716617584229e-01,-1.899168789386749268e-01,6.596050858497619629e-01,5.654709786176681519e-02,-3.393282592296600342e-01,2.899519912898540497e-02,-1.059614047408103943e-01,1.073316410183906555e-01,7.695489376783370972e-02,2.221535593271255493e-01,4.758860915899276733e-02,1.062170341610908508e-01,9.755554050207138062e-02,1.683228015899658203e-01,2.399973198771476746e-02,6.787312030792236328e-02,4.622746258974075317e-02,-6.277076900005340576e-02,1.477043926715850830e-01,4.377848282456398010e-02,-1.734594851732254028e-01,-1.283820569515228271e-01,5.593755468726158142e-02,-1.096801087260246277e-01
-8.861570805311203003e-02,-1.508890464901924133e-02,-1.137450635433197021e-01,-2.031442709267139435e-02,-2.302889479324221611e-03,-8.656950294971466064e-02,1.665177755057811737e-02,3.509745746850967407e-02,-7.963996380567550659e-02,-6.481115520000457764e-02,6.079475581645965576e-02,9.327139705419540405e-02,7.862281799316406250e-02,-6.131216883659362793e-02,7.172359526157379150e-02,1.345773488283157349e-01,-9.833642840385437012e-02,-8.213829994201660156e-02,1.115645393729209900e-01,1.170987412333488464e-01,1.552130877971649170e-01,-8.488432317972183228e-02,-8.600240573287010193e-03,-1.542675644159317017e-01,-1.397447288036346436e-01,4.335210472345352173e-02,1.289759725332260132e-01,-1.407914515584707260e-02,-1.699953526258468628e-02,8.527552336454391479e-02,-1.174667477607727051e-01,5.957760289311408997e-02,-1.440381854772567749e-01,-1.221602484583854675e-01,-5.298881325870752335e-03,7.396537810564041138e-02,-8.419299125671386719e-02,-1.262045949697494507e-01,1.067104656249284744e-02,-7.125158607959747314e-02
2.074498087167739868e-01,1.291895955801010132e-01,7.785417139530181885e-02,-8.870335668325424194e-02,1.773217916488647461e-01,-1.380147039890289307e-01,8.943909406661987305e-02,-1.494337171316146851e-01,9.610576927661895752e-02,5.950492247939109802e-02,3.241209685802459717e-01,1.274739950895309448e-01,-3.216213583946228027e-01,-1.525720348581671715e-03,1.593381464481353760e-01,-5.068226903676986694e-02,1.008704602718353271e-01,-1.417656391859054565e-01,1.671307832002639771e-01,2.052051713690161705e-03,-1.005895435810089111e-01,-2.091866582632064819e-01,-2.379442453384399414e-01,8.839469403028488159e-02,-2.014930825680494308e-03,1.322570443153381348e-01,1.932078152894973755e-01,-8.058059960603713989e-02,5.564555153250694275e-02,2.139952927827835083e-01,1.631438434123992920e-01,-1.374551951885223389e-01,4.618122801184654236e-02,-3.534746170043945312e-01,-3.506695851683616638e-02,2.961669266223907471e-01,-1.668226867914199829e-01,-1.180073991417884827e-01,-1.005158647894859314e-01,9.984167665243148804e-02
1.970818489789962769e-01,3.075170516967773438e-01,3.841174542903900146e-01,4.094643518328666687e-02,-1.932650655508041382e-01,-2.846572875976562500e+00,-3.417930006980895996e-02,3.253139927983283997e-02,-2.982533276081085205e-01,1.564167886972427368e-01,-8.349912762641906738e-01,4.915557801723480225e-01,3.917441368103027344e-01,-9.053671360015869141e-02,5.321819782257080078e-01,-1.643551439046859741e-01,-2.175403945147991180e-02,9.127442538738250732e-02,7.564893364906311035e-01,-1.566996984183788300e-02,-9.533568620681762695e-01,-1.842746585607528687e-01,6.600222587585449219e-01,-4.299317300319671631e-02,1.095298886299133301e+00,8.820185661315917969e-01,-6.281073093414306641e-01,2.530852258205413818e-01,-1.181084848940372467e-02,-5.099670290946960449e-01,2.502568960189819336e-01,1.950964927673339844e-01,3.473053574562072754e-01,1.376069664955139160e+00,1.106403693556785583e-01,-3.769259154796600342e-01,1.111155748367309570e-01,1.011437084525823593e-02,6.139506697654724121e-01,-3.882198408246040344e-02
9.220880270004272461e-02,-2.066374421119689941e-01,1.719073355197906494e-01,-1.474740505218505859e-01,5.527739226818084717e-02,2.004305422306060791e-01,7.669842988252639771e-02,1.905446797609329224e-01,1.847042590379714966e-01,-3.903222456574440002e-02,-1.097410023212432861e-01,-2.008841484785079956e-01,3.260594606399536133e-01,2.426559925079345703e-01,-1.798006296157836914e-01,1.823768205940723419e-02,-4.430342931300401688e-03,5.052241310477256775e-02,5.371964573860168457e-01,-6.958466768264770508e-02,2.427872568368911743e-01,1.832575201988220215e-01,1.156089976429939270e-01,-1.055919453501701355e-01,-1.309414654970169067e-01,-1.450550854206085205e-01,-5.166000127792358398e-02,-3.119586594402790070e-02,2.564753592014312744e-02,-3.500713780522346497e-02,1.572842895984649658e-01,1.002944856882095337e-01,9.277760051190853119e-03,2.688376009464263916e-01,1.071994006633758545e-02,-1.353189349174499512e-01,1.824691593647003174e-01,-4.947112873196601868e-02,-5.994265675544738770e-01,-8.032239973545074463e-02
1.515878885984420776e-01,-7.445184141397476196e-02,2.288783639669418335e-01,-9.362941235303878784e-02,4.185589030385017395e-03,2.853006422519683838e-01,-9.852924942970275879e-02,6.130459532141685486e-02,1.769017130136489868e-01,-9.114201366901397705e-02,-1.572523713111877441e-01,-2.371701039373874664e-02,1.789544075727462769e-01,1.895919889211654663e-01,-8.796449750661849976e-02,-1.195033043622970581e-01,-1.973059028387069702e-01,3.268076181411743164e-01,2.943280041217803955e-01,-1.573354750871658325e-01,1.281242609024047852e+00,8.132109045982360840e-02,1.955698281526565552e-01,1.360405385494232178e-01,-4.399413242936134338e-02,-1.570803672075271606e-01,-1.278847157955169678e-01,5.148477852344512939e-02,1.648944765329360962e-01,-2.315659448504447937e-02,-4.565634205937385559e-02,-5.147594586014747620e-02,-1.507582962512969971e-01,2.142463028430938721e-01,7.922535389661788940e-02,1.969109624624252319e-01,3.812168911099433899e-02,1.742291264235973358e-02,4.902372360229492188e-01,1.164965704083442688e-01
1.236318424344062805e-01,5.886094644665718079e-02,1.098723933100700378e-01,6.502687931060791016e-03,-1.441912204027175903e-01,-2.438974007964134216e-02,-2.006232738494873047e-02,7.859291881322860718e-02,-9.586530178785324097e-02,-1.404055058956146240e-01,1.092558577656745911e-01,3.455866500735282898e-02,-2.528030984103679657e-02,-5.432716384530067444e-02,-1.439371705055236816e-01,1.126484423875808716e-01,4.083674866706132889e-03,-1.453057378530502319e-01,-9.396288543939590454e-02,-9.488501586019992828e-03,-8.043552190065383911e-02,7.872599363327026367e-02,-8.588330447673797607e-02,-4.620626196265220642e-02,1.668246649205684662e-02,-9.101704508066177368e-02,9.051216766238212585e-03,-3.636484593152999878e-02,-1.474021524190902710e-01,-8.939882367849349976e-02,-7.986609637737274170e-02,-1.319700181484222412e-01,1.977670006453990936e-02,-1.221483722329139709e-01,8.663552999496459961e-02,8.869410306215286255e-02,-6.000124663114547729e-02,-6.591178476810455322e-02,1.424372047185897827e-01,-1.525295376777648926e-01
7.800556719303131104e-02,-1.581441797316074371e-02,2.481237053871154785e-02,1.683389395475387573e-02,-5.003840848803520203e-02,2.589812278747558594e-01,1.267535090446472168e-01,5.983000621199607849e-02,1.797155737876892090e-01,-8.154224604368209839e-02,-1.858422011137008667e-01,-3.286546841263771057e-02,2.871433496475219727e-01,1.573549658060073853e-01,-1.181769073009490967e-01,7.543405890464782715e-02,-3.955001384019851685e-02,7.949107140302658081e-02,1.203108668327331543e+00,-3.655430674552917480e-02,9.101691097021102905e-02,-3.851511701941490173e-02,2.093427926301956177e-01,8.870578557252883911e-02,-1.015344411134719849e-01,2.721759304404258728e-02,-2.179482877254486084e-01,1.794609278440475464e-01,-1.622777245938777924e-02,-2.525868415832519531e-01,7.428847253322601318e-02,1.443925499916076660e-01,-1.611332297325134277e-01,3.618779480457305908e-01,-5.723283067345619202e-02,7.253126055002212524e-02,1.533274948596954346e-01,-1.105955690145492554e-01,1.022699475288391113e-01,7.000510394573211670e-02
2.105291634798049927e-01,-5.955956876277923584e-03,-2.099682688713073730e-01,-6.599603593349456787e-02,-6.077972427010536194e-02,-2.079473137855529785e-01,-1.458254307508468628e-01,-1.719285547733306885e-01,-6.019378080964088440e-02,-1.364616602659225464e-01,2.376607358455657959e-01,-9.117110818624496460e-02,-2.257161736488342285e-01,-4.435721412301063538e-02,-2.642107382416725159e-02,-3.578706085681915283e-02,2.544895559549331665e-02,-1.111669838428497314e-01,8.889960050582885742e-01,9.229224920272827148e-02,-5.926442146301269531e-01,-2.816046774387359619e-01,-9.635189175605773926e-02,-2.082731761038303375e-02,3.691042959690093994e-02,1.592628806829452515e-01,7.500386983156204224e-02,1.414042860269546509e-01,1.171480119228363037e-02,1.975210458040237427e-01,-6.725871935486793518e-03,7.427003234624862671e-02,2.003816664218902588e-01,-2.448813468217849731e-01,-3.464964916929602623e-03,1.458291411399841309e-01,-1.488004624843597412e-01,-1.440706104040145874e-01,1.669520884752273560e-01,-7.171699404716491699e-02
-2.714961208403110504e-02,-1.063738483935594559e-02,-2.051135338842868805e-02,2.501818118616938591e-03,-6.164051964879035950e-02,6.467030197381973267e-02,1.544094383716583252e-01,-7.908059656620025635e-02,-5.527094006538391113e-02,1.105591878294944763e-01,1.175111979246139526e-01,2.232390493154525757e-01,-7.605196237564086914e-01,-5.430317521095275879e-01,1.353709697723388672e-01,1.706290245056152344e-02,8.895905315876007080e-02,-2.885037064552307129e-01,4.391494765877723694e-02,-5.164076108485460281e-03,3.082199720665812492e-03,-4.197745919227600098e-01,6.065025180578231812e-02,2.414200268685817719e-02,1.002431511878967285e-01,1.392221599817276001e-01,1.878730207681655884e-02,-5.135809257626533508e-02,3.176565468311309814e-02,1.355196721851825714e-02,2.205246090888977051e-01,-8.107628673315048218e-02,1.759818196296691895e-01,-5.984581708908081055e-01,1.456557810306549072e-01,-3.242064714431762695e-01,-2.195302695035934448e-01,-1.573418825864791870e-01,5.367060303688049316e-01,1.085131838917732239e-01
1.792814433574676514e-01,4.204888641834259033e-01,-3.077943325042724609e-01,1.309425830841064453e-01,1.147725209593772888e-01,-1.588144451379776001e-01,-1.459222733974456787e-01,-3.202639520168304443e-01,1.009480059146881104e-01,1.655802503228187561e-02,-3.001023232936859131e-01,2.641208171844482422e-01,5.836281180381774902e-01,7.418906688690185547e-02,6.094266772270202637e-01,-2.257760465145111084e-01,1.940621584653854370e-01,-3.959342837333679199e-02,1.994313716888427734e+00,6.236479058861732483e-02,-3.559390902519226074e-01,-9.047900885343551636e-02,-4.812757670879364014e-01,6.819418817758560181e-02,2.703616619110107422e-01,4.193441569805145264e-01,-3.150856196880340576e-01,2.273291200399398804e-01,-6.160434707999229431e-02,-4.484298825263977051e-02,1.326297670602798462e-01,3.265249356627464294e-02,5.088369920849800110e-02,1.278787255287170410e+00,2.434104494750499725e-02,-2.693801820278167725e-01,1.378782838582992554e-01,4.159175604581832886e-02,-1.296366930007934570e+00,5.696116760373115540e-02
3.103086538612842560e-02,7.347095757722854614e-02,3.494790494441986084e-01,-5.277386307716369629e-02,9.503576904535293579e-02,1.032730117440223694e-01,3.849134221673011780e-02,3.485617339611053467e-01,-2.669702656567096710e-02,5.720429494976997375e-02,1.265823543071746826e-01,1.238712947815656662e-02,-4.211761802434921265e-02,2.584064379334449768e-02,7.201244682073593140e-02,1.815645024180412292e-02,-4.742391780018806458e-02,5.915220454335212708e-02,5.757906436920166016e-01,9.919286705553531647e-03,4.389944672584533691e-01,1.794579923152923584e-01,1.539139002561569214e-01,-1.248950697481632233e-02,5.552790313959121704e-02,-1.784718036651611328e-01,9.855306148529052734e-02,1.328441500663757324e-02,1.492878049612045288e-01,-5.354489013552665710e-02,1.061153691262006760e-02,2.844003494828939438e-03,-2.106468230485916138e-01,2.051717638969421387e-01,-6.742649711668491364e-03,1.030754745006561279e-01,1.172958686947822571e-01,-1.130740717053413391e-01,-5.240401625633239746e-01,1.536082625389099121e-01
-2.791874296963214874e-02,3.399684652686119080e-02,-1.042685061693191528e-01,3.975044935941696167e-02,-9.676228463649749756e-02,-4.569793492555618286e-02,-1.465785503387451172e-02,-7.919427007436752319e-02,2.480449527502059937e-02,-1.274623870849609375e-01,1.389673799276351929e-01,3.883248567581176758e-02,-1.266127526760101318e-01,1.258131712675094604e-01,2.923023141920566559e-02,-1.212772056460380554e-01,-1.008203923702239990e-01,-1.237222105264663696e-01,-1.539835482835769653e-01,1.498544067144393921e-01,-9.801524877548217773e-02,1.117228865623474121e-01,3.913332894444465637e-02,-3.092992678284645081e-02,1.043267548084259033e-01,-5.973468720912933350e-02,-1.624151878058910370e-02,-1.553522944450378418e-01,8.257976919412612915e-02,-1.277676075696945190e-01,-7.508879154920578003e-02,1.221768856048583984e-01,-1.344232857227325439e-01,-4.539929702877998352e-02,-1.411616057157516479e-01,-9.845428913831710815e-02,1.210226193070411682e-01,-9.922382235527038574e-02,-1.228963434696197510e-01,-2.374627441167831421e-02
-1.429107487201690674e-01,-3.212619340047240257e-03,-3.222343325614929199e-02,5.764742568135261536e-02,1.353830397129058838e-01,-3.599099442362785339e-02,1.247651651501655579e-01,1.535024493932723999e-01,1.285213977098464966e-01,1.160703599452972412e-01,1.481921076774597168e-01,5.266548320651054382e-02,1.318694800138473511e-01,1.020915657281875610e-01,7.267452776432037354e-02,-4.677803441882133484e-02,-3.355884179472923279e-02,-7.677508890628814697e-02,3.736868873238563538e-02,9.685937315225601196e-02,-5.250906571745872498e-02,9.323864243924617767e-03,-1.358803957700729370e-01,4.950588569045066833e-02,1.041949838399887085e-01,2.517914865165948868e-03,-1.165030617266893387e-02,-1.647092401981353760e-01,-1.605019718408584595e-01,-1.540892198681831360e-02,6.639811396598815918e-02,6.395696848630905151e-02,-6.782770901918411255e-02,1.172146424651145935e-01,-6.883788388222455978e-03,1.402071714401245117e-01,-4.124353080987930298e-02,2.394141443073749542e-02,-6.167564541101455688e-02,2.283173799514770508e-02
