1.794098913669586182e-01,3.788014128804206848e-02,8.726393431425094604e-02,1.951381191611289978e-02,4.477171301841735840e-01,4.670188575983047485e-02,-1.052581369876861572e-01,4.089194536209106445e-02,1.526426374912261963e-01,1.470948103815317154e-03,-1.734953671693801880e-01,-1.751095056533813477e-02,2.546198666095733643e-01,1.699675023555755615e-01,-2.985982410609722137e-02,-1.842241436243057251e-01,2.109599262475967407e-01,-5.766629427671432495e-02,-2.541640773415565491e-02,-6.566528230905532837e-03,-1.291541159152984619e-01,-1.200622245669364929e-01,3.842437267303466797e-02,-2.264589667320251465e-01,-7.491157948970794678e-02,1.434680670499801636e-01,1.490274518728256226e-01,-6.115334853529930115e-02,1.344779729843139648e-01,8.328524976968765259e-02,-1.108639538288116455e-01,-3.496971353888511658e-02,6.751457601785659790e-02,1.639872975647449493e-02,1.792902201414108276e-01,2.999092042446136475e-01,2.195103615522384644e-01,1.307237595319747925e-01,-1.344692260026931763e-01,8.811230212450027466e-02
1.297474652528762817e-01,-1.676841527223587036e-01,-6.245421245694160461e-02,-3.757301717996597290e-02,-1.073879525065422058e-01,-6.047291308641433716e-02,1.399980485439300537e-01,-3.952513262629508972e-02,1.579061150550842285e-01,1.072223335504531860e-01,-1.060798764228820801e-01,2.785105407238006592e-01,8.397872745990753174e-02,-2.756265997886657715e-01,-6.875225305557250977e-01,3.314059674739837646e-01,-1.112887933850288391e-01,8.252102136611938477e-02,-4.140944778919219971e-01,-6.980264931917190552e-02,4.332896173000335693e-01,-1.074940189719200134e-01,1.192850023508071899e-01,1.015015244483947754e-01,8.651788532733917236e-02,-4.275482892990112305e-01,-3.733041882514953613e-02,3.225592896342277527e-02,1.179147511720657349e-01,-5.117767333984375000e+00,1.469245404005050659e-01,2.445180565118789673e-01,1.139790415763854980e-01,1.254149973392486572e-01,-2.290348559617996216e-01,-1.697001904249191284e-01,-3.802184760570526123e-01,2.600444257259368896e-01,-1.128556858748197556e-02,-1.084077823907136917e-02
-6.082354858517646790e-02,2.405834943056106567e-01,1.220606267452239990e-01,2.366158738732337952e-02,4.190060198307037354e-01,4.792352393269538879e-02,1.173057779669761658e-01,1.054441779851913452e-01,2.185209095478057861e-01,8.170577883720397949e-02,-3.211575746536254883e-02,-1.679009944200515747e-01,2.459220821037888527e-03,1.394082754850387573e-01,1.622616127133369446e-02,-8.480168879032135010e-02,1.551864743232727051e-01,-5.591406673192977905e-02,-3.925074823200702667e-03,-1.121801137924194336e-01,-4.019493609666824341e-02,-7.502385973930358887e-02,1.056727319955825806e-01,6.282606720924377441e-02,-7.867844402790069580e-02,9.258578717708587646e-02,1.154646724462509155e-01,-3.225085884332656860e-02,1.230807527899742126e-01,-7.548499107360839844e-02,1.314720809459686279e-01,-1.126745864748954773e-01,-4.431166127324104309e-02,8.635866641998291016e-02,1.599367558956146240e-01,2.001673430204391479e-01,1.904143989086151123e-01,-1.748097389936447144e-01,1.204771772027015686e-01,-6.384823471307754517e-02
2.205344587564468384e-01,-1.066392660140991211e-01,2.088705003261566162e-01,-1.306430846452713013e-01,-7.681412100791931152e-01,-1.075270101428031921e-01,-3.942940384149551392e-02,-7.402066886425018311e-02,-3.314797952771186829e-02,1.175868138670921326e-01,2.740668356418609619e-01,-2.167620509862899780e-02,1.715380251407623291e-01,-1.882925778627395630e-01,-8.522768318653106689e-02,-4.964722320437431335e-02,-2.332742959260940552e-01,-1.042922958731651306e-01,2.542602717876434326e-01,1.024363860487937927e-01,7.442301511764526367e-02,-1.081423237919807434e-01,-2.565831132233142853e-02,2.586046047508716583e-02,1.105798557400703430e-01,-1.766992509365081787e-01,-1.339731365442276001e-01,1.089968830347061157e-01,-1.245581433176994324e-01,2.438422292470932007e-02,1.890480965375900269e-01,6.729272007942199707e-02,7.545260339975357056e-02,1.809408962726593018e-01,2.038501389324665070e-02,-1.106949970126152039e-01,2.200895547866821289e-02,1.202912554144859314e-01,-9.746527671813964844e-02,1.759583316743373871e-02
-1.357742846012115479e-01,-1.504760682582855225e-01,-1.420437693595886230e-01,-8.954852819442749023e-02,9.694520384073257446e-02,1.510371565818786621e-01,9.968416392803192139e-02,6.829919666051864624e-02,1.295246630907058716e-01,-6.666750460863113403e-02,1.104474160820245743e-02,-1.188109591603279114e-01,-1.290770620107650757e-01,1.561202201992273331e-02,7.585493475198745728e-02,4.451625049114227295e-02,1.014887690544128418e-01,7.674873620271682739e-02,2.839901018887758255e-03,-5.900188907980918884e-02,-1.702039092779159546e-01,1.552742719650268555e-01,4.723104834556579590e-02,-6.485261768102645874e-02,2.542017959058284760e-02,-1.552911102771759033e-01,1.260585039854049683e-01,-8.517656475305557251e-02,9.012879803776741028e-03,1.785201020538806915e-02,-3.899775072932243347e-02,2.450382336974143982e-02,1.190274860709905624e-02,-1.283821910619735718e-01,-4.977431520819664001e-02,5.648244172334671021e-02,9.790956974029541016e-03,2.230864576995372772e-02,-1.174154356122016907e-01,-1.406939476728439331e-01
3.346645087003707886e-02,1.106216683983802795e-01,-3.902569785714149475e-02,-1.093440502882003784e-01,4.428448975086212158e-01,1.324149221181869507e-02,1.372811049222946167e-01,1.326305717229843140e-01,2.821577712893486023e-02,-1.364204734563827515e-01,-7.753071933984756470e-02,7.378113269805908203e-02,1.298049539327621460e-01,2.222711294889450073e-01,1.611220985651016235e-01,7.407949864864349365e-02,4.480936098843812943e-03,-5.275935307145118713e-02,-1.762487292289733887e-01,-3.851678967475891113e-02,-2.705628275871276855e-01,-1.564234793186187744e-01,6.365381926298141479e-02,-1.727856099605560303e-01,-2.341620624065399170e-01,3.174380660057067871e-01,1.549001783132553101e-01,-1.414934098720550537e-01,1.135527566075325012e-01,-1.905853152275085449e-01,1.188044250011444092e-01,-5.562663450837135315e-02,3.333091363310813904e-02,1.280797123908996582e-01,2.924777865409851074e-01,1.516692340373992920e-01,1.456099748611450195e-01,2.769139222800731659e-02,-1.054405346512794495e-01,-6.916517764329910278e-02
8.376958966255187988e-02,1.398906409740447998e-01,-1.758196018636226654e-02,4.022914916276931763e-02,5.256223678588867188e-01,1.429063081741333008e-01,1.271822452545166016e-01,1.880286335945129395e-01,5.811324343085289001e-02,5.288840830326080322e-02,2.645662613213062286e-02,3.256045281887054443e-02,1.977314651012420654e-01,1.558110862970352173e-01,1.934251636266708374e-01,-6.221785768866539001e-02,2.607077956199645996e-01,-1.156109645962715149e-01,8.585196733474731445e-02,-1.443194597959518433e-01,-9.441152960062026978e-02,3.534672781825065613e-02,6.406476348638534546e-02,5.580751970410346985e-02,-1.675587445497512817e-01,2.031833082437515259e-01,1.909870803356170654e-01,-2.164010889828205109e-02,2.321011722087860107e-01,3.731665899977087975e-03,-1.882322877645492554e-01,-1.131230965256690979e-01,-1.335552483797073364e-01,4.520057886838912964e-02,-2.875362150371074677e-02,1.817323565483093262e-01,1.383926123380661011e-01,-6.382847577333450317e-02,-9.415411949157714844e-02,-8.226301521062850952e-02
9.386140853166580200e-02,-3.561615645885467529e-01,5.857084318995475769e-02,1.535100638866424561e-01,-2.526864707469940186e-01,1.221968308091163635e-01,1.125057041645050049e-01,-1.021563168615102768e-02,4.557728767395019531e-03,3.016148693859577179e-02,7.218420505523681641e-02,-6.545194983482360840e-02,1.416874378919601440e-01,-1.700807213783264160e-01,-1.249070391058921814e-01,-4.402076825499534607e-02,-1.459312140941619873e-01,2.653201110661029816e-02,1.384961456060409546e-01,-1.552287936210632324e-01,2.390697598457336426e-01,1.066906526684761047e-01,1.487974077463150024e-01,2.124596238136291504e-01,1.635449528694152832e-01,-3.374450802803039551e-01,-8.634348958730697632e-02,-1.678111776709556580e-02,2.049609459936618805e-02,-1.980941183865070343e-02,5.065411701798439026e-02,2.965063042938709259e-02,-5.058066546916961670e-02,2.295083403587341309e-01,-6.119165942072868347e-02,-1.726231724023818970e-01,-5.838606506586074829e-02,-1.207797601819038391e-02,2.709021233022212982e-02,-1.464781016111373901e-01
-5.676346272230148315e-02,2.325966022908687592e-02,1.261746138334274292e-01,-8.768484741449356079e-02,2.563903667032718658e-02,3.007725253701210022e-02,8.525092899799346924e-02,8.342777192592620850e-02,1.441963016986846924e-01,8.870927244424819946e-02,-7.391363382339477539e-02,-7.136637717485427856e-02,-1.457087993621826172e-01,-4.214471951127052307e-02,-1.393583118915557861e-01,-6.433605402708053589e-02,2.483418025076389313e-02,1.374255567789077759e-01,1.384516805410385132e-01,-9.756280481815338135e-02,-5.607872828841209412e-02,-1.460471004247665405e-01,-3.522134944796562195e-02,8.627646602690219879e-03,1.431087031960487366e-02,4.549987148493528366e-03,9.176141582429409027e-03,1.068372055888175964e-01,4.451306909322738647e-02,5.941243376582860947e-03,-9.845977276563644409e-02,-6.316525489091873169e-02,1.156652644276618958e-01,1.332204788923263550e-01,-8.680767565965652466e-02,5.330117419362068176e-02,-8.044780045747756958e-02,1.436851322650909424e-01,-1.291112154722213745e-01,-1.322741508483886719e-01
-1.757232248783111572e-01,8.405200242996215820e-01,2.284216433763504028e-01,-9.895368479192256927e-03,7.999468445777893066e-01,1.545304358005523682e-01,8.605438470840454102e-02,8.042819052934646606e-02,-9.153018146753311157e-02,1.170170381665229797e-01,-1.537410974502563477e+00,-5.268728137016296387e-01,1.332922875881195068e-01,8.945076912641525269e-02,8.411897718906402588e-02,-2.690107822418212891e-01,1.414117813110351562e-01,-1.369592994451522827e-01,-7.548744678497314453e-01,-1.227965205907821655e-01,-1.248515993356704712e-01,-3.162800520658493042e-02,2.800249159336090088e-01,-3.981769979000091553e-01,-7.869281768798828125e-01,5.877829790115356445e-01,2.995948791503906250e-01,1.410596668720245361e-01,2.472063004970550537e-01,1.090151891112327576e-01,-6.650950014591217041e-02,8.220668137073516846e-02,-1.323740035295486450e-01,4.288351535797119141e-02,2.432195395231246948e-01,4.024983346462249756e-01,-2.195843011140823364e-01,-3.480342030525207520e-01,-4.933180287480354309e-03,-1.538380682468414307e-01
1.612185537815093994e-01,-3.714032173156738281e-01,5.849216878414154053e-02,1.111610457301139832e-01,-2.540463507175445557e-01,6.126985326409339905e-02,-1.065193396061658859e-02,-1.906049698591232300e-01,9.316222369670867920e-02,-5.608242377638816833e-02,8.679977804422378540e-02,1.387566626071929932e-01,-2.894084341824054718e-02,-9.271466732025146484e-02,7.416493445634841919e-02,1.176484599709510803e-01,3.336220397613942623e-04,-1.476307064294815063e-01,-1.098251901566982269e-02,-1.477884203195571899e-01,2.793309390544891357e-01,-7.809969037771224976e-02,3.396304324269294739e-03,1.405736356973648071e-01,3.081732988357543945e-01,-2.517303526401519775e-01,-1.046776250004768372e-01,-5.510357767343521118e-02,-8.200658857822418213e-02,-5.495280027389526367e-02,1.357206255197525024e-01,1.744357198476791382e-01,2.316765487194061279e-03,6.872294098138809204e-02,-1.242513768374919891e-02,-2.597247958183288574e-01,4.188890382647514343e-02,2.365968525409698486e-01,3.922102972865104675e-02,1.066940501332283020e-01
-9.028948843479156494e-02,-4.006345197558403015e-02,-1.110415682196617126e-01,-1.318718045949935913e-01,-3.869287297129631042e-02,-8.276296406984329224e-02,-1.001975014805793762e-01,3.190252184867858887e-02,5.994397774338722229e-02,5.396479740738868713e-02,-7.457352429628372192e-02,-4.903751984238624573e-02,3.025562036782503128e-03,5.546410009264945984e-02,-1.505518257617950439e-01,-9.078252315521240234e-02,-1.046621128916740417e-01,-2.624164801090955734e-03,9.728630632162094116e-02,-1.530597358942031860e-01,9.609463065862655640e-02,-1.450220644474029541e-01,-1.135726645588874817e-01,-1.470541954040527344e-01,-6.472002714872360229e-02,-1.231007650494575500e-01,-5.529371276497840881e-02,1.248639672994613647e-01,-1.663920730352401733e-01,-1.261398009955883026e-02,7.546247541904449463e-02,-1.512654311954975128e-02,1.395003795623779297e-01,-1.435441989451646805e-02,-1.547211855649948120e-01,1.985818892717361450e-02,8.166677504777908325e-02,-3.088880702853202820e-02,-8.765652030706405640e-02,-5.057979002594947815e-02
5.543095059692859650e-03,-3.719819486141204834e-01,-3.428795188665390015e-02,-7.750354707241058350e-02,-4.062386453151702881e-01,1.638612523674964905e-02,1.541791558265686035e-01,-7.998934015631675720e-03,-1.381823718547821045e-01,1.001718714833259583e-01,2.397158294916152954e-01,1.615283042192459106e-01,-6.156093254685401917e-02,-2.592280805110931396e-01,-6.026963889598846436e-02,3.573353961110115051e-02,-3.290360420942306519e-02,6.960321217775344849e-02,7.040568441152572632e-02,7.043907884508371353e-03,1.921037137508392334e-01,2.796207554638385773e-02,8.188375085592269897e-02,1.070439144968986511e-01,1.884939819574356079e-01,-3.062934279441833496e-01,-1.567291654646396637e-02,4.724086448550224304e-02,8.957276493310928345e-02,-3.176552429795265198e-02,2.185237109661102295e-01,1.515270471572875977e-01,8.505854755640029907e-02,8.960704505443572998e-02,1.125225722789764404e-01,9.329366497695446014e-03,1.046152040362358093e-02,1.015402525663375854e-01,-1.076023839414119720e-02,5.367551743984222412e-02
1.081909164786338806e-01,-2.891722023487091064e-01,7.833281159400939941e-02,-1.006477400660514832e-01,1.743170469999313354e-01,1.099013164639472961e-01,-1.288314610719680786e-01,-8.198744035325944424e-04,-1.069856137037277222e-01,-3.957892954349517822e-02,2.919511795043945312e-01,-5.499821156263351440e-02,1.390255391597747803e-01,-3.028827309608459473e-01,-9.960253536701202393e-02,1.416079252958297729e-01,1.962326467037200928e-02,1.277720779180526733e-01,-5.458285100758075714e-03,4.905951395630836487e-02,3.116967082023620605e-01,5.992554873228073120e-02,1.541737020015716553e-01,1.507198810577392578e-01,3.131861090660095215e-01,-1.341347396373748779e-01,-1.034495830535888672e-01,1.509192027151584625e-02,5.109825730323791504e-02,1.625522077083587646e-01,7.761646807193756104e-02,1.357125192880630493e-01,9.766174852848052979e-02,1.530503332614898682e-01,-4.180284217000007629e-02,-3.187422752380371094e-01,-4.109765589237213135e-02,1.766026169061660767e-01,-8.303402364253997803e-02,-1.405050698667764664e-02
7.570933550596237183e-02,5.141226202249526978e-02,-2.277032583951950073e-01,8.947865664958953857e-02,4.004744887351989746e-01,-7.322705537080764771e-02,2.893082052469253540e-02,1.781442165374755859e-01,-2.850136347115039825e-02,9.477945975959300995e-03,-1.406681984663009644e-01,4.529662057757377625e-02,1.638945192098617554e-01,1.747956424951553345e-01,2.219981104135513306e-01,-2.165058441460132599e-02,1.257012486457824707e-01,-9.172775596380233765e-02,7.992611825466156006e-02,-6.409455090761184692e-02,-2.675974667072296143e-01,-1.531309932470321655e-01,9.655158221721649170e-02,4.510083049535751343e-02,-1.796965003013610840e-01,3.074874579906463623e-01,1.797315031290054321e-01,1.567231863737106323e-01,2.553606629371643066e-01,1.075939536094665527e-01,-1.443616151809692383e-01,-9.226217865943908691e-02,1.031645387411117554e-01,1.310965418815612793e-01,2.427310645580291748e-01,3.159382343292236328e-01,-7.970292121171951294e-02,8.234058320522308350e-02,1.270440034568309784e-02,-1.170936301350593567e-01
1.272988319396972656e-01,3.066728077828884125e-02,1.287303864955902100e-01,1.055684238672256470e-01,4.785780906677246094e-01,-4.512657597661018372e-02,-4.587334021925926208e-02,2.312170416116714478e-01,2.442465126514434814e-01,4.260494560003280640e-02,-4.554526135325431824e-02,-1.752253174781799316e-01,7.783332467079162598e-02,2.843582928180694580e-01,1.262501031160354614e-01,-2.433985471725463867e-02,-1.802118681371212006e-02,1.084126085042953491e-01,-2.546737529337406158e-02,-8.234233409166336060e-02,-2.197673916816711426e-01,2.941419370472431183e-02,1.259377598762512207e-01,-2.967799268662929535e-02,-2.472884021699428558e-02,1.839663982391357422e-01,2.813534624874591827e-02,-2.547986060380935669e-02,9.020196646451950073e-02,-1.504376158118247986e-02,1.774193160235881805e-02,-5.541384965181350708e-02,1.119177639484405518e-01,-7.784362137317657471e-02,1.614614278078079224e-01,1.647274047136306763e-01,3.329350799322128296e-02,1.466362774372100830e-01,-8.833909034729003906e-02,-9.061990678310394287e-02
8.666117489337921143e-02,2.621484994888305664e-01,-1.380780935287475586e-01,1.358840148895978928e-02,8.056295514106750488e-01,1.489743441343307495e-01,-1.319593042135238647e-01,6.873612105846405029e-02,1.738432943820953369e-01,1.525263488292694092e-01,-5.196516960859298706e-02,-3.998544812202453613e-02,1.760407984256744385e-01,2.829734981060028076e-01,1.627884507179260254e-01,-1.903918199241161346e-02,1.517634838819503784e-01,-5.495267361402511597e-02,-1.790205985307693481e-01,-1.544078290462493896e-01,-9.485934674739837646e-02,-1.397010982036590576e-01,1.155524402856826782e-01,5.586357414722442627e-02,-1.086893901228904724e-01,2.107495963573455811e-01,2.231274098157882690e-01,3.791660815477371216e-02,1.381433159112930298e-01,-1.010970324277877808e-01,8.503776043653488159e-02,7.491398602724075317e-02,9.178201854228973389e-02,5.271193105727434158e-03,2.180443406105041504e-01,1.948874592781066895e-01,1.100872382521629333e-01,6.343775242567062378e-02,1.481816470623016357e-01,-7.899997755885124207e-03
-7.836928963661193848e-02,-1.086681932210922241e-01,-6.066944077610969543e-02,1.248963326215744019e-01,-9.457784146070480347e-02,-1.229574456810951233e-01,2.761179208755493164e-02,-1.757023781538009644e-01,-1.576717942953109741e-01,-2.730565378442406654e-03,-2.506709471344947815e-02,1.337644606828689575e-01,1.135668009519577026e-01,-1.785707324743270874e-01,9.916710853576660156e-02,1.503380686044692993e-01,-1.030468270182609558e-01,1.344450116157531738e-01,1.801795810461044312e-01,-1.173606812953948975e-01,9.035172313451766968e-02,3.310707630589604378e-03,2.320945262908935547e-01,1.159840524196624756e-01,2.728273272514343262e-01,-2.570321559906005859e-01,1.708577722311019897e-01,-1.082962751388549805e-01,-2.016370370984077454e-02,1.616516262292861938e-01,-4.329286050051450729e-03,1.869984716176986694e-01,1.153535619378089905e-01,1.157175749540328979e-01,1.215133722871541977e-02,-9.356188029050827026e-02,1.374987959861755371e-01,3.741206973791122437e-02,-7.740005105733871460e-02,-6.118356436491012573e-02
1.466311216354370117e-01,1.166855990886688232e-01,2.022469788789749146e-01,1.071875616908073425e-01,3.911584615707397461e-01,1.457609385251998901e-01,-8.965828269720077515e-02,-1.796536333858966827e-02,2.394991666078567505e-01,-6.333238445222377777e-03,7.830619812011718750e-02,6.153660640120506287e-02,2.244283445179462433e-02,1.903266608715057373e-01,1.807735562324523926e-01,-6.760733574628829956e-02,3.209839463233947754e-01,7.636848092079162598e-02,-6.052864342927932739e-02,-1.122571453452110291e-01,-2.992777228355407715e-01,-7.012615352869033813e-02,6.316106766462326050e-02,-2.766832113265991211e-01,-1.863382309675216675e-01,2.061268314719200134e-02,2.156856358051300049e-01,-4.974711313843727112e-02,4.335252940654754639e-02,-1.463996898382902145e-02,-1.131825707852840424e-02,-1.299759447574615479e-01,1.103147193789482117e-01,-1.464802920818328857e-01,2.653230130672454834e-01,1.617226749658584595e-01,2.740854620933532715e-01,-2.156673558056354523e-02,1.675680279731750488e-02,-1.062352508306503296e-01
5.788002163171768188e-02,2.422521859407424927e-01,-7.087449729442596436e-02,5.635708570480346680e-02,3.956747651100158691e-01,5.413483083248138428e-02,-8.659006655216217041e-02,1.233944445848464966e-01,2.379319071769714355e-01,-8.094222098588943481e-02,-5.247725918889045715e-02,-1.536943614482879639e-01,5.102518573403358459e-02,1.574404537677764893e-01,4.800081253051757812e-02,-1.845505684614181519e-01,1.779147982597351074e-02,-1.096942089498043060e-02,2.638313453644514084e-03,1.402341574430465698e-01,-3.493023291230201721e-02,-1.462191045284271240e-01,1.268188953399658203e-01,-5.766417458653450012e-02,2.773146703839302063e-02,2.919671125710010529e-02,1.881465464830398560e-01,1.377855986356735229e-01,1.718043833971023560e-01,-1.495650857686996460e-01,-4.612560942769050598e-02,2.414096333086490631e-02,-1.091686785221099854e-01,4.773833788931369781e-03,-1.701929047703742981e-02,5.998229607939720154e-02,2.276479452848434448e-01,8.697983808815479279e-03,1.094026565551757812e-01,-1.496219485998153687e-01
-9.441462904214859009e-02,1.093251444399356842e-02,-1.009087935090065002e-01,-3.640057519078254700e-02,1.065962761640548706e-01,-2.869168855249881744e-02,8.998585492372512817e-02,-4.290209710597991943e-02,3.488780185580253601e-02,3.676740825176239014e-02,9.017232060432434082e-02,1.253664046525955200e-01,-3.504981845617294312e-02,-1.022220104932785034e-01,2.960776723921298981e-02,-1.578930765390396118e-02,-1.064283028244972229e-01,2.631018124520778656e-02,-2.732344530522823334e-02,1.488105654716491699e-01,8.183268457651138306e-02,8.893257379531860352e-02,-1.613830029964447021e-01,1.958917826414108276e-02,-1.046193987131118774e-01,-8.645025081932544708e-03,-1.162581592798233032e-01,4.862908646464347839e-02,-1.780967712402343750e-01,-6.467133760452270508e-02,-1.120488569140434265e-01,-1.312282830476760864e-01,-1.238781139254570007e-01,1.154360994696617126e-01,8.946075104176998138e-03,9.020686894655227661e-02,-1.056238114833831787e-01,-1.485997140407562256e-01,1.579482704401016235e-01,1.215497925877571106e-01
-2.125280722975730896e-02,1.425279974937438965e-01,-3.773509711027145386e-02,-7.903519086539745331e-03,-1.147989854216575623e-01,-1.566745191812515259e-01,-5.879894644021987915e-02,-2.477733418345451355e-02,1.548694968223571777e-01,-5.180973932147026062e-02,3.587381169199943542e-02,-1.475111842155456543e-01,-5.040063336491584778e-02,-1.285417675971984863e-01,1.482320874929428101e-01,6.615821272134780884e-02,-7.135361433029174805e-03,4.186941683292388916e-02,-1.396945416927337646e-01,8.927755802869796753e-02,-1.384484320878982544e-01,1.644694991409778595e-02,3.954550996422767639e-02,5.679959431290626526e-02,-8.524858951568603516e-02,-1.487012505531311035e-01,-9.680454432964324951e-02,5.513901263475418091e-02,-1.528372615575790405e-01,-1.194908097386360168e-01,5.155422538518905640e-02,1.085152029991149902e-01,1.553764790296554565e-01,-1.672930270433425903e-02,6.267511099576950073e-02,1.435244232416152954e-01,2.409308962523937225e-02,-1.936792396008968353e-02,8.345199376344680786e-02,1.082352474331855774e-01
7.438681274652481079e-02,-2.841703966259956360e-02,-8.483709394931793213e-02,-1.059186365455389023e-02,1.005267426371574402e-01,1.150783747434616089e-01,1.266116183251142502e-02,-5.402894690632820129e-02,-7.514712959527969360e-02,1.307379570789635181e-03,-1.554608047008514404e-01,4.767286777496337891e-02,-9.466059505939483643e-02,-2.216797508299350739e-02,-3.939388319849967957e-02,-3.787814825773239136e-02,-1.436563283205032349e-01,-1.291434466838836670e-01,-1.509252786636352539e-01,8.750955760478973389e-02,8.007003366947174072e-02,1.065825223922729492e-01,-1.564496755599975586e-01,-1.148797646164894104e-01,-5.200012028217315674e-02,-6.502651423215866089e-02,8.991115540266036987e-02,1.180561780929565430e-01,-1.168782413005828857e-01,-7.870189845561981201e-02,-1.346243917942047119e-01,4.900777339935302734e-02,-5.810697562992572784e-03,3.583209216594696045e-02,1.700073108077049255e-02,-6.103372946381568909e-02,-1.335617303848266602e-01,-8.281765505671501160e-03,1.247683316469192505e-01,-4.571342840790748596e-03
1.742359101772308350e-01,-2.596431374549865723e-01,1.755180805921554565e-01,-1.348358839750289917e-01,-2.619907557964324951e-01,9.483091533184051514e-02,-1.170692816376686096e-01,-8.819413185119628906e-02,2.528545074164867401e-02,-6.812695413827896118e-02,3.138765320181846619e-02,5.195834860205650330e-02,1.280214935541152954e-01,-2.248012274503707886e-01,-6.249364092946052551e-02,-3.027141280472278595e-02,-7.380711380392313004e-03,1.050289571285247803e-01,6.545501202344894409e-02,1.807952485978603363e-02,2.639864385128021240e-01,8.153320290148258209e-03,5.296928808093070984e-02,8.618510514497756958e-02,1.262663304805755615e-01,-2.055023461580276489e-01,-1.848571151494979858e-01,-4.804217815399169922e-02,-8.312298357486724854e-02,-2.516998536884784698e-02,1.829782575368881226e-01,7.748052012175321579e-03,1.976151019334793091e-02,1.832535266876220703e-01,-2.367282509803771973e-01,-4.294083267450332642e-02,6.000417470932006836e-02,8.534057438373565674e-02,-1.157915890216827393e-01,-8.399833738803863525e-02
2.061824351549148560e-01,-1.248983759433031082e-02,-8.104752004146575928e-02,4.670588299632072449e-02,4.667823314666748047e-01,-1.158673614263534546e-01,1.394785046577453613e-01,-3.672682493925094604e-02,-5.353486910462379456e-02,-1.372271478176116943e-01,2.884295284748077393e-01,2.275814414024353027e-01,-1.579301804304122925e-02,-2.709826827049255371e-01,-1.843453198671340942e-01,1.391485035419464111e-01,-7.023216784000396729e-02,-1.933154533617198467e-03,2.712597250938415527e-01,-1.276796013116836548e-01,1.790246665477752686e-01,-8.467750996351242065e-02,9.434933960437774658e-02,8.645278960466384888e-02,1.479549407958984375e-01,-1.880313307046890259e-01,-1.563702523708343506e-01,9.640983492136001587e-02,-1.644875407218933105e-01,1.986947208642959595e-01,-2.617482282221317291e-02,2.664943039417266846e-01,-5.357958003878593445e-02,1.263555139303207397e-01,-1.493153572082519531e-01,-1.357837319374084473e-01,2.014727294445037842e-01,9.243324398994445801e-02,1.267174184322357178e-01,-1.261537224054336548e-01
-4.659897461533546448e-02,1.928240805864334106e-02,-8.972483873367309570e-02,6.931447237730026245e-02,9.366916120052337646e-02,-4.998341575264930725e-02,1.329673975706100464e-01,2.607687190175056458e-02,-1.267156749963760376e-01,-1.837085001170635223e-02,-8.132463693618774414e-02,-1.189806312322616577e-01,6.435514986515045166e-02,-1.488880366086959839e-01,7.120395544916391373e-03,-1.269372701644897461e-01,-1.371943764388561249e-02,5.681490153074264526e-02,2.426174841821193695e-02,-1.188685968518257141e-01,1.398712098598480225e-01,-8.316472172737121582e-02,-6.912580132484436035e-02,8.361589908599853516e-02,-9.235409647226333618e-02,1.428529322147369385e-01,-7.302314788103103638e-02,-1.406494677066802979e-01,8.305142074823379517e-02,8.950719237327575684e-02,1.334023624658584595e-01,-6.653148680925369263e-02,-1.258467882871627808e-01,-3.121001832187175751e-02,6.361362338066101074e-02,-1.287012696266174316e-01,-1.079422011971473694e-01,-1.197780370712280273e-01,1.216012705117464066e-02,1.145582497119903564e-01
8.822627365589141846e-02,-2.959574162960052490e-01,2.967078387737274170e-01,1.277973204851150513e-01,-3.000779151916503906e+00,1.311898529529571533e-01,-1.550588905811309814e-01,2.822402305901050568e-02,2.253539413213729858e-01,-5.231712386012077332e-02,1.029029935598373413e-01,6.051831319928169250e-02,1.827798932790756226e-01,-2.005682513117790222e-02,1.516292989253997803e-01,3.739954531192779541e-02,5.925280973315238953e-02,-1.102815265767276287e-03,1.831980198621749878e-01,6.381858885288238525e-02,3.249045312404632568e-01,4.460135474801063538e-03,3.896113038063049316e-01,1.161603108048439026e-01,6.743767857551574707e-02,-7.283035516738891602e-01,2.320678383111953735e-01,1.403080224990844727e-01,-3.648434951901435852e-02,-1.369578123092651367e+00,-1.846192032098770142e-02,-2.791130356490612030e-02,-1.532916128635406494e-01,-9.942092746496200562e-02,8.970873057842254639e-02,-2.995954751968383789e-01,3.108146600425243378e-02,2.612533047795295715e-03,1.538349241018295288e-01,1.079838052392005920e-01
2.014565020799636841e-01,8.531674742698669434e-02,-2.225630730390548706e-02,6.331174820661544800e-02,3.254656791687011719e-01,1.275365147739648819e-02,1.405613869428634644e-01,-9.800864011049270630e-02,5.391574651002883911e-02,1.255958080291748047e-01,6.342815607786178589e-02,8.343026041984558105e-02,-1.532380282878875732e-02,-3.021910972893238068e-02,-1.821900308132171631e-01,1.444994062185287476e-01,-1.332085952162742615e-02,1.297618448734283447e-01,1.660272032022476196e-01,9.557598829269409180e-02,2.792907655239105225e-01,-1.512409467250108719e-02,-3.080868627876043320e-03,2.278057634830474854e-01,3.204054236412048340e-01,-1.030756533145904541e-01,-1.960335969924926758e-01,1.425086706876754761e-01,-1.233293488621711731e-01,-8.686824142932891846e-02,9.850921481847763062e-02,2.539048194885253906e-01,4.696042463183403015e-02,2.183608859777450562e-01,-3.048583492636680603e-02,-1.448877751827239990e-01,1.518444120883941650e-01,9.861277043819427490e-02,-3.919664025306701660e-02,4.346300661563873291e-02
2.688553370535373688e-02,-1.926303803920745850e-01,-4.649407789111137390e-02,-5.497515946626663208e-02,7.373362779617309570e-02,1.944846473634243011e-02,-1.372819393873214722e-01,-2.045677006244659424e-01,-1.205946058034896851e-01,9.080569446086883545e-02,5.086195468902587891e-02,5.755010619759559631e-02,-7.487589120864868164e-02,-1.630061715841293335e-01,4.350812733173370361e-02,9.162799268960952759e-02,-6.282398849725723267e-02,-8.422932773828506470e-02,1.908812671899795532e-01,7.526372373104095459e-02,1.185308769345283508e-01,3.181543573737144470e-02,2.048020809888839722e-01,1.071169152855873108e-01,1.713713407516479492e-01,-3.171716630458831787e-01,-1.612843126058578491e-01,4.878986626863479614e-02,6.830886751413345337e-02,1.937389373779296875e-01,1.154962554574012756e-01,9.945540875196456909e-02,-6.703217327594757080e-02,1.220633238554000854e-01,7.262688130140304565e-02,-4.046665504574775696e-02,1.479448825120925903e-01,-4.670476913452148438e-02,1.059152409434318542e-01,1.061759237200021744e-02
-4.466259852051734924e-03,5.347243547439575195e-01,1.925044804811477661e-01,-9.553242474794387817e-02,8.320348262786865234e-01,-1.387834846973419189e-01,9.209458529949188232e-02,3.362175226211547852e-01,2.025480419397354126e-01,8.151263743638992310e-02,-3.509884774684906006e-01,-3.409293889999389648e-01,6.010318174958229065e-02,2.246005237102508545e-01,3.108938932418823242e-01,-2.589850723743438721e-01,1.639252156019210815e-01,2.100417390465736389e-03,-2.871069014072418213e-01,6.337308138608932495e-02,-5.121282935142517090e-01,-1.254599690437316895e-01,1.390795856714248657e-01,-1.110846698284149170e-01,-3.409389853477478027e-01,3.832528889179229736e-01,1.249932646751403809e-01,4.207184910774230957e-02,4.841088131070137024e-02,-4.241048395633697510e-01,-1.828966736793518066e-01,-4.023941457271575928e-01,1.568289548158645630e-01,-9.031564742326736450e-02,1.575300246477127075e-01,3.217307329177856445e-01,1.544051617383956909e-01,-4.469874501228332520e-01,-1.353799700736999512e-01,-1.227355599403381348e-01
-9.790784120559692383e-02,-1.120458394289016724e-01,2.389709204435348511e-01,6.293102353811264038e-02,-8.368143439292907715e-02,2.255121432244777679e-02,-1.359839886426925659e-01,-3.682643175125122070e-01,-4.942221641540527344e-01,-1.176124289631843567e-01,-8.154510706663131714e-02,-1.419156193733215332e-01,-6.538560986518859863e-02,-5.805356055498123169e-02,-3.991694748401641846e-01,5.453442782163619995e-02,-4.420951604843139648e-01,-1.638158224523067474e-02,3.091558814048767090e-01,1.574164181947708130e-01,8.046253919601440430e-01,-1.416583210229873657e-01,-4.429231584072113037e-01,1.906299591064453125e-01,3.572941720485687256e-01,-9.416305273771286011e-02,-5.614751577377319336e-01,1.459704935550689697e-01,-4.883688986301422119e-01,3.681297302246093750e-01,1.636269241571426392e-01,7.869219779968261719e-02,1.762800477445125580e-02,2.009864300489425659e-01,-2.690662145614624023e-01,-1.963763117790222168e+00,1.250168383121490479e-01,-2.167620509862899780e-02,-8.768833428621292114e-02,-9.598629176616668701e-02
-9.226901829242706299e-02,7.571623474359512329e-02,8.248981833457946777e-02,5.086423456668853760e-02,2.958669960498809814e-01,1.566798835992813110e-01,1.209811493754386902e-02,-4.811116680502891541e-02,2.915080189704895020e-01,-8.431740850210189819e-02,1.550477463752031326e-02,-1.297554820775985718e-01,2.671562135219573975e-01,2.150903791189193726e-01,1.484156847000122070e-01,-1.877328380942344666e-02,3.638572692871093750e-01,3.439638018608093262e-02,7.199218124151229858e-02,-1.158248037099838257e-01,-2.135833501815795898e-01,5.093086138367652893e-02,-1.093005090951919556e-01,1.074179336428642273e-01,-2.337344288825988770e-01,1.706332713365554810e-01,1.659576147794723511e-01,-9.921748936176300049e-02,1.090083196759223938e-01,-1.622917056083679199e-01,-6.966138631105422974e-02,-1.442919075489044189e-01,5.691244453191757202e-02,1.685950160026550293e-01,2.586510777473449707e-01,2.021781504154205322e-01,1.145046278834342957e-01,-2.081745490431785583e-02,6.817047297954559326e-02,1.367304325103759766e-01
1.730681508779525757e-01,-2.866244316101074219e-01,1.862240256741642952e-03,9.001301601529121399e-03,-9.075689315795898438e-01,8.584573119878768921e-02,-5.876064533367753029e-04,-1.904340833425521851e-01,-1.899368613958358765e-01,-6.851021945476531982e-02,6.753841042518615723e-02,6.523928046226501465e-02,1.971339881420135498e-01,-7.814823091030120850e-02,2.586276829242706299e-02,-4.750085994601249695e-03,-1.750233471393585205e-01,1.168927475810050964e-01,1.468374133110046387e-01,1.100440695881843567e-01,5.972737073898315430e-02,-1.383876204490661621e-01,7.784640043973922729e-02,1.351838745176792145e-02,1.145226433873176575e-01,-2.847258150577545166e-01,-3.771153837442398071e-02,-2.023381181061267853e-02,-2.633327618241310120e-02,9.505032002925872803e-02,1.424348801374435425e-01,4.355344548821449280e-02,1.365187168121337891e-01,9.864533692598342896e-02,-1.907034404575824738e-02,-8.714947104454040527e-02,7.487503439188003540e-02,7.114094495773315430e-02,4.914774373173713684e-02,1.033813655376434326e-01
-1.287804841995239258e-01,-5.007756501436233521e-02,3.238833695650100708e-02,-7.891384512186050415e-02,-2.887584641575813293e-02,6.549841165542602539e-02,7.114548981189727783e-02,-5.110569298267364502e-02,-2.419383637607097626e-02,-1.008183788508176804e-02,-3.392528370022773743e-02,7.781966030597686768e-02,3.755024820566177368e-02,-2.350824512541294098e-02,-5.411090329289436340e-02,-1.013813354074954987e-02,9.055079519748687744e-02,3.890887834131717682e-03,8.964399248361587524e-02,-1.235173642635345459e-01,1.110909599810838699e-02,7.416848838329315186e-02,8.861064910888671875e-02,-1.529625207185745239e-01,1.030311211943626404e-01,6.405871361494064331e-02,-5.224161967635154724e-02,-6.582019478082656860e-02,1.200416386127471924e-01,-6.584259122610092163e-02,-8.000623434782028198e-03,-4.226407408714294434e-02,4.191497340798377991e-02,-1.171912178397178650e-01,-1.346293687820434570e-01,-1.156948134303092957e-01,-7.691004127264022827e-02,-1.586202830076217651e-01,-1.208573505282402039e-01,1.312600681558251381e-03
4.823173582553863525e-02,-2.970770597457885742e-01,2.004530467092990875e-02,7.584224641323089600e-02,-1.017563566565513611e-01,1.385749578475952148e-01,-8.436660468578338623e-02,8.724194020032882690e-03,3.951495885848999023e-02,-1.199902594089508057e-01,1.511289030313491821e-01,2.238568067550659180e-01,1.703324466943740845e-01,-2.907613515853881836e-01,-1.198888346552848816e-01,1.915937215089797974e-01,-3.749426826834678650e-02,1.125085130333900452e-01,2.237800210714340210e-01,9.476168453693389893e-02,1.812639683485031128e-01,-1.543194949626922607e-01,3.303309530019760132e-02,2.482844740152359009e-01,3.337494730949401855e-01,-4.179674386978149414e-02,-1.652198098599910736e-02,-1.008912473917007446e-01,-1.393628418445587158e-01,-3.468543663620948792e-02,-6.615913659334182739e-02,-3.316493704915046692e-02,2.431328967213630676e-02,2.173737585544586182e-01,-1.021874174475669861e-01,-2.260231822729110718e-01,4.733769968152046204e-02,8.194470405578613281e-02,1.292224526405334473e-01,-1.059684157371520996e-01
-3.366114199161529541e-01,8.952245116233825684e-01,3.533728420734405518e-01,-4.967514798045158386e-02,2.072633743286132812e+00,8.179303258657455444e-02,-2.358954772353172302e-02,-3.317242115736007690e-02,6.161129102110862732e-02,1.497230529785156250e-01,-6.814767718315124512e-01,-9.560853838920593262e-01,-8.039906620979309082e-03,3.540852069854736328e-01,2.746894210577011108e-02,-1.115280628204345703e+00,3.357143998146057129e-01,-1.305426657199859619e-01,-1.961371183395385742e+00,-1.525372862815856934e-01,-5.238730311393737793e-01,7.455245405435562134e-02,-7.037033140659332275e-02,-8.536024093627929688e+00,-2.003186464309692383e+00,3.707802295684814453e-01,8.377442508935928345e-02,4.158709943294525146e-02,2.130937129259109497e-01,-5.607627868652343750e+00,-7.772975564002990723e-01,-1.932859778404235840e+00,8.624035120010375977e-02,-4.176371991634368896e-01,2.623917460441589355e-01,2.311629801988601685e-01,-4.526147618889808655e-02,-8.973025083541870117e-01,-7.156839221715927124e-02,-7.538988441228866577e-02
3.812427818775177002e-02,1.269106864929199219e-01,1.865889132022857666e-01,1.164060905575752258e-01,-1.316857188940048218e-01,3.065247461199760437e-02,-4.175255447626113892e-02,-1.002065464854240417e-01,2.406420186161994934e-02,-1.022701188921928406e-01,2.341514080762863159e-01,1.752023249864578247e-01,-5.637472495436668396e-02,-4.302087798714637756e-02,-8.309428691864013672e-01,5.745943263173103333e-02,-1.663029342889785767e-01,1.309580504894256592e-01,-1.089069023728370667e-01,-4.568168520927429199e-02,2.672162353992462158e-01,1.059325262904167175e-01,1.802574396133422852e-01,-1.440957374870777130e-02,1.039493680000305176e-01,-1.682139784097671509e-01,-1.784873902797698975e-01,1.050556674599647522e-01,6.983707845211029053e-02,-4.357158184051513672e+00,1.506019383668899536e-01,2.111780196428298950e-01,-1.349578052759170532e-01,8.653695136308670044e-02,-2.516407705843448639e-02,-3.287962675094604492e-01,-3.755282461643218994e-01,7.514534145593643188e-02,-4.920306615531444550e-03,1.469890773296356201e-01
-8.940592408180236816e-02,1.077499464154243469e-01,1.146470233798027039e-01,-3.379467502236366272e-02,-9.673378616571426392e-02,-8.316028863191604614e-02,1.445470452308654785e-01,-1.666323840618133545e-02,-1.478841602802276611e-01,-6.025899946689605713e-02,-3.253669664263725281e-02,1.507354825735092163e-01,-1.005978509783744812e-01,-1.229808032512664795e-01,1.509650200605392456e-01,-1.843766681849956512e-02,-1.573152244091033936e-01,-1.072069350630044937e-02,-7.198822498321533203e-02,-4.530194029211997986e-02,-8.872261643409729004e-02,1.655687391757965088e-02,9.663284756243228912e-03,4.659234080463647842e-03,1.211534291505813599e-01,-1.316091418266296387e-02,-7.618510723114013672e-02,5.660694465041160583e-02,-1.064188554883003235e-01,1.329071223735809326e-01,-1.539212912321090698e-01,8.513734489679336548e-02,1.260930150747299194e-01,7.496637105941772461e-02,1.742021739482879639e-02,1.001131534576416016e-01,-1.548311263322830200e-01,-1.448757797479629517e-01,-1.498668640851974487e-01,8.133681863546371460e-02
6.556440889835357666e-02,1.981999129056930542e-01,5.912971496582031250e-02,1.986703602597117424e-03,4.256061613559722900e-01,3.842412680387496948e-02,5.432141199707984924e-02,2.241875529289245605e-01,2.463714927434921265e-01,5.042609572410583496e-02,-8.218137174844741821e-02,-7.822789251804351807e-02,2.412893474102020264e-01,2.573164105415344238e-01,1.702827066183090210e-01,-3.203640133142471313e-02,1.702731475234031677e-02,1.233161389827728271e-01,-6.842246651649475098e-02,1.330081671476364136e-01,-3.866825625300407410e-02,-9.997578710317611694e-02,-1.205509155988693237e-01,3.951670601963996887e-02,-3.388080745935440063e-02,8.092652261257171631e-02,1.667564809322357178e-01,-1.082664169371128082e-02,1.852937042713165283e-01,-1.104072481393814087e-01,-1.535536162555217743e-02,3.029951080679893494e-02,-8.578076958656311035e-02,1.056561246514320374e-01,2.058428674936294556e-01,1.720799505710601807e-01,6.587486248463392258e-03,-9.369684755802154541e-02,5.138432234525680542e-02,4.408321529626846313e-02
-1.145714297890663147e-01,5.359514355659484863e-01,3.020570278167724609e-01,-1.090062484145164490e-01,2.869635224342346191e-01,1.191808953881263733e-01,3.441004455089569092e-02,2.119047045707702637e-01,6.203402206301689148e-02,1.504188925027847290e-01,-2.566893994808197021e-01,-6.046702265739440918e-01,7.270324230194091797e-02,-9.456476569175720215e-02,2.333766967058181763e-01,-4.964318275451660156e-01,2.805370390415191650e-01,-1.983733102679252625e-02,-5.657498240470886230e-01,-6.923221796751022339e-02,-2.331963479518890381e-01,9.996811859309673309e-03,-1.112528964877128601e-01,-3.822127282619476318e-01,-3.533557951450347900e-01,6.437562108039855957e-01,1.855940669775009155e-01,-1.341900080442428589e-01,-7.868555188179016113e-02,-1.246505230665206909e-01,-5.929245352745056152e-01,-3.897507488727569580e-01,-2.812326885759830475e-02,-2.898834347724914551e-01,2.665334343910217285e-01,3.868444561958312988e-01,9.023293107748031616e-02,-3.070155680179595947e-01,1.325373053550720215e-01,-5.563738942146301270e-02
