2.006574273109436035e-01,8.806556463241577148e-01,1.705844551324844360e-01,-1.919764876365661621e-01,-1.928416080772876740e-02,1.793230473995208740e-01,2.554930746555328369e-01,-1.773667633533477783e-01,4.444238543510437012e-02,6.125305294990539551e-01,-1.914201080799102783e-01,8.153839409351348877e-02,-1.580234766006469727e-01,-1.633934825658798218e-01,2.312544882297515869e-01,1.624225527048110962e-01,2.134703397750854492e-01,-3.379180133342742920e-01,1.989142596721649170e-01,2.178899794816970825e-01,-5.006489530205726624e-02,-9.063779562711715698e-02,-8.741930872201919556e-02,-1.902620792388916016e-01,-2.223274856805801392e-01,4.328828305006027222e-02,-5.317138433456420898e-01,-1.866680532693862915e-01,-2.175503671169281006e-01,5.633543729782104492e-01,-1.180078268051147461e+00,2.835763096809387207e-01,-1.630128175020217896e-01,8.353453129529953003e-02,-2.222395390272140503e-01,3.779617071151733398e+00,6.864706277847290039e-01,1.008696854114532471e-01,2.407837212085723877e-01,5.568771362304687500e-01
