9.749929606914520264e-02
1.125191748142242432e-01
2.266896702349185944e-02
-1.426552683115005493e-01
1.351311802864074707e-01
1.507429685443639755e-02
4.736249521374702454e-02
1.205482035875320435e-01
4.372762981802225113e-03
5.088425055146217346e-02
1.733206212520599365e-01
1.078870669007301331e-01
-2.512521110475063324e-02
-8.036641776561737061e-02
1.770552247762680054e-01
-1.564828678965568542e-02
7.716743648052215576e-02
-8.641219139099121094e-02
-2.847659401595592499e-02
-2.818162553012371063e-02
1.332162171602249146e-01
-1.539068073034286499e-01
2.254948951303958893e-02
-3.243026882410049438e-02
2.477274686098098755e-01
1.322190612554550171e-01
1.714963167905807495e-01
-1.054532602429389954e-01
1.211916655302047729e-02
1.900828629732131958e-01
-8.343528956174850464e-02
-1.211354359984397888e-01
-1.371657196432352066e-02
9.491381794214248657e-02
2.179589569568634033e-01
6.411423534154891968e-02
2.241759151220321655e-01
2.249958179891109467e-02
-1.292364150285720825e-01
-1.167150959372520447e-01
