4.654231294989585876e-02,2.705269753932952881e-01,-5.097300410270690918e-01,1.994475275278091431e-01,1.692641079425811768e-01,-7.359103858470916748e-02,2.083832919597625732e-01,5.413539707660675049e-02,-7.758397608995437622e-02,1.780091524124145508e-01,-1.466933358460664749e-02,7.356058061122894287e-02,3.378361463546752930e-01,-8.234896697103977203e-03,3.687942028045654297e-01,-6.946808099746704102e-02,-7.505252957344055176e-01,1.303895264863967896e-01,6.510811508633196354e-04,-1.871249377727508545e-01,-1.236246347427368164e+00,1.969579607248306274e-01,1.846603751182556152e-01,-1.316153258085250854e-01,2.286362648010253906e-02,1.167976140975952148e+00,8.102265000343322754e-02,5.305641889572143555e-02,1.029322892427444458e-01,-1.307787775993347168e+00,5.470817908644676208e-03,7.371050119400024414e-02,5.008209124207496643e-02,1.045385897159576416e-01,2.166925817728042603e-01,-5.684720873832702637e-01,-2.189185321331024170e-01,2.823398821055889130e-02,-1.078884974122047424e-01,-7.010155916213989258e-01
-1.027457639575004578e-01,-2.972344309091567993e-02,1.325498968362808228e-01,-7.134554535150527954e-02,1.553932726383209229e-01,2.171054668724536896e-02,-2.951431833207607269e-02,6.024965271353721619e-02,1.515054027549922466e-04,-6.639529019594192505e-02,1.255413889884948730e-01,1.250642240047454834e-01,-1.529455333948135376e-01,-4.246154427528381348e-02,5.248628929257392883e-02,1.359735429286956787e-01,-7.574234902858734131e-02,-1.551143229007720947e-01,-1.577904224395751953e-01,-2.024238742887973785e-02,1.247521191835403442e-01,-8.140277117490768433e-03,1.523614674806594849e-01,4.307563602924346924e-02,-4.496662318706512451e-02,-5.976978316903114319e-02,1.313075702637434006e-02,-1.387044787406921387e-01,-1.480496674776077271e-01,-1.236680597066879272e-01,-5.982924997806549072e-02,-1.681493222713470459e-02,-1.345204263925552368e-01,1.403584182262420654e-01,1.037503629922866821e-01,-1.424977481365203857e-01,1.364356577396392822e-01,-4.459843412041664124e-02,-1.313720047473907471e-01,7.301630824804306030e-02
-6.374969147145748138e-03,2.605405151844024658e-01,1.221768140792846680e+00,1.975454539060592651e-01,1.543647795915603638e-01,-1.169113144278526306e-01,1.022964566946029663e-01,-4.767677746713161469e-03,2.400469034910202026e-02,1.996750943362712860e-02,1.379635930061340332e-02,1.036645025014877319e-01,1.289492696523666382e-01,3.533406555652618408e-01,7.513989210128784180e-01,-1.639710962772369385e-01,3.303423523902893066e-02,-9.415911138057708740e-02,2.984451353549957275e-01,-1.419767141342163086e-01,-2.076014280319213867e-01,9.150261431932449341e-02,-7.931238040328025818e-03,-7.533616572618484497e-02,-1.459674686193466187e-01,2.810138761997222900e-01,2.196652293205261230e-01,3.342265635728836060e-02,-4.255935177206993103e-02,-3.460628092288970947e-01,-1.241033226251602173e-01,-3.564329445362091064e-02,-4.469640925526618958e-02,2.852839231491088867e-01,-6.035616248846054077e-02,1.664084047079086304e-01,-2.301768809556961060e-01,5.748803541064262390e-02,-6.866136193275451660e-02,-4.118240475654602051e-01
5.911741405725479126e-02,1.222821176052093506e-01,-8.690364658832550049e-02,-2.594265937805175781e-01,-5.824690684676170349e-02,-1.814551465213298798e-02,-2.697830796241760254e-01,1.470434665679931641e-01,-1.260239034891128540e-01,8.368647843599319458e-02,-6.853483617305755615e-02,1.979851163923740387e-02,-7.838656902313232422e-01,-1.723104000091552734e+00,2.096407562494277954e-01,1.341079622507095337e-01,1.959801614284515381e-01,3.338435664772987366e-02,1.689981222152709961e-01,2.630815804004669189e-01,2.229644507169723511e-01,-8.967450261116027832e-01,9.005465358495712280e-02,8.704388886690139771e-02,8.031395077705383301e-01,-1.987073719501495361e-01,2.852306663990020752e-01,-1.078065484762191772e-01,-9.034818410873413086e-02,-3.404849469661712646e-01,-3.842131793498992920e-02,9.405721724033355713e-02,-1.373755093663930893e-02,1.069263219833374023e-01,8.794084936380386353e-02,-5.139949917793273926e-01,9.987713769078254700e-03,1.993468403816223145e-01,5.640461295843124390e-02,3.414838910102844238e-01
-9.015441685914993286e-02,1.424088235944509506e-02,3.001805543899536133e-01,2.580370940268039703e-02,4.623759537935256958e-02,-3.278263658285140991e-02,1.552680879831314087e-01,3.743070363998413086e-01,-9.362019598484039307e-02,8.442182093858718872e-02,-4.828607663512229919e-02,-9.448347985744476318e-02,1.949944049119949341e-01,1.985858380794525146e-01,2.196080982685089111e-01,-6.844152510166168213e-02,-3.117384612560272217e-01,-1.413327157497406006e-01,2.440306842327117920e-01,1.465567052364349365e-01,-2.551720738410949707e-01,4.972352460026741028e-02,6.443070620298385620e-02,1.897444762289524078e-02,6.499860286712646484e-01,2.367107272148132324e-01,6.282755732536315918e-02,-8.329778164625167847e-02,-8.387670665979385376e-02,-4.745640754699707031e-01,1.174539551138877869e-01,-2.857857756316661835e-02,-5.872634239494800568e-03,6.272139400243759155e-02,1.030820161104202271e-01,-1.732605844736099243e-01,1.024273782968521118e-01,4.732705280184745789e-02,-2.783312834799289703e-02,-1.281357184052467346e-02
1.237363666296005249e-01,2.176264226436614990e-01,-2.140429243445396423e-02,-2.704778686165809631e-02,1.681704819202423096e-01,-1.278626024723052979e-01,2.260273694992065430e-01,1.881148368120193481e-01,-3.633452870417386293e-04,1.146941483020782471e-01,-7.039233110845088959e-03,1.591143757104873657e-01,1.517654955387115479e-01,1.396911144256591797e-01,2.156683653593063354e-01,8.107005059719085693e-02,-3.587531745433807373e-01,-6.037780269980430603e-02,1.716267913579940796e-01,-4.445425793528556824e-02,-6.841638684272766113e-02,-5.311787500977516174e-02,9.753159433603286743e-02,4.708011820912361145e-02,4.548136293888092041e-01,1.744567006826400757e-01,1.041344404220581055e-01,5.571700632572174072e-02,1.120742410421371460e-01,-3.146460950374603271e-01,1.300280839204788208e-01,-5.171006545424461365e-02,-9.354969859123229980e-02,3.547002002596855164e-02,2.176402695477008820e-02,-2.584982812404632568e-01,-7.729671150445938110e-02,-1.547843366861343384e-01,-1.358927488327026367e-01,-2.165487557649612427e-01
-8.597139269113540649e-02,-2.898454898968338966e-03,-2.004895918071269989e-02,-3.686174377799034119e-02,1.228685751557350159e-01,-3.211837261915206909e-02,-1.622878201305866241e-02,-1.113872975111007690e-01,-6.068371608853340149e-02,3.253792971372604370e-02,-7.767484337091445923e-02,-3.781549632549285889e-02,1.142451986670494080e-01,9.070666879415512085e-02,-2.902499958872795105e-02,6.183499936014413834e-03,2.342419512569904327e-02,-7.496694475412368774e-02,-6.325999647378921509e-02,8.152277022600173950e-02,-1.357018053531646729e-01,8.704641461372375488e-02,-1.254804879426956177e-01,-3.063365258276462555e-02,-2.141728997230529785e-02,-1.280044168233871460e-01,-1.770239919424057007e-01,-1.521797329187393188e-01,4.374966025352478027e-02,8.828385919332504272e-02,-7.938660681247711182e-02,1.498641520738601685e-01,-1.497121900320053101e-01,7.343313843011856079e-02,-1.109240762889385223e-02,-8.945000171661376953e-02,5.430502071976661682e-02,9.237796068191528320e-02,7.207745313644409180e-02,-1.079933643341064453e-01
3.389694914221763611e-02,-1.383708864450454712e-01,1.329391077160835266e-02,-1.580752432346343994e-01,3.649500757455825806e-02,-1.436259131878614426e-02,-1.001892089843750000e-01,1.001087799668312073e-01,-2.444314770400524139e-02,-8.568371087312698364e-02,-6.871208548545837402e-02,-6.366606056690216064e-02,-1.386167258024215698e-01,1.339676082134246826e-01,7.059836387634277344e-02,-5.707864835858345032e-02,5.407807882875204086e-03,1.008527055382728577e-01,-4.141989338677376509e-04,-1.333283260464668274e-02,-8.357000350952148438e-02,-1.298249661922454834e-01,-1.052787750959396362e-01,-2.213754225522279739e-03,1.222335845232009888e-01,-9.332004934549331665e-02,1.427063345909118652e-01,-4.852698370814323425e-02,1.329666282981634140e-02,7.084319368004798889e-03,-1.341199129819869995e-01,2.312294952571392059e-02,-6.823625415563583374e-02,2.711450867354869843e-02,-4.078593850135803223e-02,3.619030117988586426e-02,-1.027667224407196045e-01,-7.959989830851554871e-03,-1.232501491904258728e-02,-1.499314904212951660e-01
-4.537909105420112610e-02,1.083544455468654633e-02,1.376131922006607056e-02,-8.374893665313720703e-02,-1.027633696794509888e-01,8.558420836925506592e-02,1.571499556303024292e-01,-1.266932487487792969e-01,-1.074268296360969543e-01,-1.527499556541442871e-01,-3.157732076942920685e-03,-9.219066053628921509e-02,1.464848518371582031e-01,-1.213952526450157166e-02,7.121632248163223267e-02,-8.852887898683547974e-03,-8.134788274765014648e-02,1.079524606466293335e-01,1.516287028789520264e-01,-1.045989245176315308e-01,-9.142761118710041046e-03,3.089560382068157196e-02,1.548458635807037354e-01,6.484491378068923950e-02,-1.624828390777111053e-02,-1.457385718822479248e-01,-5.225535854697227478e-02,-5.818491429090499878e-02,1.380954980850219727e-01,7.586056739091873169e-02,-1.009711623191833496e-01,4.442691430449485779e-02,-9.560527652502059937e-02,-9.443715214729309082e-02,-1.564791947603225708e-01,1.389275118708610535e-02,8.678394556045532227e-02,-3.362837433815002441e-02,5.796349793672561646e-02,-5.623270198702812195e-02
-1.579345762729644775e-01,-4.204152151942253113e-03,-6.403823196887969971e-02,-6.524308770895004272e-02,-2.538908459246158600e-02,-1.221034377813339233e-01,-1.097289472818374634e-01,3.936934843659400940e-02,-1.443523168563842773e-01,-1.552524566650390625e-01,-1.277588009834289551e-01,-1.755639016628265381e-01,1.465884894132614136e-01,1.511983722448348999e-01,1.206317692995071411e-01,-7.910192757844924927e-02,5.989278852939605713e-02,6.324464082717895508e-02,-3.718589991331100464e-02,1.027277261018753052e-01,-1.011986583471298218e-01,-5.022620782256126404e-02,-1.437427848577499390e-01,-2.035239525139331818e-02,9.474081918597221375e-03,9.269140660762786865e-03,9.108078479766845703e-02,-1.789818555116653442e-01,-1.010654643177986145e-01,9.458542615175247192e-02,6.941700726747512817e-02,-1.327479481697082520e-01,-1.576519384980201721e-02,-6.614380329847335815e-02,4.148400388658046722e-03,-1.056314352899789810e-02,-1.055270805954933167e-01,-1.014224886894226074e-01,8.817022293806076050e-02,-1.257615238428115845e-01
4.370702803134918213e-02,-1.627981849014759064e-02,-9.887614101171493530e-02,1.541510373353958130e-01,2.708893083035945892e-02,-1.081108823418617249e-01,8.146571367979049683e-02,-1.952031441032886505e-02,4.894642159342765808e-02,3.713613003492355347e-02,-3.162464872002601624e-02,-3.513479605317115784e-02,-7.422086782753467560e-03,-1.366898715496063232e-01,-6.850842386484146118e-02,1.070096343755722046e-01,-5.782759934663772583e-02,-4.965496063232421875e-02,1.435592919588088989e-01,-1.251921057701110840e-01,1.055852770805358887e-01,-6.782733649015426636e-02,-8.672105520963668823e-02,4.733741655945777893e-02,-8.164171129465103149e-02,-1.523941308259963989e-01,1.300544477999210358e-02,6.403233110904693604e-02,-3.121041320264339447e-02,4.642347246408462524e-02,1.192458788864314556e-03,-1.559367477893829346e-01,2.782329358160495758e-02,-4.240869730710983276e-02,-1.578554511070251465e-01,-7.135302573442459106e-02,9.311757236719131470e-02,1.413974165916442871e-01,-1.669796854257583618e-01,-5.982445180416107178e-02
-9.872701019048690796e-02,1.546917576342821121e-02,-3.602875024080276489e-02,1.370987594127655029e-01,-7.313377410173416138e-02,-1.153058260679244995e-01,-7.601872831583023071e-02,-4.379333555698394775e-02,-6.195172294974327087e-02,5.367705225944519043e-02,1.588976383209228516e-02,-2.050074562430381775e-02,1.878338865935802460e-02,1.257619559764862061e-01,-1.367969363927841187e-01,-1.110098809003829956e-01,5.774583667516708374e-02,-5.844474304467439651e-03,9.768074005842208862e-02,-8.547879010438919067e-02,-9.706746041774749756e-02,-9.474284201860427856e-02,4.100778698921203613e-02,-6.251124292612075806e-02,-1.182189583778381348e-01,-8.095716685056686401e-02,9.856315702199935913e-02,3.639546781778335571e-02,-1.424180865287780762e-01,2.018103562295436859e-02,6.601385027170181274e-02,7.495332509279251099e-03,-1.441033780574798584e-01,1.344506591558456421e-01,2.699687518179416656e-02,1.506947129964828491e-01,1.060082763433456421e-01,5.155561864376068115e-02,-8.063847571611404419e-02,1.201620474457740784e-01
1.280137449502944946e-01,3.456166386604309082e-01,1.185783296823501587e-01,1.263215839862823486e-01,-2.098799794912338257e-01,1.487895101308822632e-01,2.241170108318328857e-01,5.679565947502851486e-03,7.908564805984497070e-02,2.088173925876617432e-01,4.317934066057205200e-02,1.120194941759109497e-01,2.601347267627716064e-01,3.436647355556488037e-01,2.037694305181503296e-01,6.340061128139495850e-02,-2.764377593994140625e-01,-1.294653713703155518e-01,-2.726002223789691925e-02,6.011113524436950684e-02,-3.715693056583404541e-01,1.575936824083328247e-01,2.937449812889099121e-01,1.023583207279443741e-02,3.918815255165100098e-01,2.541651725769042969e-01,2.025775015354156494e-01,3.662772849202156067e-02,-6.478744000196456909e-02,-2.040244042873382568e-01,2.388759851455688477e-01,9.926822781562805176e-02,5.059833452105522156e-02,-1.941679418087005615e-02,-9.002802893519401550e-03,-2.382587194442749023e-01,-7.842219620943069458e-02,1.257762610912322998e-01,-2.271142303943634033e-01,-2.885790169239044189e-01
-1.236353367567062378e-01,-4.027532413601875305e-02,-7.993137091398239136e-02,-2.254478037357330322e-01,-6.817840933799743652e-01,-9.718724340200424194e-02,1.619513630867004395e-01,-4.131954628974199295e-03,7.428625226020812988e-02,-9.992068260908126831e-02,-1.024926453828811646e-01,1.134511902928352356e-01,3.490872308611869812e-02,-4.691578075289726257e-02,-1.073434501886367798e-01,1.320641189813613892e-01,4.046502411365509033e-01,2.253956347703933716e-02,-9.114729473367333412e-04,8.336632698774337769e-02,8.807653188705444336e-02,-1.220715604722499847e-02,4.178967326879501343e-02,1.308209635317325592e-02,-1.285691708326339722e-01,-5.330269336700439453e-01,-6.684245914220809937e-02,1.926764845848083496e-01,-4.250393435359001160e-02,3.299359083175659180e-01,-1.427318304777145386e-01,5.301369354128837585e-03,-4.959575831890106201e-02,-2.065759152173995972e-01,1.463679820299148560e-01,4.913821816444396973e-01,-2.054066210985183716e-02,1.766469180583953857e-01,1.333665251731872559e-01,1.979960501194000244e-01
9.422003291547298431e-03,3.019722998142242432e-01,2.294693291187286377e-01,3.638895452022552490e-01,1.583655625581741333e-01,-1.484870910644531250e-01,2.534025907516479492e-01,3.134086728096008301e-01,1.055056601762771606e-01,4.532718285918235779e-02,1.434153318405151367e-01,1.234912872314453125e-01,3.020648658275604248e-01,4.584175050258636475e-01,-7.133362442255020142e-02,7.719790190458297729e-02,-2.559761404991149902e-01,9.968237020075321198e-03,-8.326975256204605103e-02,-8.471074700355529785e-02,-3.599633276462554932e-01,2.710513472557067871e-01,4.917664825916290283e-02,1.283251028507947922e-02,3.863843679428100586e-01,4.162719249725341797e-01,1.497569829225540161e-01,-3.731676563620567322e-02,-1.008738651871681213e-01,-3.993187844753265381e-01,1.516906768083572388e-01,9.401622414588928223e-02,-1.129832714796066284e-01,-1.073944345116615295e-01,8.491271734237670898e-02,-3.829494118690490723e-01,8.582718670368194580e-02,1.399459391832351685e-01,-3.512449935078620911e-02,-2.321363687515258789e-01
-1.837182976305484772e-02,-1.863482780754566193e-02,-3.158018589019775391e-01,4.960493743419647217e-01,3.295298814773559570e-01,1.335927397012710571e-01,1.094958260655403137e-01,-2.767177224159240723e-01,-1.082427278161048889e-01,9.082725644111633301e-02,-1.392681151628494263e-01,3.731791675090789795e-02,-2.859227359294891357e-01,-2.859199345111846924e-01,-4.188503921031951904e-01,8.670252561569213867e-02,6.476494669914245605e-01,8.966360986232757568e-02,-2.186097800731658936e-01,1.850405484437942505e-01,1.970450431108474731e-01,4.366530776023864746e-01,-2.684839665889739990e-01,1.537762582302093506e-01,-5.710128545761108398e-01,1.484857499599456787e-01,-1.524864435195922852e-01,2.362690120935440063e-01,8.859872817993164062e-02,5.668816566467285156e-01,-3.023525178432464600e-01,-7.090026885271072388e-02,1.484133452177047729e-01,-8.794030547142028809e-02,2.202802598476409912e-01,2.282624244689941406e-01,2.105767279863357544e-01,-1.566603459650650620e-04,-3.977220505475997925e-02,6.175861507654190063e-02
1.418373882770538330e-01,-1.014679968357086182e-01,-1.177867576479911804e-01,-3.355699405074119568e-02,-1.305227074772119522e-02,1.080009341239929199e-01,-3.149095550179481506e-02,-1.151823252439498901e-01,1.113775745034217834e-01,1.347651928663253784e-01,1.211309432983398438e-01,-6.494209915399551392e-02,-8.405872620642185211e-03,-8.839800953865051270e-02,-6.324075907468795776e-02,-8.233503997325897217e-02,1.430850625038146973e-01,-7.181165367364883423e-02,-7.379127293825149536e-02,-5.883845314383506775e-02,-5.514739826321601868e-02,-7.814536243677139282e-02,-1.225796639919281006e-01,-1.056496277451515198e-01,4.004013538360595703e-02,1.195592656731605530e-01,-1.503907293081283569e-01,2.072093635797500610e-02,-3.905307129025459290e-02,-1.385947763919830322e-01,-2.434903569519519806e-02,1.312265247106552124e-01,-1.429281681776046753e-01,-1.460525244474411011e-01,2.206039614975452423e-02,7.140710949897766113e-02,-1.760378479957580566e-02,1.131768673658370972e-01,-1.089900583028793335e-01,-1.345623731613159180e-01
-1.565514951944351196e-01,4.162680357694625854e-02,1.135164201259613037e-01,-4.537216573953628540e-02,1.749381661415100098e+00,5.162138491868972778e-02,-2.646979130804538727e-02,2.256130725145339966e-01,1.515135020017623901e-01,-2.300611585378646851e-01,-7.867915928363800049e-02,-1.655496060848236084e-01,-1.368485540151596069e-01,3.086460568010807037e-02,-4.505839049816131592e-01,-1.254514157772064209e-01,5.904147028923034668e-01,5.394387524574995041e-03,-8.279314637184143066e-01,4.695578515529632568e-01,4.720631539821624756e-01,4.171121865510940552e-02,-5.194261074066162109e-01,-2.768383026123046875e-01,4.239086508750915527e-01,1.572193019092082977e-02,-9.910245537757873535e-01,-2.112717181444168091e-01,6.561797112226486206e-03,5.602857470512390137e-01,1.476053476333618164e+00,-8.889105170965194702e-02,1.514440476894378662e-01,-9.708431959152221680e-01,-2.493110746145248413e-01,5.203528404235839844e-01,-2.572116442024707794e-02,-1.263354718685150146e-01,-1.212566792964935303e-01,5.235639810562133789e-01
-1.269171535968780518e-01,4.939463734626770020e-02,2.232086658477783203e-01,2.378155142068862915e-01,3.020603060722351074e-01,-1.262606587260961533e-02,1.405457407236099243e-01,4.117265939712524414e-01,-1.246461346745491028e-01,1.206998154520988464e-01,-1.167433336377143860e-01,-8.144659548997879028e-02,3.261307179927825928e-01,4.529037773609161377e-01,-5.773533135652542114e-02,-3.512242436408996582e-02,-3.456523716449737549e-01,-3.677634149789810181e-02,4.112512618303298950e-02,1.094417348504066467e-01,7.899505086243152618e-03,1.236681491136550903e-01,-4.703896865248680115e-02,-2.849408052861690521e-02,4.577500522136688232e-01,3.618094027042388916e-01,-5.450198426842689514e-02,-9.607050567865371704e-02,1.501281112432479858e-01,-4.084551632404327393e-01,2.625274360179901123e-01,4.595853388309478760e-02,-9.391804039478302002e-02,2.327599972486495972e-01,4.240579530596733093e-02,-3.028802275657653809e-01,4.210433363914489746e-02,-4.480276629328727722e-02,-1.314594689756631851e-02,3.339033806696534157e-03
-4.433287680149078369e-02,1.636000722646713257e-01,4.417208731174468994e-01,3.691008687019348145e-01,4.697398841381072998e-01,2.655824832618236542e-02,7.176446914672851562e-02,4.711478352546691895e-01,3.997661545872688293e-02,9.974262863397598267e-02,-3.438503295183181763e-02,2.349653691053390503e-01,1.278820484876632690e-01,3.709591329097747803e-01,2.231186777353286743e-01,-3.272565826773643494e-02,-2.747604846954345703e-01,2.405810728669166565e-02,2.641439735889434814e-01,-1.090193614363670349e-01,-2.327650338411331177e-01,-1.087764427065849304e-01,-2.021016739308834076e-02,4.404451325535774231e-02,2.746896743774414062e-01,4.168531000614166260e-01,2.400679588317871094e-01,7.995969802141189575e-02,4.970594774931669235e-03,-2.736347615718841553e-01,1.992853134870529175e-01,-7.748886942863464355e-02,9.087587147951126099e-02,1.951998844742774963e-02,1.864905953407287598e-01,-2.578735053539276123e-01,1.272715181112289429e-01,-2.753773704171180725e-02,-8.905231207609176636e-02,-1.332715153694152832e-01
4.912704974412918091e-02,-9.392416477203369141e-02,-1.331773493438959122e-02,-1.116392910480499268e-01,-3.752014786005020142e-02,-1.317449510097503662e-01,-5.928360298275947571e-02,1.199059635400772095e-01,-1.031401380896568298e-01,-1.536126136779785156e-01,3.936090692877769470e-02,8.691868931055068970e-02,-1.235251873731613159e-01,1.069235280156135559e-01,-1.238105744123458862e-01,-5.833338573575019836e-02,7.245194166898727417e-02,4.421258345246315002e-02,6.342530995607376099e-02,3.421631827950477600e-02,-1.058314368128776550e-01,-1.226211115717887878e-01,-1.127381846308708191e-01,7.022634893655776978e-02,1.375655233860015869e-01,1.277198344469070435e-01,4.388235509395599365e-02,-7.607906311750411987e-02,7.454003393650054932e-02,-1.379161477088928223e-01,-1.067354008555412292e-01,-7.868503779172897339e-02,-2.052945271134376526e-02,1.282047014683485031e-02,5.470662191510200500e-02,-5.235122144222259521e-02,-6.391358375549316406e-02,-1.375886648893356323e-01,-1.171660497784614563e-01,-8.809185028076171875e-02
-4.303840920329093933e-02,1.264347732067108154e-01,1.804565452039241791e-02,3.925961256027221680e-02,-5.254259333014488220e-02,-6.981419026851654053e-02,-1.521501392126083374e-01,1.088943630456924438e-01,3.412102162837982178e-02,-1.291275173425674438e-01,-2.051052823662757874e-02,-5.094217136502265930e-02,-1.165710017085075378e-01,7.969745248556137085e-02,7.534724473953247070e-02,-1.174328923225402832e-01,1.287648677825927734e-01,-1.784252189099788666e-02,1.457660794258117676e-01,-3.507536649703979492e-02,-1.381282359361648560e-01,-3.466293960809707642e-02,1.177291348576545715e-01,1.125719994306564331e-01,5.026375129818916321e-02,-1.454285234212875366e-01,-1.445633471012115479e-01,-9.557321667671203613e-02,3.850398957729339600e-02,-1.208929568529129028e-01,-2.499641105532646179e-02,2.245397493243217468e-02,-8.233899623155593872e-02,-9.467473626136779785e-02,-7.821594923734664917e-02,5.655477195978164673e-02,5.682822689414024353e-02,-5.436713993549346924e-02,-8.776266127824783325e-02,-8.838623017072677612e-02
2.551512606441974640e-02,1.713721901178359985e-01,1.100248694419860840e-01,-4.503887519240379333e-02,2.740093767642974854e-01,6.014025211334228516e-02,-4.085371270775794983e-02,2.921248786151409149e-02,1.541827321052551270e-01,1.164957955479621887e-01,1.188283488154411316e-01,3.047736547887325287e-02,3.961534798145294189e-02,2.297308295965194702e-01,2.256183028221130371e-01,-8.241868019104003906e-02,-3.425667881965637207e-01,8.765182644128799438e-02,1.498273462057113647e-01,-1.518991738557815552e-01,-1.119062528014183044e-01,1.470063477754592896e-01,1.542784422636032104e-01,-3.175775706768035889e-02,4.913624227046966553e-01,1.102758869528770447e-01,2.529407441616058350e-01,2.827321551740169525e-02,5.096168071031570435e-02,-3.899824023246765137e-01,3.565724939107894897e-02,8.014680445194244385e-02,-1.563636213541030884e-01,2.508100122213363647e-02,1.081015318632125854e-01,-1.399506926536560059e-01,-1.968091279268264771e-01,1.414652019739151001e-01,2.419231086969375610e-02,-2.237439453601837158e-01
3.459909930825233459e-02,3.198648244142532349e-02,-5.235045552253723145e-01,-1.819600462913513184e-01,-1.260298728942871094e+00,-1.103474991396069527e-03,-3.665399551391601562e-02,4.534709081053733826e-02,1.152366325259208679e-01,-5.233928933739662170e-02,3.526613116264343262e-02,7.889417558908462524e-02,-2.657514512538909912e-01,-3.771153390407562256e-01,-1.095701754093170166e-02,1.267679482698440552e-01,5.318875312805175781e-01,-2.564951591193675995e-02,-5.616895109415054321e-02,7.888991385698318481e-02,3.106449544429779053e-01,5.222182348370552063e-02,1.018095761537551880e-01,7.760932296514511108e-02,-3.875581622123718262e-01,-1.549931764602661133e-01,-2.229041159152984619e-01,1.399465054273605347e-01,1.407076120376586914e-01,4.066754877567291260e-01,-2.691362500190734863e-01,-1.346068531274795532e-01,-1.215982362627983093e-01,3.877827664837241173e-03,1.839619427919387817e-01,1.558944135904312134e-01,-6.206301972270011902e-02,1.120298430323600769e-01,2.315654605627059937e-01,1.647373884916305542e-01
2.719499170780181885e-02,2.102688401937484741e-01,2.641399502754211426e-01,4.978397488594055176e-01,6.276258230209350586e-01,-7.440602034330368042e-02,5.354584008455276489e-02,5.200058817863464355e-01,8.326639235019683838e-02,1.292865872383117676e-01,-1.390530616044998169e-01,-7.607797533273696899e-02,9.223587810993194580e-02,1.866147965192794800e-01,3.347821161150932312e-02,-9.887162595987319946e-02,-4.752148985862731934e-01,1.629843190312385559e-02,2.224979177117347717e-02,-8.815855532884597778e-02,-1.939648091793060303e-01,-7.347650080919265747e-02,1.171839460730552673e-01,6.532191485166549683e-02,3.564224839210510254e-01,5.354748964309692383e-01,2.614805996417999268e-01,1.734535694122314453e-01,1.415624618530273438e-01,-5.388283133506774902e-01,2.645703963935375214e-02,7.190421968698501587e-02,-4.131236299872398376e-02,1.296242177486419678e-01,-5.465074256062507629e-02,-2.914185822010040283e-01,-3.470156714320182800e-02,-1.020439639687538147e-01,8.298025280237197876e-02,-2.535312473773956299e-01
-4.572132602334022522e-02,-1.764137446880340576e-01,-2.056071609258651733e-01,-1.311472505331039429e-01,-1.487921923398971558e-01,8.356928825378417969e-02,1.353680044412612915e-01,-8.165611028671264648e-01,-8.946578204631805420e-02,-9.458439052104949951e-02,1.338866204023361206e-01,-2.968070842325687408e-02,-1.767704248428344727e+00,7.156974822282791138e-02,-2.957172095775604248e-01,3.003671169281005859e-01,-1.090075969696044922e+00,-1.331052780151367188e-01,-6.794963777065277100e-02,-1.263035386800765991e-01,4.792479872703552246e-01,6.860613077878952026e-02,-2.130439281463623047e-01,1.229007691144943237e-01,-4.543272256851196289e-01,5.015071481466293335e-03,-1.547235846519470215e-01,1.155840530991554260e-01,6.777776032686233521e-02,-9.724399566650390625e+00,-4.615656435489654541e-01,-6.128617562353610992e-03,-3.211516886949539185e-02,-2.246806472539901733e-01,6.967092398554086685e-03,-1.670873522758483887e+00,1.153903901576995850e-01,-9.998315572738647461e-02,1.322877109050750732e-01,4.309025108814239502e-01
2.452598698437213898e-02,2.918343245983123779e-01,2.537359483540058136e-02,-8.560097217559814453e-02,-1.068825602531433105e+00,5.889825895428657532e-02,4.090884327888488770e-02,-1.208707988262176514e-01,-1.270960867404937744e-01,-3.735342249274253845e-02,-7.747201621532440186e-02,2.428514659404754639e-01,-1.049304101616144180e-02,-1.642129756510257721e-02,-7.205817848443984985e-02,-2.755319327116012573e-02,3.782541751861572266e-01,-5.909739993512630463e-03,-5.074585322290658951e-03,6.790118664503097534e-02,3.378166854381561279e-01,4.302479624748229980e-01,4.748468846082687378e-02,1.577258557081222534e-01,-3.598867952823638916e-01,-2.157342284917831421e-01,-4.093721136450767517e-02,1.544969677925109863e-01,1.506137400865554810e-01,3.409313559532165527e-01,-6.454496085643768311e-02,2.460415288805961609e-02,-1.399202495813369751e-01,-9.169802814722061157e-02,-4.173181951045989990e-03,5.075365304946899414e-01,1.256250143051147461e-01,1.556380391120910645e-01,-8.912945538759231567e-02,1.864988058805465698e-01
8.478983491659164429e-02,-1.157782971858978271e-01,2.969543933868408203e-01,1.825488209724426270e-01,4.732709228992462158e-01,-1.432887464761734009e-01,-2.413803711533546448e-02,2.764731049537658691e-01,1.769940368831157684e-02,-1.414299607276916504e-01,-7.693240046501159668e-02,-5.530229955911636353e-02,1.191974338144063950e-02,9.786628931760787964e-02,3.631079196929931641e-02,-8.862081170082092285e-02,-4.725873470306396484e-01,9.912150353193283081e-02,-1.225780975073575974e-02,-2.129318565130233765e-02,1.393742510117590427e-03,4.818730801343917847e-02,2.700356207787990570e-02,9.335846453905105591e-02,2.212494462728500366e-01,3.483205437660217285e-01,-7.788231223821640015e-02,1.209103912115097046e-01,-5.704521387815475464e-02,-6.340493559837341309e-01,2.164632081985473633e-02,6.933281570672988892e-02,6.249348819255828857e-02,-7.628164440393447876e-02,9.473477303981781006e-02,-1.542467921972274780e-01,2.062104083597660065e-02,8.674795925617218018e-02,3.460226207971572876e-02,-8.239950239658355713e-02
1.106575205922126770e-01,-1.573802679777145386e-01,-1.491878479719161987e-01,4.831608850508928299e-03,-9.791663289070129395e-02,2.637113630771636963e-02,2.286743000149726868e-02,-6.744321435689926147e-02,1.832272857427597046e-02,3.550852835178375244e-02,1.444794088602066040e-01,-4.500545933842658997e-02,1.053179707378149033e-02,-1.003762707114219666e-01,8.856350183486938477e-02,7.287713140249252319e-02,1.216020584106445312e-01,5.205395817756652832e-02,2.624788507819175720e-02,-8.614059537649154663e-02,1.178175956010818481e-01,-1.537149846553802490e-01,-1.260215491056442261e-01,-5.086946859955787659e-02,1.148786544799804688e-01,2.869293838739395142e-02,-1.059670757967978716e-04,3.365476429462432861e-02,-9.051408618688583374e-02,5.322581902146339417e-02,-3.344898298382759094e-02,-1.100068837404251099e-01,-5.614594370126724243e-02,-9.429653733968734741e-02,-9.439834952354431152e-02,7.754550874233245850e-02,-1.618970334529876709e-01,1.067301705479621887e-01,-1.033776924014091492e-01,-1.114588137716054916e-02
1.482013016939163208e-01,7.881195098161697388e-02,-4.069897532463073730e-02,3.673106804490089417e-02,-8.505026102066040039e-01,1.337939351797103882e-01,1.473660301417112350e-02,-1.412974856793880463e-02,-6.570392288267612457e-03,1.572337597608566284e-01,-1.107580959796905518e-01,7.434622943401336670e-02,-2.407944947481155396e-02,2.326191216707229614e-02,-9.675867110490798950e-02,1.981101930141448975e-01,5.561475753784179688e-01,-1.062606722116470337e-01,9.275538474321365356e-02,9.157679229974746704e-02,2.812164425849914551e-01,8.027356863021850586e-02,-3.303429484367370605e-02,2.091957330703735352e-01,-1.814599484205245972e-01,-2.591493129730224609e-01,-2.192658483982086182e-01,1.236434131860733032e-01,1.238186261616647243e-03,4.107456207275390625e-01,-2.000474184751510620e-01,-2.597001940011978149e-02,-9.938234090805053711e-02,6.063076481223106384e-02,8.021847344934940338e-03,5.533790588378906250e-01,1.272617131471633911e-01,-1.890366524457931519e-02,3.812087699770927429e-02,3.303305804729461670e-01
-1.458048373460769653e-01,-2.633357234299182892e-02,1.039276481606066227e-03,-1.306870132684707642e-01,-1.293855719268321991e-02,-9.505845606327056885e-02,-1.256608515977859497e-01,1.026686355471611023e-01,1.551530361175537109e-01,-9.494957327842712402e-02,-1.353261172771453857e-01,-1.130627617239952087e-01,1.410230249166488647e-01,7.133508473634719849e-02,9.779437631368637085e-02,1.051033735275268555e-01,9.132020920515060425e-02,3.072662465274333954e-02,1.120378449559211731e-02,-9.155709296464920044e-03,1.278431266546249390e-01,-8.175587654113769531e-02,1.294619590044021606e-01,-4.522211849689483643e-02,1.110935304313898087e-02,4.442553594708442688e-02,1.702134311199188232e-02,-5.004333704710006714e-02,1.579886078834533691e-01,1.175593286752700806e-01,-6.908152252435684204e-02,3.676904737949371338e-02,3.443969413638114929e-02,5.150865018367767334e-02,1.451164036989212036e-01,-3.474117815494537354e-02,-1.001256331801414490e-01,-1.320165097713470459e-01,1.544568836688995361e-01,-8.607074618339538574e-02
1.465656906366348267e-01,1.065903380513191223e-01,-6.136106252670288086e-01,-7.796555757522583008e-02,-8.428483009338378906e-01,-1.448585242033004761e-01,9.125620126724243164e-02,1.849333941936492920e-01,1.375014036893844604e-01,-5.447387695312500000e-03,2.360918931663036346e-02,1.825823485851287842e-01,-2.247829586267471313e-01,-1.171870380640029907e-01,-1.200239136815071106e-01,4.951826483011245728e-02,3.826161921024322510e-01,-1.824056170880794525e-02,-1.442217966541647911e-03,1.031461805105209351e-01,7.786608487367630005e-02,2.494934052228927612e-01,-8.425869047641754150e-02,1.744510084390640259e-01,-1.764516532421112061e-01,-4.796017706394195557e-01,5.989535525441169739e-02,1.583540737628936768e-01,-1.355557888746261597e-01,4.036591649055480957e-01,-2.393744587898254395e-01,1.375105977058410645e-01,9.439926594495773315e-02,-1.534792874008417130e-02,5.148343276232481003e-03,2.853899896144866943e-01,2.589407376945018768e-02,6.612482666969299316e-02,1.817199736833572388e-01,2.016339302062988281e-01
-8.836749196052551270e-02,1.943017989397048950e-01,4.179202318191528320e-01,3.662885129451751709e-01,7.188469767570495605e-01,6.339752674102783203e-02,-8.679006248712539673e-02,5.360861420631408691e-01,-5.648942291736602783e-02,1.092425882816314697e-01,1.499083545058965683e-02,-1.944226957857608795e-02,2.495691627264022827e-01,4.869668483734130859e-01,-1.000840123742818832e-02,-2.342697791755199432e-02,-2.216691523790359497e-01,1.385496854782104492e-01,-3.483303124085068703e-03,9.644526243209838867e-02,-2.085417956113815308e-01,-1.491475570946931839e-02,-8.374488970730453730e-05,7.732671685516834259e-03,4.075852036476135254e-01,4.932234883308410645e-01,1.333966013044118881e-02,5.700258538126945496e-02,1.062504649162292480e-01,-3.996636569499969482e-01,1.087180748581886292e-01,2.840503863990306854e-02,5.943084880709648132e-02,1.901396811008453369e-01,1.371858417987823486e-01,-6.103049591183662415e-02,7.652919739484786987e-02,1.402686834335327148e-01,-1.127514019608497620e-01,-3.207117691636085510e-02
1.488723009824752808e-01,2.843073904514312744e-01,4.156135916709899902e-01,3.622777760028839111e-01,-7.999922037124633789e-01,-1.803170517086982727e-02,4.403848201036453247e-02,4.265670180320739746e-01,4.558813944458961487e-02,1.279525607824325562e-01,9.103892743587493896e-02,1.906163841485977173e-01,1.065260544419288635e-01,4.161759018898010254e-01,2.728070877492427826e-02,2.848503366112709045e-02,-4.566626548767089844e-01,1.408473998308181763e-01,7.501811534166336060e-02,-5.599218606948852539e-02,-1.431815624237060547e-01,8.689395338296890259e-02,5.661188066005706787e-02,-1.034206077456474304e-01,7.901606559753417969e-01,3.896066248416900635e-01,1.107829660177230835e-01,7.802666723728179932e-02,-3.736462816596031189e-02,-4.966972470283508301e-01,2.303284108638763428e-01,-8.884364739060401917e-03,6.690823286771774292e-02,1.499933563172817230e-02,-1.655681058764457703e-02,-3.920346498489379883e-01,6.026870384812355042e-02,1.283575445413589478e-01,-4.848113656044006348e-02,6.368340924382209778e-03
7.843386381864547729e-02,1.992436200380325317e-01,-2.230592727661132812e+00,-3.949942439794540405e-02,5.788890719413757324e-01,-2.502792701125144958e-02,1.216717436909675598e-01,-5.717006325721740723e-01,-1.295091956853866577e-01,5.035713315010070801e-02,-9.139882773160934448e-02,5.065083876252174377e-02,-3.199618682265281677e-02,-1.892916560173034668e-01,-4.896270632743835449e-01,6.094717234373092651e-02,3.839614093303680420e-01,1.360101699829101562e-01,-4.876365959644317627e-01,2.513860352337360382e-02,-5.812718719244003296e-02,1.015973612666130066e-01,-4.516008123755455017e-02,1.559642106294631958e-01,-3.551581799983978271e-01,-2.255706936120986938e-01,-2.586219608783721924e-01,2.370491772890090942e-01,1.152909323573112488e-01,7.526860833168029785e-01,-4.856370389461517334e-02,1.240558698773384094e-01,-8.655591309070587158e-02,-2.423419654369354248e-01,1.871074140071868896e-01,-1.645229756832122803e-01,2.108149528503417969e-01,9.992957860231399536e-02,1.742850244045257568e-01,8.497429639101028442e-02
-1.215750351548194885e-01,2.128932476043701172e-01,-6.100138425827026367e-01,4.020105302333831787e-02,6.200434565544128418e-01,3.458292456343770027e-03,5.371187813580036163e-03,-1.254417002201080322e-01,-6.223013624548912048e-02,-7.791458815336227417e-02,-1.322010159492492676e-01,-5.675774440169334412e-02,-3.962957113981246948e-02,-1.716825664043426514e-01,-1.082922741770744324e-01,2.029264718294143677e-01,5.361170172691345215e-01,-2.225310355424880981e-02,-3.214127151295542717e-03,3.464153781533241272e-02,2.723451554775238037e-01,3.720742464065551758e-01,4.234879091382026672e-02,3.463693335652351379e-02,-4.818026125431060791e-01,-1.492906361818313599e-01,-4.426105413585901260e-03,1.789163202047348022e-01,5.982457846403121948e-02,5.064371228218078613e-01,-5.018034949898719788e-02,5.601573735475540161e-02,-7.347238808870315552e-02,-7.476031035184860229e-02,7.791972719132900238e-03,3.433126807212829590e-01,2.289551645517349243e-01,1.550829708576202393e-01,1.374887079000473022e-01,1.549791246652603149e-01
9.579127281904220581e-02,9.022775292396545410e-02,-1.140326619148254395e+00,4.329385757446289062e-01,5.758609175682067871e-01,3.211714699864387512e-02,8.430451154708862305e-02,1.526802927255630493e-01,-5.080925300717353821e-02,-2.475894093513488770e-01,8.539349585771560669e-02,7.478004693984985352e-02,1.423032730817794800e-01,1.703334599733352661e-01,-1.276598125696182251e-01,-3.630834445357322693e-02,1.202261522412300110e-01,1.355723142623901367e-01,6.489882618188858032e-02,-6.057164669036865234e-01,2.592152357101440430e-01,1.139220222830772400e-01,-1.420330554246902466e-01,-5.715051665902137756e-02,4.989686980843544006e-02,1.840452998876571655e-01,-8.795621246099472046e-02,-2.361731529235839844e-01,1.769949868321418762e-02,1.177044391632080078e+00,-5.243414267897605896e-02,-1.241754069924354553e-01,-1.458383947610855103e-01,-1.540815830230712891e-01,-1.034267619252204895e-01,2.354755103588104248e-01,1.517685800790786743e-01,-2.468219399452209473e-02,-1.695113182067871094e-01,1.055435299873352051e+00
-1.224718913435935974e-01,-4.187986627221107483e-02,6.586634516716003418e-01,6.101535558700561523e-01,3.278650939464569092e-01,1.456164270639419556e-01,-5.200128536671400070e-03,4.644383192062377930e-01,7.203580439090728760e-02,-8.562199026346206665e-02,6.731878221035003662e-02,5.015017231926321983e-04,2.502174079418182373e-01,4.355340301990509033e-01,-4.881312698125839233e-02,-8.685328066349029541e-02,-1.559547781944274902e-01,-2.360045723617076874e-02,1.268189698457717896e-01,2.955481782555580139e-02,-1.389742940664291382e-01,-7.473018020391464233e-02,-9.928845614194869995e-02,4.505217820405960083e-02,1.887144148349761963e-01,6.285756826400756836e-01,1.264421045780181885e-01,2.919219620525836945e-02,1.032210141420364380e-01,-6.396486759185791016e-01,2.026930898427963257e-01,-1.811546832323074341e-02,9.811010956764221191e-02,1.285689324140548706e-02,8.197861164808273315e-02,6.046415492892265320e-02,-1.584929041564464569e-02,1.360130310058593750e-01,-1.780796349048614502e-01,-9.238864295184612274e-03
2.966043353080749512e-02,1.585114151239395142e-01,5.795707702636718750e-01,3.850542902946472168e-01,-9.961224347352981567e-02,8.767077326774597168e-02,2.203002572059631348e-01,3.142660558223724365e-01,5.399122461676597595e-02,1.550685167312622070e-01,2.913962677121162415e-02,3.259347751736640930e-02,3.703906834125518799e-01,7.071475386619567871e-01,4.009862244129180908e-02,2.571489289402961731e-02,-5.379438400268554688e-01,-1.250915080308914185e-01,-1.629600487649440765e-02,-2.200025320053100586e-01,-1.779073476791381836e-01,1.580340601503849030e-02,1.026380732655525208e-01,7.492399215698242188e-02,5.979042053222656250e-01,3.817410171031951904e-01,9.816271066665649414e-02,-3.318082168698310852e-02,-1.257861554622650146e-01,-2.704481482505798340e-01,1.005093157291412354e-01,6.276025623083114624e-02,1.499219387769699097e-01,2.732444405555725098e-01,1.798169314861297607e-01,-3.415744304656982422e-01,-1.024881973862648010e-01,2.744570374488830566e-01,-8.310310542583465576e-02,-8.658397942781448364e-02
-1.498397439718246460e-02,-8.331090211868286133e-03,-5.962439253926277161e-02,-2.389876917004585266e-02,-1.111166998744010925e-01,1.501279324293136597e-01,6.130381673574447632e-02,7.876131683588027954e-02,-1.352178305387496948e-01,-1.237026080489158630e-01,1.129955276846885681e-01,-9.849417209625244141e-02,-1.507125794887542725e-01,7.022704929113388062e-02,-1.133609637618064880e-01,4.013289883732795715e-02,-1.311066150665283203e-01,1.455694288015365601e-01,-1.284599900245666504e-01,-9.632184356451034546e-02,-1.485624015331268311e-01,-1.394647359848022461e-01,-5.815871059894561768e-03,1.830292865633964539e-02,8.244209922850131989e-03,1.400136500597000122e-01,2.956371987238526344e-03,1.549903955310583115e-02,5.665255710482597351e-02,6.919951736927032471e-02,-8.606981486082077026e-02,-1.193901896476745605e-01,-1.411687433719635010e-01,1.574826985597610474e-01,9.432378411293029785e-02,4.221317544579505920e-02,-2.085127681493759155e-02,-9.391952306032180786e-03,-7.203070819377899170e-02,1.363186631351709366e-02
