1.010035648941993713e-01
1.448328942060470581e-01
7.682631909847259521e-02
7.689836621284484863e-02
-6.217532604932785034e-02
1.363690048456192017e-01
-3.527284413576126099e-02
9.707352519035339355e-02
2.514845505356788635e-02
9.338562935590744019e-02
1.876360625028610229e-01
2.076172381639480591e-01
1.466307193040847778e-01
1.132454872131347656e-01
1.694712340831756592e-01
2.372374683618545532e-01
-3.818824887275695801e-02
1.945034712553024292e-01
-3.839633660390973091e-03
2.455437183380126953e-01
2.908077463507652283e-02
1.021692603826522827e-01
1.527436971664428711e-01
1.704598367214202881e-01
1.536635309457778931e-01
2.073964178562164307e-01
5.212666839361190796e-02
-1.368587315082550049e-01
1.828333139419555664e-01
1.552392840385437012e-01
-8.138488233089447021e-02
-1.002827435731887817e-01
2.058880925178527832e-01
1.753534376621246338e-01
1.488422006368637085e-01
2.031412720680236816e-01
4.955497756600379944e-02
-2.827279386110603809e-04
-8.763678371906280518e-02
-8.070591092109680176e-02
