-7.061264514923095703e-01,-6.303589791059494019e-02,2.713293135166168213e-01,-8.969027549028396606e-02,7.269093301147222519e-03,5.992356687784194946e-02,5.819845199584960938e-02,1.545326411724090576e-01,1.563780605792999268e-01,-3.914016112685203552e-02,-9.205140173435211182e-02,-1.041336134076118469e-01,-1.907776147127151489e-01,1.332982182502746582e-01,-2.407230883836746216e-01,1.687634289264678955e-01,-1.402270793914794922e-01,-8.446233272552490234e-01,7.787366211414337158e-02,-4.840630292892456055e-02,-1.428070664405822754e-01,-4.822054132819175720e-02,-1.348197925835847855e-03,2.654685974121093750e-01,-1.355717703700065613e-02,-5.977876186370849609e-01,3.625597059726715088e-01,-8.224980905652046204e-03,2.417435124516487122e-02,2.749088108539581299e-01,1.330563575029373169e-01,2.160240560770034790e-01,-2.573972754180431366e-02,-1.126186773180961609e-01,1.409972012042999268e-01,3.908235728740692139e-01,-3.775575459003448486e-01,-1.079835146665573120e-01,-1.547144800424575806e-01,1.637807674705982208e-02
-4.720256924629211426e-01,-9.539750404655933380e-03,2.183541469275951385e-02,-1.368853300809860229e-01,-1.434814333915710449e-01,-1.959206312894821167e-01,1.325757801532745361e-01,5.215214192867279053e-02,-1.385584473609924316e-02,5.609500780701637268e-02,9.684336930513381958e-02,-8.462908677756786346e-03,-2.246829569339752197e-01,1.706191450357437134e-01,1.023525521159172058e-01,2.902188301086425781e-01,7.832770794630050659e-02,-2.016972303390502930e-01,-2.367212623357772827e-01,-2.317774482071399689e-02,4.629110172390937805e-02,3.394120559096336365e-02,-1.549734175205230713e-02,3.036335483193397522e-02,-1.166293844580650330e-01,-6.272073984146118164e-01,2.510772943496704102e-01,-1.871973127126693726e-01,1.331847161054611206e-01,2.045132070779800415e-01,7.046145200729370117e-02,6.235959753394126892e-02,-1.643406599760055542e-01,-1.044846624135971069e-01,2.175554335117340088e-01,6.869049370288848877e-02,-2.671758830547332764e-01,-1.237441878765821457e-02,5.797721911221742630e-03,8.407545834779739380e-02
1.477103680372238159e-01,1.993244141340255737e-02,-2.610134780406951904e-01,1.897235065698623657e-01,2.977507561445236206e-02,-4.693139344453811646e-02,5.768342688679695129e-02,1.507833041250705719e-02,-4.332909360527992249e-02,-3.593643428757786751e-03,-5.697401985526084900e-02,5.030360072851181030e-02,-1.684946268796920776e-01,1.016400903463363647e-01,1.101928353309631348e-01,9.135264158248901367e-02,8.887301385402679443e-02,1.121313810348510742e+00,-4.157429095357656479e-03,-5.180532578378915787e-03,7.518318295478820801e-02,3.278670832514762878e-02,-9.623377770185470581e-02,7.493172585964202881e-02,1.290053427219390869e-01,5.799889564514160156e-01,-4.178272094577550888e-03,1.921689324080944061e-02,9.235726296901702881e-02,2.340316306799650192e-03,9.647104889154434204e-02,1.851076334714889526e-01,-6.697006523609161377e-02,9.278360009193420410e-02,2.976740300655364990e-01,2.885849177837371826e-01,4.003976285457611084e-01,-2.065863609313964844e-01,4.627030342817306519e-02,-9.009235352277755737e-02
-5.359955877065658569e-02,-3.455781936645507812e-02,2.471145540475845337e-01,-2.503352463245391846e-01,8.628007769584655762e-02,-5.920069664716720581e-02,-1.923376228660345078e-03,9.344053268432617188e-02,-5.689331330358982086e-03,-1.185836046934127808e-01,-1.046105995774269104e-01,8.213826268911361694e-02,6.078945472836494446e-02,1.783877313137054443e-01,-1.602106392383575439e-01,-1.415258496999740601e-01,-5.670957267284393311e-02,-6.569298505783081055e-01,1.252467185258865356e-01,-2.169795334339141846e-02,1.542876064777374268e-01,9.149436652660369873e-02,2.446250431239604950e-02,-4.041978716850280762e-02,6.656368821859359741e-02,-6.031273603439331055e-01,2.186109125614166260e-01,5.738017335534095764e-02,-7.619623839855194092e-02,1.250085532665252686e-01,1.283605992794036865e-01,-5.378953181207180023e-03,2.458292432129383087e-02,1.434651762247085571e-01,4.631492495536804199e-02,-1.584244705736637115e-02,-2.291176468133926392e-01,9.172523766756057739e-02,1.596055626869201660e-01,-5.639912560582160950e-02
-1.619597077369689941e-01,-7.730217278003692627e-02,-7.289437577128410339e-03,-4.412039741873741150e-02,1.508395071141421795e-03,1.244514063000679016e-01,2.162180654704570770e-02,-1.511629372835159302e-01,9.490963071584701538e-02,1.154220625758171082e-01,-4.392235353589057922e-02,-9.624113887548446655e-02,-7.548841182142496109e-03,5.746068060398101807e-02,-5.185229703783988953e-02,1.356852054595947266e-01,2.652388624846935272e-02,-1.019808277487754822e-01,5.636086314916610718e-02,-2.190029434859752655e-02,-6.570316851139068604e-03,-2.389499172568321228e-02,6.915605068206787109e-02,-9.059409797191619873e-02,1.587984897196292877e-02,1.507563292980194092e-01,-5.199324712157249451e-02,1.107585951685905457e-01,-1.238226667046546936e-01,-6.255621463060379028e-02,-1.324529200792312622e-01,-1.182737350463867188e-01,-1.401588767766952515e-01,-1.075268462300300598e-01,-2.530094608664512634e-02,5.445947870612144470e-02,1.254037320613861084e-01,1.141893193125724792e-01,-7.702233642339706421e-02,1.697399467229843140e-02
-5.550451204180717468e-02,-8.661937713623046875e-02,-4.969021677970886230e-02,1.227984949946403503e-01,-7.665558904409408569e-02,1.543394029140472412e-01,1.327904611825942993e-01,1.481238305568695068e-01,-4.583805426955223083e-02,-1.184128075838088989e-01,-1.335400491952896118e-01,7.822714745998382568e-03,-3.425705805420875549e-02,6.004032120108604431e-02,2.261180058121681213e-02,1.641476340591907501e-02,1.280985865741968155e-02,7.293982505798339844e-01,-9.576916345395147800e-04,1.472431272268295288e-01,4.463777318596839905e-02,5.939513072371482849e-02,-1.285238564014434814e-01,7.472390681505203247e-02,-5.779945477843284607e-02,5.655402541160583496e-01,-1.246272325515747070e-01,1.391849014908075333e-02,-1.320971250534057617e-01,3.224351094104349613e-04,9.549281001091003418e-02,7.050579786300659180e-02,1.045083403587341309e-01,-7.625702023506164551e-02,2.586039900779724121e-01,-5.152530223131179810e-02,3.368564248085021973e-01,7.393696159124374390e-02,-4.674210399389266968e-02,-1.241928189992904663e-01
8.059416711330413818e-02,1.555430144071578979e-01,7.337027043104171753e-02,3.384546190500259399e-02,7.457146793603897095e-02,9.522106498479843140e-02,4.787442460656166077e-02,-5.175818689167499542e-03,1.368519514799118042e-01,1.548095047473907471e-01,6.157196685671806335e-02,4.537528380751609802e-03,1.115033123642206192e-02,5.980801582336425781e-02,1.996622830629348755e-01,1.343702673912048340e-01,-1.397068053483963013e-01,7.691733837127685547e-01,-6.405325233936309814e-02,-2.406380884349346161e-02,1.031271517276763916e-01,1.217689663171768188e-01,5.604549124836921692e-02,1.061430200934410095e-01,4.914076998829841614e-02,5.116627812385559082e-01,6.622618436813354492e-02,1.089982539415359497e-01,1.230168938636779785e-01,-1.558497846126556396e-01,1.340040564537048340e-01,-6.163143739104270935e-02,-9.626192599534988403e-02,-8.664362877607345581e-02,1.331860721111297607e-01,5.146025121212005615e-02,3.144201338291168213e-01,1.172490268945693970e-01,-5.778079107403755188e-02,-1.047024205327033997e-01
9.170356988906860352e-01,1.973788440227508545e-02,-6.963480114936828613e-01,-1.785773634910583496e-01,-5.970515012741088867e-01,-2.839173674583435059e-01,-5.639570578932762146e-02,-7.742655277252197266e-02,4.797658324241638184e-02,4.460769146680831909e-02,-4.644256830215454102e-02,-1.139084398746490479e-01,-4.451390802860260010e-01,3.449902534484863281e-01,-1.049539446830749512e+00,4.552941024303436279e-02,-8.153939992189407349e-02,1.210292696952819824e+00,-1.068461656570434570e+00,-6.473839282989501953e-01,-1.442645192146301270e-01,1.074991822242736816e-01,-3.358021751046180725e-02,3.519512712955474854e-01,-9.609050154685974121e-01,-2.254843235015869141e+00,3.905857801437377930e-01,-6.399892568588256836e-01,-6.344600766897201538e-02,7.648985832929611206e-02,1.315959095954895020e-01,3.918822705745697021e-01,-1.017616033554077148e+00,-5.905823111534118652e-01,4.627731442451477051e-01,2.309987992048263550e-01,1.545869827270507812e+00,-1.150748014450073242e+00,-1.035507440567016602e+00,4.979604110121726990e-02
8.704659342765808105e-01,1.567123085260391235e-01,2.230299264192581177e-01,8.694273233413696289e-02,-1.118447110056877136e-01,-2.059022933244705200e-01,-1.392475217580795288e-01,3.296640887856483459e-02,7.557925581932067871e-02,1.471162587404251099e-01,-5.825776979327201843e-02,1.436550468206405640e-01,-3.376267254352569580e-01,1.894069612026214600e-01,-5.560142993927001953e-01,1.757047027349472046e-01,1.148874238133430481e-01,-7.955315113067626953e-01,-1.554151028394699097e-01,-2.280787825584411621e-01,-7.462856173515319824e-02,6.610873341560363770e-02,-1.475864052772521973e-01,1.214806735515594482e-02,1.667612791061401367e-01,-6.410470008850097656e-01,2.087455391883850098e-01,2.620753943920135498e-01,9.800487011671066284e-02,7.512091845273971558e-02,1.206802874803543091e-01,2.234483957290649414e-01,-1.811938434839248657e-01,-2.416095733642578125e-01,-2.517685666680335999e-02,9.218542277812957764e-02,2.332541704177856445e+00,2.996786497533321381e-02,-6.286938190460205078e-01,-1.350403130054473877e-01
4.876174330711364746e-01,-6.501447409391403198e-02,-1.685146428644657135e-02,3.686887025833129883e-02,7.000948488712310791e-02,3.214570507407188416e-02,1.328153014183044434e-01,5.521734803915023804e-02,1.536721289157867432e-01,-6.814548373222351074e-02,-1.285758465528488159e-01,8.355943113565444946e-02,-5.205537676811218262e-01,1.501686424016952515e-01,-6.476633548736572266e-01,3.235667198896408081e-02,6.765123456716537476e-02,-4.409013986587524414e-01,-3.583365082740783691e-01,-8.424601703882217407e-02,-1.173255667090415955e-01,-1.531940847635269165e-01,-4.749385640025138855e-02,2.532661259174346924e-01,-2.019603848457336426e-01,-4.545998573303222656e-01,3.372153937816619873e-01,-1.669765263795852661e-01,-1.095380559563636780e-01,2.385409772396087646e-01,-1.054002940654754639e-01,1.195564493536949158e-01,-3.878056406974792480e-01,-4.225911796092987061e-01,8.193883299827575684e-02,3.382136225700378418e-01,2.026517242193222046e-01,-1.871794015169143677e-01,-9.494497179985046387e-01,-1.017819643020629883e-01
-4.935040473937988281e-01,2.884389087557792664e-02,-1.258839038200676441e-03,-1.225562989711761475e-01,-4.189162328839302063e-02,-1.208191514015197754e-01,1.888021826744079590e-02,-2.482568100094795227e-02,8.360685408115386963e-02,-9.335223585367202759e-02,1.015567258000373840e-01,6.168395653367042542e-02,-2.334170192480087280e-01,-3.529913024976849556e-03,-3.128075599670410156e-01,1.543574482202529907e-01,-7.887198030948638916e-02,-7.299977540969848633e-01,-2.187369614839553833e-01,-1.538667678833007812e-01,5.814410746097564697e-02,1.180666387081146240e-01,-1.891694031655788422e-02,1.546813081949949265e-02,8.645137399435043335e-02,-4.839337170124053955e-01,7.472098805010318756e-03,8.166758716106414795e-02,1.022659838199615479e-01,2.605211436748504639e-01,1.392946243286132812e-01,1.244548484683036804e-01,7.613969035446643829e-03,-2.585843801498413086e-01,1.827878654003143311e-01,8.215872943401336670e-02,2.527390718460083008e-01,6.496166437864303589e-02,-3.537035584449768066e-01,1.514486372470855713e-01
4.557888507843017578e-01,2.255607768893241882e-02,-2.564335167407989502e-01,-3.211157023906707764e-02,1.003316938877105713e-01,2.995734475553035736e-02,-1.663482747972011566e-02,1.400491148233413696e-01,2.736964449286460876e-02,-1.101416349411010742e-01,4.510112851858139038e-02,-1.429201960563659668e-01,-4.059321880340576172e-01,2.762998938560485840e-01,-5.691532492637634277e-01,2.494933828711509705e-02,-7.115899771451950073e-02,7.426815629005432129e-01,-2.846579551696777344e-01,-7.339547574520111084e-02,-5.668593943119049072e-02,-1.339790672063827515e-01,9.942731820046901703e-03,1.576322168111801147e-01,-1.336828172206878662e-01,-5.582118630409240723e-01,7.054683566093444824e-02,8.374087512493133545e-02,-1.595388799905776978e-01,1.364789903163909912e-01,9.371281601488590240e-03,1.779260933399200439e-01,-3.424745500087738037e-01,-3.216210603713989258e-01,1.824426651000976562e-01,2.135225236415863037e-01,5.984733104705810547e-01,-3.268937766551971436e-01,-8.456181287765502930e-01,-1.233897358179092407e-01
-1.702521368861198425e-02,6.633725762367248535e-02,-2.290500104427337646e-01,1.227761656045913696e-01,-4.790499433875083923e-02,2.990723028779029846e-02,1.253774464130401611e-01,-7.379616796970367432e-02,-9.814611077308654785e-02,1.350056529045104980e-01,-6.030472926795482635e-03,7.710606604814529419e-02,1.956552453339099884e-02,-8.428518176078796387e-01,-8.197052031755447388e-02,2.194173336029052734e-01,-1.541304886341094971e-01,9.869465827941894531e-01,1.031487137079238892e-01,-1.441970914602279663e-01,-3.828010708093643188e-02,1.355331689119338989e-01,-1.375290304422378540e-01,-1.379340767860412598e+00,-2.204112242907285690e-03,-4.440151527523994446e-02,-6.649130582809448242e-01,-2.306414246559143066e-01,-2.329923026263713837e-02,-5.432394742965698242e-01,3.649896755814552307e-02,6.630105972290039062e-01,1.270053088665008545e-01,-1.208160910755395889e-02,1.296656608581542969e+00,7.357842922210693359e-01,1.442052006721496582e+00,-9.552165865898132324e-02,2.782102487981319427e-02,-3.756641969084739685e-02
-7.882816791534423828e-01,-8.559112437069416046e-03,-1.031048297882080078e-01,-9.448166936635971069e-02,-1.097807288169860840e-01,-9.539062529802322388e-02,-1.106799468398094177e-01,-8.378392085433006287e-03,2.146828547120094299e-02,6.249511986970901489e-02,-1.000154688954353333e-01,7.634337991476058960e-02,-2.692989110946655273e-01,1.856061965227127075e-01,-4.981985781341791153e-03,1.320129167288541794e-02,-1.003614664077758789e-01,-3.366563618183135986e-01,-4.249558225274085999e-02,-1.535425335168838501e-01,-1.513720750808715820e-01,1.502157300710678101e-01,-6.464957445859909058e-02,2.331382036209106445e-01,-9.158391505479812622e-02,-4.141251742839813232e-01,1.694350242614746094e-01,-1.327166110277175903e-01,-2.807484753429889679e-02,2.589899897575378418e-01,7.157031446695327759e-02,2.996573150157928467e-01,-1.407558917999267578e-01,-2.678453922271728516e-01,1.653465032577514648e-01,9.362262487411499023e-02,-4.256188869476318359e-01,-1.137677505612373352e-01,-1.608255058526992798e-01,-3.133304184302687645e-03
1.721273809671401978e-01,8.839873969554901123e-02,-1.888268254697322845e-02,2.984717255458235741e-03,-1.369656156748533249e-02,1.611570715904235840e-01,1.553727872669696808e-02,8.674152940511703491e-02,-4.467750433832406998e-03,4.576799646019935608e-02,-1.211100742220878601e-01,1.122886091470718384e-01,4.337432235479354858e-02,-4.781085252761840820e-02,2.059403955936431885e-01,1.768681034445762634e-02,-9.627208113670349121e-03,6.511904001235961914e-01,1.336636394262313843e-02,-6.131673604249954224e-02,-7.551278918981552124e-02,4.456456378102302551e-02,1.191436350345611572e-01,-7.720791548490524292e-02,1.913070976734161377e-01,4.759803414344787598e-01,9.075890295207500458e-03,1.100338548421859741e-01,-7.997352629899978638e-02,-5.673582479357719421e-02,-1.280617713928222656e-01,1.301084905862808228e-01,-1.565653979778289795e-01,1.760766096413135529e-02,1.940682530403137207e-01,1.105118691921234131e-01,4.792462885379791260e-01,-3.492852672934532166e-02,-1.470219343900680542e-01,1.239439547061920166e-01
1.900407485663890839e-02,1.514732837677001953e-01,-1.076764911413192749e-01,2.486290782690048218e-01,2.542347833514213562e-02,-1.528927125036716461e-02,7.138616591691970825e-02,1.534223258495330811e-01,-8.659236133098602295e-02,-1.208070758730173111e-02,7.917859405279159546e-02,8.482873439788818359e-02,-1.271259970963001251e-02,6.162009015679359436e-02,-4.429518431425094604e-02,1.588207781314849854e-01,6.861019413918256760e-03,9.860171079635620117e-01,-4.624834400601685047e-04,7.350513339042663574e-02,4.151304438710212708e-02,1.200186237692832947e-01,-4.790897667407989502e-02,4.073849692940711975e-02,2.014761120080947876e-01,4.563747942447662354e-01,7.902397960424423218e-02,-5.227806046605110168e-02,-7.067523151636123657e-02,7.325056474655866623e-03,-2.121478877961635590e-02,1.941752135753631592e-01,8.059798926115036011e-02,-5.872239544987678528e-02,1.860035061836242676e-01,1.449133455753326416e-01,2.404675245285034180e+00,-4.586119577288627625e-02,-1.535989493131637573e-01,1.820579171180725098e-02
-7.104776501655578613e-01,-3.148937225341796875e-02,-1.322081964462995529e-02,-9.964668005704879761e-02,1.531295129097998142e-03,-1.203567758202552795e-01,-1.180361285805702209e-01,-1.174048259854316711e-01,1.570211499929428101e-01,1.494818925857543945e-01,5.239782854914665222e-02,-7.257685065269470215e-02,-3.249939680099487305e-01,1.989801526069641113e-01,-2.248226404190063477e-01,1.812640279531478882e-01,1.965071074664592743e-02,-3.835865855216979980e-01,-2.770236730575561523e-01,-2.201283127069473267e-01,9.044481813907623291e-02,-1.467906385660171509e-01,-1.631698161363601685e-01,2.462453544139862061e-01,-1.884635835886001587e-01,-5.564460754394531250e-01,8.389900624752044678e-02,9.180934727191925049e-02,-4.402195103466510773e-03,1.956383138895034790e-01,6.655983626842498779e-02,2.672485113143920898e-01,-1.642845571041107178e-01,-7.037899643182754517e-02,1.397671550512313843e-01,2.698353230953216553e-01,-1.563564389944076538e-01,5.865305289626121521e-02,-2.896761298179626465e-01,9.115669876337051392e-02
1.862969547510147095e-01,-5.363984778523445129e-02,2.708718553185462952e-02,1.302438825368881226e-01,1.864591613411903381e-02,1.198107674717903137e-01,-1.384268999099731445e-01,1.117592975497245789e-01,-8.275361359119415283e-02,1.058952999301254749e-03,-3.180010244250297546e-02,-5.667636170983314514e-03,-2.216633968055248260e-02,-1.119444593787193298e-01,5.103636160492897034e-02,3.271593451499938965e-01,3.186020255088806152e-02,8.502449393272399902e-01,-7.412780821323394775e-02,1.205657869577407837e-01,-3.305742889642715454e-02,-8.294558525085449219e-02,5.884077772498130798e-02,8.339998126029968262e-02,1.387316435575485229e-01,5.368802547454833984e-01,-1.429463326930999756e-01,1.496819127351045609e-02,-8.824802190065383911e-02,5.279948469251394272e-03,-2.695276774466037750e-02,-6.593497097492218018e-02,-8.922322839498519897e-02,3.390171751379966736e-02,1.716836690902709961e-01,-5.072722956538200378e-02,2.609381675720214844e-01,-2.474360540509223938e-02,1.442045718431472778e-01,-9.784309566020965576e-02
-6.281872838735580444e-02,-1.564562022686004639e-01,-1.405097842216491699e-01,-8.208175003528594971e-02,1.516246199607849121e-01,-4.020123556256294250e-02,2.143642120063304901e-02,-7.562772929668426514e-02,-1.472024023532867432e-01,7.462413609027862549e-02,1.418702602386474609e-01,-2.884779311716556549e-02,7.055760361254215240e-03,-5.969683080911636353e-02,1.189040467143058777e-01,6.800174713134765625e-02,-1.166965663433074951e-01,-1.018344163894653320e-01,-1.168894842267036438e-01,-1.026909351348876953e-01,5.921842157840728760e-02,-1.125120222568511963e-01,-1.184017732739448547e-01,4.879006370902061462e-02,-8.726424723863601685e-02,-6.887137424200773239e-03,-8.412335999310016632e-03,5.628613755106925964e-02,-1.358633339405059814e-01,-4.911118373274803162e-02,-7.793265581130981445e-02,5.779944360256195068e-03,-2.679206430912017822e-02,1.126568689942359924e-01,-1.444649547338485718e-01,-2.002350240945816040e-02,6.278002262115478516e-02,6.322611868381500244e-02,-1.418070793151855469e-01,-9.001929312944412231e-02
1.339208185672760010e-01,-1.494830548763275146e-01,-1.971132159233093262e-01,-3.968790173530578613e-03,2.456582337617874146e-02,3.219281509518623352e-02,-8.556757122278213501e-02,-4.030989948660135269e-03,7.455825805664062500e-03,-6.908269971609115601e-02,1.504241675138473511e-01,-5.891792103648185730e-02,1.059136912226676941e-01,4.318730160593986511e-02,1.199575588107109070e-01,7.697059959173202515e-02,-7.210616767406463623e-02,6.550229787826538086e-01,1.029327809810638428e-01,1.372679173946380615e-01,3.797912970185279846e-02,1.045229285955429077e-01,-5.431848391890525818e-02,2.063325643539428711e-01,1.253767497837543488e-02,4.877482950687408447e-01,-5.453516915440559387e-02,-1.201923266053199768e-01,1.095777526497840881e-01,-9.003744274377822876e-02,1.286566909402608871e-02,4.935791715979576111e-02,4.274097830057144165e-02,-1.268586069345474243e-01,1.250611990690231323e-01,4.857499152421951294e-02,5.069104433059692383e-01,-1.171867996454238892e-01,1.165634207427501678e-02,-7.992032915353775024e-02
1.217639539390802383e-02,-1.275804787874221802e-01,-8.994045853614807129e-02,-1.337106972932815552e-01,-1.237986311316490173e-01,-1.557366847991943359e-01,-7.072195410728454590e-02,-1.352851241827011108e-01,-1.726835407316684723e-02,-1.537153869867324829e-01,1.117400005459785461e-01,-2.024972066283226013e-02,6.329195946455001831e-02,-1.179712489247322083e-01,6.394964456558227539e-02,-1.226011291146278381e-01,-8.133722841739654541e-02,-1.422479562461376190e-02,7.172629982233047485e-02,1.095554307103157043e-01,7.994215190410614014e-02,-4.938878118991851807e-02,4.686843976378440857e-02,3.091094084084033966e-02,8.882588590495288372e-04,-1.059758588671684265e-01,-1.461452543735504150e-01,-1.520687788724899292e-01,-1.969600282609462738e-02,5.396461114287376404e-03,-1.372592151165008545e-02,-9.546642005443572998e-02,-6.816105544567108154e-02,-1.687341332435607910e-01,-1.092715561389923096e-01,1.543788611888885498e-01,-6.852349638938903809e-02,7.544488459825515747e-02,1.041556671261787415e-01,-3.956277668476104736e-02
-4.053377509117126465e-01,1.099816858768463135e-01,-4.783967509865760803e-02,-4.551956802606582642e-02,-1.414246857166290283e-01,-2.094554156064987183e-01,2.669150009751319885e-02,-7.627622038125991821e-02,-1.085317134857177734e-01,-1.344179511070251465e-01,-1.181405619718134403e-03,8.356802165508270264e-02,-1.932771801948547363e-01,1.316176652908325195e-01,-2.900850772857666016e-01,3.038952052593231201e-01,-4.913690686225891113e-02,-6.639149785041809082e-01,-1.472603827714920044e-01,-4.656845331192016602e-02,-1.235366314649581909e-01,-4.637467488646507263e-02,3.464661072939634323e-03,2.407106459140777588e-01,-9.448244422674179077e-02,-4.118676781654357910e-01,5.589073151350021362e-02,4.853514581918716431e-02,1.228089630603790283e-02,-3.310171887278556824e-02,4.078535363078117371e-02,2.508285045623779297e-01,-2.046495825052261353e-01,-2.202918231487274170e-01,2.305728197097778320e-01,1.774642914533615112e-01,-1.832444816827774048e-01,-1.935510635375976562e-01,-1.778046041727066040e-01,9.700349718332290649e-02
1.077615246176719666e-01,7.372005842626094818e-03,-7.272896915674209595e-02,3.992787376046180725e-02,8.609917759895324707e-02,1.562465280294418335e-01,9.169193916022777557e-03,-1.138985231518745422e-01,-4.710262641310691833e-02,3.943253681063652039e-02,3.055028244853019714e-02,-4.572656378149986267e-02,1.799997687339782715e-01,-3.837648034095764160e-02,1.319054812192916870e-01,2.368885576725006104e-01,-1.078135445713996887e-01,7.145878076553344727e-01,1.273817420005798340e-01,1.311372816562652588e-01,-8.910253643989562988e-02,9.245123714208602905e-02,-4.114896431565284729e-02,-1.758032143115997314e-01,-7.324829697608947754e-02,6.100178360939025879e-01,-2.134583890438079834e-02,8.778644353151321411e-02,1.486860066652297974e-01,-5.593131482601165771e-02,7.196728885173797607e-02,-4.802491515874862671e-02,9.425651282072067261e-02,4.436419531702995300e-02,2.663806974887847900e-01,1.308886259794235229e-01,2.469250410795211792e-01,1.646437942981719971e-01,8.457014709711074829e-02,4.231505468487739563e-02
-3.946766257286071777e-01,-1.234747692942619324e-01,4.471307247877120972e-02,-8.365227580070495605e-01,-6.854249835014343262e-01,-8.794125318527221680e-01,-8.638753741979598999e-02,-1.119073554873466492e-01,-3.513560444116592407e-02,8.105546236038208008e-02,7.782755792140960693e-02,-4.933016002178192139e-02,-7.477867007255554199e-01,1.462198942899703979e-01,-2.842166125774383545e-01,3.093872666358947754e-01,-2.513172663748264313e-02,-6.265531182289123535e-01,-3.950049579143524170e-01,-4.270540475845336914e-01,-4.383331164717674255e-02,-1.218224242329597473e-01,-8.062034845352172852e-01,2.603477537631988525e-01,-4.982747435569763184e-01,-3.803933262825012207e-01,3.446404933929443359e-01,-6.396547704935073853e-02,7.334981113672256470e-02,3.964465856552124023e-01,-6.589712202548980713e-02,1.516074687242507935e-01,-4.268470108509063721e-01,-3.670096099376678467e-01,1.249488815665245056e-01,4.179501831531524658e-01,1.407413125038146973e+00,-1.071355640888214111e-01,-3.286995291709899902e-01,1.068649515509605408e-01
2.170491367578506470e-01,-8.203877508640289307e-02,-1.747700721025466919e-01,1.803470999002456665e-01,6.787586957216262817e-02,1.500204801559448242e-01,-7.801947742700576782e-02,-1.087520197033882141e-01,-5.381668359041213989e-02,-6.338158249855041504e-02,-5.900553613901138306e-02,4.681895673274993896e-02,1.948670744895935059e-01,-7.870287448167800903e-02,-3.356071934103965759e-02,2.649702131748199463e-01,4.857008904218673706e-02,9.134033918380737305e-01,1.242401152849197388e-01,1.206801384687423706e-01,1.554833054542541504e-01,8.527786284685134888e-02,7.389178872108459473e-02,9.010481648147106171e-03,2.213290706276893616e-02,5.931416153907775879e-01,-1.404176056385040283e-01,8.546003699302673340e-02,-1.291826814413070679e-01,-5.990867689251899719e-02,4.451702907681465149e-02,1.106441840529441833e-01,8.613831363618373871e-03,4.768572747707366943e-02,4.418418556451797485e-02,1.355643570423126221e-01,1.772399991750717163e-01,1.656115055084228516e-01,-8.766898512840270996e-02,2.209316007792949677e-02
-3.746753334999084473e-01,-1.399040818214416504e-01,1.958091408014297485e-01,7.356581836938858032e-02,-8.787191659212112427e-02,-9.863814339041709900e-04,-7.961446046829223633e-02,-8.550278097391128540e-02,-1.307144016027450562e-02,1.118545699864625931e-02,1.052763685584068298e-01,1.039475724101066589e-01,-2.416252046823501587e-01,4.261893779039382935e-02,-2.222341746091842651e-01,1.768661290407180786e-01,3.719089925289154053e-02,-1.753396391868591309e-01,-1.080097183585166931e-01,-1.462172418832778931e-01,-2.278305217623710632e-02,-3.178083151578903198e-02,-2.507857382297515869e-01,2.625367939472198486e-01,-5.699259787797927856e-02,-6.140345931053161621e-01,2.330354005098342896e-01,-6.237698346376419067e-02,-5.051697045564651489e-02,1.822142489254474640e-02,9.283109754323959351e-02,2.622718811035156250e-01,-1.222045198082923889e-01,-1.598319709300994873e-01,1.791838407516479492e-01,1.364207416772842407e-01,-1.023653894662857056e-01,-1.016265377402305603e-01,-1.042946875095367432e-01,5.496545135974884033e-02
1.214355155825614929e-01,-1.122035831212997437e-01,-9.033868461847305298e-02,2.132298499345779419e-01,1.488902717828750610e-01,-1.313931494951248169e-01,8.902380615472793579e-02,-3.153547644615173340e-03,-6.393035501241683960e-02,3.919995948672294617e-02,1.277606636285781860e-01,3.668164834380149841e-02,2.811672724783420563e-02,1.138503011316061020e-02,1.934425556100904942e-03,1.437187343835830688e-01,-1.586573198437690735e-02,7.596688866615295410e-01,-1.118985936045646667e-01,1.184540316462516785e-01,1.384647339582443237e-01,-3.720271587371826172e-02,-1.929537102114409208e-04,-1.447180286049842834e-02,1.747822016477584839e-01,6.083525419235229492e-01,7.050018012523651123e-02,1.560172140598297119e-01,-4.734255839139223099e-03,-1.777042001485824585e-01,-6.211242452263832092e-02,-3.945238422602415085e-03,1.352406293153762817e-01,1.542790234088897705e-01,2.638072371482849121e-01,1.259238868951797485e-01,2.247937619686126709e-01,1.448970139026641846e-01,8.904872089624404907e-02,1.004216596484184265e-01
1.555532217025756836e-01,2.672566100955009460e-02,-7.581640779972076416e-02,-1.593769714236259460e-02,3.149634599685668945e-02,-5.836044996976852417e-02,-7.280652225017547607e-02,3.302512317895889282e-02,1.580808609724044800e-01,1.252381503582000732e-01,6.122056394815444946e-02,6.557068228721618652e-02,-1.566208600997924805e-01,-1.225934848189353943e-01,-6.287360936403274536e-02,-1.044991388916969299e-01,-7.420277222990989685e-03,-4.515337571501731873e-02,-5.240552499890327454e-02,-1.329807788133621216e-01,1.485794782638549805e-01,-7.058718800544738770e-02,1.507777869701385498e-01,3.041858226060867310e-02,-1.486649066209793091e-01,6.716825067996978760e-02,-1.196340397000312805e-01,-4.193930700421333313e-02,1.486358195543289185e-01,-4.767308384180068970e-02,1.076178550720214844e-01,8.035338670015335083e-02,5.287197232246398926e-02,1.647265814244747162e-02,9.131019562482833862e-02,-2.990836836397647858e-02,-7.359731942415237427e-02,1.230430379509925842e-01,-8.721457421779632568e-02,-7.441056519746780396e-02
7.498633861541748047e-02,-1.006140591925941408e-04,-7.155548781156539917e-02,7.559482008218765259e-02,-1.642615944147109985e-01,-5.983017385005950928e-02,-7.454877346754074097e-02,-1.952585577964782715e-02,-4.191259667277336121e-02,-2.147697098553180695e-02,-1.463017314672470093e-01,1.598037034273147583e-02,4.288666415959596634e-03,-1.687489449977874756e-01,8.136627078056335449e-02,-2.514565596356987953e-03,-7.379871606826782227e-02,6.427929997444152832e-01,5.476219952106475830e-02,-1.142202243208885193e-01,-1.492150723934173584e-01,-8.473908901214599609e-02,-1.605293340981006622e-02,7.091223448514938354e-02,-2.718174457550048828e-02,4.805077612400054932e-01,-5.106958746910095215e-02,6.563223898410797119e-03,-4.960866272449493408e-02,-3.878407552838325500e-02,2.559142559766769409e-02,1.526272296905517578e-01,-1.070000347681343555e-03,1.132132783532142639e-01,2.909693419933319092e-01,-1.963777281343936920e-02,2.131651788949966431e-01,-9.769056737422943115e-02,1.396243125200271606e-01,1.086872518062591553e-01
-5.929200053215026855e-01,-2.184746321290731430e-03,8.230585604906082153e-02,-2.373549789190292358e-01,-4.548236727714538574e-02,-1.032680571079254150e-01,-8.133190870285034180e-02,-1.533217281103134155e-01,-4.852206259965896606e-02,-8.059184066951274872e-03,-7.637053728103637695e-02,-3.645934537053108215e-02,-3.113909363746643066e-01,2.378989756107330322e-01,-2.070922404527664185e-01,2.104575335979461670e-01,1.469510793685913086e-01,-3.616369664669036865e-01,-3.100431896746158600e-02,-1.690645664930343628e-01,1.195386275649070740e-01,1.669088937342166901e-02,-2.562604099512100220e-02,2.116134166717529297e-01,-1.899137347936630249e-01,-6.380855441093444824e-01,1.008493304252624512e-01,6.726795434951782227e-02,-8.083029836416244507e-02,5.427027121186256409e-02,1.260806918144226074e-01,1.592657715082168579e-02,9.251219779253005981e-02,1.114348229020833969e-02,2.146453410387039185e-01,2.993161045014858246e-02,-2.775678634643554688e-01,2.443489246070384979e-02,4.420262947678565979e-02,6.827534735202789307e-02
-6.895762868225574493e-03,1.156853437423706055e-01,-1.140415370464324951e-01,1.738549172878265381e-01,8.709640055894851685e-02,1.883025653660297394e-02,2.663797466084361076e-03,1.616601087152957916e-02,1.321179866790771484e-01,1.486904174089431763e-01,-1.245398074388504028e-01,1.255066394805908203e-01,-4.023141413927078247e-02,4.259860888123512268e-02,-5.706223100423812866e-02,1.823293566703796387e-01,-1.358289867639541626e-01,8.367326855659484863e-01,3.573122667148709297e-04,1.065650135278701782e-01,-1.068642511963844299e-01,8.254913985729217529e-02,4.526426643133163452e-02,6.119794026017189026e-02,-1.461766660213470459e-02,3.736201226711273193e-01,-8.382569253444671631e-02,-3.129203245043754578e-02,1.203373372554779053e-01,7.360747456550598145e-02,1.392551511526107788e-01,8.168219029903411865e-02,5.549224838614463806e-02,-1.914262622594833374e-01,1.818971633911132812e-01,1.060210540890693665e-01,9.719984531402587891e-01,1.171167567372322083e-01,6.929084658622741699e-02,4.617501050233840942e-02
9.103988856077194214e-02,6.126480177044868469e-02,-6.859543174505233765e-02,-9.493388980627059937e-02,-9.684249758720397949e-02,8.430285006761550903e-02,1.432768255472183228e-01,-9.353179484605789185e-02,1.259460151195526123e-01,-1.484424173831939697e-01,6.840334832668304443e-02,-1.272088289260864258e-01,3.770432248711585999e-02,1.389516294002532959e-01,-1.422495394945144653e-01,-1.670266538858413696e-01,1.374379694461822510e-01,6.431036442518234253e-02,-7.773768156766891479e-02,6.762862950563430786e-02,-5.815377458930015564e-02,-1.121810972690582275e-01,-5.095656216144561768e-02,7.615792006254196167e-02,-5.586631968617439270e-02,9.932643175125122070e-02,2.857834845781326294e-02,-1.452604383230209351e-01,5.057432129979133606e-02,1.067248955368995667e-01,-1.525190770626068115e-01,-1.070355772972106934e-01,1.863007782958447933e-03,1.101045757532119751e-01,9.769333899021148682e-02,-1.217423677444458008e-01,-6.625339388847351074e-02,-1.592497378587722778e-01,5.765214562416076660e-02,-6.398800015449523926e-02
-4.112582206726074219e-01,1.557650044560432434e-02,-1.825562864542007446e-01,-3.107404708862304688e-01,5.982005503028631210e-03,6.441526114940643311e-03,-5.966413393616676331e-02,-5.355425551533699036e-02,-8.047002553939819336e-02,-1.234219036996364594e-02,-3.154058009386062622e-02,-8.964481204748153687e-02,-2.498619109392166138e-01,5.863488465547561646e-02,-3.204111456871032715e-01,1.079761013388633728e-01,8.776776492595672607e-02,-3.243509531021118164e-01,-6.367152929306030273e-02,-1.062675118446350098e-01,-6.763602048158645630e-02,-1.489798128604888916e-01,-2.427502721548080444e-01,2.319639176130294800e-01,-1.297122091054916382e-01,-4.875376224517822266e-01,3.152963519096374512e-02,-2.172588184475898743e-02,-5.285345017910003662e-03,2.078680545091629028e-01,-1.363500505685806274e-01,2.494457215070724487e-01,-2.283962070941925049e-02,-7.670438289642333984e-02,1.599345654249191284e-01,2.108517289161682129e-01,-1.956604719161987305e-01,-2.016969025135040283e-01,-2.065180838108062744e-01,1.063238903880119324e-01
-1.104011058807373047e+00,9.525401145219802856e-02,-1.615771502256393433e-01,-6.919039878994226456e-03,-2.604660205543041229e-02,-6.846570968627929688e-02,8.000027388334274292e-02,4.740443453192710876e-02,8.232936263084411621e-03,-9.856498241424560547e-02,9.611424803733825684e-02,7.530749589204788208e-02,-5.257241129875183105e-01,1.781444847583770752e-01,-1.141079142689704895e-01,3.677693009376525879e-02,-1.166415512561798096e-01,-8.073877096176147461e-01,-2.729446589946746826e-01,-2.876582443714141846e-01,-6.604596972465515137e-02,1.576712280511856079e-01,-3.572517633438110352e-02,2.989093363285064697e-01,-2.525428831577301025e-01,-6.669375896453857422e-01,5.231403559446334839e-02,4.052979871630668640e-02,7.318005710840225220e-02,4.882442578673362732e-02,2.865841984748840332e-02,3.047308027744293213e-01,2.306650765240192413e-02,-1.071825921535491943e-01,2.968315184116363525e-01,2.229419648647308350e-01,4.582803845405578613e-01,-6.541547924280166626e-02,-2.429970502853393555e-01,6.316518038511276245e-02
1.458867490291595459e-01,-8.482503890991210938e-02,-2.914901264011859894e-02,1.777082681655883789e-01,-4.631931707262992859e-02,-1.417270004749298096e-01,-2.953300811350345612e-02,2.955129928886890411e-02,-1.254282742738723755e-01,-5.256913136690855026e-04,-2.812920697033405304e-02,1.086123660206794739e-01,1.263724714517593384e-01,5.604087933897972107e-02,1.421588659286499023e-01,3.768816217780113220e-02,7.233498990535736084e-02,8.790409564971923828e-01,-2.543879300355911255e-02,6.839378178119659424e-02,-2.311901189386844635e-02,2.202437631785869598e-02,6.700532138347625732e-02,8.529642969369888306e-02,1.411824673414230347e-01,6.054461002349853516e-01,-7.961160689592361450e-02,1.085944399237632751e-01,1.623065769672393799e-01,1.177732422947883606e-01,-5.982661247253417969e-02,-6.860327720642089844e-02,7.598958909511566162e-02,-1.222376972436904907e-01,2.507932782173156738e-01,-1.022730395197868347e-01,2.449388056993484497e-01,-3.549237549304962158e-02,-3.636159747838973999e-02,-8.023050427436828613e-02
-6.944943964481353760e-02,6.181159988045692444e-02,-4.714395478367805481e-02,1.073059812188148499e-01,1.464808010496199131e-03,2.596787177026271820e-02,1.005151569843292236e-01,1.532611995935440063e-01,-6.622834503650665283e-02,-1.335560232400894165e-01,1.021818742156028748e-01,-1.371201425790786743e-01,1.939759850502014160e-01,4.974813200533390045e-04,8.827681094408035278e-02,5.427123978734016418e-02,-3.823494538664817810e-02,5.808148980140686035e-01,1.079395785927772522e-01,-2.055386267602443695e-02,-1.291551142930984497e-01,1.367685794830322266e-01,-9.420435130596160889e-02,-1.002897135913372040e-02,-7.289632409811019897e-02,4.706838130950927734e-01,-1.505918949842453003e-01,4.326509684324264526e-02,2.621339634060859680e-02,9.565947577357292175e-03,-1.753174513578414917e-02,1.191917881369590759e-01,1.111592128872871399e-01,1.266825944185256958e-01,9.330621361732482910e-02,-7.825721055269241333e-02,4.868392944335937500e-01,-1.112187001854181290e-02,-1.240598037838935852e-01,4.238311573863029480e-02
2.441343963146209717e-01,6.816406548023223877e-02,8.595240861177444458e-02,2.571472227573394775e-01,-9.321339428424835205e-02,-1.290467232465744019e-01,4.118613898754119873e-02,1.027203574776649475e-01,1.121268123388290405e-01,-8.593447506427764893e-02,-6.832101941108703613e-02,1.128545030951499939e-01,6.574252154678106308e-03,-1.281048208475112915e-01,1.125741824507713318e-01,1.842346191406250000e-01,-1.315532475709915161e-01,7.726225852966308594e-01,-9.878468513488769531e-02,-1.069464161992073059e-01,1.399718523025512695e-01,8.913719654083251953e-02,1.005282253026962280e-01,-1.682511717081069946e-02,1.290067434310913086e-01,6.247003078460693359e-01,1.064525097608566284e-01,-2.697010524570941925e-02,1.259199976921081543e-01,-4.046636447310447693e-02,2.742477692663669586e-02,1.172318384051322937e-01,-6.770271062850952148e-02,-4.177027195692062378e-02,3.554037511348724365e-01,-5.118799209594726562e-02,3.491541147232055664e-01,1.370594948530197144e-01,-1.421661078929901123e-01,5.268895067274570465e-03
1.714307218790054321e-01,-6.536413729190826416e-02,-2.016506195068359375e-01,-3.496527969837188721e-01,-3.966755419969558716e-02,9.640370495617389679e-03,-1.349761039018630981e-01,1.318205893039703369e-01,-1.292694807052612305e-01,-2.200159244239330292e-02,1.188433021306991577e-01,-4.350511822849512100e-03,-2.985617816448211670e-01,9.377087466418743134e-03,1.056063026189804077e-01,2.397469133138656616e-01,2.929693646728992462e-02,-3.887523710727691650e-01,-2.070719748735427856e-01,-3.350325226783752441e-01,-3.406051546335220337e-02,9.845664724707603455e-03,-1.828423887491226196e-01,1.916556060314178467e-01,-1.768095344305038452e-01,-3.876447081565856934e-01,8.288107067346572876e-02,-2.128154784440994263e-02,-1.436017453670501709e-01,1.716983616352081299e-01,-1.351730432361364365e-02,2.214034497737884521e-01,2.429149672389030457e-02,-5.159277468919754028e-02,2.542490661144256592e-01,1.741796135902404785e-01,-2.658835351467132568e-01,-3.731022402644157410e-02,-2.022671252489089966e-01,6.831657141447067261e-02
-1.088624596595764160e-01,1.386494040489196777e-01,-6.998206675052642822e-02,9.063370525836944580e-03,-6.424692273139953613e-02,1.700783148407936096e-02,5.123438313603401184e-04,6.781600415706634521e-02,-7.613628357648849487e-02,1.274579167366027832e-01,1.095835678279399872e-02,-1.167155280709266663e-01,-4.774523898959159851e-02,7.736755907535552979e-02,9.811538271605968475e-03,-5.207458743825554848e-04,-4.113262146711349487e-02,6.359360367059707642e-02,8.701360225677490234e-02,1.442453414201736450e-01,-4.929303005337715149e-02,-2.195548452436923981e-02,-1.098240315914154053e-01,-3.299822285771369934e-02,-1.440034061670303345e-01,4.578625783324241638e-02,-1.433946341276168823e-01,-1.992533914744853973e-02,9.056978672742843628e-02,-8.280836790800094604e-02,2.570093609392642975e-02,-5.358774960041046143e-02,1.230607107281684875e-01,1.501920633018016815e-02,3.843147307634353638e-02,1.384823471307754517e-01,1.078606955707073212e-02,4.916338250041007996e-02,-4.317073523998260498e-02,4.497458040714263916e-02
-1.274770498275756836e-01,5.852986499667167664e-02,9.802323579788208008e-02,3.107996098697185516e-02,-1.365660727024078369e-01,-7.376846671104431152e-02,9.151591360569000244e-02,-2.706964872777462006e-02,-6.658095121383666992e-02,1.404950916767120361e-01,7.016286998987197876e-02,7.310994714498519897e-02,-3.248318796977400780e-03,-5.824274197220802307e-02,-1.538754254579544067e-01,-1.353002712130546570e-02,9.943995624780654907e-02,-1.133860126137733459e-01,1.201780289411544800e-01,1.558650732040405273e-01,-8.488848805427551270e-02,9.212674200534820557e-02,-5.256528500467538834e-03,3.216502256691455841e-03,1.461689174175262451e-01,-4.483941569924354553e-02,-1.324702203273773193e-01,2.450302988290786743e-02,1.645558141171932220e-02,5.069205164909362793e-02,-1.107591576874256134e-02,-8.778071403503417969e-02,-1.175467595458030701e-01,1.675448380410671234e-02,-1.163365766406059265e-01,2.678867243230342865e-02,1.444890648126602173e-01,3.965430334210395813e-02,-2.609896240755915642e-03,9.944568574428558350e-02
