1.286002695560455322e-01
2.954077422618865967e-01
9.738942980766296387e-02
-9.083002060651779175e-02
-1.185157671570777893e-01
1.208499521017074585e-01
8.978196978569030762e-02
1.835356503725051880e-01
2.720979452133178711e-01
1.038377955555915833e-01
-5.301428958773612976e-02
1.102556809782981873e-01
1.941224560141563416e-02
-2.140546217560768127e-03
-2.645097300410270691e-02
-9.963995963335037231e-02
-2.961714565753936768e-01
-1.051254943013191223e-01
2.685763537883758545e-01
3.177693784236907959e-01
9.689331799745559692e-02
-1.156240031123161316e-01
1.111574098467826843e-01
2.675655484199523926e-02
1.546477824449539185e-01
1.887090057134628296e-01
-1.438479125499725342e-02
-5.954979360103607178e-02
2.728614583611488342e-02
-9.873487288132309914e-04
1.325521022081375122e-01
-7.125484198331832886e-02
1.903991401195526123e-01
1.262669563293457031e-01
-3.324058055877685547e-01
1.236387044191360474e-01
-1.465681493282318115e-01
-1.140724420547485352e-01
-1.826209872961044312e-01
9.585330262780189514e-03
